2 0.0676055 0.82801 0.0619739 0.0152085 0.0095497 0.00551917 0.00415577 0.00269397 0.00191833 0.00336531 
3 0.295521 0.694906 0.00253704 0.00649609 0.000311138 6.86688e-05 0.000159489 0 0 0 
4 0.297549 0.696717 0.00111736 0.00434802 0.000105762 6.09682e-05 7.08625e-05 2.79991e-07 2.07187e-05 1.03167e-05 
5 0.16881 0.456918 0.338794 0.0291389 0.00209827 0.00149298 0.000993735 0.000596694 0.000420462 0.000736637 
6 0.656144 0.326916 0.0142425 0.00221787 0.000156728 0.000251425 7.00672e-05 1.27996e-06 0 0 
7 0.202656 0.718689 0.0510116 0.0168078 0.00358684 0.00255219 0.00169875 0.00102002 0.000718763 0.00125925 
8 0.113731 0.485107 0.377145 0.0135352 0.00346966 0.00246878 0.00164324 0.000986691 0.000695274 0.0012181 
9 0.118438 0.876254 0.00359273 0.00148064 5.48133e-05 0.000111989 2.20942e-05 1.74491e-05 1.0848e-05 1.74369e-05 
10 0.0651549 0.909502 0.0237307 0.000800077 0.000277432 0.000222935 0.00020448 3.61148e-05 2.57147e-05 4.5111e-05 
11 0.11349 0.774499 0.0693153 0.0208966 0.00882862 0.00481182 0.00266176 0.00176372 0.00140171 0.00233084 
12 0.453095 0.542795 0.00199788 0.00195864 0.000113353 4.93806e-07 2.99298e-07 1.23029e-07 2.42791e-07 3.92276e-05 
13 0.0757557 0.818346 0.0751363 0.0148344 0.0120628 0.00142072 0.000805059 0.000533356 0.000456489 0.000648609 
14 0.183862 0.79124 0.0129394 0.011687 0.000129962 5.15221e-05 4.10086e-05 1.6857e-05 1.55249e-05 1.62092e-05 
15 0.0494518 0.826532 0.0950337 0.0198746 0.00206677 0.00439013 0.000863258 0.000681999 0.000423992 0.000681522 
16 0.0514351 0.927459 0.020451 0.00026564 0.000124368 0.000120922 4.65502e-05 4.43841e-05 2.3496e-05 2.92865e-05 
17 0.281929 0.708308 0.000977834 0.00834862 5.51894e-05 0.000333196 4.06387e-05 0 7.36999e-06 0 
18 0.164477 0.833219 0.00101467 0.00106811 0.000205707 4.74213e-07 1.45406e-05 2.25969e-07 1.39836e-07 2.35792e-07 
19 0.820184 0.173705 0.00581782 0.000212435 3.0942e-05 1.7726e-05 1.09773e-05 7.70943e-06 5.226e-06 8.11752e-06 
20 0.239121 0.759007 0.00137686 0.000414356 2.58182e-05 2.51023e-05 9.66343e-06 9.21375e-06 4.87757e-06 6.07963e-06 
21 0.485403 0.13559 0.378217 0.000354757 0.000139476 0.000135611 5.2205e-05 4.97757e-05 2.63503e-05 3.28442e-05 
22 0.349333 0.539349 0.051747 0.0582793 0.000221282 0.000122546 0.00080316 5.31709e-05 3.60345e-05 5.59723e-05 
23 0.700276 0.296809 0.000665924 0.00215644 3.51043e-05 1.48797e-05 4.25607e-05 0 0 0 
24 0.20469 0.787318 0.00455304 0.00302438 0.000132644 0.000128968 4.96479e-05 4.73375e-05 2.50595e-05 3.12354e-05 
25 0.593872 0.352297 0.0522554 0.000311694 0.00124835 5.32109e-06 3.68784e-06 2.3556e-06 1.45848e-06 2.45931e-06 
26 0.424903 0.57404 0.000509881 0.000500123 1.21497e-06 2.22522e-05 2.3226e-05 0 0 0 
27 0.283971 0.573519 0.0904502 0.0247201 0.0216351 0.000936724 0.00402917 0.000274552 0.000182027 0.000282742 
28 0.0944057 0.901442 0.00345578 0.000649633 1.84263e-05 9.45665e-06 7.15028e-06 4.56723e-06 2.82783e-06 4.7683e-06 
29 0.103691 0.881634 0.0131724 0.000713344 7.84894e-05 0.000620902 2.94976e-05 2.79276e-05 1.47843e-05 1.84278e-05 
30 0.429733 0.567586 0.000694362 0.00190683 6.29702e-05 1.57664e-07 1.25491e-07 3.5066e-07 1.62006e-05 0 
31 0.100219 0.891325 0.00743979 0.0007555 8.31162e-05 8.08009e-05 3.11053e-05 2.96578e-05 1.57002e-05 1.95695e-05 
32 0.247848 0.748505 0.000762214 0.00279024 6.73747e-05 2.40247e-05 1.24275e-06 1.18486e-06 6.2724e-07 7.81821e-07 
33 0.206665 0.648468 0.0590532 0.0457827 0.0107659 0.0038229 0.0212165 0.00143776 0.00101311 0.00177495 
34 0.133635 0.684098 0.0747402 0.0450839 0.0205463 0.0186136 0.00361106 0.00323776 0.0135836 0.00285081 
35 0.148987 0.689628 0.0847018 0.037234 0.00804323 0.00572552 0.0189584 0.00228733 0.00161177 0.00282378 
36 0.227292 0.742499 0.0244988 0.0039634 0.00062736 0.000411178 0.000233317 0.000154574 0.000132297 0.000187976 
37 0.0271716 0.972201 0.000129644 0.000142662 0.000221005 2.00682e-07 6.11105e-05 3.14358e-05 0 4.10824e-05 
38 0.168549 0.679591 0.130763 0.0188238 0.000759318 0.000541331 0.000316681 0.000250188 0.000155539 0.000250013 
39 0.47512 0.497355 0.0263257 0.000673899 0.000363735 6.43681e-07 0.000159847 1.67745e-07 1.53492e-07 1.60257e-07 
40 0.767875 0.227796 0.00404008 2.4797e-05 0.00016374 8.72082e-05 4.10821e-06 3.91703e-06 2.07359e-06 2.58462e-06 
41 0.537732 0.461305 0.000299665 0.000633813 1.277e-05 7.68581e-06 2.95875e-06 2.82106e-06 1.49341e-06 1.86146e-06 
42 0.34003 0.593999 0.0607839 0.00066853 0.00270386 0.00149266 0.000114859 9.45004e-05 5.00266e-05 6.23554e-05 
43 0.146763 0.706334 0.0858378 0.0222036 0.00792316 0.00563767 0.00380054 0.0161795 0.00253869 0.00278163 
44 0.834097 0.146843 0.0168763 0.000264161 0.00121164 0.000429535 4.24736e-07 3.95541e-06 0.000273997 1.72441e-07 
45 0.0580722 0.722235 0.179295 0.0125899 0.00714993 0.0118516 0.00301632 0.0019553 0.00139234 0.00244256 
46 0.304138 0.658681 0.0149564 0.00431038 0.000997356 0.0158814 0.000383365 0.000244874 0.000151615 0.000255655 
47 0.170505 0.633991 0.151321 0.0216096 0.0147652 0.00125701 0.000713254 0.000472535 0.000405885 0.00495916 
48 0.101145 0.658143 0.113344 0.0272103 0.0410664 0.0374105 0.00802645 0.00395396 0.00302067 0.00667983 
49 0.315912 0.536311 0.137338 0.00844655 0.0017333 9.22243e-05 5.71111e-05 4.01096e-05 2.71891e-05 4.22328e-05 
50 0.414268 0.581752 0.00289233 0.00077135 0.000113417 7.43234e-05 4.21737e-05 2.79403e-05 2.39136e-05 3.39779e-05 
51 0.230901 0.746121 0.0210054 0.000601421 0.000888845 0.000177239 0.00010057 6.66283e-05 5.70259e-05 8.1026e-05 
52 0.0819645 0.908224 0.0080454 0.00123864 0.000214929 0.000115975 6.41535e-05 4.2509e-05 3.37838e-05 5.61776e-05 
53 0.262471 0.627266 0.0720041 0.0263954 0.00395703 0.00282762 0.00165417 0.00130685 0.000812454 0.00130593 
54 0.131107 0.820478 0.0318668 0.00778362 0.00182255 0.00499113 0.000642779 0.000425842 0.00036447 0.000517862 
55 0.10727 0.852908 0.0318952 0.00381496 0.00136116 0.000968522 0.000644654 0.000387086 0.000272761 0.00047787 
56 0.0583116 0.844771 0.0721082 0.00917769 0.00439317 0.0023944 0.00132451 0.000877642 0.000705407 0.00593662 
57 0.244622 0.707966 0.0255217 0.0110479 0.00893216 0.000681331 0.00042105 0.000295707 0.000200451 0.00031136 
58 0.596386 0.365993 0.0366179 0.00011457 0.000414421 5.11829e-05 1.95129e-05 1.87992e-05 0.000372891 1.228e-05 
59 0.119171 0.760473 0.056586 0.029818 0.00769864 0.00550157 0.00321956 0.0134111 0.00158081 0.00254089 
60 0.176794 0.722654 0.0819277 0.00501168 0.00382572 0.00208512 0.00115343 0.00076428 0.000607406 0.00517669 
61 0.0808629 0.913434 0.00484442 0.000381452 0.000171478 0.000112388 6.37732e-05 4.22501e-05 3.6161e-05 5.13799e-05 
62 0.291035 0.707685 0.000587041 0.000611831 3.8872e-05 4.55708e-06 1.75366e-06 1.67206e-06 1.18119e-06 3.34524e-05 
63 0.242291 0.744154 0.00930776 0.00292305 0.000438387 0.000311911 0.000207609 0.00012466 8.78422e-05 0.000153897 
64 0.310913 0.589486 0.0972497 0.00174313 0.000223487 0.000141527 8.03072e-05 5.3204e-05 4.55362e-05 6.47008e-05 
65 0.105181 0.840814 0.0391914 0.0144321 0.000126541 0.00011648 4.48405e-05 4.27539e-05 2.26331e-05 2.82109e-05 
66 0.329973 0.617815 0.051844 0.000232457 5.31569e-05 2.73044e-05 2.06452e-05 1.31871e-05 8.16486e-06 1.37676e-05 
67 0.154136 0.806765 0.0348991 0.00073334 0.000350823 0.00271349 0.000133733 0.000122534 6.4867e-05 8.08532e-05 
68 0.119474 0.864936 0.00920617 0.00447519 0.00118298 0.00026679 0.000150995 0.000100035 8.56182e-05 0.000121652 
69 0.0706073 0.393923 0.193962 0.311302 0.0116051 0.00429061 0.00813296 0.00224925 0.00119435 0.00273289 
70 0.153547 0.539736 0.259072 0.0191617 0.011592 0.0035638 0.0090393 0.00163586 0.00101699 0.0016347 
71 0.553367 0.444112 0.00107393 0.00104879 0.000182247 0.000156183 1.96879e-05 1.30433e-05 1.11635e-05 1.58619e-05 
72 0.185096 0.664334 0.0882517 0.0374315 0.00894107 0.00291381 0.009618 0.00116129 0.000818284 0.00143361 
73 0.111716 0.806921 0.0508345 0.0148787 0.00995549 0.00209191 0.00118702 0.000786409 0.000673072 0.000956343 
74 0.737195 0.253029 0.00140766 0.0081131 0.000252157 1.80227e-06 4.69695e-07 1.63936e-07 1.60222e-07 2.41692e-07 
75 0.146814 0.722108 0.0638894 0.0330896 0.0188097 0.0101395 0.00186255 0.00111825 0.000787977 0.00138051 
76 0.144661 0.78929 0.0615694 0.00363742 0.000279118 0.000198384 0.000132045 7.92875e-05 5.58701e-05 9.78828e-05 
77 0.0730858 0.917776 0.00405951 0.0041711 0.000325848 0.000213555 0.000121179 8.02817e-05 6.87115e-05 9.76297e-05 
78 0.289281 0.708153 0.00203763 0.000507201 8.65849e-06 3.84509e-06 2.90731e-06 1.85704e-06 1.1498e-06 1.9388e-06 
79 0.0767753 0.885506 0.031323 0.00308894 0.00109454 0.000778812 0.000518382 0.000311265 0.000219334 0.000384267 
80 0.537945 0.440266 0.0188408 0.0012608 0.000683176 0.000372343 0.00020597 0.000136478 0.000108465 0.000180362 
81 0.105901 0.733227 0.153187 0.00432993 0.00152167 0.000563521 0.000443439 0.00030064 0.000159664 0.00036534 
82 0.232392 0.756791 0.00900652 0.00154783 0.000102969 5.71994e-05 3.54221e-05 2.48772e-05 1.68635e-05 2.61941e-05 
83 0.201093 0.696679 0.0443682 0.0377077 0.00482047 0.00946628 0.00191031 0.0015092 0.000938254 0.00150814 
84 0.137331 0.742282 0.0822845 0.00885237 0.0039941 0.0207664 0.00148022 0.000979436 0.00083828 0.00119108 
85 0.127827 0.859839 0.00905234 0.00157926 0.000563537 0.000400981 0.000266895 0.000160259 0.000112927 0.000197844 
86 0.0617143 0.918636 0.0123228 0.00720946 4.51703e-05 2.56237e-05 1.58681e-05 1.11443e-05 7.55438e-06 1.17342e-05 
87 0.330133 0.345042 0.221849 0.0782019 0.0104911 0.00965169 0.00329218 0.000436186 0.000373323 0.000530441 
88 0.363881 0.590329 0.0236711 0.0171583 0.00400292 0.000437984 0.000168398 0.000160562 8.49982e-05 0.000105946 
89 0.531829 0.454048 0.0114321 0.00112054 0.00140276 8.18648e-05 2.7877e-05 2.65798e-05 1.40708e-05 1.75385e-05 
90 0.566748 0.431628 0.000442364 0.00109237 1.61716e-05 3.58253e-05 9.52684e-07 5.5336e-07 6.30895e-07 3.50424e-05 
91 0.139079 0.85791 0.00133051 0.000870094 0.000805429 3.24042e-06 8.39797e-07 2.93112e-07 2.86471e-07 4.32137e-07 
92 0.120432 0.849488 0.025961 0.00215989 0.00162498 0.00011911 7.37584e-05 5.18011e-05 3.51145e-05 5.45431e-05 
93 0.290785 0.63647 0.0314476 0.0141258 0.023778 0.00155061 0.000596878 0.000569102 0.000301271 0.000375518 
94 0.210424 0.686505 0.0566705 0.0187226 0.0111501 0.0103839 0.00200067 0.00158058 0.000982631 0.00157947 
95 0.172414 0.822923 0.00285861 0.00126858 0.000530857 3.19269e-06 8.33114e-07 2.90779e-07 2.84191e-07 4.28698e-07 
96 0.024287 0.965551 0.00897016 0.000544609 0.000247676 0.000142199 8.80604e-05 6.18456e-05 4.19233e-05 6.51192e-05 
97 0.00741352 0.931272 0.00836219 0.0015882 0.030722 0.0202467 4.76876e-05 0.000294738 1.99159e-05 3.27528e-05 
98 0.335495 0.653817 0.00892109 0.00114136 0.000438978 6.66291e-05 4.12369e-05 2.8961e-05 1.96318e-05 3.0494e-05 
99 0.19007 0.806751 0.00258108 0.000273899 0.000123996 7.11902e-05 4.40862e-05 3.09621e-05 2.09883e-05 3.26011e-05 
100 0.721955 0.273602 0.00353504 0.000783669 8.04956e-05 4.25883e-05 3.19998e-07 1.31534e-07 1.2114e-07 1.26479e-07 
101 0.184316 0.792015 0.0206644 0.00138085 0.00105919 0.000201127 0.00012455 8.74726e-05 5.92951e-05 9.21028e-05 
102 0.38843 0.602762 0.00331638 0.00487211 0.000259026 0.000210124 7.84407e-06 0.000134395 3.4865e-06 4.34572e-06 
103 0.150811 0.761522 0.0833637 0.0019677 0.000894512 0.000513571 0.000318041 0.000223363 0.000151411 0.000235186 
104 0.131998 0.774436 0.0489227 0.0218428 0.014732 0.00252582 0.00189858 0.00123075 0.000876395 0.00153745 
105 0.53407 0.456998 0.00765883 0.00116499 4.40741e-05 2.28455e-05 1.41476e-05 9.936e-06 6.73533e-06 1.0462e-05 
106 0.59859 0.395053 0.00429384 0.0018807 0.000138573 1.99879e-05 7.65446e-06 7.29827e-06 3.86355e-06 4.81571e-06 
107 0.295449 0.62682 0.019745 0.0281404 0.0138804 0.0139422 0.000655112 0.000624625 0.000330664 0.000412154 
108 0.089483 0.757598 0.0673819 0.0347809 0.0127555 0.0219316 0.0055106 0.00356555 0.00253897 0.00445409 
109 0.126165 0.703797 0.0874466 0.0373068 0.0253499 0.00712882 0.00417038 0.00329473 0.0020483 0.00329242 
110 0.20525 0.782535 0.00838216 0.0024153 0.000553107 0.000284107 0.000214817 0.000137214 8.49568e-05 0.000143255 
111 0.167155 0.775989 0.0357229 0.0136443 0.00286774 0.00164645 0.0010196 0.000716075 0.000485406 0.000753979 
112 0.380827 0.612998 0.00437111 0.00156422 5.07664e-05 0.000174857 5.13115e-06 3.27304e-06 2.02653e-06 3.41714e-06 
113 0.0739967 0.673545 0.143494 0.0362936 0.019232 0.0120786 0.00953082 0.0205461 0.00343164 0.00785223 
114 0.451326 0.546334 0.00189654 0.000351079 2.94961e-05 2.86773e-05 1.10397e-05 1.05259e-05 5.57222e-06 6.94547e-06 
115 0.112126 0.65692 0.198452 0.0273095 0.00183871 0.00119939 0.000701652 0.000554326 0.000344619 0.000553938 
116 0.457699 0.48417 0.0563492 8.18404e-05 0.001682 5.90514e-06 4.2451e-06 2.71155e-06 1.67887e-06 2.83093e-06 
117 0.0869842 0.910567 0.0022148 0.000138078 2.21021e-06 8.7604e-07 6.97371e-07 9.17013e-05 2.64116e-07 2.75608e-07 
118 0.262304 0.663862 0.0521862 0.00989495 0.00450009 0.00258366 0.00159999 0.00112369 0.000761714 0.00118317 
119 0.0996864 0.716366 0.100483 0.0298194 0.0171097 0.0118534 0.00913608 0.00450144 0.00343892 0.00760472 
120 0.248265 0.730416 0.0198505 0.000857699 0.000587135 7.94322e-06 6.00452e-06 3.83538e-06 2.3747e-06 4.00423e-06 
121 0.418798 0.558432 0.0182521 0.00392437 3.90954e-05 1.65944e-05 1.25472e-05 8.0145e-06 5.04003e-06 0.000511814 
122 0.100303 0.761233 0.078409 0.0391272 0.0118356 0.00320107 0.00213064 0.00127935 0.0009015 0.0015794 
123 0.411749 0.571282 0.0166371 0.00016219 5.41385e-05 5.26381e-05 2.02637e-05 1.93207e-05 1.0228e-05 1.27486e-05 
124 0.0592527 0.882697 0.0519867 0.00413371 0.000692988 0.000454186 0.000257721 0.000170742 0.000146134 0.000207637 
125 0.15434 0.828015 0.0125793 0.00333808 9.51951e-05 4.88968e-05 3.69714e-05 2.36154e-05 1.46469e-05 0.00150831 
126 0.847231 0.147925 0.00261586 0.000320315 0.00110755 0.000758267 3.61651e-07 1.31438e-07 4.18536e-05 1.25885e-07 
127 0.189355 0.766825 0.0324974 0.00297144 0.00473113 0.00117452 0.000905252 0.000446026 0.000340746 0.000753517 
128 0.234635 0.649632 0.0760292 0.0059526 0.0206498 0.0100713 0.00123274 0.000658015 0.000446049 0.000692846 
129 0.11051 0.807641 0.0667369 0.00707844 0.00158453 0.00465906 0.000591494 0.000390355 0.000334097 0.000474707 
130 0.163328 0.686585 0.10757 0.0262812 0.00583351 0.00382122 0.00216829 0.00143651 0.00122948 0.00174692 
131 0.17113 0.703543 0.0935116 0.0146943 0.00601038 0.00347361 0.00261552 0.00169551 0.00120734 0.00211803 
132 0.687481 0.306859 0.00112986 0.0045001 1.42648e-05 5.59108e-06 4.45018e-06 1.82929e-06 1.68473e-06 1.75899e-06 
133 0.132271 0.778053 0.0590151 0.0234474 0.00452787 0.00102385 0.000547548 0.000362754 0.000310474 0.000441141 
134 0.386134 0.610277 0.000711872 0.00266606 2.55256e-06 9.87036e-07 8.10313e-07 0.000206289 3.01919e-07 3.10528e-07 
135 0.21846 0.779713 0.00157757 0.000158193 3.58438e-05 1.84114e-05 1.39211e-05 8.89207e-06 5.50558e-06 9.28355e-06 
136 0.209066 0.78646 0.00412858 0.000166019 6.8841e-05 3.9524e-05 2.44762e-05 1.71898e-05 1.16525e-05 1.80997e-05 
137 0.107589 0.75902 0.0803837 0.0384279 0.0048262 0.00343385 0.00228559 0.0013724 0.000967063 0.00169427 
138 0.111264 0.805094 0.0549591 0.0134984 0.0098404 0.00196296 0.00111385 0.000737932 0.000631581 0.000897391 
139 0.205703 0.648398 0.0560648 0.0540819 0.00486152 0.0254 0.00181289 0.00119709 0.00102456 0.00145577 
140 0.316188 0.675039 0.00411379 0.00444555 8.63712e-05 4.16643e-05 3.15028e-05 2.01224e-05 1.24589e-05 2.10083e-05 
141 0.727532 0.26927 0.00298204 3.06719e-05 0.000179826 1.72759e-06 1.34005e-06 5.50841e-07 5.07313e-07 5.29673e-07 
142 0.121517 0.492404 0.299059 0.0653098 0.012009 0.00735781 0.000802679 0.000520295 0.000370493 0.000649953 
143 0.648029 0.324498 0.0194309 0.00329877 0.00371257 0.000921958 4.06286e-05 2.53049e-05 1.56677e-05 2.6419e-05 
144 0.282828 0.589723 0.0725811 0.0264009 0.0213643 0.00285366 0.00138363 0.00109311 0.000679576 0.00109235 
145 0.367529 0.619504 0.0123961 5.2265e-05 0.000502893 5.42802e-06 4.10387e-06 2.62134e-06 1.62302e-06 2.73675e-06 
146 0.290896 0.672894 0.0292675 0.00131316 0.00443213 0.000547236 0.000210663 0.00020086 0.000106331 0.000132536 
147 0.122188 0.788904 0.0649075 0.0135907 0.00347193 0.0024811 0.00145146 0.00114669 0.000712889 0.00114589 
148 0.058158 0.7941 0.0866432 0.0173416 0.0126852 0.00986538 0.00691773 0.00382231 0.00312071 0.00734593 
149 0.12033 0.842699 0.0287461 0.00417736 0.0012006 0.000607376 0.00154686 0.000222347 0.0001767 0.000293827 
150 0.225019 0.762461 0.00995705 0.00101832 0.000434315 0.000236609 0.000130886 9.29957e-05 0.000535016 0.000115066 
151 0.0260336 0.95652 0.00877737 0.0052248 0.0014681 0.00028366 0.000289142 0.000275628 3.0257e-07 0.00112753 
152 0.151744 0.796572 0.0147144 0.025929 0.0106183 0.000157541 9.81052e-05 6.26646e-05 3.87992e-05 6.54234e-05 
153 0.168819 0.773691 0.0435577 0.00636966 0.00289609 0.00166275 0.0010297 0.000723165 0.000490212 0.000761445 
154 0.252067 0.742437 0.00455497 0.000381709 0.000178731 0.000173778 6.68979e-05 6.37848e-05 3.37664e-05 4.2088e-05 
155 0.368139 0.629414 0.000351653 0.00208949 3.41184e-06 1.11096e-06 8.84259e-07 3.63483e-07 3.3476e-07 3.49514e-07 
156 0.0685557 0.912772 0.0133189 0.00277299 0.000906008 0.00052342 0.000394119 0.000255487 0.000181928 0.000319154 
157 0.265116 0.722858 0.0086112 0.000596879 0.00222463 0.000271491 0.000104512 9.96483e-05 5.27518e-05 6.57522e-05 
158 0.162753 0.72905 0.0848107 0.00752737 0.0044589 0.00727317 0.00135252 0.000890423 0.000707657 0.00117673 
159 0.217727 0.690436 0.0573402 0.0164168 0.00748572 0.00222123 0.00564379 0.00106554 0.000637848 0.00102527 
160 0.256708 0.734425 0.00741108 0.00125812 0.000192302 1.78307e-06 1.38835e-06 5.70694e-07 5.25597e-07 5.48762e-07 
161 0.170479 0.477109 0.299736 0.0317607 0.00286204 0.0018881 0.0140159 0.000699616 0.000598772 0.000850773 
162 0.638707 0.351773 0.0060658 0.00192907 0.000253078 0.000145275 9.44351e-05 0.000923738 4.28556e-05 6.65275e-05 
163 0.351211 0.647536 0.000297344 0.000941897 5.392e-06 2.75579e-06 2.08368e-06 1.33095e-06 8.24066e-07 1.38955e-06 
164 0.236474 0.757777 0.00478649 0.000192307 0.000602517 7.70087e-05 2.94189e-05 2.805e-05 1.48491e-05 1.85086e-05 
165 0.176535 0.710539 0.0742386 0.00610814 0.0159892 0.0135046 0.00101639 0.000673363 0.000576318 0.000818869 
166 0.602139 0.393779 0.00265505 0.00098804 7.30365e-05 4.22859e-05 0.000272809 1.92272e-05 1.23071e-05 1.91165e-05 
167 0.201485 0.769861 0.023493 0.000584602 0.00214336 0.00212206 0.000100608 9.59162e-05 5.07761e-05 6.32896e-05 
168 0.286507 0.649482 0.0150643 0.0172524 0.0012558 0.00047763 0.000722448 0.0288541 0.000143592 0.000240834 
169 0.204475 0.773059 0.0107423 0.00529112 0.00395792 0.000804727 0.000571895 0.00037073 0.000263991 0.000463116 
170 0.0401927 0.54069 0.147171 0.0658712 0.0363366 0.0388589 0.0279841 0.0194201 0.0257253 0.0577498 
171 0.224729 0.771604 0.00339102 0.000264552 5.52234e-06 2.15981e-06 1.71909e-06 7.06647e-07 6.50807e-07 6.79491e-07 
172 0.196683 0.777595 0.0219231 0.00180023 0.00080221 0.000452186 0.000115438 9.1199e-05 5.6701e-05 0.000480995 
173 0.16036 0.583723 0.240324 0.00795646 0.00252787 0.00179869 0.00119721 0.000718875 0.000506557 0.000887473 
174 0.341173 0.64012 0.0150524 0.00147444 0.000882864 0.000481181 0.000266176 0.000176372 0.000140171 0.000233084 
175 0.570124 0.406433 0.0211135 0.00194305 0.000125845 0.000119064 4.58353e-05 4.37024e-05 2.31352e-05 2.88367e-05 
176 0.908295 0.0909436 0.000200978 0.000167033 0.000102209 5.00633e-05 0.000238173 8.95226e-07 8.18257e-07 8.54322e-07 
177 0.0564729 0.814184 0.0939442 0.0192986 0.00880446 0.002609 0.00152627 0.0012058 0.000749636 0.00120496 
178 0.284956 0.712352 0.00121102 0.00134365 2.57607e-05 5.20293e-05 4.94051e-05 3.60745e-06 2.445e-06 3.79781e-06 
179 0.295052 0.626833 0.0612974 0.0125483 0.00278271 0.000529791 0.000328074 0.000230409 0.000156187 0.000242605 
180 0.189442 0.712842 0.0598597 0.0182762 0.0143423 0.00186611 0.00115555 0.000811552 0.000550127 0.00085451 
181 0.0609325 0.935529 0.00298788 0.000167932 7.54691e-05 4.94633e-05 2.80672e-05 1.85947e-05 1.59157e-05 0.000195204 
182 0.116222 0.677469 0.126692 0.0323143 0.00958855 0.00664498 0.0223577 0.00252238 0.00192698 0.00426127 
183 0.101788 0.767452 0.0486587 0.0254744 0.0250022 0.00468743 0.00377617 0.0194164 0.00158018 0.00216446 
184 0.0598619 0.925133 0.00983619 0.00254501 0.000921193 0.000532396 0.000400878 0.000259869 0.000185048 0.000324628 
185 0.486802 0.49399 0.0152764 0.0026913 0.000474855 0.000272626 0.00016883 0.000118571 8.03757e-05 0.000124847 
186 0.229165 0.753028 0.0163416 0.000652935 0.000291902 0.000191316 0.000108559 7.19212e-05 6.15559e-05 8.74626e-05 
187 0.209455 0.737641 0.0337553 0.00865447 0.00569628 0.0017164 0.00100372 0.000792969 0.000492981 0.000792413 
188 0.059688 0.921347 0.0168866 0.00116167 0.000305818 0.000218542 0.000127848 0.000101004 6.27933e-05 0.000100933 
189 0.0518555 0.90932 0.0265139 0.00326202 0.00531003 0.00138799 0.000766823 0.000508108 0.000403816 0.000671488 
190 0.0868217 0.911896 0.000533414 0.000663253 3.61765e-05 3.11781e-05 8.13693e-06 2.84001e-06 2.77566e-06 4.18705e-06 
191 0.412794 0.566337 0.019973 0.000363527 0.000170049 0.000165336 6.36481e-05 6.06863e-05 3.21261e-05 4.00434e-05 
192 0.148461 0.771537 0.0646888 0.0105975 0.0018056 0.00103665 0.000641971 0.000450862 0.000305626 0.000474728 
193 0.150228 0.672048 0.115102 0.0187746 0.0270254 0.00389813 0.00892638 0.00128275 0.00101942 0.00169515 
194 0.269184 0.66242 0.0449566 0.00816053 0.00981903 0.00170718 0.00128529 0.000833188 0.000593299 0.00104082 
195 0.251012 0.623354 0.096379 0.0228671 0.000637771 0.000637542 0.00461912 0.000225636 0.000119447 0.000148884 
196 0.295234 0.651577 0.0465638 0.000752681 0.000344175 0.000358108 0.0049015 0.00012284 6.50226e-05 8.10471e-05 
197 0.315856 0.68039 0.00245976 0.000586988 0.000614192 3.348e-05 2.03402e-05 1.42851e-05 9.68345e-06 1.50413e-05 
198 0.173024 0.738455 0.0645512 0.0115481 0.00206269 0.00822213 0.000732393 0.000514364 0.000348672 0.000541591 
199 0.126033 0.836015 0.027089 0.00371139 0.00289644 0.00157864 0.000873259 0.000578634 0.000459866 0.000764691 
200 0.0962866 0.752377 0.113514 0.0235054 0.00323192 0.00736746 0.0013445 0.000807292 0.000568861 0.000996627 
201 0.105375 0.716911 0.112466 0.0443474 0.00729153 0.00486677 0.00284709 0.00224929 0.00139836 0.00224771 
202 0.204786 0.77283 0.0197336 0.00107548 0.000503583 0.000489627 0.000188488 0.000179717 9.51383e-05 0.000118585 
203 0.329061 0.648524 0.0201889 0.00109612 0.000863401 0.000121873 4.69162e-05 4.4733e-05 2.36807e-05 2.95167e-05 
204 0.126094 0.175009 0.676755 0.00906861 0.0110368 0.000741598 0.000468184 0.000281124 0.000198095 0.000347056 
205 0.125846 0.858386 0.0122577 0.00171931 0.000725255 0.000395283 0.00021866 0.000144887 0.000115148 0.000191475 
206 0.143612 0.729511 0.0687417 0.0401276 0.00601284 0.00428936 0.0025093 0.00198242 0.00123245 0.00198103 
207 0.0421849 0.930782 0.0207014 0.00216434 0.00168782 0.000919906 0.000508866 0.000337182 0.000267973 0.000445601 
208 0.0851512 0.910292 0.00264191 0.00115843 0.000250403 0.000178171 0.000118592 7.12092e-05 5.01778e-05 8.79099e-05 
209 0.522515 0.476051 0.000450691 0.000981864 5.88164e-07 2.17275e-07 1.72938e-07 0 0 0 
210 0.0880987 0.894531 0.0095152 0.00379158 0.00191232 0.000697912 0.000537904 0.00026503 0.000202473 0.000447742 
211 0.137424 0.849699 0.0113598 0.00103576 0.000184327 0.000105821 6.5532e-05 4.60237e-05 3.11981e-05 4.84598e-05 
212 0.135828 0.843282 0.0172654 0.00296824 0.000236068 0.000154663 8.77612e-05 5.81424e-05 4.97629e-05 7.07063e-05 
213 0.054044 0.921371 0.0171694 0.00349953 0.00158619 0.000864298 0.000478105 0.0003168 0.000251774 0.000418665 
214 0.107614 0.88125 0.00988222 0.000947524 0.000110179 7.21889e-05 4.09625e-05 2.71379e-05 2.32268e-05 3.30021e-05 
215 0.148987 0.689711 0.099312 0.02254 0.00942909 0.0194886 0.00380943 0.00228733 0.00161177 0.00282378 
216 0.141203 0.706375 0.0981505 0.0128962 0.0266828 0.0064239 0.00147399 0.00536689 0.000518981 0.000909118 
217 0.0625447 0.629239 0.179622 0.031458 0.0289866 0.0335638 0.0195868 0.00546179 0.00290055 0.00663701 
218 0.187531 0.809233 0.00106982 0.00149731 6.62034e-05 0.000525615 2.47802e-05 2.36251e-05 1.25066e-05 1.55888e-05 
219 0.124116 0.872361 0.00254735 0.00072622 7.97798e-05 7.75672e-05 2.98604e-05 2.84709e-05 1.50719e-05 1.87863e-05 
220 0.222339 0.675904 0.0859084 0.0146705 0.000391333 0.000277127 0.000184457 0.000110758 7.80461e-05 0.000136735 
221 0.0827199 0.672894 0.1502 0.0510319 0.0111439 0.0234307 0.0028059 0.0018528 0.0014725 0.00244856 
222 0.44203 0.548514 0.00647094 0.00219029 0.000372046 0.000193274 7.4403e-05 7.09408e-05 3.75546e-05 4.68098e-05 
223 0.27696 0.559982 0.160637 0.000601973 0.00156931 0.000218936 9.96831e-06 9.50441e-06 5.03144e-06 6.27142e-06 
224 0.222351 0.663254 0.0909967 0.0105001 0.00722826 0.00100184 0.00361431 0.000343177 0.000293665 0.000417258 
225 0.123479 0.874867 0.000288039 0.00135733 3.68233e-06 1.82399e-06 1.37914e-06 8.80921e-07 5.45428e-07 9.19704e-07 
226 0.0737235 0.854676 0.0557348 0.00999535 0.00187229 0.00129709 0.000999739 0.000492581 0.000376313 0.000832167 
227 0.0875633 0.710353 0.101815 0.0396347 0.0150288 0.0104118 0.0080842 0.0174082 0.00302071 0.00667983 
228 0.244911 0.712894 0.0282414 0.0069175 0.00399417 0.00113095 0.000623476 0.000413124 0.000328328 0.000545962 
229 0.328035 0.657158 0.0143085 0.000379818 3.81659e-05 3.7083e-05 1.42756e-05 1.36113e-05 7.20552e-06 8.98129e-06 
230 0.229659 0.764647 0.00453818 0.00101574 4.47444e-05 4.34715e-05 1.67349e-05 1.59561e-05 8.44685e-06 1.05285e-05 
231 0.368202 0.6067 0.0241004 0.000440151 3.07135e-05 1.57762e-05 1.19285e-05 7.61934e-06 4.73606e-06 0.000486624 
232 0.302414 0.178933 0.505607 0.000730751 0.0116246 0.000315831 0.000121536 0.000115881 6.13448e-05 7.6463e-05 
233 0.22644 0.665952 0.082326 0.00939751 0.00168294 0.0124578 0.000598083 0.000419768 0.000284548 0.000441988 
234 0.298717 0.646663 0.0460008 0.0075252 0.000419086 0.000240598 0.000148996 0.000104641 7.09333e-05 0.00011018 
235 0.0814787 0.767653 0.0880066 0.0307178 0.00857708 0.00572559 0.0100152 0.00284957 0.00151333 0.00346279 
236 0.0894779 0.757595 0.0674465 0.0347966 0.0273204 0.00730479 0.00550029 0.00356555 0.00253897 0.00445409 
237 0.459854 0.538543 0.000474132 0.00103887 9.14254e-06 7.04619e-05 3.37753e-06 3.17895e-06 1.68287e-06 2.09761e-06 
238 0.129133 0.685275 0.183055 0.00189355 0.000106835 6.12687e-05 4.47306e-05 0.000384619 1.81328e-05 2.80576e-05 
239 0.30389 0.394096 0.271573 0.0262894 0.000411296 0.000399838 0.000160807 0.0030052 7.76948e-05 9.68385e-05 
240 0.4952 0.49956 0.00369604 0.00141784 4.93622e-05 2.53511e-05 1.91683e-05 1.22437e-05 7.58076e-06 1.27827e-05 
241 0.0525399 0.903329 0.0252821 0.0101242 0.00266979 0.00189045 0.00124971 0.00105543 0.000666369 0.00119311 
242 0.250732 0.634581 0.0791196 0.0243334 0.0043017 0.00246967 0.0015294 0.00107411 0.000728109 0.00113097 
243 0.154684 0.790021 0.041283 0.00510728 0.00523 0.00129358 0.00086101 0.000516999 0.000364305 0.000638251 
244 0.115326 0.721648 0.106908 0.012129 0.0300842 0.00515907 0.00285385 0.001891 0.00150286 0.00249904 
245 0.0978942 0.570195 0.325012 0.00130768 0.00488942 0.000251085 0.000154531 0.000108528 7.35682e-05 0.000114273 
246 0.310783 0.666251 0.011525 0.00162412 0.000225914 0.000107716 0.00939893 2.93028e-05 2.69873e-05 2.81767e-05 
247 0.129505 0.698014 0.0743815 0.0249043 0.0105219 0.0496838 0.00423026 0.0033418 0.00207756 0.00333946 
248 0.313888 0.572883 0.0732026 0.0277794 0.00706256 0.00486652 0.000117544 7.50792e-05 4.64858e-05 7.83847e-05 
249 0.110686 0.732228 0.122957 0.0116826 0.00909082 0.00495474 0.00274082 0.00181611 0.00144334 0.00240007 
250 0.189867 0.770149 0.0357459 0.00193765 0.000881041 0.000505836 0.000313251 0.000219999 0.000149131 0.000231644 
251 0.757993 0.232975 0.00745274 0.000745726 0.000832298 3.35728e-07 2.47357e-07 1.01678e-07 0 0 
252 0.33707 0.602699 0.0192619 0.0402238 0.000339407 0.000185565 7.14348e-05 6.81107e-05 3.60564e-05 4.49424e-05 
253 0.556571 0.400987 0.039762 0.0023505 0.000128578 6.6045e-05 4.99373e-05 3.18974e-05 1.97495e-05 3.33017e-05 
254 0.262304 0.648478 0.0521862 0.00989495 0.00450681 0.0179615 0.00159999 0.00112369 0.000761714 0.00118317 
255 0.151662 0.814274 0.0270013 0.00440314 0.000880352 0.000626408 0.00041694 0.000250354 0.000176413 0.00030907 
256 0.0861653 0.900983 0.00855355 0.0026305 0.000609428 0.000388861 0.000220654 0.000146184 0.000125116 0.000177773 
257 0.106041 0.891174 0.00181286 0.000734322 9.01141e-05 5.41956e-05 3.07525e-05 2.03737e-05 1.74375e-05 2.47762e-05 
258 0.142509 0.703056 0.094602 0.0220986 0.0221862 0.00547426 0.0036437 0.00218788 0.0015417 0.002701 
259 0.145402 0.682984 0.099531 0.0339898 0.00863751 0.00617249 0.00361096 0.0150479 0.00177353 0.00285076 
260 0.223414 0.768417 0.0062673 0.00111481 0.000260477 0.00018525 0.000123303 7.40381e-05 5.21712e-05 9.14023e-05 
261 0.208908 0.721888 0.0464788 0.0164966 0.00175465 0.00285785 0.000527283 0.000349385 0.000277671 0.000461728 
262 0.172306 0.819805 0.00718605 0.000523625 5.73104e-05 5.56837e-05 2.14361e-05 2.04386e-05 1.08198e-05 1.34863e-05 
263 0.134301 0.792069 0.051441 0.011004 0.00461438 0.00466874 0.0007198 0.000384778 0.000329324 0.000467925 
264 0.182271 0.7265 0.0810274 0.006335 0.00108945 0.00177296 0.000327603 0.000217074 0.000172518 0.000286872 
265 0.370269 0.361011 0.252859 0.00758649 0.00525502 0.00169251 0.000437156 0.000289618 0.000247879 0.000352202 
266 0.144787 0.26251 0.587535 0.00234303 0.00210192 0.000486551 8.61945e-05 5.09841e-05 3.5926e-05 6.29414e-05 
267 0.119935 0.856069 0.0218394 0.00202243 5.2618e-05 2.67939e-05 2.02591e-05 1.29405e-05 8.01218e-06 1.35102e-05 
268 0.155999 0.801212 0.0330269 0.00350081 0.00219814 0.0012704 0.000956572 0.000620096 0.00044156 0.000774624 
269 0.394484 0.586064 0.0181647 0.000522534 0.000244499 0.000237723 9.15145e-05 8.7256e-05 4.61915e-05 5.75752e-05 
270 0.387201 0.594045 0.016513 0.00190831 1.84072e-05 0.000295039 7.12268e-06 4.54636e-06 2.81491e-06 4.74651e-06 
271 0.232922 0.596697 0.129691 0.0121996 0.0150656 0.00770886 0.00199615 0.00125626 0.000894559 0.00156932 
272 0.211943 0.659829 0.0691736 0.0443184 0.0033961 0.00237987 0.00608136 0.00109824 0.000682767 0.00109747 
273 0.554082 0.43371 0.00696678 0.00502319 7.17153e-05 0.000145251 5.62071e-07 2.30595e-07 2.12373e-07 2.21733e-07 
274 0.278635 0.678957 0.041212 0.000553131 0.000245803 0.000141124 8.73944e-05 6.13778e-05 4.16062e-05 6.46268e-05 
275 0.0727981 0.921835 0.00364599 0.000844274 0.000355327 0.000193589 0.000107088 7.09581e-05 5.63935e-05 9.37743e-05 
276 0.613729 0.38124 0.00419885 0.000394303 0.000345283 4.21332e-05 1.62195e-05 1.54647e-05 8.18672e-06 1.02043e-05 
277 0.0687052 0.54819 0.180308 0.0802137 0.0252135 0.0371673 0.0194175 0.0134752 0.00764219 0.0196671 
278 0.350835 0.630198 0.01571 0.00148912 0.000677096 0.000388744 0.000240739 0.000169073 0.00011461 0.000178023 
279 0.176924 0.736705 0.0428565 0.0278983 0.00560712 0.00653207 0.00114591 0.000758718 0.000649372 0.000922669 
280 0.0939463 0.6748 0.123452 0.0284414 0.0449431 0.0111665 0.00860645 0.00424048 0.00323956 0.00716387 
281 0.364846 0.601849 0.0212159 0.00921559 0.00107605 0.000660348 0.000374705 0.000248244 0.000212467 0.000301887 
282 0.103065 0.822256 0.0522427 0.0102438 0.00388862 0.00269396 0.00207638 0.00102305 0.000781573 0.00172835 
283 0.185604 0.770391 0.0307923 0.00646597 0.00273267 0.00148937 0.000823878 0.000545914 0.000433861 0.000721449 
284 0.129321 0.674966 0.132506 0.0226433 0.0221825 0.00657332 0.00384542 0.003038 0.00188869 0.00303587 
285 0.28554 0.673078 0.0321704 0.00373795 0.00175026 0.00170175 0.000655109 0.000624625 0.000330664 0.000412154 
286 0.284349 0.701165 0.0121874 0.00105094 0.00047795 0.000274408 0.000169934 0.000119346 8.0901e-05 0.000125663 
287 0.310631 0.5959 0.0657732 0.0104508 0.00805353 0.00802339 0.000378305 0.000360699 0.000190947 0.000238005 
288 0.137811 0.707224 0.080089 0.02682 0.0108965 0.00778684 0.00455534 0.00362022 0.0176006 0.00359634 
289 0.191224 0.706601 0.0710325 0.0173967 0.00557129 0.0030329 0.00167772 0.00111168 0.0008835 0.00146913 
290 0.393432 0.549822 0.0350126 0.0138977 0.00154514 0.00101269 0.000574636 0.0003807 0.000601699 0.00372067 
291 0.0462968 0.914596 0.0330369 0.0021782 0.00136641 0.000789707 0.000594626 0.000385465 0.000274483 0.000481523 
292 0.178595 0.789714 0.0279793 0.00230145 0.000514366 0.000329037 0.000186707 0.000123695 0.000105868 0.000150424 
293 0.233149 0.600965 0.125598 0.00934976 0.00449773 0.0216931 0.00156386 0.00103594 0.000886643 0.0012598 
294 0.0363193 0.406247 0.509777 0.0452299 0.0015191 0.000657717 0.000126719 4.51419e-05 3.06004e-05 4.75315e-05 
295 0.25833 0.653804 0.0513955 0.00974503 0.00465889 0.0174642 0.00158058 0.00110666 0.000750173 0.00116524 
296 0.45181 0.465589 0.0815244 8.68933e-05 0.000781487 2.0919e-06 1.56709e-06 0.000203676 6.57466e-07 6.12413e-07 
297 0.172195 0.626867 0.074924 0.0627932 0.00873164 0.0155743 0.0234291 0.00126258 0.00120884 0.0130148 
298 0.366236 0.572344 0.0569761 0.0019879 0.00159143 0.000317782 0.00018029 0.000119444 0.000102229 0.000145254 
299 0.520293 0.468393 0.00908195 0.000725711 0.00110375 0.000143414 8.88125e-05 6.23737e-05 4.22813e-05 6.56754e-05 
300 0.286764 0.574035 0.0716032 0.0514646 0.00944564 0.00242316 0.00154242 0.000926158 0.000652619 0.00114337 
301 0.14905 0.756519 0.0792553 0.00733136 0.00317707 0.00173159 0.000957866 0.000634696 0.00050442 0.000838779 
302 0.229843 0.753901 0.0116457 0.00326996 0.000443989 0.000315559 0.000210038 0.000126118 8.88696e-05 0.000155697 
303 0.261045 0.690785 0.0443902 0.00279541 0.000314802 0.000306017 0.000117805 0.000112323 5.94614e-05 7.41155e-05 
304 0.257181 0.53235 0.1938 0.0114579 0.00118218 0.00299457 0.000337603 0.000223692 0.000177777 0.000295618 
305 0.337892 0.652611 0.00131585 0.0067693 0.000663541 8.00876e-05 0.000603729 2.93545e-05 1.55384e-05 1.93677e-05 
306 0.102889 0.611643 0.156936 0.0569783 0.0226382 0.013199 0.0158101 0.0128162 0.00215623 0.0049337 
307 0.29137 0.62688 0.0724423 0.00425348 0.000838144 0.000586007 0.00304835 0.000219439 0.000141867 0.000220361 
308 0.143097 0.821799 0.0294907 0.0025524 0.00102057 0.000729314 0.000426653 0.000337069 0.000209552 0.000336833 
309 0.122209 0.70078 0.0957645 0.0175921 0.043215 0.0077766 0.00413169 0.00273772 0.00217578 0.00361802 
310 0.142509 0.717615 0.0805815 0.02156 0.00769351 0.00547426 0.00375621 0.016568 0.00154181 0.002701 
311 0.576289 0.406429 0.0159925 0.00127596 6.31118e-06 2.50146e-06 1.99102e-06 8.18428e-07 7.53755e-07 7.86976e-07 
312 0.399581 0.520192 0.079862 0.000167153 6.33088e-05 6.15543e-05 2.36961e-05 2.25934e-05 1.19605e-05 1.49081e-05 
313 0.613556 0.385671 0.000246351 0.000468035 3.21833e-06 1.6479e-06 1.246e-06 7.95878e-07 1.2327e-06 5.00932e-05 
314 0.110962 0.739064 0.131851 0.0139492 0.00173544 0.000858463 0.000571398 0.000343099 0.000241766 0.000423567 
315 0.103465 0.775482 0.0952619 0.0196293 0.00224132 0.00144016 0.000817195 0.000541397 0.000463371 0.000658387 
316 0.124066 0.711392 0.0972154 0.0178259 0.0139117 0.00758226 0.00419429 0.00455994 0.0155793 0.00367303 
317 0.637775 0.304583 0.056661 0.000262441 0.000596659 6.3118e-05 1.89351e-05 1.8054e-05 9.55742e-06 1.19128e-05 
318 0.200179 0.749252 0.0490049 0.00115747 0.000155837 8.94712e-05 5.54072e-05 3.89129e-05 2.63779e-05 4.09727e-05 
319 0.0647586 0.904179 0.0228308 0.00365528 0.00164387 0.00107741 0.000611361 0.00040503 0.000346657 0.000492553 
320 0.383242 0.614344 0.00166343 0.000146635 0.000552318 1.71119e-05 1.29381e-05 8.26417e-06 5.11681e-06 8.62801e-06 
321 0.12334 0.831189 0.0349423 0.00874346 0.000641438 0.000420221 0.000238448 0.000157974 0.000135206 0.00019211 
322 0.0537408 0.670904 0.240074 0.0294327 0.00239544 0.00143994 0.000604341 0.000510379 0.000322238 0.000576954 
323 0.109289 0.875927 0.0103649 0.00183402 0.00119082 0.000452163 0.0003485 0.000171709 0.000131179 0.000290086 
324 0.0512177 0.836925 0.0676974 0.0103281 0.0108197 0.00690631 0.00680883 0.00323731 0.00180673 0.00425291 
325 0.309716 0.681513 0.00767129 0.000354517 0.000530069 7.6684e-05 4.74883e-05 3.33514e-05 2.2608e-05 3.51168e-05 
326 0.693508 0.290083 0.0140553 0.00112208 0.00121326 8.83139e-06 4.30209e-06 1.76841e-06 1.62867e-06 1.70045e-06 
327 0.537819 0.442786 0.0181423 0.000221036 0.00100575 1.00437e-05 7.5001e-06 3.08299e-06 2.83937e-06 2.96451e-06 
328 0.256148 0.72113 0.0201206 0.00199463 0.000215292 0.00036294 9.25961e-06 8.82634e-06 4.67248e-06 5.824e-06 
329 0.107195 0.88658 0.00471258 0.000865414 0.000380314 9.39859e-05 6.25564e-05 3.75624e-05 2.64684e-05 4.63719e-05 
330 0.210805 0.720942 0.0657108 0.00195349 0.00021145 0.000138584 7.86373e-05 5.20977e-05 4.45894e-05 6.33554e-05 
331 0.0508993 0.65969 0.249527 0.0120825 0.017822 0.00315319 0.00233762 0.00151536 0.00107906 0.00189299 
332 0.158076 0.5977 0.122691 0.0271621 0.0507695 0.0066081 0.00368304 0.028267 0.00189446 0.00314814 
333 0.238598 0.584542 0.164253 0.0092148 0.00121834 0.000798304 0.000452986 0.000300106 0.000256855 0.000364956 
334 0.556183 0.424942 0.0173439 0.000250712 0.00112023 7.31365e-05 2.81546e-05 2.68445e-05 1.42109e-05 1.77131e-05 
335 0.03719 0.917656 0.0302483 0.00532592 0.00305531 0.00211668 0.00163144 0.000803828 0.000614093 0.00135799 
336 0.135024 0.782169 0.064162 0.00971856 0.00293033 0.00184031 0.00145212 0.000984498 0.000522847 0.00119637 
337 0.199231 0.793361 0.00681031 0.00034033 8.23413e-05 8.00593e-05 3.08198e-05 2.93856e-05 1.55562e-05 1.93899e-05 
338 0.0577796 0.794647 0.129597 0.0120799 0.00195166 0.00138869 0.00092432 0.000555014 0.000391092 0.000685181 
339 0.151405 0.712705 0.116944 0.0115675 0.00265014 0.00173692 0.000985587 0.000652958 0.000558854 0.000794055 
340 0.237127 0.714063 0.026077 0.0132781 0.00774622 0.000608849 0.000376809 0.000264636 0.000179389 0.000278644 
341 0.19587 0.668253 0.0945369 0.0201759 0.0124421 0.00307093 0.00204402 0.00122735 0.000864853 0.0015152 
342 0.196337 0.760033 0.0320402 0.00539521 0.00331407 0.00107982 0.000586331 0.000463219 0.000287979 0.000462895 
343 0.181841 0.757596 0.0418615 0.0119377 0.00225567 0.00161192 0.000942985 0.000744987 0.000463151 0.000744465 
344 0.148987 0.689628 0.084251 0.0376849 0.0231946 0.00572309 0.00380932 0.00228733 0.00161177 0.00282378 
345 0.228592 0.768973 0.00181417 0.000599347 8.41881e-06 4.2706e-06 3.22905e-06 2.06255e-06 1.27704e-06 2.15336e-06 
346 0.155288 0.736592 0.0799097 0.0128496 0.00489927 0.00339415 0.00261606 0.00128896 0.000984713 0.00217756 
347 0.054274 0.783219 0.0717051 0.0483505 0.0129969 0.00919594 0.00607911 0.00513406 0.00324149 0.00580376 
348 0.118882 0.706031 0.0846364 0.0501354 0.00898141 0.00472945 0.0209792 0.00214613 0.00133421 0.00214461 
349 0.253811 0.742872 0.00293221 0.000262141 4.71047e-05 2.70431e-05 1.67471e-05 1.17616e-05 7.97285e-06 1.23842e-05 
350 0.37621 0.60846 0.0133039 0.000551169 0.0010784 0.000141362 8.75416e-05 6.14812e-05 4.16763e-05 6.47356e-05 
351 0.0965604 0.874789 0.0216407 0.0033734 0.00120375 0.000856517 0.000570102 0.000342321 0.000241218 0.000422606 
352 0.146763 0.679335 0.0845633 0.050478 0.00792318 0.00563767 0.00375246 0.00225319 0.00285041 0.0164443 
353 0.192097 0.789295 0.0173084 0.000951178 0.000135933 6.9823e-05 5.27939e-05 3.3722e-05 2.08792e-05 3.52066e-05 
354 0.134698 0.18344 0.51071 0.168226 0.000247326 0.00264286 1.37758e-05 8.3861e-06 5.1923e-06 8.7553e-06 
355 0.182089 0.734686 0.0534266 0.018719 0.00225896 0.00160749 0.00532497 0.000642438 0.000452668 0.000793061 
356 0.181633 0.806623 0.00939934 0.00107206 0.000487509 0.000279896 0.000173332 0.000121733 8.25191e-05 0.000128176 
357 0.355582 0.60304 0.0271926 0.0070117 0.00418396 0.00105372 0.00070032 0.000420512 0.000296315 0.000519134 
358 0.911338 0.0867185 0.00121892 0.000675246 1.92437e-05 9.88197e-06 7.47187e-06 4.77264e-06 2.95501e-06 4.98276e-06 
359 0.242227 0.724444 0.0329457 0.000155431 7.27057e-05 7.06908e-05 2.72133e-05 2.59469e-05 1.37358e-05 1.71209e-05 
360 0.092449 0.89869 0.0073472 0.000877165 0.000257841 0.00014053 7.77373e-05 5.15099e-05 4.09371e-05 6.80726e-05 
361 0.179096 0.782315 0.0269823 0.00332403 0.00602717 0.00080353 0.000497605 0.000349472 0.000236897 0.000367971 
362 0.157098 0.82546 0.0124037 0.00365119 0.000462775 0.000330597 0.000193401 0.000152793 9.49897e-05 0.000152686 
363 0.247641 0.664221 0.0808823 0.00295423 0.00174228 0.000949581 0.000525281 0.000348059 0.000276618 0.000459976 
364 0.386879 0.342805 0.267049 0.00177733 4.41574e-05 2.27597e-05 0.00139353 1.09545e-05 6.78251e-06 1.14367e-05 
365 0.154933 0.142226 0.69471 0.000406889 0.00768005 1.45946e-05 1.09629e-05 7.00255e-06 4.33567e-06 7.31084e-06 
366 0.0681201 0.783705 0.0537936 0.0337287 0.0352242 0.0149279 0.00359642 0.00233132 0.00166009 0.00291229 
367 0.396111 0.559458 0.0365734 0.00597317 0.000389822 0.00127864 6.98949e-05 6.6605e-05 3.52593e-05 4.39488e-05 
368 0.433519 0.564218 0.00199413 0.000125463 4.5799e-05 4.45257e-05 1.71407e-05 1.63431e-05 8.65169e-06 1.07839e-05 
369 0.232615 0.696958 0.0586443 0.00715885 0.00154683 0.00110031 0.00064369 0.000508534 0.000316151 0.000508178 
370 0.0700358 0.268093 0.0137183 0.641994 0.000773377 0.00248257 0.00231152 0.000202889 0.000141271 0.000247502 
371 0.0724376 0.764122 0.0822857 0.0162948 0.0103157 0.0296399 0.0163564 0.00288657 0.00205536 0.00360569 
372 0.583745 0.413635 0.00162456 0.000833871 5.18881e-05 5.04496e-05 1.94212e-05 1.85174e-05 9.80275e-06 1.22186e-05 
373 0.384591 0.542839 0.0193342 0.029132 0.00642095 0.0108475 0.00622902 0.00027687 0.000146564 0.000182685 
374 0.255315 0.658754 0.0652879 0.00710908 0.0125948 0.000429573 0.000165289 0.000157598 8.3429e-05 0.00010399 
375 0.180013 0.689985 0.0622527 0.0316405 0.00706211 0.0126051 0.011156 0.00201661 0.0012537 0.00201519 
376 0.19806 0.675524 0.0809671 0.0277118 0.0108595 0.00242131 0.00161163 0.000967716 0.000681904 0.00119467 
377 0.217895 0.682892 0.0875547 0.00600456 0.00228972 0.00124795 0.000690332 0.000457424 0.000363535 0.000604507 
378 0.129909 0.668596 0.145893 0.0284442 0.0124515 0.00451362 0.00356152 0.00241461 0.00128235 0.00293426 
379 0.10636 0.840731 0.0506216 0.00205687 0.000219453 3.78901e-06 2.83778e-06 1.81263e-06 1.1223e-06 1.89243e-06 
380 0.173835 0.68126 0.120935 0.0176978 0.00209659 0.00149305 0.000873443 0.000690046 0.000428995 0.000689563 
381 0.332335 0.616614 0.0379475 0.00477508 0.00040984 0.00389078 9.40357e-05 0.00383365 3.71886e-05 6.27077e-05 
382 0.0818008 0.916444 0.00152952 0.000145863 3.12368e-05 1.6045e-05 1.21318e-05 7.74917e-06 4.79795e-06 8.09033e-06 
383 0.111327 0.770505 0.0832156 0.0166164 0.0037384 0.00266021 0.00881071 0.00106501 0.000749134 0.00131246 
384 0.0351358 0.915118 0.0321869 0.0130768 0.00160445 0.000899866 0.000677572 0.000439235 0.000312772 0.000548692 
385 0.316606 0.648656 0.032555 0.000543491 0.00160493 3.12804e-05 1.59174e-06 6.54299e-07 6.02595e-07 6.29155e-07 
386 0.179401 0.692497 0.103356 0.0204478 0.00164936 0.00094347 0.000584266 0.000410335 0.000278154 0.000432056 
387 0.146502 0.684843 0.117792 0.0196698 0.0131675 0.0119811 0.00218629 0.00131273 0.000925017 0.0016206 
388 0.344875 0.638504 0.0154293 0.000917989 8.8002e-05 8.50357e-05 3.27355e-05 3.12122e-05 1.65231e-05 2.05952e-05 
389 0.265281 0.662541 0.04205 0.0228342 0.0014384 0.000942734 0.00053494 0.000354401 0.000313144 0.00371064 
390 0.265173 0.669854 0.0466973 0.0102705 0.000813625 0.00627511 0.000296825 0.000282979 0.000149803 0.000186722 
391 0.282171 0.683531 0.030805 0.00162246 0.000598004 0.000581431 0.000223829 0.000213413 0.000112977 0.000140819 
392 0.508391 0.486272 0.00379612 0.00105135 0.000187392 0.000107583 6.66236e-05 4.67903e-05 3.17178e-05 4.92671e-05 
393 0.217468 0.664491 0.064944 0.0197975 0.00352425 0.00202417 0.0253102 0.000918404 0.000596523 0.000926577 
394 0.222026 0.755001 0.021606 0.000631204 0.000281526 0.000161634 0.000100096 7.0298e-05 4.7653e-05 7.40192e-05 
395 0.0862432 0.853005 0.0498996 0.00738773 0.00133103 0.000759899 0.000470586 0.000330496 0.000224034 0.00034799 
396 0.16492 0.0963433 0.732094 0.00257345 0.0026842 0.00113349 8.83168e-05 5.24227e-05 4.16626e-05 6.92789e-05 
397 0.260944 0.717395 0.0168468 0.00400962 0.000289881 0.000189044 0.00010727 7.10673e-05 6.08251e-05 8.64242e-05 
398 0.534293 0.444099 0.0146469 0.00675041 8.28208e-05 4.21978e-05 3.19062e-05 2.038e-05 1.26184e-05 2.12773e-05 
399 0.451085 0.504987 0.0430915 0.000160306 0.000530707 6.64494e-05 2.55805e-05 2.43901e-05 1.29116e-05 1.60936e-05 
400 0.0800444 0.835516 0.0466483 0.0135521 0.00850964 0.00491808 0.00370316 0.00240057 0.0017094 0.00299879 
401 0.151138 0.757176 0.06089 0.0187422 0.00432942 0.00283754 0.00161012 0.00106671 0.000912979 0.00129722 
402 0.256753 0.717906 0.0234571 0.000808031 0.000344175 0.000334637 0.000128823 0.000122828 6.50226e-05 8.10471e-05 
403 0.399555 0.587297 0.00810828 0.0042699 0.000276627 0.000181272 0.00010286 6.81455e-05 5.83244e-05 8.2871e-05 
404 0.132704 0.41927 0.0193088 0.409044 0.00757931 0.00782296 0.00136807 0.00138201 0.00135831 0.000162959 
405 0.0705861 0.752575 0.124054 0.0254264 0.0157293 0.00431479 0.00238641 0.00158127 0.0012567 0.00208972 
406 0.165764 0.789074 0.0383598 0.00411781 0.000896653 0.00062954 0.000419025 0.000251606 0.000177295 0.000310615 
407 0.0708786 0.744967 0.120029 0.02734 0.00791775 0.0129314 0.00238854 0.0101975 0.00125989 0.00208972 
408 0.173338 0.72595 0.0664065 0.0215781 0.00425215 0.0030308 0.00177304 0.00140075 0.000870834 0.00139977 
409 0.0803224 0.874659 0.0324077 0.00732476 0.00208246 0.000752726 0.00166377 0.000300296 0.000186687 0.000300079 
410 0.347131 0.593655 0.0482295 0.00909835 0.000722236 0.000414661 0.000256789 0.000180345 0.00012225 0.000189891 
411 0.524089 0.439554 0.0361252 0.000204757 1.29962e-05 5.15221e-06 4.10086e-06 1.6857e-06 1.55249e-06 1.62092e-06 
412 0.809012 0.155091 0.0355598 0.000141099 6.25635e-05 6.08297e-05 2.34171e-05 2.23274e-05 1.18197e-05 1.47326e-05 
413 0.208436 0.641604 0.067397 0.0412154 0.00428767 0.0126129 0.00163822 0.0108089 0.00109179 0.010908 
414 0.116718 0.827088 0.0523204 0.00278187 0.00039217 0.000257032 0.000145849 9.6626e-05 8.27003e-05 0.000117506 
415 0.0593717 0.93195 0.00665999 0.000896135 0.000403013 0.000264139 0.000149882 9.92976e-05 8.49869e-05 0.000120755 
416 0.0970585 0.877093 0.0212667 0.00166387 0.000930654 0.000644745 0.000496941 0.000244848 0.000187054 0.000413646 
417 0.524259 0.458901 0.0114687 0.00242157 0.000983715 0.000702978 0.000411246 0.000324897 0.000201985 0.000324669 
418 0.163326 0.673212 0.0809318 0.0263308 0.0207256 0.0155591 0.00250942 0.0143005 0.00135769 0.00174692 
419 0.30384 0.590999 0.0957757 0.00729124 0.000137568 0.0018328 4.7718e-05 2.86273e-05 1.77248e-05 2.98877e-05 
420 0.0869048 0.894368 0.0105197 0.00604176 0.000719873 0.000509062 0.000338834 0.000203455 0.000143365 0.000251171 
421 0.264862 0.593472 0.0884471 0.0326622 0.0183396 0.00116654 0.000339994 0.000324172 0.00017161 0.000213903 
422 0.194004 0.753639 0.0493833 0.000854254 0.00114015 0.000306244 0.000230592 0.000149481 0.000106443 0.000186731 
423 0.196151 0.75606 0.0264543 0.00634205 0.00628983 0.00517335 0.00129955 0.000850639 0.000528834 0.000850044 
424 0.137779 0.827473 0.0325084 0.00173392 0.000193489 0.00011107 6.87826e-05 4.83066e-05 3.27456e-05 5.08636e-05 
425 0.133512 0.689622 0.115611 0.054765 0.00228235 0.00148127 0.000985941 0.000592014 0.000417164 0.00073086 
426 0.0375581 0.938949 0.0215621 0.000656157 0.000870632 0.000149815 8.28562e-05 5.49018e-05 4.36328e-05 7.25551e-05 
427 0.0683317 0.838778 0.0895727 0.00059449 0.00214937 0.000262305 0.000100975 9.62767e-05 5.09669e-05 6.35275e-05 
428 0.32225 0.571778 0.0625039 0.0321449 0.00119751 0.00869091 0.000558879 0.00040015 0.000211831 0.000264036 
429 0.254474 0.644046 0.0509441 0.0241607 0.0044143 0.00250653 0.00155223 0.00112286 0.0156316 0.00114786 
430 0.456982 0.418889 0.0949685 0.00700852 0.0207293 0.000525969 0.000295676 0.000195887 0.000167656 0.000238216 
431 0.0559771 0.912137 0.0208692 0.00496678 0.00201788 0.00144201 0.000843582 0.000666455 0.000414329 0.000665988 
432 0.173433 0.65577 0.0948319 0.0328421 0.0317819 0.00438662 0.00226904 0.0015035 0.0011949 0.00198694 
433 0.154691 0.840777 0.00382021 0.000703366 4.00892e-06 1.58897e-06 1.26473e-06 5.19879e-07 4.78797e-07 4.999e-07 
434 0.0465495 0.918812 0.0230012 0.00417308 0.00262034 0.00151441 0.0011403 0.0007392 0.000526371 0.000923408 
435 0.071152 0.599826 0.172911 0.0636597 0.0606411 0.00980329 0.00768964 0.00521336 0.00276871 0.00633532 
436 0.0936076 0.763763 0.0837219 0.0212426 0.0132227 0.00764193 0.00575415 0.00373012 0.00265615 0.00465966 
437 0.163822 0.697096 0.104746 0.0161667 0.00944228 0.00543202 0.00107288 0.000847557 0.000526918 0.000846963 
438 0.125265 0.717421 0.119949 0.0128199 0.00425261 0.0137445 0.00289886 0.00139242 0.000865651 0.00139144 
439 0.0869213 0.70739 0.0682861 0.0607002 0.0405652 0.0203694 0.00551084 0.00346368 0.00246643 0.00432683 
440 0.205577 0.789209 0.00430012 0.000417373 0.000189815 0.00010898 6.74882e-05 4.73975e-05 3.21294e-05 4.99065e-05 
441 0.183729 0.624558 0.106274 0.0271175 0.00760388 0.0415446 0.00333261 0.00222786 0.00138504 0.0022263 
442 0.141596 0.558711 0.290154 0.00814668 0.000533084 0.000305897 0.000189434 0.000133041 9.01848e-05 0.000140084 
443 0.249524 0.699826 0.0340361 0.0114281 0.00182767 0.00105016 0.000790739 0.000512595 0.00036501 0.000640334 
444 0.0736328 0.699769 0.130803 0.0221108 0.0244581 0.0309932 0.00675114 0.00332492 0.00254011 0.00561713 
445 0.406805 0.550122 0.012369 0.0241171 0.00065281 0.000634515 0.00469881 0.000323404 0.000123247 0.000153621 
446 0.534876 0.301972 0.141217 0.00806513 0.00738563 0.00506512 0.000462997 0.000306734 0.000243775 0.000405363 
447 0.230402 0.691224 0.045846 0.00869151 0.00483294 0.0148983 0.00140984 0.000987022 0.000669073 0.00103927 
448 0.201364 0.717808 0.0554036 0.00924466 0.00178595 0.00677076 0.000608188 0.000427132 0.000289541 0.00629769 
449 0.27744 0.72115 0.00119503 3.78733e-05 0.00014029 1.71307e-05 6.59452e-06 6.28765e-06 3.32855e-06 4.14886e-06 
450 0.257069 0.689023 0.0501828 0.00170429 0.000773824 0.000444279 0.000275131 0.000193227 0.000130983 0.000203455 
451 0.0853028 0.744649 0.121695 0.027829 0.00434936 0.0107012 0.00197996 0.00118869 0.000837614 0.00146747 
452 0.424246 0.573853 0.00124657 0.000640151 7.15197e-06 2.83524e-06 2.25669e-06 9.27633e-07 8.5433e-07 8.91984e-07 
453 0.161716 0.821096 0.0150305 0.00103998 0.000369674 0.000263039 0.00017508 0.000105128 7.40786e-05 0.000129784 
454 0.754873 0.233688 0.00706019 0.00302832 0.000475109 0.000845612 9.34922e-06 8.90613e-06 4.71472e-06 5.87664e-06 
455 0.313278 0.565396 0.0815288 0.0163276 0.0011002 0.00764693 0.00715683 0.000403049 0.00693248 0.000229981 
456 0.230803 0.708 0.051758 0.00419144 0.00188478 0.00123531 0.000700956 0.000464388 0.00039746 0.000564737 
457 0.0992627 0.872134 0.0197658 0.00315812 0.00181129 0.00125484 0.000967175 0.000476536 0.000364055 0.00080506 
458 0.0899203 0.900632 0.00905646 0.000159051 7.41327e-05 7.20782e-05 2.77474e-05 2.64562e-05 1.40054e-05 1.74569e-05 
459 0.221426 0.677287 0.0700261 0.00855029 0.0164196 0.00235069 0.00135064 0.000948567 0.000643006 0.000998778 
460 0.101327 0.76816 0.0816833 0.0178842 0.0160976 0.00552487 0.00304201 0.00201568 0.00160195 0.00266381 
461 0.20285 0.732718 0.0501426 0.0103192 0.00078469 0.000517206 0.00207524 0.000192796 0.000164957 0.000234381 
462 0.0901247 0.801251 0.102179 0.00371077 0.00110757 0.000603654 0.000333924 0.000221263 0.000175847 0.000292409 
463 0.148305 0.713273 0.0950473 0.028144 0.00822432 0.00250571 0.00146583 0.00115805 0.000719947 0.00115724 
464 0.0371171 0.759156 0.158585 0.0128746 0.00935448 0.00727503 0.00510134 0.00281868 0.00230131 0.00541711 
465 0.285058 0.696788 0.0113329 0.00316289 0.000726321 4.86173e-05 0.00285769 8.96828e-06 8.25039e-06 8.61402e-06 
466 0.0629071 0.85528 0.0616585 0.0073906 0.00260221 0.00675355 0.00123243 0.000740018 0.000521455 0.000913574 
467 0.276847 0.563153 0.102295 0.0146507 0.0143541 0.00425345 0.00250265 0.0103547 0.00122212 0.0103677 
468 0.0902343 0.858326 0.0393166 0.0058339 0.00208177 0.00148127 0.000985941 0.000592014 0.000417164 0.00073086 
469 0.124961 0.6819 0.104982 0.0477577 0.0277929 0.00467732 0.00258713 0.00171427 0.00136241 0.00226549 
470 0.091544 0.797426 0.0902481 0.00752467 0.00536943 0.00292648 0.00161885 0.00107267 0.0008525 0.00141759 
471 0.100503 0.868519 0.0256384 0.00301052 0.000776638 0.000554983 0.000324668 0.000256497 0.000159462 0.000256318 
472 0.255325 0.676428 0.0598574 0.00379338 0.00153306 0.00109555 0.000640903 0.000506333 0.000314782 0.000505978 
473 0.714284 0.278107 0.0057701 0.00166703 5.49191e-05 5.3322e-05 2.05269e-05 1.95717e-05 1.03609e-05 1.29143e-05 
474 0.390913 0.545574 0.0397266 0.0152723 0.00491325 0.00126753 0.000843674 0.00050659 0.00035697 0.0006254 
475 0.104784 0.689401 0.118443 0.0415343 0.0267244 0.0117814 0.0023879 0.0018865 0.00117282 0.00188518 
476 0.12258 0.843244 0.0237552 0.00665538 0.00125581 0.000897418 0.000524995 0.000414762 0.000257853 0.000414471 
477 0.0796981 0.757285 0.07777 0.0391854 0.0239808 0.0123252 0.003457 0.00212682 0.00151447 0.00265682 
478 0.142318 0.720695 0.0926902 0.0227447 0.00537265 0.00310454 0.00233762 0.00176693 0.00707748 0.00189299 
479 0.263079 0.436458 0.226844 0.0631213 0.00696708 0.00126263 0.000738397 0.000583356 0.000362667 0.000582948 
480 0.128894 0.801587 0.0426253 0.0103865 0.0060202 0.00513759 0.0018694 0.00126734 0.000673057 0.00154008 
481 0.163215 0.8105 0.0210022 0.00369636 0.000528456 0.000372509 0.000247944 0.000148879 0.000104908 0.000183796 
482 0.165029 0.724759 0.0666147 0.0180044 0.0185014 0.00254556 0.00148049 0.00116963 0.000727147 0.00116881 
483 0.12627 0.814727 0.0499516 0.00411246 0.00164715 0.00117708 0.000688598 0.000544013 0.000338208 0.000543632 
484 0.29953 0.648701 0.0147298 0.00425104 0.0161177 0.000499343 0.000377556 0.000241164 0.000158359 0.0153942 
485 0.154623 0.78973 0.0415047 0.00107994 0.0129459 4.24922e-05 3.34544e-05 1.37517e-05 1.26651e-05 1.32233e-05 
486 0.0483034 0.758261 0.156502 0.0202663 0.00577527 0.00248134 0.00130439 0.00103051 0.0029236 0.00315213 
487 0.108089 0.744709 0.0834696 0.0252785 0.0108208 0.00635916 0.0145497 0.00215797 0.00171503 0.00285185 
488 0.209693 0.697167 0.0522458 0.0124654 0.0057399 0.0163609 0.00208491 0.00138126 0.00118219 0.00167973 
489 0.206667 0.687472 0.0461716 0.0358806 0.00804914 0.0138145 0.000666689 0.000468203 0.000317381 0.000492987 
490 0.215301 0.740003 0.040874 0.00264772 0.00038884 0.000276518 0.000184052 0.000110515 7.78748e-05 0.000136434 
491 0.199389 0.524809 0.230167 0.0188202 0.0200968 0.0024684 0.00138363 0.00109311 0.000679576 0.00109235 
492 0.14125 0.706303 0.0739798 0.0269079 0.021341 0.0161872 0.00860551 0.00207017 0.00128699 0.00206869 
493 0.2774 0.625071 0.0820317 0.00949842 0.00200104 0.00142979 0.000836433 0.000660807 0.000410817 0.000660345 
494 0.108181 0.812415 0.05808 0.0161683 0.00179252 0.00118409 0.000788135 0.00047324 0.00033347 0.00058423 
495 0.46609 0.525001 0.00688775 0.00132941 0.000264711 0.00015198 9.41171e-05 6.60992e-05 4.48067e-05 6.95981e-05 
496 0.100336 0.5938 0.30006 0.00480192 0.000320359 0.000311481 0.000119908 0.000114329 6.05232e-05 7.54389e-05 
497 0.0856971 0.739739 0.07856 0.0474373 0.0121053 0.00700548 0.0192795 0.00347845 0.00243169 0.00426589 
498 0.429086 0.555895 0.0134007 0.000202135 0.000646576 8.61242e-05 0.000589968 5.8102e-05 1.59122e-05 1.98337e-05 
499 0.135463 0.791834 0.0703932 0.00140095 0.000151351 8.64765e-05 5.50555e-05 0.000551034 2.55007e-05 3.96013e-05 
500 0.135304 0.817734 0.0389414 0.00518798 0.000642233 0.00136543 0.000268471 0.000212081 0.000131849 0.000211933 
501 0.138393 0.680719 0.118494 0.0387633 0.00857297 0.00538451 0.00314997 0.00248857 0.00154712 0.00248683 
502 0.234413 0.626922 0.0832967 0.0324598 0.00379965 0.00218101 0.00135144 0.0139348 0.000643021 0.000998778 
503 0.247609 0.638545 0.109822 0.00163519 0.00076341 0.000742253 0.000285739 0.000272443 0.000144226 0.000179769 
504 0.0781743 0.765692 0.107725 0.0198075 0.00471514 0.0178081 0.0025561 0.00119812 0.000844262 0.00147912 
505 0.0773261 0.757897 0.122738 0.0119317 0.0172946 0.00480843 0.00261154 0.00173044 0.00137526 0.00228686 
506 0.11804 0.650564 0.178733 0.0318679 0.00990239 0.00353428 0.00272406 0.00134217 0.00102537 0.00226746 
507 0.265566 0.684851 0.0335128 0.0134453 0.000839305 0.000816044 0.000314146 0.000299528 0.000158564 0.000197641 
508 0.043553 0.86181 0.088192 0.00363968 0.000935634 0.000668619 0.000391146 0.000309017 0.000192113 0.0003088 
509 0.134957 0.689049 0.0925299 0.0613424 0.00737786 0.00527234 0.00308435 0.00243673 0.00151489 0.00243502 
510 0.237743 0.750202 0.00643517 0.0049533 0.000213272 0.000207345 7.98202e-05 7.61058e-05 4.02889e-05 5.02179e-05 
511 0.219177 0.761955 0.0136869 0.00293392 0.000909991 0.000495965 0.000274354 0.000181791 0.000144477 0.000240245 
512 0.0860929 0.883458 0.0208031 0.00329554 0.00257191 0.00140176 0.000775415 0.000513801 0.00040834 0.000679011 
513 0.295844 0.667532 0.0273161 0.00779156 0.000484869 0.000471431 0.000181483 0.000173038 9.16028e-05 0.000114178 
514 0.0499765 0.727605 0.0818598 0.0738159 0.0146889 0.0197621 0.00683302 0.0057697 0.00369679 0.0159921 
515 0.114261 0.761004 0.120531 0.00304315 0.0011506 3.63708e-06 2.89473e-06 1.1899e-06 1.09588e-06 1.14418e-06 
516 0.116142 0.874483 0.00568079 0.0032846 0.000264687 5.3344e-05 3.0266e-05 2.00514e-05 1.71616e-05 2.43843e-05 
517 0.183196 0.675233 0.106885 0.0199028 0.00344106 0.00805135 0.00108416 0.000718253 0.000614739 0.00087346 
518 0.192549 0.698311 0.104789 0.00262305 0.00100258 0.000199094 0.000463614 2.84081e-05 1.50385e-05 1.87447e-05 
519 0.136397 0.682683 0.101093 0.0507369 0.00970242 0.00693348 0.00405613 0.00320446 0.00199218 0.00320222 
520 0.157213 0.809818 0.0291757 0.0031395 0.0002111 0.000202531 7.79666e-05 7.43385e-05 3.93533e-05 4.90517e-05 
521 0.0978516 0.875422 0.0148191 0.00818753 0.00124078 0.000886417 0.000518559 0.000409677 0.000254692 0.00040939 
522 0.259253 0.609834 0.0922024 0.0237732 0.00147984 0.0117476 0.000553816 0.000528033 0.00027953 0.000348419 
523 0.145992 0.841626 0.0111719 0.00053863 0.000241053 0.000157988 8.96482e-05 5.93925e-05 5.08329e-05 7.22266e-05 
524 0.193743 0.647424 0.12663 0.0232291 0.00370447 0.0019548 0.00108134 0.000716512 0.000569443 0.000946903 
525 0.0805452 0.5524 0.348934 0.00437148 0.00587164 0.00506766 0.000916636 0.000607375 0.000482707 0.000802673 
526 0.149151 0.735293 0.103039 0.00555971 0.00249868 0.00163766 0.000929268 0.000615646 0.000526919 0.00074868 
527 0.135584 0.738471 0.086623 0.00982753 0.0100214 0.0149878 0.00162203 0.000973959 0.000686303 0.00120238 
528 0.0905262 0.792711 0.0704489 0.0270076 0.00643899 0.00460131 0.00269179 0.0021266 0.00132209 0.00212511 
529 0.388302 0.603708 0.00652567 0.000878075 0.00055543 1.02552e-05 7.75318e-06 4.95233e-06 3.06627e-06 5.17036e-06 
530 0.201533 0.779552 0.0151527 0.00171983 0.0007821 0.000449031 0.000278073 0.000195293 0.000132383 0.000205631 
531 0.140725 0.686481 0.0870133 0.0479939 0.0212836 0.00663721 0.00321887 0.00213287 0.00169509 0.00281869 
532 0.366257 0.602088 0.0244634 0.00556529 0.000628968 0.000355048 0.000219872 0.000154418 0.000104675 0.000162592 
533 0.114389 0.751593 0.106859 0.0173258 0.00328009 0.00234326 0.00137082 0.00108299 0.000673284 0.00108223 
534 0.123614 0.587938 0.225516 0.0438264 0.00320202 0.00721598 0.00521863 0.00195216 0.000551176 0.000965644 
535 0.113763 0.844527 0.0273019 0.00927512 0.0033149 0.000668105 0.000379072 0.000251138 0.000214944 0.000305406 
536 0.143999 0.216635 0.011268 0.00207908 0.00890327 0.460786 0.00859573 0.147616 5.73872e-05 6.03512e-05 
537 0.0816481 0.680582 0.131467 0.036132 0.0228732 0.0281234 0.00669993 0.00454234 0.00241234 0.00551989 
538 0.141995 0.809035 0.0387576 0.00827342 0.00104673 0.000318063 0.000196968 0.000138333 9.37716e-05 0.000145655 
539 0.18546 0.72228 0.0712612 0.0128929 0.00268679 0.0019077 0.00126977 0.000762443 0.000537257 0.000941259 
540 0.323306 0.631707 0.0370487 0.00545005 0.000952792 0.000547028 0.00033876 0.000237914 0.000161275 0.000250508 
541 0.0616591 0.924428 0.00730247 0.00382814 0.000976675 0.000564461 0.000425022 0.00027552 0.000196193 0.000344179 
542 0.053445 0.856144 0.0497975 0.0119401 0.0151337 0.00779164 0.00196893 0.00127609 0.000908683 0.00159409 
543 0.338128 0.65993 0.0015182 0.000391814 1.23316e-05 6.33413e-06 4.7893e-06 3.05916e-06 1.8941e-06 3.19384e-06 
544 0.14089 0.841487 0.0168749 0.000579389 8.05762e-05 3.19437e-05 2.54254e-05 1.04513e-05 9.62545e-06 1.00497e-05 
545 0.0573943 0.849423 0.0697058 0.0179847 0.00184277 0.00128478 0.000855153 0.000513482 0.000361826 0.000633909 
546 0.0739155 0.476017 0.413423 0.0235353 0.00437213 0.00312435 0.00182776 0.00144399 0.000897712 0.00144298 
547 0.263586 0.677529 0.0264006 0.0302918 0.000855472 0.000439419 0.00033225 0.000212224 0.0001314 0.000221567 
548 0.263311 0.680544 0.0508199 0.00469575 0.000240944 0.000138334 8.56667e-05 6.01644e-05 4.07837e-05 6.33491e-05 
549 0.175166 0.809127 0.0116825 0.00196241 0.000838889 0.000453698 0.000250973 0.000166298 0.000132164 0.000219771 
550 0.038 0.927481 0.0315447 0.0016557 0.000463215 0.000267488 0.000201411 0.000130564 9.29725e-05 0.000163101 
551 0.218574 0.768249 0.00978442 0.00152981 0.000621293 0.000443986 0.000259734 0.000205198 0.00012757 0.000205054 
552 0.237242 0.655178 0.0907456 0.0102363 0.0036058 0.00107007 0.000625998 0.000494558 0.000307462 0.000494211 
553 0.0849705 0.812403 0.0821802 0.0126354 0.00280983 0.00183712 0.00104245 0.000690628 0.000591095 0.000839865 
554 0.107555 0.733251 0.104637 0.0399773 0.004826 0.00343385 0.00228559 0.0013724 0.000967063 0.00169427 
555 0.140997 0.834558 0.0235086 0.000673229 0.000257723 3.41901e-06 8.91778e-07 3.11255e-07 3.04202e-07 4.58885e-07 
556 0.104697 0.855128 0.0395974 0.000264131 0.000119879 6.88267e-05 4.26226e-05 2.99342e-05 2.02915e-05 3.15187e-05 
557 0.317554 0.513156 0.155826 0.0068744 0.00512929 0.00117093 9.92363e-05 6.96943e-05 4.72437e-05 7.33835e-05 
558 0.0373848 0.885479 0.0490516 0.00977953 0.00765214 0.00204415 0.00565419 0.000997973 0.000710493 0.00124641 
559 0.0307356 0.966699 0.00200677 0.000316678 8.51321e-05 4.9132e-05 3.69949e-05 2.39819e-05 1.70771e-05 2.99582e-05 
560 0.276996 0.660839 0.0542629 0.00243044 0.00321262 0.00083827 0.000463691 0.000307248 0.000244183 0.000406042 
561 0.0505132 0.886153 0.0511902 0.0041887 0.00322166 0.00175589 0.000971309 0.000643604 0.0005115 0.000850551 
562 0.053553 0.916193 0.025177 0.00182965 0.00113988 0.000658787 0.000496047 0.000321562 0.000228978 0.000401695 
563 0.0908339 0.88041 0.0250132 0.00277523 0.000309321 0.00030074 0.000115774 0.000110386 5.84362e-05 7.28376e-05 
564 0.0505286 0.891325 0.0161305 0.0407249 0.000157975 8.41316e-05 0.000957083 3.34742e-05 2.26908e-05 3.52455e-05 
565 0.0660006 0.880276 0.0270513 0.0113101 0.00445335 0.00346338 0.00242857 0.00134187 0.00109557 0.00257889 
566 0.147647 0.845016 0.00484288 0.00110741 0.000498029 0.000326414 0.000185218 0.000122708 0.000105024 0.000149224 
567 0.115097 0.789857 0.0677825 0.00832337 0.0120937 0.00262762 0.00138993 0.000920838 0.000788127 0.00111982 
568 0.13495 0.791941 0.0360315 0.00864801 0.0191243 0.0049371 0.00143913 0.000953434 0.000816025 0.00115946 
569 0.249781 0.68587 0.0561241 0.00487787 0.00248156 0.000308147 0.000190825 0.000134018 9.08467e-05 0.000141112 
570 0.101118 0.86002 0.0220124 0.0105457 0.00128575 0.00333549 0.000608761 0.00036553 0.000257571 0.000451257 
571 0.198929 0.733991 0.0427954 0.0168706 0.00479381 0.000963596 0.000545711 0.000361537 0.000309432 0.000439661 
572 0.209289 0.649393 0.088989 0.0184017 0.00391231 0.0206343 0.00672895 0.00160502 0.000501051 0.000545432 
573 0.171187 0.660434 0.0887926 0.0492991 0.00374037 0.0219258 0.0017022 0.000993182 0.000699848 0.00122611 
574 0.123165 0.650557 0.185035 0.0262665 0.00229898 0.00959629 0.00124076 0.000626405 0.000441398 0.000773316 
575 0.244351 0.7433 0.00899752 0.00213063 0.000438588 0.000287453 0.000163111 0.000108062 9.24883e-05 0.000131413 
576 0.220299 0.767706 0.0088481 0.00198101 0.00068292 0.000172376 0.000112039 6.72744e-05 4.74051e-05 8.30522e-05 
577 0.0598835 0.820652 0.100379 0.0146865 0.000742781 0.00288913 0.000270422 0.000182144 0.00012347 0.000191785 
578 0.0524095 0.937867 0.00844781 0.000435978 0.000340189 0.000185412 0.000102565 6.79609e-05 5.40115e-05 8.98134e-05 
579 0.0746851 0.912744 0.00842966 0.00264034 0.0006077 0.00033119 0.000183205 0.000121394 9.64773e-05 0.000160428 
580 0.0840424 0.702933 0.118349 0.0330256 0.0237316 0.00865754 0.0179076 0.00328777 0.00251157 0.00555401 
581 0.186902 0.538086 0.152815 0.0779586 0.0246304 0.00516738 0.00216268 0.00143302 0.00193581 0.00890938 
582 0.0757087 0.49126 0.372457 0.0199108 0.0167042 0.00868402 0.0097545 0.00159889 0.00122147 0.00270113 
583 0.121849 0.842383 0.0272316 0.00384835 0.00156352 0.00111732 0.000653636 0.000516392 0.000321036 0.000516031 
584 0.0406008 0.813584 0.112398 0.0243468 0.00367503 0.00200172 0.00110729 0.000733708 0.00058311 0.000969628 
585 0.112829 0.67427 0.139988 0.0347231 0.0245999 0.00425565 0.00319675 0.00207229 0.00147564 0.0025887 
586 0.1975 0.732431 0.0534969 0.0105698 0.00200392 0.00142979 0.000836433 0.000660807 0.000410817 0.000660345 
587 0.10137 0.677867 0.114554 0.0729339 0.0176987 0.00486987 0.00366686 0.00237704 0.00169265 0.00296939 
588 0.165508 0.783125 0.0431221 0.0038807 0.00153204 0.000885429 0.000666701 0.000432188 0.000307754 0.000539889 
589 0.124061 0.711398 0.0972155 0.0178262 0.0290629 0.00758226 0.00419429 0.0027792 0.00220875 0.00367284 
590 0.111915 0.840873 0.0408831 0.00281038 0.00126379 0.000828298 0.000470005 0.000311382 0.000266505 0.000378668 
591 0.242462 0.722009 0.0303825 0.000909948 0.00334363 0.000408023 0.000157073 0.000149764 7.92819e-05 9.88206e-05 
592 0.121898 0.704499 0.126667 0.0219027 0.00571049 0.00404915 0.00249458 0.00971025 0.00119879 0.0018701 
593 0.0505068 0.904394 0.0332879 0.00665645 0.00171911 0.00122851 0.000718683 0.000567781 0.000352984 0.000567383 
594 0.137545 0.731875 0.103388 0.00617572 0.00948337 0.00727378 0.001444 0.000903582 0.000718115 0.00119412 
595 0.1616 0.675248 0.0705176 0.0370617 0.0229327 0.0068398 0.00400132 0.00316435 0.0154756 0.00315896 
596 0.0744159 0.576572 0.335152 0.00156004 0.0113943 0.000473895 0.000148147 0.000104045 7.05291e-05 0.000109553 
597 0.281416 0.656021 0.052711 0.00485256 0.00292907 0.000729197 0.000485357 0.000291436 0.000205361 0.000359786 
598 0.0504634 0.904715 0.0343718 0.00317885 0.00382446 0.0010775 0.000811322 0.000525938 0.000374512 0.000657002 
599 0.629616 0.282185 0.0737186 0.0100113 0.00325269 7.8201e-05 2.65942e-05 1.70434e-05 0.00107768 1.77535e-05 
600 0.110374 0.733198 0.120588 0.0201041 0.00976777 0.000804118 0.00465151 0.000234748 0.00012381 0.000154323 
601 0.132112 0.731295 0.0452994 0.0752769 0.00236702 0.0105602 0.00111743 0.00067095 0.000472786 0.000828308 
602 0.237849 0.706863 0.0517195 0.00159228 0.000709853 0.000465245 0.000263997 0.000174899 0.000149693 0.000212693 
603 0.0905411 0.796878 0.096123 0.0079728 0.00280874 0.00199854 0.00133024 0.00079875 0.000562841 0.000986081 
604 0.455093 0.5037 0.0352659 0.00452222 0.000509639 0.000334022 0.000189536 0.000125569 0.000107472 0.000152703 
605 0.191018 0.581296 0.173439 0.0213624 0.0154429 0.00723082 0.0015837 0.00653482 0.000841118 0.00125006 
606 0.12629 0.798604 0.0591231 0.00581752 0.00597473 0.00147548 0.00098209 0.000589702 0.000415535 0.000728005 
607 0.0936906 0.322349 0.567272 0.0123279 0.00353222 0.000303865 0.00017076 0.000134905 8.38694e-05 0.000134811 
608 0.286942 0.681579 0.0296785 0.000289013 0.00144067 2.42911e-05 1.74379e-05 1.11384e-05 6.89642e-06 1.16288e-05 
609 0.0998835 0.836174 0.0583133 0.00249959 0.00112409 0.000736738 0.000418051 0.000276961 0.000237046 0.00033681 
610 0.0401433 0.947391 0.0101141 0.000843358 0.000529558 0.000306054 0.000230449 0.000149388 0.000106377 0.000186616 
611 0.12149 0.870229 0.00776819 0.000396776 5.51891e-05 2.18792e-05 1.74146e-05 7.15844e-06 6.59277e-06 6.88335e-06 
612 0.0953863 0.743108 0.0819474 0.0303936 0.0233452 0.0135406 0.00456583 0.00223354 0.00170633 0.00377334 
613 0.205362 0.64339 0.149675 0.00066788 0.000289357 0.000281338 0.000108304 0.000103265 5.46661e-05 6.81384e-05 
614 0.336408 0.605382 0.0526984 0.00290014 0.00138148 0.000763932 0.000153707 0.000119107 7.40475e-05 0.000119023 
615 0.221472 0.69579 0.0764314 0.0028374 0.00124578 0.000816499 0.00046331 0.000306946 0.000262709 0.000373274 
616 0.397513 0.59478 0.000813289 0.0068607 3.01388e-05 1.64927e-06 4.30431e-07 1.50232e-07 1.46828e-07 2.21488e-07 
617 0.121034 0.700336 0.0745256 0.0314606 0.0114639 0.0199522 0.00502427 0.0165295 0.00248913 0.0171846 
618 0.142326 0.747551 0.0997522 0.00601651 0.00144707 0.00102364 0.000681341 0.000409116 0.000288284 0.000505066 
619 0.626948 0.364748 0.00628761 0.000413157 0.00144347 5.70004e-05 3.52779e-05 2.4776e-05 1.67949e-05 2.60875e-05 
620 0.50369 0.484425 0.0111437 0.000301866 0.000140569 0.000136673 5.26141e-05 5.01658e-05 2.65567e-05 3.31015e-05 
621 0.294707 0.652963 0.0466626 0.00193695 0.0026788 0.000393223 0.000216829 0.000143651 0.000122948 0.000174692 
622 0.098176 0.690361 0.0989609 0.0293676 0.0173494 0.0414779 0.00899768 0.00443323 0.00338681 0.0074895 
623 0.141445 0.734322 0.0816892 0.0325647 0.00358419 0.00234911 0.00133297 0.000883099 0.000755827 0.00107393 
624 0.110885 0.801046 0.0809539 0.00356182 0.00181233 0.000653805 0.000354901 0.000235163 0.000186894 0.000310778 
625 0.477445 0.511277 0.00895787 0.00189985 0.000164232 9.11219e-05 5.64294e-05 3.96308e-05 2.68646e-05 4.17286e-05 
626 0.152374 0.339077 0.437636 0.0461857 0.0045249 0.0162153 0.00130408 0.00086116 0.000684401 0.00113806 
627 0.124504 0.65723 0.135052 0.0397649 0.011471 0.0239742 0.00290438 0.00173521 0.00122272 0.00214218 
628 0.217126 0.601099 0.157296 0.00778457 0.00571036 0.000766519 0.00871328 0.000942326 0.000220051 0.000341804 
629 0.137934 0.747035 0.0851144 0.018493 0.00671798 0.00165695 0.0011027 0.000662121 0.000466566 0.000817409 
630 0.277719 0.696789 0.0184046 0.00347027 0.00146611 0.000798132 0.000441504 0.000292547 0.0002325 0.000386614 
631 0.513065 0.408617 0.0761171 0.00171342 0.000188868 0.000106492 6.59476e-05 4.63156e-05 3.1396e-05 4.87672e-05 
632 0.199378 0.648146 0.105079 0.0194106 0.0107685 0.00395732 0.00810542 0.00149298 0.00114046 0.00252198 
633 0.188949 0.751558 0.0534818 0.00184859 0.0026945 0.000540222 0.00030568 0.000202515 0.000173329 0.000246276 
634 0.296224 0.69026 0.0103777 0.00155937 0.00123342 0.00016491 5.86452e-05 5.59162e-05 2.96009e-05 3.68959e-05 
635 0.317045 0.641176 0.0406448 0.000307433 0.000155479 0.000480704 9.72635e-05 3.42427e-05 2.32121e-05 3.60553e-05 
636 0.533071 0.45408 0.00801881 0.00292647 0.00181223 3.00153e-05 2.26947e-05 1.44962e-05 8.9754e-06 1.51344e-05 
637 0.322982 0.430514 0.230906 0.0127028 0.00227964 0.000178862 0.000375252 4.83966e-05 4.78165e-06 8.06286e-06 
638 0.198334 0.70865 0.0816876 0.00910904 0.000798546 0.000522024 0.000296215 0.000196244 0.000167961 0.00023865 
639 0.0611227 0.672968 0.115984 0.05259 0.0212852 0.0150711 0.00996299 0.00841415 0.00531769 0.0372842 
640 0.250138 0.742124 0.00662408 0.000360608 0.000656558 4.4081e-05 1.69674e-05 1.61779e-05 8.56424e-06 1.06749e-05 
641 0.256986 0.680598 0.0436204 0.0143847 0.00158439 0.00103837 0.00058921 0.000390355 0.000334097 0.000474707 
642 0.148582 0.718852 0.0730746 0.0235722 0.00895285 0.00517423 0.00389604 0.0025256 0.00179861 0.0135715 
643 0.164327 0.812982 0.0204592 0.00107491 0.00038301 0.000272528 0.000181396 0.00010892 7.6751e-05 0.000134465 
644 0.0564718 0.904913 0.0364514 0.000961032 0.000432085 0.000283193 0.000160694 0.00010646 9.11174e-05 0.000129465 
645 0.0894778 0.728195 0.0673712 0.0201387 0.0297524 0.0342903 0.00550956 0.0182713 0.00253897 0.00445409 
646 0.220519 0.684817 0.055503 0.00827137 0.0139855 0.013417 0.0011954 0.000839536 0.000569097 0.000883976 
647 0.127245 0.776192 0.0551275 0.0238667 0.00578929 0.00528425 0.000963542 0.000579138 0.00423789 0.000714424 
648 0.218791 0.69481 0.0758034 0.0090655 0.000498764 0.000471431 0.000181483 0.000173038 9.16028e-05 0.000114178 
649 0.224701 0.671266 0.0609489 0.0158425 0.0100115 0.00896021 0.00306113 0.00150821 0.00115222 0.00254798 
650 0.121192 0.810183 0.0426752 0.017832 0.00275651 0.00191721 0.00112158 0.000886082 0.000550869 0.000885462 
651 0.180138 0.683683 0.0745646 0.0151772 0.0202576 0.00421461 0.0023915 0.00179997 0.0158463 0.00192676 
652 0.131111 0.691209 0.106047 0.0174876 0.0231049 0.00381838 0.0227127 0.00155145 0.00107451 0.00188252 
653 0.173937 0.772746 0.0446561 0.00384879 0.00172834 0.00113277 0.000642774 0.000425842 0.00036447 0.000517862 
654 0.148658 0.665274 0.107243 0.0511732 0.00627627 0.00447915 0.00273186 0.0108081 0.001287 0.00206869 
655 0.630642 0.352983 0.0139789 0.00106792 0.000476848 0.000312531 0.000177341 0.00011749 0.000100557 0.000142878 
656 0.146654 0.808499 0.0407224 0.001377 0.001781 0.000355132 0.000201514 0.000133504 0.000114264 0.000162353 
657 0.176757 0.327548 0.470387 0.00999154 0.00321274 0.00801413 0.00147895 0.000888022 0.000625747 0.00109629 
658 0.183857 0.716464 0.0849774 0.010063 0.00153745 0.00109169 0.000726633 0.000436311 0.000307448 0.000538639 
659 0.31349 0.638325 0.0474381 0.00048142 0.000103484 5.31556e-05 4.01915e-05 2.56723e-05 1.58951e-05 2.68025e-05 
660 0.182016 0.708631 0.0657973 0.00907687 0.0144921 0.00585157 0.00144716 0.010634 0.00107824 0.000975934 
661 0.375676 0.605335 0.0176424 0.000546372 0.000255831 0.000248741 9.57558e-05 9.12999e-05 4.83323e-05 6.02436e-05 
662 0.213512 0.632332 0.138674 0.00996685 0.00223413 0.00121759 0.000673536 0.000446295 0.00035469 0.000589798 
663 0.0545037 0.801206 0.114393 0.0206641 0.00307946 0.00220063 0.00128738 0.00101707 0.000632301 0.00101636 
664 0.175067 0.677963 0.0728481 0.0281586 0.00624673 0.00426085 0.0164422 0.0016083 0.0155338 0.00187171 
665 0.284767 0.628841 0.0754265 0.00958661 0.000470084 0.000415308 0.000159878 0.000152438 8.06977e-05 0.000100585 
666 0.0452105 0.880748 0.0553447 0.010389 0.00454322 0.00134619 0.000787493 0.000622143 0.00038678 0.000621707 
667 0.294153 0.582439 0.109568 0.00878259 0.00376896 0.000503206 0.00025854 0.000171285 0.000146599 0.000208297 
668 0.20746 0.64188 0.0659113 0.052979 0.00882958 0.01538 0.00526698 0.000839536 0.000569097 0.000883976 
669 0.0852119 0.758979 0.103245 0.0247358 0.0116419 0.0100027 0.00206902 0.00156997 0.000976036 0.00156887 
670 0.255636 0.601132 0.0825632 0.0232878 0.00267108 0.0327243 0.000707413 0.000468203 0.000317381 0.000492986 
671 0.112621 0.747204 0.078933 0.0531253 0.00291521 0.00191061 0.00108415 0.000718253 0.000614739 0.00087346 
672 0.191465 0.70324 0.0895227 0.00759005 0.00270843 0.00192716 0.00128273 0.000770223 0.00054274 0.000950863 
673 0.128051 0.684766 0.073199 0.0636074 0.0248563 0.00807142 0.00523602 0.00442204 0.00279194 0.00499886 
674 0.274769 0.625251 0.0577169 0.019052 0.0147585 0.00264347 0.00198947 0.00128967 0.00091835 0.00161105 
675 0.17325 0.785948 0.0318285 0.00632075 0.00101568 0.000583117 0.000361109 0.00025361 0.000171915 0.000267034 
676 0.0934716 0.685072 0.143314 0.0361258 0.0137927 0.00866246 0.00683523 0.0046341 0.00246108 0.0056314 
677 0.112328 0.877658 0.00797835 0.000695336 0.000542655 0.000295761 0.000163607 0.000108408 8.61568e-05 0.000143266 
678 0.18089 0.813736 0.00436574 0.000485011 0.000173028 0.000123117 8.19472e-05 4.92057e-05 3.46729e-05 6.07459e-05 
679 0.202696 0.639629 0.114355 0.0362643 0.00237026 0.00164945 0.00109788 0.00065923 0.000464528 0.000813839 
680 0.38728 0.56732 0.0247496 0.0140504 0.00135834 0.00378532 0.000479717 0.000317811 0.000272008 0.000386487 
681 0.16157 0.667601 0.0888506 0.0284472 0.0178804 0.0159299 0.00293396 0.0018037 0.0128165 0.0021671 
682 0.19559 0.767221 0.0310111 0.00283365 0.00120129 0.000787339 0.000446764 0.000295984 0.000253327 0.000359942 
683 0.174051 0.505804 0.295752 0.0151621 0.00617163 0.000655839 0.000552192 0.00134187 0.000194402 0.000315224 
684 0.145985 0.253879 0.519589 0.0551903 0.0209827 0.00162758 0.000895868 0.000593615 0.000471772 0.000784489 
685 0.387537 0.603596 0.00685199 0.00151196 0.000160904 0.000156439 6.02231e-05 5.74207e-05 3.03973e-05 3.78886e-05 
686 0.0841509 0.694865 0.104048 0.0460265 0.0290384 0.0210362 0.00771232 0.00379991 0.00290298 0.00641957 
687 0.108235 0.749111 0.105568 0.0253803 0.00387483 0.00275711 0.00183515 0.00110192 0.000776474 0.00136036 
688 0.0970361 0.88006 0.0217377 0.000496696 0.000213891 0.000207964 8.00581e-05 7.63327e-05 4.0409e-05 5.03676e-05 
689 0.31739 0.665835 0.00688139 0.00531165 0.00410535 0.000257076 7.0963e-05 6.76608e-05 3.58182e-05 4.46455e-05 
690 0.194776 0.610809 0.136117 0.0255064 0.0180652 0.00268195 0.00132753 0.0089173 0.00074364 0.0010566 
691 0.141819 0.810443 0.0391932 0.0029198 0.00227835 0.00124176 0.000686906 0.000455154 0.000361731 0.000601507 
692 0.149199 0.744026 0.0886248 0.00345387 0.0121891 0.00089345 0.000553188 0.000388509 0.000263359 0.000409074 
693 0.291429 0.701767 0.00504498 0.000803967 0.000365632 0.000209922 0.000129999 9.12996e-05 6.18893e-05 9.61324e-05 
694 0.207305 0.782644 0.00879616 0.000961521 0.000112073 6.43438e-05 3.98465e-05 2.79845e-05 1.89699e-05 2.94658e-05 
695 0.0466142 0.91099 0.0243261 0.00814625 0.00330969 0.00236516 0.00138363 0.00109311 0.000679576 0.00109235 
696 0.201057 0.727919 0.0196565 0.0195725 0.0121536 0.000511469 0.0187336 0.000148758 9.21027e-05 0.000155304 
697 0.182024 0.788872 0.0229313 0.00117383 0.00233741 0.00211185 0.000188064 0.000132079 8.95324e-05 0.00013907 
698 0.134159 0.721792 0.0968362 0.029052 0.00411791 0.0029427 0.0017215 0.0019537 0.00605679 0.00136809 
699 0.194251 0.77921 0.0210317 0.00438335 0.000378486 0.000262308 0.000174594 0.000104836 7.38728e-05 0.000129423 
700 0.234546 0.682651 0.0630151 0.0104852 0.00514453 0.00146412 0.000974477 0.000585131 0.000412314 0.000722361 
701 0.225001 0.705851 0.0512695 0.00684427 0.00362194 0.00227476 0.00179493 0.00121691 0.000646278 0.0014788 
702 0.179913 0.430723 0.223708 0.156553 0.00313023 0.00213563 0.00124936 0.000987029 0.000613626 0.000986337 
703 0.196589 0.666299 0.11029 0.0157384 0.00509783 0.0041193 0.000741153 0.000366456 0.000313642 0.000445643 
704 0.194644 0.720607 0.0511522 0.0113005 0.0103768 0.00547525 0.00440909 0.000652983 0.000518781 0.000862659 
705 0.189323 0.595258 0.108271 0.0892693 0.00598595 0.00425331 0.00248821 0.00196576 0.0012221 0.00196439 
706 0.170562 0.73915 0.081442 0.00494931 0.00129959 0.000928705 0.000543298 0.000429221 0.000266843 0.000428921 
707 0.0809758 0.873958 0.0326094 0.00586608 0.00426379 0.000858236 0.000483994 0.000320649 0.000274437 0.000389937 
708 0.165371 0.769994 0.0428699 0.0192516 0.00096256 0.000552426 0.000342103 0.000240262 0.000162867 0.00025298 
709 0.23809 0.746496 0.014151 0.000560552 0.000252029 0.000165182 9.37302e-05 6.20968e-05 5.31474e-05 7.55153e-05 
710 0.283011 0.707248 0.00759618 0.00202072 8.47731e-05 1.28235e-05 9.69599e-06 6.1933e-06 3.83462e-06 6.46596e-06 
711 0.324445 0.592848 0.0670343 0.00932375 0.00373185 0.00092128 0.000613207 0.000368204 0.000259456 0.000454559 
712 0.0993318 0.657494 0.10203 0.0463777 0.0514469 0.018155 0.00755271 0.00637704 0.00402627 0.00720888 
713 0.212052 0.582558 0.194088 0.00725653 0.00134911 0.000964085 0.000563995 0.000445573 0.000277008 0.000445261 
714 0.422143 0.52227 0.0409919 0.00401307 0.00663144 0.00344069 0.000165293 0.000157598 8.3429e-05 0.00010399 
715 0.175194 0.581212 0.164076 0.0279612 0.0199645 0.0175542 0.00221808 0.00903209 0.00106934 0.00171884 
716 0.106336 0.75682 0.060304 0.01801 0.0113125 0.0178731 0.00673835 0.00319023 0.00227265 0.0171422 
717 0.0976563 0.721407 0.13032 0.020885 0.0156727 0.00439583 0.00330991 0.00214564 0.00152787 0.00268034 
718 0.0887199 0.858337 0.0301402 0.0113155 0.00351572 0.00248881 0.00164526 0.00138949 0.000877284 0.00157074 
719 0.14768 0.736938 0.0986149 0.0102644 0.00401018 0.000940084 0.00051139 0.000338799 0.000289971 0.000412009 
720 0.144894 0.626543 0.160672 0.0460468 0.00324672 0.0143538 0.00155377 0.000914932 0.000644709 0.00112951 
721 0.158207 0.823095 0.00730905 0.00746887 0.00321929 0.000417896 9.16706e-05 8.74048e-05 4.62703e-05 5.76735e-05 
722 0.134931 0.700249 0.10205 0.0353623 0.00732408 0.0127662 0.0026465 0.00158909 0.00111976 0.00196178 
723 0.04977 0.91938 0.0282409 0.00126389 7.93667e-05 0.00117412 2.958e-05 2.81115e-05 1.48816e-05 1.85492e-05 
724 0.228971 0.745864 0.0230075 0.00101215 0.000438539 0.00025178 0.000155921 0.000109505 7.423e-05 0.000115301 
725 0.497899 0.49257 0.00849247 0.000466038 0.000186199 0.000176414 6.79128e-05 6.47525e-05 3.42787e-05 4.27265e-05 
726 0.0869213 0.735975 0.0940037 0.0195538 0.0122782 0.00712264 0.0338875 0.00346419 0.00246643 0.00432683 
727 0.131682 0.825404 0.0279261 0.00675697 0.00274525 0.0019618 0.00114766 0.000906689 0.00056368 0.000906054 
728 0.188097 0.663096 0.14187 0.00334191 0.00119025 0.000846914 0.000563711 0.000338484 0.000238513 0.000417868 
729 0.183638 0.768048 0.0405701 0.00448319 0.00132267 0.000719007 0.000397735 0.000263545 0.00020945 0.000348286 
730 0.131503 0.752087 0.0684909 0.026217 0.00179462 0.019097 0.000263435 0.00024985 0.000132265 0.000164862 
731 0.0955625 0.837269 0.0523618 0.0101449 0.00154317 0.00109803 0.000730857 0.000438848 0.000309235 0.000541771 
732 0.259147 0.704962 0.0292245 0.00634023 0.00012731 6.53897e-05 4.94419e-05 3.15809e-05 1.95535e-05 3.29713e-05 
733 0.096026 0.645832 0.147612 0.0953905 0.00332502 0.00850191 0.00109149 0.000723074 0.000618865 0.000879322 
734 0.0968178 0.743249 0.111636 0.0182886 0.0074977 0.00431977 0.0119475 0.00210837 0.0015013 0.00263372 
735 0.806251 0.186569 0.00410144 0.00278857 0.00011309 5.80219e-05 4.3871e-05 2.80225e-05 1.73503e-05 2.92562e-05 
736 0.185597 0.7044 0.061673 0.0147319 0.0066253 0.00434229 0.00257031 0.0166776 0.00139714 0.00198514 
737 0.127663 0.718557 0.0785629 0.0223583 0.0218926 0.00677758 0.016321 0.00300617 0.00186448 0.00299695 
738 0.299497 0.564255 0.0886147 0.0293927 0.00171647 0.00797806 0.000237535 0.00806881 0.000106757 0.000133058 
739 0.205063 0.788837 0.00432976 0.000809021 0.000367931 0.000211242 0.000130817 9.18737e-05 6.22785e-05 9.67369e-05 
740 0.189468 0.667879 0.0922411 0.0236077 0.0112716 0.00962675 0.00192396 0.001519 0.000944346 0.00151793 
741 0.0602565 0.85359 0.0469629 0.00573313 0.027504 0.00243309 0.00114864 0.000761108 0.000604886 0.00100584 
742 0.243059 0.735534 0.0159077 0.00224645 0.00228317 0.000341924 0.000226909 0.000136249 9.60081e-05 0.000168203 
743 0.237789 0.734204 0.019414 0.00392498 0.0014888 0.00103142 0.000794974 0.000391691 0.000299237 0.000661723 
744 0.214951 0.71573 0.0448124 0.0119742 0.00560015 0.00153339 0.00391527 0.000504897 0.000355776 0.000623309 
745 0.0962948 0.656249 0.162071 0.0287209 0.0464436 0.00665443 0.00116117 0.000917356 0.000570311 0.000916713 
746 0.258405 0.650878 0.069543 0.0101896 0.00363597 0.00258715 0.00172202 0.001034 0.000728609 0.0012765 
747 0.226908 0.615412 0.117232 0.0189285 0.0100788 0.0051081 0.00437432 0.000628474 0.000499238 0.000830161 
748 0.124456 0.844261 0.0223967 0.0060212 0.00095331 0.000673305 0.000448155 0.000269097 0.00018962 0.000332209 
749 0.264883 0.699019 0.0282479 0.00378577 0.000674115 0.00269093 0.000239664 0.000168294 0.000114082 0.000177203 
750 0.252349 0.59985 0.10372 0.0066877 0.0114465 0.00291265 0.00104001 0.0107299 0.00196424 0.0093004 
751 0.0528804 0.806864 0.0732595 0.0148041 0.0386129 0.00424553 0.00319675 0.00207229 0.00147564 0.0025887 
752 0.177603 0.668168 0.0779197 0.0348399 0.0265929 0.0117161 0.00108343 0.00076083 0.000515744 0.000801103 
753 0.355062 0.50468 0.100052 0.0325347 0.00399467 0.00131466 0.000769084 0.0006076 0.000377739 0.000607174 
754 0.226652 0.763163 0.00898214 0.000488125 0.000228537 0.000222203 8.55398e-05 8.15593e-05 4.31758e-05 5.38163e-05 
755 0.184971 0.707405 0.0454197 0.0161899 0.0317288 0.00163047 0.0107184 0.000709124 0.000480694 0.000746659 
756 0.131257 0.685033 0.105945 0.01681 0.0273997 0.0071875 0.0182018 0.0026204 0.00208254 0.00346296 
757 0.37181 0.481751 0.0730868 0.0591522 0.00690791 0.00133941 0.00531052 0.000302509 0.000151477 0.000188808 
758 0.620793 0.355846 0.0184179 0.000410299 0.00413069 0.000183885 7.06829e-05 6.73937e-05 3.56769e-05 4.44693e-05 
759 0.23302 0.701318 0.0307718 0.0201949 0.0083978 0.00257629 0.00121414 0.000804505 0.000639375 0.00106319 
760 0.398829 0.556086 0.0398931 0.00251133 0.000444541 0.000255668 0.00167737 0.000111004 7.52454e-05 0.000116878 
761 0.238677 0.758281 0.00217505 0.000644885 7.08397e-05 6.88763e-05 2.65148e-05 2.52809e-05 1.33832e-05 1.66814e-05 
762 0.0790692 0.705926 0.140843 0.009724 0.0524362 0.0059846 0.00196329 0.0013009 0.00103388 0.0017192 
763 0.105662 0.706212 0.150421 0.01319 0.0165812 0.00294372 0.00162837 0.00107898 0.000857514 0.00142592 
764 0.146632 0.705645 0.0570252 0.0770212 0.0130496 0.000206171 0.000155742 9.948e-05 6.15937e-05 0.00010386 
765 0.211208 0.690036 0.0260568 0.0514274 0.00156705 0.00125304 0.0172362 0.000694326 0.000231747 0.00028886 
766 0.0915264 0.673681 0.0839361 0.0873187 0.0184831 0.00673947 0.0319433 0.00250261 0.00148397 0.00238533 
767 0.11142 0.788383 0.0624691 0.0288281 0.00320533 0.00209191 0.00118702 0.000786409 0.000673072 0.000956343 
768 0.320283 0.658964 0.0199813 0.00013538 6.30311e-05 0.000500458 2.3592e-05 2.24942e-05 1.1908e-05 1.48426e-05 
769 0.133836 0.682245 0.100502 0.03043 0.03253 0.0132365 0.00264527 0.00155633 0.00109667 0.00192133 
770 0.147966 0.406814 0.401333 0.0294109 0.00242529 0.00955955 0.000856142 0.000598686 0.000405831 0.000630376 
771 0.237489 0.608815 0.0706202 0.0466948 0.00393247 0.0152971 0.00136849 0.0141189 0.000651466 0.00101192 
772 0.0407354 0.955521 0.00295245 0.000480728 0.00010264 7.30321e-05 4.86106e-05 2.91885e-05 2.05678e-05 3.60341e-05 
773 0.242166 0.679728 0.057928 0.0102874 0.00581036 0.00143725 0.000955951 0.000574006 0.000404475 0.000708628 
774 0.257872 0.673991 0.056774 0.00289638 0.00819631 8.92746e-05 6.71664e-05 4.29024e-05 2.65633e-05 4.47912e-05 
775 0.160866 0.635942 0.112922 0.0563386 0.00953314 0.00511257 0.00299088 0.00236289 0.00146901 0.0124622 
776 0.137617 0.821389 0.0292725 0.00589928 0.00169958 0.00282693 0.000427549 0.000282777 0.000242023 0.000343882 
777 0.0929637 0.763635 0.088224 0.030205 0.010099 0.00299009 0.00780372 0.0013776 0.000980965 0.0017209 
778 0.143874 0.715956 0.072347 0.0280193 0.0041413 0.00298348 0.0295156 0.00105707 0.000869913 0.00123603 
779 0.509213 0.485499 0.00406816 0.000907285 9.96674e-05 9.69052e-05 3.73048e-05 3.55689e-05 1.88295e-05 2.34699e-05 
780 0.243792 0.713298 0.033519 0.00205894 0.00694221 0.000142973 8.46212e-05 5.94301e-05 4.0286e-05 6.2576e-05 
781 0.314578 0.593237 0.0327434 0.0288298 0.00179403 0.00215349 0.0251978 0.000704732 0.00033893 0.000422458 
782 0.259004 0.652673 0.0597097 0.0141487 0.00840309 0.00213416 0.00142042 0.000852902 0.000601 0.00105293 
783 0.230098 0.658999 0.0580869 0.0178403 0.00761145 0.0204098 0.0022691 0.0015035 0.0011949 0.00198694 
784 0.0819428 0.798997 0.0702878 0.0270329 0.0127421 0.00320478 0.00209512 0.00125803 0.000886475 0.00155308 
785 0.150339 0.736681 0.0741682 0.0226184 0.00655935 0.00357449 0.00197731 0.00131019 0.00104127 0.00173148 
786 0.29072 0.688445 0.0142966 0.00412022 0.000943535 0.000484654 0.000366452 0.00023407 0.000144926 0.000244376 
787 0.104138 0.852742 0.0352279 0.00534571 0.000975029 0.000559792 0.000346665 0.000243465 0.000165038 0.000256353 
788 0.304138 0.674065 0.0149564 0.00431038 0.000987083 0.000507022 0.000383365 0.000244874 0.000151615 0.000255655 
789 0.100328 0.880994 0.00906918 0.00951196 4.19292e-05 3.50868e-05 9.15701e-06 3.19605e-06 3.12363e-06 4.71196e-06 
790 0.0925659 0.693769 0.093306 0.0279306 0.0442179 0.0110068 0.0084835 0.0041799 0.00804908 0.0164914 
791 0.109119 0.662232 0.109621 0.0306594 0.0324381 0.0192806 0.026124 0.00304785 0.00232844 0.00514903 
792 0.159012 0.672502 0.0995642 0.0389997 0.0175912 0.00434168 0.00288983 0.00173521 0.00122272 0.00214218 
793 0.086729 0.523655 0.360182 0.0213478 0.0054146 0.000981477 0.000556924 0.000368966 0.000315791 0.000448695 
794 0.0667908 0.67147 0.104155 0.0464992 0.024083 0.0324593 0.027598 0.00720778 0.00588477 0.0138523 
795 0.258634 0.547041 0.0674996 0.0667553 0.0109099 0.047751 0.000504662 0.000413058 0.000218665 0.000272554 
796 0.171027 0.822461 0.000346865 0.00531349 7.81663e-06 0.000841119 1.33899e-06 4.58295e-07 4.47911e-07 6.75667e-07 
797 0.0326792 0.93818 0.0245807 0.0026381 0.00069197 0.00038476 0.000289713 0.000187806 0.000133733 0.000234607 
798 0.208615 0.701484 0.0348524 0.0406153 0.00547569 0.00320344 0.00187403 0.00148054 0.000920439 0.00147951 
799 0.307135 0.672357 0.0157203 0.00245069 0.000460769 0.000303375 0.00122371 0.000113533 9.71663e-05 0.00013806 
800 0.253983 0.567893 0.120586 0.0345756 0.00210288 0.0200033 0.000278316 0.000264017 0.000139765 0.00017421 
801 0.209339 0.628944 0.0897201 0.0636027 0.00321438 0.00184547 0.00114285 0.000802634 0.000544082 0.00084512 
802 0.202523 0.657563 0.0624674 0.0491799 0.00432341 0.011197 0.00989177 0.000929557 0.000794921 0.00112947 
803 0.147366 0.711681 0.119973 0.0099331 0.00453068 0.00241753 0.00133731 0.000886121 0.000704239 0.00117105 
804 0.223893 0.640283 0.0858788 0.0345173 0.00892583 0.00228926 0.00152373 0.000914931 0.000644709 0.00112951 
805 0.321736 0.543332 0.122312 0.00321799 0.00710198 0.000849314 0.0004783 0.000316877 0.000271208 0.00038535 
806 0.164203 0.760587 0.0491219 0.00803465 0.00449986 0.00260066 0.00195832 0.00650085 0.000907986 0.00158575 
807 0.325419 0.63029 0.0266501 0.0093153 0.00483202 0.00275126 0.000254279 0.000178581 0.000121055 0.000188034 
808 0.208375 0.720758 0.0559427 0.00819258 0.00156693 0.00320548 0.000638258 0.00050415 0.000313425 0.000503797 
809 0.424028 0.531901 0.0368723 0.0029368 0.00214099 0.00168134 0.000151596 0.000105396 7.14451e-05 0.000110975 
810 0.370734 0.53785 0.0610558 0.0210306 0.00623772 0.00108869 0.000724539 0.000435054 0.000306562 0.000537087 
811 0.116553 0.725954 0.107249 0.0245735 0.0134873 0.00454392 0.00282784 0.0013933 0.00106443 0.00235384 
812 0.134341 0.817546 0.0416509 0.00287034 0.00128988 0.000845401 0.00047971 0.000317811 0.000272008 0.000386487 
813 0.237222 0.532636 0.191022 0.0330633 0.00217553 0.00142583 0.000809064 0.00053601 0.00045876 0.000651836 
814 0.190618 0.799049 0.00859673 0.00134478 0.000149804 8.59895e-05 5.32511e-05 3.73987e-05 2.53515e-05 3.93783e-05 
815 0.1533 0.641986 0.116677 0.02235 0.00908044 0.00651566 0.0294103 0.00299922 0.00197341 0.0157085 
816 0.447254 0.542996 0.00891435 0.000740377 3.70227e-05 1.9017e-05 1.4379e-05 9.18453e-06 5.68666e-06 9.58889e-06 
817 0.173561 0.781747 0.0264169 0.0116595 0.00220661 0.00157677 0.000922422 0.000728741 0.000453051 0.00072823 
818 0.153118 0.643613 0.138386 0.0246662 0.00584499 0.0282032 0.00203283 0.00134673 0.00115264 0.00163774 
819 0.229937 0.662859 0.0906019 0.0147872 0.000889957 0.000329289 0.00020392 0.000143215 9.70812e-05 0.000150796 
820 0.139133 0.667558 0.180314 0.0100795 0.00111645 0.000640983 0.000396944 0.000278777 0.000188975 0.000293534 
821 0.169822 0.674849 0.0988236 0.0521486 0.00149508 0.00100726 0.00067044 0.00040257 0.000283672 0.000496985 
822 0.190289 0.768373 0.0373798 0.00177999 0.000782236 0.000512686 0.000290916 0.000192734 0.000164957 0.000234381 
823 0.415375 0.531107 0.0494972 0.00184541 0.000833349 0.000478455 0.000296295 0.00020809 0.000141058 0.000219105 
824 0.127709 0.675312 0.0969961 0.0471016 0.00909552 0.00657486 0.0164913 0.00303851 0.00193481 0.0157471 
825 0.196146 0.620297 0.164739 0.0082169 0.00214476 0.000965159 0.000597698 0.000419768 0.000284855 0.00618881 
826 0.117061 0.682985 0.115526 0.0191207 0.040931 0.0161014 0.00299318 0.00179719 0.00126639 0.00221868 
827 0.210308 0.669556 0.0650257 0.0322614 0.021782 0.000350786 0.000265093 0.000169328 0.00010484 0.000176782 
828 0.486343 0.509671 0.00210562 0.00124375 0.000578955 2.07761e-05 1.36466e-05 8.71676e-06 5.39703e-06 9.10052e-06 
829 0.210929 0.702243 0.0591271 0.0136016 0.00876014 0.00364851 0.000557393 0.000368966 0.000315791 0.000448695 
830 0.137788 0.859276 0.00184846 0.00074182 0.000132237 7.58868e-05 4.69947e-05 3.30048e-05 2.2373e-05 3.47518e-05 
831 0.156729 0.717757 0.0708184 0.0268611 0.00388681 0.00863401 0.00667689 0.00645044 0.00106308 0.00112271 
832 0.0560679 0.821336 0.112555 0.00604024 0.00137125 0.000925794 0.000616213 0.000370009 0.000260728 0.000456787 
833 0.286568 0.696637 0.0108662 0.00459379 0.000511375 0.000293597 0.000181817 0.000127692 8.65584e-05 0.000134451 
834 0.0338071 0.936839 0.0164892 0.0093893 0.00115921 0.000828387 0.000484611 0.000382857 0.000238019 0.000382589 
835 0.157884 0.67133 0.104891 0.0405977 0.0111668 0.00898899 0.00167772 0.00111168 0.0008835 0.00146913 
836 0.203488 0.623332 0.16811 0.00204304 0.0021042 0.000331685 0.00021397 0.00012848 9.05336e-05 0.000158612 
837 0.125263 0.66227 0.111689 0.05392 0.019805 0.0167156 0.00337001 0.00265825 0.00165261 0.00265639 
838 0.0925657 0.880019 0.0210213 0.00288381 0.0011707 0.000836602 0.000489417 0.000386654 0.000240379 0.000386383 
839 0.501236 0.494069 0.00415264 9.60371e-05 4.41875e-05 4.29629e-05 1.65391e-05 1.57695e-05 9.61079e-06 0.000317024 
840 0.249103 0.722723 0.0247263 0.00177227 0.000554707 0.000394696 0.000262712 0.000157747 0.000111157 0.000194743 
841 0.15997 0.781366 0.0428092 0.00902924 0.00250895 0.0013498 0.00101636 0.000658852 0.000469157 0.000823038 
842 0.065158 0.751855 0.120528 0.0296847 0.0149767 0.00546232 0.00431011 0.00292214 0.00155189 0.00355101 
843 0.105622 0.873233 0.0188897 0.00100518 0.000448942 0.000294241 0.000166963 0.000110614 9.46723e-05 0.000134516 
844 0.445098 0.544881 0.00527642 0.00294023 0.00121085 0.000532299 1.98366e-05 1.87891e-05 9.94659e-06 1.23979e-05 
845 0.133636 0.675065 0.101008 0.0264635 0.0480977 0.00491822 0.00370316 0.00240057 0.0017094 0.00299879 
846 0.0746814 0.632653 0.120957 0.045522 0.0332307 0.0470717 0.0210657 0.00663876 0.00542019 0.0127587 
847 0.123599 0.786353 0.0541286 0.0246225 0.00563905 0.00201817 0.00124673 0.000808192 0.000575499 0.00100959 
848 0.210961 0.61585 0.118819 0.0161899 0.0161885 0.0144813 0.00279054 0.001606 0.00113167 0.00198265 
849 0.14556 0.748036 0.0691826 0.018969 0.00512957 0.00279569 0.00156775 0.00659005 0.000814419 0.00135423 
850 0.0932794 0.197645 0.700757 0.000542239 0.00742046 0.00013112 7.39863e-05 4.90164e-05 4.19522e-05 5.96083e-05 
851 0.194809 0.698204 0.0615065 0.0348013 0.00383571 0.00251396 0.00142651 0.00094507 0.000808867 0.00114929 
852 0.155401 0.828634 0.00999196 0.0032421 0.000538514 0.000352945 0.000200273 0.000132682 0.00011356 0.00139288 
853 0.0870238 0.681075 0.151568 0.0296 0.0325452 0.00561216 0.00439408 0.00297906 0.00158212 0.00362019 
854 0.110655 0.734564 0.0784918 0.0306904 0.0196554 0.0158364 0.00329491 0.00259918 0.00161588 0.00259736 
855 0.127249 0.852772 0.01657 0.00168792 0.000697085 0.000379688 0.000210033 0.000139171 0.000110605 0.00018392 
856 0.173525 0.791937 0.0250668 0.00735981 0.000809252 0.000463916 0.000287291 0.000201767 0.000136772 0.000212447 
857 0.144605 0.713462 0.0817665 0.021877 0.00780665 0.00555476 0.00369979 0.0169233 0.00156452 0.00274072 
858 0.0792276 0.9162 0.00144486 0.00238322 0.000737897 4.40893e-06 1.15008e-06 4.01407e-07 3.92312e-07 5.91798e-07 
859 0.270384 0.627601 0.0563327 0.0158172 0.00175026 0.00170175 0.0128502 0.000626614 0.0125236 0.000412332 
860 0.0886428 0.899728 0.00715832 0.00201561 0.000818814 0.000585138 0.000342309 0.000270434 0.000168126 0.000270245 
861 0.0979467 0.871692 0.0205498 0.00596549 0.00127303 0.000905812 0.000602913 0.000362023 0.000255101 0.000446929 
862 0.312914 0.630665 0.0522133 0.00289285 0.00114513 7.77403e-05 2.9927e-05 2.85344e-05 1.51055e-05 1.88282e-05 
863 0.226767 0.694818 0.0545116 0.0163731 0.00251163 0.00179484 0.00104999 0.000829524 0.000515707 0.000828943 
864 0.0454224 0.934318 0.0175001 0.00178825 0.000393714 0.000214224 0.000118503 7.85217e-05 6.24046e-05 0.00010377 
865 0.0604007 0.803967 0.0950105 0.0153839 0.0125994 0.00394608 0.00260849 0.00220298 0.00139089 0.00249034 
866 0.135903 0.732183 0.0814662 0.0294426 0.00669964 0.00464139 0.00357738 0.00176261 0.00134656 0.00297775 
867 0.203511 0.735668 0.0464875 0.00548295 0.00290526 0.00182465 0.00143976 0.000976119 0.000518397 0.00118619 
868 0.206708 0.720295 0.066189 0.00589908 0.000290555 0.000282477 0.000108743 0.000103683 5.48875e-05 6.84143e-05 
869 0.13616 0.823737 0.0383706 0.000703459 0.000329177 0.000320054 0.000123209 0.000117475 6.2189e-05 7.75152e-05 
870 0.181521 0.650901 0.109902 0.0311734 0.00602496 0.0146014 0.001936 0.0012826 0.00109775 0.00155975 
871 0.106338 0.674119 0.109881 0.0409918 0.0127518 0.0319134 0.00359513 0.00238217 0.0148802 0.00314818 
872 0.148987 0.689628 0.0842443 0.0225814 0.0383048 0.0057231 0.00380932 0.00228733 0.00161177 0.00282378 
873 0.330917 0.633653 0.0241554 0.0045748 0.00214211 0.00208274 0.000801776 0.000764466 0.000404693 0.000504428 
874 0.125851 0.86319 0.00894713 0.00126821 0.000290318 0.000149124 0.000112754 7.20217e-05 4.45927e-05 7.51925e-05 
875 0.0281316 0.378818 0.557036 0.0332055 0.00137283 0.000703228 0.000256328 0.000173779 9.22904e-05 0.000211177 
876 0.0489499 0.905587 0.0408882 0.000888435 0.00297541 0.000276576 0.000143027 9.47564e-05 8.11001e-05 0.000115232 
877 0.546442 0.309232 0.131046 0.00699126 0.00430901 0.00124421 0.000240114 0.000159087 0.000126433 0.00021024 
878 0.215501 0.594484 0.0469076 0.0918798 0.00321798 0.023364 0.0225009 0.000785437 0.000532381 0.000826945 
879 0.274604 0.674949 0.0440748 0.00395622 0.000867622 0.000568633 0.000322662 0.000213766 0.000182958 0.000259958 
880 0.166039 0.514208 0.118299 0.19712 0.00318381 0.00040485 0.00026947 0.000161805 0.000114016 0.000199753 
881 0.0942755 0.702861 0.102015 0.0389111 0.0175243 0.0228899 0.00490787 0.0106826 0.00184737 0.00408518 
882 0.11337 0.79962 0.0742114 0.00534111 0.00128079 0.000916138 0.00415086 0.000423353 0.000262983 0.000422716 
883 0.128142 0.685105 0.088654 0.0249045 0.0254424 0.0204353 0.0079331 0.0139016 0.00214264 0.00333946 
884 0.279497 0.656717 0.0431768 0.0181925 0.000901842 0.000556488 0.000315771 0.0002092 0.00017905 0.000254406 
885 0.15321 0.760885 0.0558325 0.0239545 0.00219736 0.00144016 0.000817195 0.000541397 0.000463371 0.000658387 
886 0.271441 0.711556 0.0154946 0.000403313 0.000809825 0.000105224 6.51625e-05 4.57642e-05 3.10222e-05 4.81866e-05 
887 0.345274 0.648725 0.00386593 0.00165505 0.000230218 9.12677e-05 7.26439e-05 2.98609e-05 2.75013e-05 2.87134e-05 
888 0.235429 0.730586 0.0323463 0.00127075 0.000176444 6.99497e-05 5.5676e-05 2.28861e-05 2.10776e-05 2.20066e-05 
889 0.21214 0.725007 0.0510269 0.0116422 8.84929e-05 3.49749e-05 2.7838e-05 1.14431e-05 1.05388e-05 1.10033e-05 
890 0.137128 0.703054 0.120265 0.0192531 0.00671965 0.00478132 0.00318247 0.00191093 0.00134654 0.0023591 
891 0.131211 0.683787 0.0961788 0.0710016 0.00590067 0.00419693 0.0027935 0.00167737 0.00118197 0.00207077 
892 0.131069 0.772117 0.0639968 0.0181699 0.00488566 0.00349065 0.00204205 0.00161328 0.00100296 0.00161215 
893 0.0916303 0.670949 0.104474 0.0556612 0.0156761 0.0249289 0.00846845 0.0181011 0.00314838 0.00696207 
894 0.0375439 0.260451 0.0172461 0.680412 0.00105196 0.00205443 0.000404195 0.000319135 0.000198403 0.000318911 
895 0.314079 0.62173 0.0552083 0.00597806 0.000682334 0.00151817 0.000292244 0.000174122 0.000122696 0.000214959 
