4370 18 4.70272e-07
23621 32 1.55825e-06
2680 1833 1.487e-06
1720 1898 2.23294e-07
2912 7380 5.95418e-07
713 126 5.63855e-07
1402 3354 1.58474e-07
9 6452 1.37155e-07
117 11823 1.54253e-07
7090 1102 5.68059e-07
7049 1102 2.76445e-06
7281 1675 4.69888e-07
2019 2172 3.1885e-07
567 879 4.73249e-07
23375 5667 6.29619e-06
23349 9423 3.45898e-06
42 4536 1.04512e-07
4752 336 1.65399e-06
23320 1662 1.35148e-06
1178 1668 1.99919e-07
1816 2843 1.63728e-06
1058 867 1.04703e-07
380 345 1.49519e-07
1884 1174 1.12875e-07
4478 32 8.86753e-07
3764 474 1.90444e-07
399 2274 2.70154e-07
1748 1432 6.8539e-07
23272 100 1.72255e-06
2499 1933 3.3317e-07
370 1933 2.93213e-07
2411 640 1.14612e-07
2289 220 1.14992e-07
1181 368 4.77422e-07
64 368 1.39411e-07
2745 222 1.35677e-07
106 900 1.00554e-07
487 709 1.27305e-07
1054 1052 1.11073e-07
2188 186 5.71642e-07
1370 14900 3.86952e-06
1884 14900 1.07379e-07
234 114 1.26887e-07
408 1108 1.8153e-07
570 1702 8.16544e-06
6959 197 2.13431e-06
389 1300 6.11341e-07
700 1300 5.45413e-06
1771 62 1.2471e-07
1771 10434 1.15228e-07
313 725 1.09216e-07
21 2203 1.53978e-07
44 11171 2.23733e-07
27 454 1.08075e-07
1990 105 2.60925e-07
404 1517 1.5078e-06
7644 1517 1.62022e-05
8364 684 4.74983e-06
23002 317 3.0885e-06
3032 3410 6.26528e-07
1448 3410 2.04645e-05
1078 3410 2.63426e-05
2841 1907 5.41211e-07
1183 273 1.15991e-07
15141 3544 1.09609e-05
13229 1602 2.30567e-06
22945 89 4.162e-06
584 1601 4.39512e-07
1990 2679 2.31678e-07
22935 19 2.8181e-06
629 4955 1.19432e-07
6332 920 1.15385e-06
106 2094 1.0373e-07
3801 18 1.23409e-07
5416 396 4.02083e-07
2019 17 2.99529e-07
22893 329 3.29223e-06
22892 329 4.99405e-06
22878 966 2.72112e-06
525 966 8.2148e-07
1972 844 2.46044e-06
548 403 1.37437e-07
22872 14715 5.88412e-06
22864 1378 1.41398e-05
6816 1378 1.53978e-06
42 443 2.80492e-07
4699 262 1.50399e-07
1117 3 1.20959e-06
352 404 2.37482e-06
8321 2306 6.48552e-07
1930 1517 2.30003e-07
811 58 1.43816e-07
13098 105 8.63114e-07
5141 92 4.33737e-07
1518 1513 2.04157e-07
621 312 6.23872e-06
101 14690 1.15864e-07
64 14690 1.34879e-07
2002 49 8.11266e-06
870 8458 1.00976e-07
1275 20 1.76667e-07
1438 2236 1.02834e-07
2457 14621 1.42471e-07
12953 5618 1.13589e-06
677 2628 3.32286e-07
4453 614 1.82637e-07
9498 1811 1.17478e-06
700 3866 1.17446e-07
2121 565 1.29407e-07
790 1382 1.30623e-07
6687 529 3.68372e-07
2971 14634 1.20544e-06
1633 1075 1.82627e-07
320 7263 2.76742e-07
21936 12 1.82554e-06
3059 25 2.01e-07
380 41 1.22319e-07
1215 5559 3.39162e-07
382 2612 1.72849e-07
2800 40 2.34446e-07
2117 40 1.57874e-07
11308 225 2.36172e-06
3048 237 4.54554e-07
3527 5559 1.18907e-07
3518 1685 5.53717e-07
22599 237 1.56473e-06
22599 1173 1.61068e-06
72 1651 1.44288e-07
1095 212 1.04534e-07
1186 699 8.36368e-07
3040 868 3.34388e-06
2253 868 6.15778e-07
3637 396 6.0597e-07
1605 270 1.55276e-06
2676 74 9.35945e-07
208 2577 3.99927e-07
0 2577 1.44298e-07
101 5932 2.58158e-07
667 749 1.04146e-06
124 125 1.50073e-07
23 410 1.21276e-07
8011 410 9.32889e-06
6810 625 7.53559e-07
161 1524 1.31296e-07
1410 1098 0.00897845
22432 40 3.52136e-06
699 359 1.12238e-07
145 608 1.35685e-07
3275 398 3.02787e-06
1647 300 5.96903e-07
1647 230 9.27851e-07
2199 6252 1.74983e-07
1080 566 2.94533e-07
0 4793 1.1169e-07
1204 320 1.15447e-07
2351 358 1.55621e-07
1263 1387 2.06166e-07
1998 345 1.38078e-07
3837 44 3.36271e-07
779 5435 3.96225e-07
23 5435 4.73972e-07
140 5435 1.71478e-07
13032 25 2.45143e-06
275 455 1.20824e-07
1232 90 1.19712e-07
22298 385 1.28963e-05
625 868 1.07722e-07
22265 13261 7.60766e-06
22264 14395 8.1617e-06
9685 2044 4.91073e-07
6635 5435 4.27796e-07
1964 1757 1.27478e-07
2357 88 1.87198e-07
12736 231 2.12025e-06
3042 145 9.53861e-07
14754 14282 2.27243e-06
28 14282 4.7726e-07
2165 349 5.37529e-07
1288 349 2.51361e-07
1054 349 1.61133e-07
2180 349 1.21921e-06
8157 320 6.77046e-07
4461 283 5.2702e-07
22087 9936 1.59445e-06
1930 14279 1.16209e-07
4597 14266 2.80078e-07
596 1412 1.46962e-07
5001 397 1.09026e-07
64 3739 1.34387e-07
14041 3778 1.25235e-06
6945 4423 8.44624e-07
21970 29 3.11202e-06
7826 499 1.95505e-06
7198 2223 5.20434e-07
11376 614 1.1873e-06
783 714 2.91179e-07
783 251 1.05011e-07
1054 471 2.28313e-07
13488 225 1.52527e-06
2561 843 2.72486e-07
625 3872 1.26733e-07
4374 100 4.8621e-07
496 914 1.68925e-07
13074 100 1.31192e-06
13074 40 5.22786e-06
512 7264 1.41226e-07
1954 7523 0.000151192
1370 7523 2.34731e-05
3053 7523 1.59193e-05
9 329 1.84134e-07
483 163 1.01297e-07
229 442 2.96541e-07
2468 13079 1.59364e-07
2015 861 7.76341e-07
2217 4131 3.61965e-07
475 1812 3.73435e-07
1323 237 4.14264e-07
1183 186 1.1576e-07
5449 18 2.50071e-07
3323 18 1.4766e-07
1214 273 1.87902e-07
395 1483 3.08981e-07
958 6563 1.01496e-07
1011 172 1.00543e-07
527 172 1.0056e-06
673 809 1.32931e-07
408 998 1.1549e-07
16809 998 3.73041e-06
7349 1919 6.32006e-07
8301 197 1.59168e-06
2703 273 3.42812e-07
12007 5377 1.70964e-06
17635 9917 4.84069e-06
21645 3189 2.21346e-06
6519 175 7.45563e-06
667 175 1.66879e-07
7232 175 1.06703e-06
21639 175 1.79202e-06
867 157 3.6098e-06
31 11234 1.24671e-07
5141 423 4.21014e-07
6559 1188 1.94215e-06
2580 385 3.46834e-07
4984 126 2.38094e-07
542 135 1.94947e-07
6305 13946 1.23358e-07
3965 4044 2.02459e-06
1200 37 2.1721e-07
0 5573 1.7638e-07
3769 2875 4.31457e-07
5306 656 6.60374e-07
5322 1286 2.95361e-07
4267 9480 1.10657e-06
5604 9480 9.86691e-06
3936 13129 2.68896e-06
943 13655 1.15621e-07
6996 619 6.81631e-07
1129 614 1.32231e-07
864 6479 1.32901e-07
4113 5934 5.04162e-07
3199 116 3.2624e-07
1204 2080 1.00614e-07
8719 2306 3.38633e-07
203 1011 1.04662e-07
21325 134 3.44082e-06
10791 262 2.85551e-07
1597 44 1.8321e-07
4439 392 1.79301e-06
4439 372 2.39034e-06
21291 271 2.71413e-05
21288 271 3.92539e-06
3321 2237 1.82747e-07
725 7032 1.33624e-07
1185 114 1.23041e-07
19380 114 2.03779e-06
564 13820 3.28191e-07
42 13820 3.02695e-06
242 13820 0.0010643
21203 13820 4.35472e-06
0 13820 1.71598e-07
11927 1421 1.17867e-06
549 141 5.3771e-07
2457 13708 1.11474e-07
1849 313 1.12678e-07
66 115 1.59844e-07
9786 411 9.24609e-07
1846 4834 1.19168e-07
10349 120 1.26689e-06
21102 102 2.18654e-06
21094 13747 6.39298e-05
4094 13747 4.3997e-06
249 13747 1.0745e-06
954 13747 2.58574e-06
7619 13747 0.000113019
5532 1420 4.49559e-07
6627 379 1.00252e-06
2019 2694 3.57709e-07
1479 41 1.4746e-07
577 1524 1.07837e-07
9551 1524 5.65238e-07
1186 2730 1.43307e-07
601 120 1.78997e-07
21028 167 2.14805e-06
887 8614 3.13797e-07
20942 8614 3.83317e-06
661 7875 1.08585e-07
939 864 3.44534e-07
123 171 2.51048e-07
20961 197 1.73421e-06
4546 197 3.00288e-07
20956 449 2.70713e-06
766 225 1.32483e-07
2217 12 2.01134e-07
4878 307 3.83711e-05
9 307 3.1308e-07
5 307 1.30201e-07
12656 307 0.000133675
936 307 1.30455e-06
427 307 1.42657e-07
1940 4248 2.69983e-07
10076 4248 9.44518e-07
9688 225 1.52708e-06
10 37 1.19628e-07
1911 543 3.30162e-07
15702 473 2.32688e-07
2121 1722 1.19012e-07
1174 6514 5.02742e-07
3609 231 8.61266e-07
1255 579 2.71425e-07
3528 1110 1.10589e-07
3883 385 2.59883e-07
6280 20 1.02878e-06
11770 4090 8.86803e-06
4306 4438 2.77414e-07
2873 230 4.97405e-07
387 5708 1.02029e-07
114 273 1.03154e-07
20729 1440 2.04448e-06
1461 237 1.54332e-07
353 345 1.31098e-07
558 599 2.5852e-07
700 345 6.40763e-07
700 599 1.6671e-06
958 345 1.25396e-07
1951 225 5.80297e-07
619 13493 1.11135e-07
42 13492 2.47258e-07
5591 8754 1.00063e-06
518 1541 1.20279e-05
148 1541 2.02235e-06
9147 2478 1.75144e-06
302 452 1.13997e-07
6480 452 3.95722e-06
6811 237 1.56791e-06
1322 12 1.17047e-07
781 2915 1.41607e-07
1235 6856 1.27356e-07
1235 209 1.51371e-07
408 667 1.18645e-07
3022 1558 1.07557e-06
43 6793 1.25473e-07
1779 1167 1.96679e-07
515 1167 5.31382e-07
196 273 3.84149e-07
20537 328 1.23972e-06
581 2103 1.01972e-07
1416 2355 1.04443e-07
331 210 1.34172e-07
385 2757 4.24308e-07
20510 3536 3.0303e-06
2841 1830 3.05156e-07
14096 212 1.5374e-06
1077 82 1.0054e-07
5416 209 3.50785e-07
5 82 3.62329e-07
310 82 0.00394252
2464 82 6.43959e-05
46 82 1.14957e-06
14059 82 0.00180698
5264 82 6.45991e-06
1012 82 5.0712e-07
155 82 1.61752e-06
3 82 1.53787e-07
846 82 2.52313e-07
9 82 1.05183e-07
13705 82 7.68006e-06
917 82 2.48144e-07
3088 1761 3.59919e-07
3653 1236 2.62117e-06
3629 90 3.32643e-07
5357 2959 1.04812e-07
414 1286 2.8863e-07
38 966 1.15439e-07
1024 163 1.66763e-07
1501 163 2.89262e-07
3498 76 7.42974e-07
9409 32 2.1293e-06
48 210 1.1234e-07
354 3415 1.31464e-07
7290 557 1.4144e-07
8794 8178 4.28644e-07
1051 3999 1.01426e-07
5204 2568 1.68118e-06
221 13316 1.13132e-07
3122 26 3.09488e-07
955 836 1.3702e-07
3323 7253 1.81313e-07
1322 40 1.82176e-07
89 1308 5.89982e-07
847 178 1.02003e-06
11185 1263 1.14751e-06
970 543 2.78274e-07
894 543 1.48366e-07
1843 543 3.91967e-07
1884 543 1.66717e-07
9107 80 8.44739e-07
11359 3661 2.63138e-06
1078 10857 1.13016e-07
6387 922 9.06502e-07
624 78 1.02329e-07
4607 909 1.01024e-06
1173 423 1.0907e-07
1817 336 2.81484e-07
17851 897 1.41899e-06
8415 897 2.56588e-06
5997 897 3.7314e-06
1297 313 2.00511e-07
209 325 7.39593e-07
3696 325 3.44208e-07
9180 211 2.53335e-06
8457 1096 8.2034e-07
1077 1470 2.75556e-07
297 1804 1.3097e-06
723 1804 6.67033e-07
1392 1804 1.2971e-05
217 1804 5.80035e-07
239 1804 1.81072e-06
1749 2597 1.58752e-07
2308 543 6.82294e-07
335 1211 1.02218e-07
7459 37 1.15218e-06
7459 6037 7.18605e-07
703 30 1.57919e-06
2393 273 3.54529e-07
16953 2479 1.46219e-06
1371 1813 6.38499e-07
2184 2407 5.74957e-07
3391 11925 2.07948e-07
1479 44 1.08224e-07
817 772 1.60137e-07
2888 772 2.02031e-07
18 398 1.29144e-07
14792 176 5.46883e-07
2726 8488 2.30992e-07
141 1220 1.36236e-07
402 1220 1.04864e-07
1251 689 4.13248e-07
19981 689 3.53923e-06
2689 7254 4.49826e-07
8480 616 1.26182e-06
447 956 7.69515e-07
4037 62 1.05236e-06
19917 620 5.97642e-06
331 1480 1.25557e-07
6682 924 3.44474e-07
60 2864 1.0117e-07
205 13011 5.39585e-07
205 61 1.79396e-07
1195 13011 6.45475e-07
654 2568 1.03475e-07
1058 4223 1.06323e-07
160 311 6.24436e-07
640 114 1.14253e-07
19808 640 6.93684e-06
7825 42 1.68862e-06
2311 360 5.62365e-07
180 2589 1.03946e-07
2433 5028 5.53945e-07
2499 940 1.18485e-07
370 10221 2.22595e-07
1698 449 1.03256e-07
5275 3945 4.21073e-07
19685 76 5.69437e-06
19645 694 1.01192e-05
1293 19 1.70256e-06
1772 1275 7.6695e-07
9804 141 3.17368e-06
34 1205 1.06732e-07
694 32 1.60616e-07
1651 2273 1.75186e-07
31 58 1.20583e-07
3347 1687 3.80319e-07
25 830 1.01756e-07
888 830 5.15005e-07
164 1728 1.21303e-07
9620 1728 3.29295e-06
4771 1767 3.76667e-07
1164 830 1.02983e-07
1446 1353 2.57436e-07
1316 758 2.82995e-07
8669 758 6.71304e-07
3507 1675 4.94488e-07
16330 12827 8.30417e-07
894 6 1.40875e-07
1178 897 1.63942e-07
8374 523 1.02889e-06
1560 543 2.49819e-07
812 209 2.14706e-07
318 925 1.48127e-07
445 1517 1.03302e-07
11994 385 1.52594e-06
6061 10020 1.13347e-05
6055 12789 9.7877e-07
19437 3564 2.53045e-06
6568 4335 5.46907e-07
10946 6743 1.07949e-06
3121 276 2.70578e-07
582 78 7.13331e-07
19394 112 1.38513e-06
4564 4851 7.88802e-07
2368 331 1.01061e-07
3533 6302 1.39481e-07
13028 1805 2.18701e-06
10933 1805 3.46991e-06
10933 58 1.94262e-06
515 1957 3.7432e-06
672 1957 7.19722e-07
280 116 3.02707e-07
319 1088 1.02083e-07
1201 237 5.57381e-07
10599 414 5.40214e-07
1270 134 2.63128e-07
1938 6130 1.49585e-07
114 1423 6.51415e-06
1197 1423 4.66002e-07
6869 126 7.54072e-07
284 916 2.33375e-07
934 1072 3.23077e-07
1565 39 1.08183e-07
1173 1115 1.40134e-07
19301 260 3.71481e-06
780 624 2.43831e-07
19280 337 4.38029e-06
73 2245 3.653e-07
2908 141 5.78597e-06
1770 141 1.87877e-07
233 141 1.25944e-07
9119 155 1.06604e-06
995 4820 3.38576e-07
19186 58 8.48384e-06
2935 58 1.5888e-06
105 2604 3.28849e-07
1892 3801 2.47058e-07
14256 640 5.35028e-06
134 2121 2.12261e-07
5043 265 1.24996e-06
3116 6566 1.15415e-07
16116 8459 4.6049e-06
1297 296 2.05836e-07
64 6992 1.54319e-07
2914 6992 2.89568e-07
8380 2606 7.30371e-07
7198 325 1.48833e-06
1201 694 5.55876e-07
5192 196 2.47399e-07
1609 1215 1.5407e-07
2682 1215 3.58682e-07
6559 1963 2.83652e-07
1127 816 1.61807e-07
219 816 1.73643e-07
18 1049 4.19971e-07
152 1049 2.20647e-07
233 1049 5.57813e-07
19088 17 7.10356e-06
1479 2035 1.0769e-07
333 163 9.71445e-07
1890 167 1.23184e-07
4955 1913 7.54116e-07
632 1099 1.06311e-07
4376 6490 8.849e-07
436 1296 1.24492e-07
2620 44 6.63773e-07
733 134 1.73794e-07
733 225 1.32005e-07
4379 17 1.50217e-06
7072 5189 1.03582e-06
779 616 1.45286e-07
2926 396 1.62574e-07
2020 396 1.34496e-07
18845 844 1.75995e-06
2208 276 2.25405e-07
1012 1182 1.13401e-07
17562 2181 5.15774e-07
767 613 2.17719e-07
1570 2762 1.00097e-07
2026 1183 1.48072e-07
14632 136 1.32184e-06
1060 411 1.06123e-07
7102 1653 1.7084e-06
9816 1057 2.2995e-06
1816 1057 5.23564e-06
85 1057 1.33693e-07
1809 101 7.95786e-07
380 523 1.21206e-07
2993 209 1.28347e-07
17653 26 2.40407e-06
18715 22 1.40096e-05
362 4067 1.03611e-07
7459 372 2.68617e-07
3502 8513 4.70846e-07
221 433 1.0879e-07
8627 2870 1.15178e-06
4272 3701 2.1767e-06
8582 237 5.13973e-07
8582 268 7.50339e-07
7263 1541 5.64791e-07
1736 1115 1.17131e-07
1251 5669 1.58294e-07
2438 3226 3.61693e-07
2912 311 5.88364e-07
284 417 1.05777e-07
82 311 6.89166e-07
2371 6411 3.64961e-07
437 804 1.87015e-07
484 886 1.12589e-07
8420 74 8.8784e-07
2126 515 3.42743e-07
4 6692 1.41177e-05
1835 126 1.0972e-07
846 404 1.64435e-07
2066 816 2.39464e-07
17958 1029 1.12632e-06
229 78 1.72282e-07
1232 7485 1.09718e-07
407 1300 1.09685e-07
1097 1651 8.35689e-07
3111 328 2.27446e-07
7841 7155 4.53439e-07
3149 1613 2.03075e-06
28 897 3.87351e-07
10179 1097 5.21312e-07
526 12 6.79168e-07
1829 683 8.35282e-07
1829 260 8.26119e-07
7998 3324 3.33823e-06
269 3324 1.36572e-07
1313 32 7.40922e-07
318 433 1.04501e-07
2908 30 5.03392e-07
3099 176 2.49285e-07
1467 1088 1.14873e-07
1467 11412 1.00203e-07
6235 1294 6.18456e-07
1560 273 1.26132e-07
11223 2454 4.82558e-07
409 36 1.06669e-07
651 4335 1.18859e-07
625 4335 1.18402e-07
8181 3731 6.56318e-07
325 219 1.3241e-07
18 219 2.83683e-07
1547 219 1.89049e-07
16771 219 1.70428e-05
18121 219 1.74594e-05
761 219 5.65184e-07
995 2001 2.94808e-07
1693 2449 1.35857e-07
2465 566 8.02522e-07
208 397 2.14657e-07
18072 74 2.61339e-06
3236 7103 2.78342e-07
821 535 2.19322e-07
4241 1263 4.99023e-06
3294 1382 1.2647e-07
872 3 8.16696e-07
1651 2456 1.40928e-07
140 225 1.98585e-07
73 3479 1.01878e-07
2465 214 1.79014e-06
4228 1765 3.91149e-07
8681 1765 8.4793e-07
2140 1734 1.54288e-07
183 9953 2.01676e-07
1633 9953 3.92669e-07
69 1199 1.10631e-07
20 1199 1.19297e-07
1434 982 1.08834e-07
1878 80 2.0461e-07
1368 214 1.21781e-07
2251 11884 1.56441e-07
709 5497 1.1649e-07
1547 1495 1.05046e-07
1257 354 1.33398e-07
234 616 3.04924e-07
487 977 2.1184e-07
886 1607 1.09775e-07
4710 181 8.50254e-07
1873 44 2.02259e-07
4862 1229 2.15499e-06
2019 2205 2.96486e-07
742 1228 6.69721e-07
217 22 1.27363e-07
99 2892 1.47965e-07
1516 320 1.36053e-06
9038 2035 2.1517e-06
1911 328 3.59526e-07
1919 155 1.63753e-06
1919 372 2.34285e-07
12734 6 2.27e-06
174 1178 1.10786e-07
3026 311 6.64589e-07
1718 1540 1.27914e-07
949 32 1.0516e-07
253 11780 1.00353e-07
2419 11780 2.73343e-07
14969 172 3.57516e-06
2562 172 6.70804e-07
1378 225 2.39606e-07
191 222 1.55143e-07
307 222 1.20136e-07
3526 573 3.5857e-07
399 6448 1.16335e-05
864 2481 1.00274e-06
12649 2418 8.18915e-07
16900 2999 0.000106713
4192 7730 2.09349e-06
73 2999 3.57951e-07
1314 2999 4.16951e-05
3681 2999 0.000232391
1708 2999 2.42083e-06
2522 2999 1.4256e-06
0 2999 1.65689e-07
6615 6616 1.42049e-06
407 6616 1.97065e-07
1104 6616 1.88845e-06
301 163 1.19507e-07
1316 11733 3.0928e-07
1759 950 7.11454e-07
42 950 2.13123e-07
0 950 2.19004e-07
246 1643 2.56821e-07
3028 416 1.88288e-07
8719 7745 3.90766e-07
1277 330 4.0295e-07
646 6508 3.69482e-07
172 11660 1.22517e-07
7012 237 8.89263e-07
1974 1034 2.66847e-06
1338 87 1.27492e-07
73 694 1.00249e-07
4 714 1.63463e-07
4 166 1.25279e-07
1971 1040 2.31568e-07
723 87 1.06728e-07
4955 412 2.26792e-06
180 412 6.63655e-06
6661 412 1.68181e-06
3273 5862 9.10817e-07
2454 694 1.33542e-07
17409 313 1.26636e-06
76 223 2.32843e-07
17355 197 1.30931e-06
2063 972 6.23822e-07
1757 11560 1.31099e-07
2289 2560 1.42221e-07
8647 3 1.55418e-06
822 704 5.01428e-07
1693 1288 1.58191e-07
2338 2214 6.16926e-07
1056 2094 1.00806e-07
17301 1860 1.38585e-06
709 379 1.31389e-07
1585 37 2.05587e-07
2554 3764 1.2365e-07
1765 2853 5.86548e-07
1255 1268 1.13909e-07
12 4809 1.22055e-07
2464 264 1.18861e-06
1142 1237 4.47454e-07
4989 178 8.0904e-07
7147 396 1.3288e-06
3199 396 9.09709e-07
781 32 2.78631e-07
3 1695 1.26321e-07
6305 10134 1.3701e-07
6571 3185 2.0815e-07
28 1990 2.22136e-07
5201 7033 2.42821e-07
3580 1199 3.28266e-07
142 1044 2.0884e-07
1892 5974 2.33476e-07
11447 1173 1.23317e-06
584 5192 2.89445e-07
4182 5016 2.56051e-07
9 1758 2.2935e-07
1397 266 1.82565e-07
5977 1409 6.11111e-07
1053 5029 1.71092e-07
554 11462 9.76281e-07
230 411 2.31533e-07
328 172 1.01605e-07
5967 196 1.27995e-06
367 196 5.50505e-07
2604 196 2.24744e-07
334 1933 1.49857e-07
1618 4015 1.00065e-07
17077 19 3.13259e-06
17056 41 3.44871e-06
0 2300 1.01138e-07
577 3390 2.37667e-06
22 3390 7.98242e-07
1142 1199 1.2556e-07
1618 1034 1.29612e-07
894 6823 5.79479e-07
4642 2905 2.22863e-06
64 3971 1.15282e-07
871 698 1.72252e-07
4167 58 2.89701e-07
1175 278 1.18229e-07
73 3370 1.20229e-07
2894 322 4.94398e-07
7129 1589 1.08441e-07
1618 291 1.31036e-07
16946 291 2.4886e-06
704 140 1.44317e-07
779 140 2.34611e-07
1171 710 5.79704e-05
16925 984 7.57699e-06
13490 984 5.28905e-06
6465 11234 2.45761e-07
235 1044 1.09325e-07
3388 11271 2.03878e-06
894 2058 1.01728e-07
88 516 1.65898e-07
272 490 7.25778e-06
376 490 2.61023e-07
414 490 3.73997e-06
10546 490 1.03237e-06
4013 490 1.8371e-05
8896 396 2.19389e-07
6465 318 1.89687e-07
3878 11275 1.94601e-06
667 846 1.06601e-07
4638 1908 7.00068e-07
161 140 2.9638e-07
1741 498 1.41471e-07
1356 454 1.60683e-06
234 454 1.86288e-07
3473 454 1.51502e-06
668 225 9.97386e-07
4017 114 4.61945e-07
654 71 1.00662e-07
5776 349 9.69366e-07
16743 11206 3.22101e-06
643 897 1.0315e-07
790 3604 1.16219e-07
978 359 2.36488e-07
1857 768 2.15937e-07
894 5309 1.11759e-07
16652 850 3.76988e-06
625 966 1.27612e-07
1295 6526 2.60563e-07
504 1114 3.32601e-07
3430 17 9.4131e-07
1087 4335 1.83421e-07
660 251 2.23806e-07
17 2679 1.09768e-07
15655 1993 7.93347e-07
2621 116 9.58348e-07
12662 11154 4.05197e-07
140 927 1.61359e-07
385 927 4.38171e-07
2229 334 2.31103e-07
20 1178 1.23334e-07
9 4648 1.44953e-07
12 4648 1.22536e-07
151 345 1.0425e-07
402 4370 1.22499e-07
2907 178 6.41543e-07
43 3054 2.84773e-07
2590 89 1.91452e-07
1020 225 2.39376e-07
2087 225 8.95033e-07
2558 304 1.56008e-07
2858 1880 5.40729e-07
1292 2452 4.35218e-07
2904 7977 1.06658e-06
2164 396 5.07895e-07
16409 37 4.64283e-06
16409 90 3.67205e-06
16409 163 0.0502184
16409 449 5.06059e-06
1636 1318 1.23632e-07
142 1381 2.47568e-07
993 2892 1.17688e-07
1186 6113 1.4485e-07
16325 2045 5.69306e-06
28 10942 2.83446e-07
1080 2045 1.48487e-07
5347 9609 5.41211e-07
14672 349 1.69945e-07
10049 551 1.53637e-06
11550 551 4.51495e-07
16281 3185 1.74213e-06
10547 1283 4.25701e-06
1075 665 1.0119e-07
1559 30 2.04908e-07
496 529 1.17234e-07
856 529 1.0014e-07
11986 499 7.5706e-07
1186 320 1.20077e-07
3530 312 3.72279e-07
1197 1382 1.2123e-07
6085 2198 9.8539e-07
1484 1275 1.05242e-07
2301 523 1.0672e-07
2130 1011 3.53946e-07
384 71 1.34161e-07
890 966 1.02782e-07
122 1115 8.48474e-07
7073 1115 5.03984e-07
1645 88 1.93047e-07
2843 3415 2.32932e-07
925 2583 1.3597e-07
925 1524 1.16043e-07
581 1524 1.01387e-07
131 3945 7.14832e-07
155 3945 2.05077e-07
4597 5343 4.0045e-07
1428 4456 2.19047e-07
3253 3704 9.20395e-07
1590 3704 1.62611e-06
1967 266 1.48913e-06
0 307 1.63855e-07
2102 37 1.20324e-07
1341 1213 2.02247e-07
882 136 1.50261e-07
1425 40 1.44136e-07
3551 920 4.6157e-07
742 1670 2.55858e-07
14803 6170 1.22639e-06
14803 253 6.02491e-06
1276 823 1.8147e-07
9 823 1.17609e-07
6279 823 7.00446e-05
4187 4000 8.05288e-06
1153 86 1.0738e-07
183 1251 1.4211e-07
2058 828 3.00895e-07
15713 328 4.64726e-06
187 433 3.45942e-07
6055 10560 2.10346e-06
15636 1034 1.42548e-06
64 2181 1.60416e-07
225 12 1.13343e-07
389 1697 1.04907e-07
4877 178 5.98612e-07
210 1115 1.27133e-07
1255 10500 1.09974e-07
1095 82 2.00419e-07
704 82 1.24163e-07
4457 10484 8.45e-07
31 523 4.82284e-05
1710 523 3.11823e-07
1439 523 1.28106e-07
51 523 4.28419e-07
20 523 1.90203e-07
715 523 1.14335e-07
1622 523 3.06818e-06
637 311 0.00236209
243 18 1.85085e-07
2975 490 2.04319e-07
361 237 1.06844e-07
797 155 1.45916e-07
6613 155 2.18647e-06
751 219 2.59649e-07
15484 311 6.92583e-06
2238 1945 1.54869e-07
7515 1893 5.81197e-07
2163 1025 1.14159e-06
3054 768 6.464e-06
3054 1011 0.00073797
43 1011 5.4362e-07
15436 1011 1.68519e-05
18 1011 5.3133e-07
1175 768 3.95029e-07
1175 1011 8.28942e-06
314 768 1.30006e-07
314 1011 2.72809e-06
422 768 4.0143e-07
422 1011 8.42373e-06
619 1011 8.72511e-06
25 1011 1.03673e-07
3497 768 1.46966e-05
3497 1011 0.000308399
1834 768 6.37697e-06
1834 1011 0.000133816
9 1011 1.04409e-07
1697 1174 1.07668e-07
2115 557 4.87639e-07
1461 1305 1.75542e-07
525 98 2.2627e-07
8714 5641 1.07483e-06
2426 10373 2.13481e-07
4585 3605 1.93515e-07
2008 90 2.43629e-07
949 188 1.17891e-07
1504 228 1.23256e-07
723 370 1.03504e-07
140 320 1.12409e-07
4200 320 4.64754e-06
10284 320 5.71098e-07
14628 178 8.87094e-07
232 510 2.12683e-07
5368 631 6.02882e-07
9685 385 4.3844e-07
3960 1483 4.01552e-07
9859 2045 6.57913e-07
15140 6 1.96997e-06
3483 2034 2.75379e-07
780 1459 1.9682e-07
15128 473 3.03489e-05
4587 1378 6.91597e-07
4587 473 9.70688e-07
2610 3187 3.75718e-07
225 473 1.6571e-07
15127 3187 5.91522e-06
270 7659 1.28915e-07
5032 10237 5.39836e-07
15090 555 2.49305e-06
2309 399 2.2709e-07
1100 510 2.39008e-07
477 510 2.0957e-07
1446 78 1.88703e-07
9688 4202 5.55046e-07
44 4202 1.30107e-07
1625 1664 1.10893e-06
1497 1126 1.98877e-07
7529 958 2.61523e-06
4018 4187 4.79385e-07
27 385 1.276e-07
46 1625 1.8132e-07
725 1352 1.1054e-07
1728 1352 1.34966e-07
7074 41 1.83699e-06
408 747 1.33401e-07
9997 440 8.70548e-07
3069 6770 2.49289e-07
3362 86 8.85508e-07
2898 462 6.17785e-07
362 26 1.08171e-07
14897 28 1.84564e-06
3276 1316 1.21965e-07
6117 1316 7.53462e-07
305 850 6.06314e-07
345 66 1.03125e-07
1341 1973 2.26094e-07
191 724 1.61076e-07
10641 724 3.6613e-05
149 724 1.12432e-05
42 724 2.24683e-07
1909 3544 1.68291e-07
199 12 1.41406e-07
571 134 1.65232e-07
0 2582 1.29e-07
3430 22 9.41926e-07
75 683 1.03264e-07
4597 562 2.23558e-07
3483 562 2.94325e-07
4597 2214 1.968e-07
8621 1798 7.11846e-07
3162 10068 2.42336e-07
413 6369 1.11098e-07
5340 6369 1.02269e-06
10389 396 2.09615e-07
9043 10033 2.81884e-06
477 64 2.84424e-07
14726 90 1.98924e-06
864 1590 1.06199e-07
2287 2012 1.23554e-07
568 2083 4.36291e-06
149 2083 1.05057e-06
2809 10001 4.92465e-06
600 10001 4.31668e-07
9356 10001 4.89444e-06
53 3731 1.60118e-07
2550 240 2.77008e-07
3509 1918 8.73159e-07
1173 1659 1.18436e-07
271 9968 1.05098e-07
994 2648 1.01014e-07
1570 2648 1.17191e-07
0 3054 1.44985e-07
63 552 1.3641e-07
1766 260 7.72689e-07
44 1457 1.13314e-07
6687 631 3.44931e-07
1481 2678 3.77157e-07
700 2678 1.63062e-07
9531 1425 2.05709e-06
1518 1472 1.00777e-07
4310 396 7.2891e-07
5505 987 2.97446e-07
603 987 2.04412e-07
14395 9817 5.67581e-06
360 3308 2.88969e-07
14394 9817 2.06597e-05
1909 9817 2.04467e-06
1231 2044 4.08604e-05
1370 2044 1.28202e-05
14325 4466 2.60714e-06
11631 473 1.83592e-06
14318 473 5.63484e-06
6910 9756 1.63154e-06
402 4635 1.82274e-07
2138 1744 2.33307e-07
13736 225 2.35045e-06
514 980 3.41634e-07
9240 987 2.02455e-06
2284 987 3.59917e-07
4158 9630 7.42746e-07
6900 9631 8.10378e-07
6900 9630 1.10029e-06
5449 62 3.04552e-07
548 106 1.04259e-07
936 614 2.84086e-06
210 614 2.26671e-07
14072 897 1.37458e-06
5839 897 1.26633e-06
48 630 1.60044e-07
46 630 2.30678e-07
2440 9565 9.53256e-07
644 551 1.31744e-07
1642 2075 1.00232e-07
1206 643 2.98356e-07
1077 4239 9.06905e-07
85 4239 2.17322e-06
1320 4239 1.98827e-06
3214 472 3.67355e-07
4675 19 2.95587e-07
1504 3487 1.18924e-07
563 900 1.06486e-07
307 223 1.07084e-07
2083 396 3.51439e-06
42 396 1.34822e-07
2292 209 7.12575e-07
25 5649 2.04318e-07
13583 9442 2.49178e-06
13779 9442 4.71594e-06
191 1659 1.02039e-07
6454 9336 6.49244e-07
6588 1110 7.12266e-07
1973 1656 4.69084e-07
6819 637 6.7443e-07
12 61 1.42466e-07
394 89 1.0344e-07
3321 26 1.21842e-07
620 3043 2.94021e-07
318 234 2.72678e-06
2620 234 1.3177e-06
994 3244 1.08389e-07
781 1754 2.54932e-07
13669 155 2.36129e-06
1315 725 1.04649e-06
5 725 2.75724e-07
7253 725 2.76709e-05
85 725 8.17183e-07
2900 725 1.01253e-06
890 7557 1.19821e-07
140 774 1.05548e-07
5416 114 3.02514e-07
141 1097 1.44204e-07
1324 197 1.45309e-07
409 1688 1.51559e-06
75 230 1.15674e-07
3407 230 1.49412e-07
204 1236 1.47615e-07
870 276 1.71543e-07
13387 120 2.62568e-06
3276 1440 1.31199e-07
8436 636 7.67239e-07
515 636 4.32348e-07
305 18 2.64667e-07
203 18 4.03106e-07
1439 329 1.16835e-07
1194 329 1.52566e-06
4464 134 1.69512e-07
1518 398 1.20387e-07
8258 398 5.96653e-07
13306 398 5.54601e-07
236 659 1.17628e-07
1263 3400 2.28542e-07
2102 184 6.64805e-07
2102 9061 3.08487e-07
9999 9061 1.08845e-06
607 9061 2.28305e-07
2022 9061 4.2305e-07
2108 9061 8.70941e-07
4219 112 2.32608e-07
219 116 1.29264e-07
4616 2563 8.21657e-07
733 709 1.03332e-07
480 709 1.51312e-06
3549 1672 4.68064e-07
2310 100 2.49704e-07
2051 581 3.64874e-07
2289 4339 1.21999e-07
1983 4339 2.31843e-07
261 8975 1.14193e-07
1969 90 1.09524e-07
5263 1164 1.48397e-06
2505 90 5.53652e-07
4097 850 2.78353e-07
2558 850 4.24728e-07
2558 1558 2.87238e-07
13069 966 5.23178e-06
3162 809 2.95286e-07
5305 32 1.04719e-06
1379 2071 1.32902e-07
12986 313 7.71716e-07
12989 2248 1.44375e-06
563 8952 1.33093e-07
2946 379 3.82062e-06
66 2404 4.09683e-06
48 2404 1.97603e-07
5299 1091 1.0516e-06
483 8805 4.02693e-07
2290 1091 4.47256e-07
483 1091 5.213e-06
73 1091 1.2275e-07
548 49 2.77786e-07
344 1601 1.14178e-07
1370 251 1.19906e-07
12867 1117 2.89572e-06
42 3093 1.21792e-07
18 412 1.59892e-07
2890 90 5.49679e-07
515 41 2.60889e-07
494 454 9.40472e-07
567 543 1.03322e-07
8003 3698 6.34022e-07
8698 1220 1.54937e-06
1576 6540 1.81434e-07
6588 416 1.78868e-07
3873 1116 2.7146e-07
451 1116 2.27932e-07
106 1116 2.74129e-06
4631 1116 8.47956e-07
8314 1744 1.464e-06
4467 32 9.04911e-07
7635 105 9.70534e-07
965 458 1.2693e-07
11027 677 7.81116e-07
1651 1945 1.22199e-07
427 1275 1.24405e-07
242 325 1.58138e-07
12640 3044 3.03122e-06
284 6210 3.18757e-07
3293 8767 2.34831e-06
12601 8758 4.25302e-06
12591 518 6.9494e-06
1828 1056 1.84541e-06
4607 2370 1.16802e-06
208 3528 1.18866e-07
228 8749 2.45227e-06
660 7649 1.46094e-07
815 276 1.17624e-06
0 4239 3.1764e-07
2162 32 1.95981e-07
126 270 1.07777e-07
12 1011 2.85659e-07
177 694 1.2909e-07
195 694 1.1331e-07
318 638 1.21388e-07
2368 638 1.60774e-07
2558 209 1.67212e-07
12503 2694 1.22155e-06
12500 1095 2.89763e-06
1155 635 3.34112e-07
376 635 1.06609e-07
2443 6562 2.81998e-07
743 6146 3.37455e-07
117 8666 1.12752e-07
2407 311 2.03844e-07
1475 628 3.37306e-07
5059 388 2.05262e-07
1178 619 1.23263e-07
932 684 1.808e-07
107 372 4.84406e-07
0 684 1.56928e-07
2433 32 5.87182e-07
1651 318 1.19418e-07
3528 404 1.11311e-07
6079 836 6.35056e-07
12315 1971 1.72222e-06
9247 8601 2.03815e-06
126 780 2.5867e-07
1397 396 1.76832e-07
629 30 1.05929e-07
20 828 1.35394e-07
594 1072 3.44743e-07
20 1072 1.39801e-07
0 6502 1.08051e-07
6954 3249 8.76564e-07
6954 114 9.09727e-07
9828 225 1.0081e-06
12226 998 4.10128e-06
904 30 1.13126e-07
1931 2439 3.70601e-07
666 754 1.80527e-07
797 1512 2.12068e-07
105 160 1.17014e-07
12075 414 4.79623e-06
894 92 1.17667e-07
219 19 1.17233e-07
208 372 4.03647e-07
3321 326 1.18463e-07
12010 320 1.71039e-06
361 80 1.13961e-07
1153 433 1.78104e-07
710 1049 1.13198e-07
1584 1312 4.05961e-07
595 2022 2.23762e-07
3490 6334 3.5933e-07
1789 6334 5.27605e-07
3564 2928 5.49508e-07
7137 26 1.36087e-06
141 1243 1.15183e-07
1579 1243 1.47583e-06
1411 62 5.97692e-07
1126 1251 1.20529e-07
11791 85 7.75595e-07
47 1452 1.16282e-07
5997 102 8.31582e-07
791 134 4.9531e-07
888 251 1.08047e-07
653 62 1.09189e-06
2459 499 4.31973e-07
4718 499 3.35091e-06
39 474 3.52318e-07
11452 164 6.92456e-05
761 1824 1.39335e-07
10633 2538 1.05762e-06
1498 1745 6.47169e-06
1498 32 4.558e-07
135 3359 1.43621e-07
11382 634 2.37949e-05
546 32 1.17899e-07
3594 368 1.18822e-07
651 276 1.28823e-07
9267 7957 7.08372e-07
11343 1895 1.16273e-06
11058 3671 8.6499e-07
147 3005 1.89988e-07
1570 2623 1.06114e-07
1788 556 1.38514e-07
1694 953 1.00748e-06
11220 39 1.084e-06
414 81 1.10219e-07
3928 571 5.85851e-07
1340 89 2.03972e-07
305 141 2.46925e-07
3742 2830 2.13594e-07
4854 1126 2.04473e-07
9 4019 2.89462e-07
12 958 1.02142e-07
11037 396 8.77338e-06
11037 1318 2.94649e-06
235 224 1.06616e-07
17 178 1.71195e-07
11001 114 2.32495e-06
10999 1308 1.97246e-06
286 897 1.18893e-07
6154 90 1.26153e-07
5176 172 3.35423e-07
360 171 2.0404e-07
643 32 1.16527e-07
643 372 1.49533e-07
1534 2117 3.13626e-07
750 40 1.07378e-07
1883 54 1.63075e-07
515 1933 1.31575e-06
3324 1933 0.000130336
976 1933 2.47798e-05
571 1933 9.01539e-06
563 1933 4.08816e-06
4722 1933 5.81615e-06
10928 1933 5.36498e-06
286 44 1.03996e-07
228 1272 1.49608e-07
567 345 1.06617e-07
2660 74 2.36163e-07
69 2564 1.22558e-07
1352 886 1.19119e-07
172 2498 1.4339e-07
92 40 1.11928e-07
10874 220 6.50134e-06
10861 25 9.61499e-07
2289 41 1.11039e-07
2648 709 4.07067e-07
405 162 1.29769e-07
10732 7587 9.44472e-07
10776 353 1.66182e-06
1160 6294 2.72193e-07
311 2545 1.02674e-07
2309 3666 1.73252e-07
6985 1688 4.86037e-07
10733 117 1.1304e-06
5497 779 4.50167e-07
1060 2289 1.16575e-07
661 65 1.29839e-07
10657 5015 1.8425e-05
890 126 1.18384e-07
726 5907 5.81725e-07
1720 500 3.22394e-06
394 2272 2.65315e-07
1674 2704 2.9935e-07
1153 7401 3.28586e-07
3837 7401 6.76617e-07
3837 7400 8.22014e-07
21 6668 1.58888e-07
1802 4399 2.21403e-07
122 7366 1.2319e-07
5 385 1.03801e-07
4141 270 5.51702e-07
5363 270 3.10964e-07
2081 1633 1.03802e-07
2506 1236 4.19626e-07
187 158 1.3508e-07
10254 7258 1.69154e-05
2366 7258 6.39146e-07
101 7258 1.78695e-07
4529 7258 4.93963e-06
10251 3093 5.37396e-06
117 38 1.9682e-07
158 1995 1.29848e-07
2536 1995 2.01985e-07
9564 772 3.17982e-06
2362 30 5.9399e-07
2362 1052 6.27991e-07
1302 5873 1.37107e-05
258 426 2.93953e-07
21 74 1.19691e-07
1603 268 1.69531e-07
10102 7174 3.98748e-06
9422 984 1.97176e-06
7696 984 1.66851e-06
7932 1288 1.95484e-06
1316 251 2.93385e-07
1084 6086 4.66768e-07
145 141 1.73485e-07
10031 7123 0.0479465
575 3731 1.00879e-07
1173 1088 1.2045e-07
43 2071 1.49923e-07
9762 1175 1.10907e-06
1645 230 1.71622e-07
9941 178 1.29303e-06
369 6966 2.8687e-07
9903 1854 3.82267e-06
1446 2380 2.12405e-07
2088 1781 1.61101e-07
0 819 1.03577e-07
352 349 1.07074e-07
2126 473 4.1002e-07
1126 473 0.00269931
266 473 5.60989e-07
1969 6988 1.08914e-07
2843 6985 3.32192e-07
9375 2243 2.56025e-06
2463 3975 1.36765e-07
183 556 1.35721e-07
437 6958 1.70973e-07
657 6955 1.25285e-07
3392 114 1.0322e-07
4492 1288 9.18757e-07
4549 867 3.73675e-07
4688 114 4.81186e-07
1547 40 1.06993e-07
3430 637 1.19869e-06
8512 326 4.07502e-07
2088 5410 2.20681e-07
1380 2508 3.91744e-07
3702 422 3.15828e-07
3702 26 3.21208e-07
294 5416 1.14052e-07
2892 2339 2.47017e-07
709 6756 1.16383e-07
191 134 1.00825e-07
1324 276 2.33328e-07
306 6750 2.83293e-07
229 1621 1.35983e-07
3702 142 2.80208e-07
4481 12 3.62224e-07
1345 4296 7.50495e-06
1299 4296 2.71702e-07
387 234 2.03871e-07
234 234 1.03284e-07
6641 385 4.73193e-07
261 126 1.05282e-07
23 62 1.00765e-07
697 2194 1.5197e-07
2448 3264 1.64217e-07
451 6608 1.04509e-07
65 3279 1.45248e-07
9126 6589 2.27882e-06
5025 6589 2.57394e-07
0 1011 2.25915e-07
1095 165 1.0199e-07
9004 6512 2.25106e-06
797 1380 1.05637e-07
3825 980 3.39594e-06
1157 29 1.37019e-07
8950 29 4.92864e-06
1859 613 1.01326e-06
51 62 1.14724e-07
1495 500 1.09732e-07
486 6442 1.02943e-07
4811 29 1.65705e-07
191 1209 1.2844e-07
5033 2243 5.05739e-07
3066 90 2.0369e-07
8809 225 1.82203e-06
18 2461 1.46948e-07
8781 1514 1.62928e-06
0 490 1.54968e-07
68 1039 1.03455e-07
4228 864 8.03208e-07
3580 95 3.93277e-07
2500 1097 7.96541e-07
2499 1097 2.44273e-07
578 1097 1.39542e-06
3533 3436 3.40025e-07
161 1081 1.59306e-07
8666 1095 4.98281e-06
2804 828 9.83728e-07
704 132 1.03332e-07
0 1175 1.38727e-07
3708 779 3.70863e-07
1584 397 4.34014e-07
1770 12 1.05921e-07
2745 1770 1.13601e-07
8569 1229 1.15733e-06
2560 155 5.11607e-07
8527 4469 1.19347e-06
96 1536 1.19613e-07
2368 916 2.31686e-07
8516 916 1.80084e-06
389 916 1.14643e-07
1088 214 1.44462e-07
8440 145 1.32578e-06
1087 1142 1.03273e-07
620 5056 1.3658e-05
515 5056 0.000221373
2289 5056 4.28946e-06
280 5056 1.13604e-05
60 5056 1.57518e-07
4246 5056 1.38282e-05
3156 5056 1.01609e-06
890 1034 1.13745e-07
1186 2306 3.03674e-06
158 2870 2.09407e-07
1532 947 1.3182e-07
3800 9 4.67853e-07
8256 921 9.0275e-07
151 151 1.76914e-07
413 163 1.23131e-07
7254 253 1.4742e-06
124 229 1.33996e-07
612 5949 1.66841e-07
1954 322 1.5089e-07
920 181 1.19144e-07
7931 1288 6.14256e-07
3676 844 1.81459e-06
306 710 3.08862e-07
5250 586 7.64493e-06
7912 586 1.67992e-06
2730 5744 1.03357e-06
7792 2562 1.92903e-06
1198 2195 1.12187e-06
72 953 2.27134e-07
7761 1248 1.11732e-06
7729 2058 1.29209e-06
3111 1033 2.15762e-07
69 98 1.37505e-07
667 98 1.1499e-07
1098 296 1.92201e-06
6496 98 1.52924e-06
6279 2214 4.57524e-07
7662 3527 9.77325e-07
4886 238 4.82378e-06
798 2116 2.19352e-06
5 619 1.22762e-07
7571 225 1.74121e-06
1153 209 1.46072e-07
7528 1114 7.07825e-05
7528 209 4.23995e-06
7528 21 6.25925e-06
7528 339 3.74044e-06
7477 5492 1.22879e-06
7477 3613 1.07105e-06
7479 5492 1.55347e-06
7479 3613 1.35405e-06
1940 3 2.64707e-07
2843 3 2.79355e-07
23 4571 1.48562e-07
1315 312 1.04057e-07
255 273 1.33747e-07
2322 396 4.57367e-07
2309 1715 1.81197e-07
62 90 4.1766e-07
1303 3104 6.30987e-07
563 1135 1.1514e-07
275 251 1.27466e-07
3939 433 3.73195e-07
6468 433 1.8739e-06
3702 5354 7.01376e-07
4011 155 6.79319e-07
3702 18 2.71987e-07
644 1642 1.0747e-07
728 886 4.88288e-07
1051 700 1.24152e-07
1366 1445 1.68682e-07
6942 761 2.45231e-06
0 614 1.82485e-07
313 760 2.90153e-07
3944 412 4.38917e-07
1303 5206 1.28716e-05
709 5206 3.22986e-07
1267 5206 4.65019e-06
149 5206 3.42414e-07
6640 5206 4.49479e-07
1291 5206 7.40197e-07
6905 5206 6.48766e-06
1324 41 1.22909e-07
3147 3560 7.1376e-07
6861 260 3.80019e-06
6853 2757 2.30247e-06
1291 80 4.83643e-07
6831 19 5.99225e-07
402 403 1.12452e-07
3786 3079 3.35825e-07
3728 5084 1.94357e-06
5192 1303 3.43232e-07
6189 62 3.74993e-07
5581 3324 4.45317e-07
6641 134 5.31935e-07
6395 709 1.34314e-06
147 313 1.11618e-07
755 64 1.702e-07
229 22 1.09473e-07
203 424 1.31218e-07
3139 1077 1.71407e-07
6437 337 3.4409e-07
0 738 1.42904e-07
2332 1460 5.71168e-07
3275 714 2.51861e-06
4428 80 2.08482e-05
376 80 2.20952e-07
1186 80 2.10633e-06
60 80 1.81391e-07
314 80 6.86396e-07
3741 1769 1.79157e-06
1512 231 2.33096e-07
1964 4765 3.25089e-07
955 2643 3.43216e-07
3678 71 3.95708e-07
6185 754 2.59877e-06
101 20 1.06698e-07
6158 516 2.61723e-06
5986 1386 1.80021e-06
2385 1227 3.06549e-07
0 768 2.08278e-07
6002 114 1.67072e-06
2807 89 5.50779e-07
1594 940 1.14563e-06
1698 4533 2.49814e-07
986 4533 3.63412e-07
5943 4529 4.90985e-07
5904 95 9.05809e-07
0 772 1.06574e-07
168 548 1.09181e-07
519 1227 2.42914e-07
5168 4089 4.1719e-07
234 4089 1.84757e-07
477 161 1.23348e-07
3066 1480 1.93016e-07
5833 1480 9.76186e-07
996 385 2.38405e-07
5791 2630 2.79966e-06
1707 223 2.94628e-07
5725 349 1.7328e-06
5502 326 3.58352e-06
5689 518 1.21721e-05
444 37 1.52548e-07
408 26 1.0541e-07
4028 32 2.76393e-07
3764 100 1.77031e-07
391 238 1.08977e-07
407 839 1.10793e-07
5512 392 7.68568e-07
4949 392 1.34099e-06
102 312 2.517e-07
5511 392 6.41039e-07
5446 2058 7.71564e-06
5445 2058 5.696e-06
5441 4170 4.2352e-06
2451 2938 1.92157e-07
2763 4132 1.56781e-07
591 105 2.05308e-06
567 105 2.30073e-07
5393 74 4.45139e-07
1812 211 2.35697e-07
348 4082 2.0814e-07
587 3737 1.08285e-07
5330 3737 1.14772e-06
0 523 1.5715e-06
1243 38 1.7086e-06
411 2404 1.37031e-07
331 211 1.10035e-07
2616 95 3.36415e-07
582 3578 8.04379e-07
5225 304 1.33682e-06
4181 240 1.21965e-07
5173 225 9.88292e-07
208 1951 1.03823e-07
451 44 1.21059e-07
1636 1763 1.1144e-07
657 9 1.63514e-07
1960 1000 1.89109e-07
4782 209 5.1791e-07
1905 452 9.36307e-06
380 1173 1.16492e-07
3640 39 2.35798e-07
32 2101 1.01799e-07
1881 2129 4.97942e-07
2939 95 4.99183e-07
2939 91 2.91489e-07
197 95 1.11592e-06
197 91 6.51623e-07
4750 95 4.25155e-07
4750 91 2.48262e-07
1165 121 5.15612e-07
1402 223 3.41804e-07
2295 616 7.55738e-07
2488 616 5.03328e-07
1861 3630 3.174e-07
4645 3612 3.96596e-06
272 3576 1.00302e-07
208 154 1.57201e-07
567 658 1.13517e-07
3280 1115 1.14003e-06
46 3506 1.79082e-07
1434 599 1.774e-07
12 125 1.09729e-07
4171 900 6.46776e-06
1186 1495 1.2065e-07
4138 3282 3.31587e-06
3642 729 1.4461e-06
64 729 1.06068e-07
4131 729 2.06501e-06
1922 18 6.82963e-07
441 114 1.06742e-07
3975 2083 8.40945e-07
3910 3113 3.13032e-06
451 2018 1.13727e-07
3695 62 2.51719e-07
269 2870 1.15792e-07
781 2950 3.74165e-07
1047 23 8.89993e-07
2475 796 2.77422e-07
872 44 8.18286e-07
3354 160 1.48848e-05
3353 160 5.61241e-07
1262 821 2.40952e-07
955 49 1.12727e-07
1467 237 1.69748e-07
3294 18 1.11903e-07
870 530 1.97175e-07
0 2245 1.10791e-07
831 875 1.18224e-07
206 403 1.74219e-07
1932 2224 1.0728e-07
228 2621 1.0387e-07
173 98 1.37496e-07
2767 98 1.73689e-07
3165 1103 3.04273e-06
1397 1320 7.25914e-07
3090 125 4.36541e-06
3090 230 2.8828e-05
3085 694 3.51207e-07
2286 2038 1.24319e-07
2952 345 1.53522e-07
2949 440 9.73374e-07
0 388 1.02073e-07
2764 19 5.11124e-07
0 704 1.06879e-07
408 1316 1.19768e-07
643 1607 4.64878e-07
0 2115 1.97672e-07
11 1567 1.01006e-07
0 2015 1.25312e-07
0 82 7.51618e-06
1845 1288 1.27811e-07
1985 1288 5.34184e-07
1984 1288 2.47118e-05
1070 1288 1.61238e-05
35 1288 2.74307e-07
1846 1288 8.68419e-07
1953 1288 2.26378e-06
1976 1669 4.26955e-07
1883 1615 1.1073e-07
1821 998 3.31416e-06
487 237 1.12329e-07
213 457 1.45931e-07
0 1457 1.10625e-07
1628 145 1.71555e-06
817 512 1.18973e-07
989 922 1.96633e-07
998 866 2.43067e-07
1265 998 3.25667e-07
1206 56 2.49383e-07
1180 936 1.1798e-06
1172 225 1.44571e-06
73 863 1.29717e-07
127 779 1.39205e-07
858 624 2.17743e-07
62 49 6.91757e-07
822 32 3.14521e-07
0 219 3.36758e-07
409 597 5.68162e-07
5 317 1.48713e-07
176 134 4.2998e-07
271 273 1.12583e-07
588 356 1.02194e-06
587 537 1.45881e-07
494 455 8.82548e-06
493 455 1.05872e-06
356 90 1.15047e-06
54 80 2.3625e-07
23643 1801 7.35256e-06
314 2560 4.6519e-06
1751 2560 4.17024e-06
1173 1489 2.40665e-06
2657 1489 3.51624e-05
2309 1489 8.73748e-06
2477 1075 4.17597e-07
766 665 2.1662e-07
819 1656 1.26208e-06
13620 2649 0.000152802
1231 2649 2.26729e-07
1633 213 7.08805e-07
650 2999 5.36098e-07
1268 2410 2.23462e-07
4284 1699 1.54004e-05
1330 1708 1.44987e-07
1626 3359 6.65476e-07
5956 3359 0.000117626
78 396 7.44039e-07
10712 612 1.78724e-05
4008 345 2.98738e-07
27 1395 1.09251e-07
6005 7721 6.48765e-05
3257 5654 1.31101e-07
14557 14943 3.05707e-05
4693 15073 3.31858e-06
12051 368 0.000330112
3139 1753 0.000443801
122 2581 6.19504e-07
2590 862 4.43455e-07
7090 2306 9.55765e-06
7090 1675 0.000222163
7049 2306 0.0241492
7049 1675 4.35122e-05
7281 2306 3.10697e-05
2451 2172 7.40313e-07
1095 238 4.86118e-07
310 518 3.75382e-07
526 11561 4.74717e-06
17681 4563 6.67587e-05
64 336 1.13657e-06
3467 649 9.94672e-06
1504 4387 3.27023e-07
11182 1668 0.000239049
1816 10194 1.83418e-05
380 1728 2.10555e-07
3136 1728 3.69431e-07
380 3585 1.20335e-07
17035 433 2.6946e-05
10384 433 1.51969e-05
7609 328 9.78632e-05
1392 6089 2.62956e-07
10179 95 3.55492e-06
1545 368 4.56926e-05
32 368 3.19941e-07
5215 951 2.6566e-05
14657 368 0.000164684
2633 80 1.95658e-07
1479 621 1.4472e-07
4375 328 1.69503e-05
380 1830 5.33058e-05
5246 2505 6.6868e-06
408 14907 2.49605e-06
1495 14907 2.26979e-07
2055 251 2.34928e-06
48 5588 1.37411e-07
1355 2697 3.57544e-07
1200 44 9.09827e-07
13331 914 7.50868e-05
9096 2223 0.00145952
2797 449 3.78962e-07
20083 1034 4.76434e-05
1262 6514 3.91611e-07
699 1115 2.83886e-07
1511 480 1.56433e-07
3527 480 1.26442e-07
4428 631 4.50491e-07
1410 6813 1.13746e-07
11792 2209 7.99366e-05
23128 2209 0.000108998
64 1171 1.8842e-07
8243 11171 5.24509e-05
389 800 1.11182e-06
1439 99 2.92044e-07
243 7809 3.28067e-07
13984 311 4.5421e-05
2712 8967 2.20959e-07
11360 1647 7.09229e-05
4189 204 2.03419e-05
8913 13596 6.63905e-06
325 265 2.52705e-07
5172 304 3.77307e-06
17192 296 1.80486e-05
1415 270 8.80062e-06
3888 5553 3.34526e-06
1222 855 0.000247841
1397 225 2.93895e-07
15393 62 9.56077e-06
2367 410 6.69984e-07
4093 18 3.04538e-06
1790 372 3.46819e-06
1964 9260 1.35613e-07
1353 1445 6.40568e-07
564 275 1.68508e-07
2064 474 2.43781e-06
2289 2013 1.40696e-07
3693 1137 4.47282e-06
7879 1137 1.71422e-05
5400 1137 1.85947e-05
153 1137 3.86306e-07
22909 1137 0.000248519
229 2022 2.14701e-06
327 12 1.47692e-07
2368 270 5.96966e-07
3515 1056 4.04559e-07
1439 2164 1.02855e-07
22818 219 3.12173e-05
1299 411 4.01482e-07
4215 81 0.0627685
22818 311 4.84921e-05
208 443 8.7334e-06
5594 2850 2.3572e-06
101 912 1.92369e-07
700 912 1.32637e-07
17276 433 0.000124225
17276 996 2.45945e-05
1730 996 0.0495251
943 178 1.87818e-07
2536 10224 3.05397e-07
567 805 2.14754e-07
2328 499 2.34577e-06
11925 197 0.000116765
698 140 1.86081e-07
3975 1275 2.15129e-05
3975 742 1.46733e-05
52 900 1.35742e-07
4913 5378 5.39268e-05
275 1974 8.08623e-06
1275 529 6.67144e-07
985 164 3.47472e-07
18 417 2.00406e-06
5835 11420 4.75804e-06
22752 186 8.14161e-05
6609 1363 1.92876e-06
807 90 1.52189e-07
19914 40 7.75594e-06
2810 637 2.19421e-05
737 637 1.39698e-07
6902 276 6.56305e-05
6902 1034 0.000380548
2377 1023 2.67515e-07
6420 212 3.82925e-05
2368 208 1.42248e-07
3492 320 8.44306e-06
5761 678 4.66679e-07
1940 643 3.00968e-06
1186 2841 2.22645e-07
2367 362 7.9824e-07
11773 3572 7.21539e-06
3318 7977 1.63887e-06
3321 208 2.80328e-07
783 1860 1.42208e-07
218 2619 8.53424e-07
994 78 3.11853e-06
3139 78 1.37057e-06
3518 14573 5.45788e-06
22598 3522 0.00139933
501 326 1.31296e-07
3881 1831 1.44229e-06
44 14558 1.68834e-07
22574 2843 9.0143e-05
3873 313 1.57725e-07
4354 328 8.13411e-07
163 3485 1.47183e-07
305 52 2.83445e-07
22512 1831 0.000115466
2444 2577 0.000471308
384 62 1.25652e-07
13944 844 2.21061e-05
715 18 0.000124934
41 1288 2.25826e-07
7109 264 3.50406e-05
5041 5932 0.0140989
3260 5932 0.000769053
5482 71 1.79709e-06
389 426 3.58598e-07
22 24 1.43824e-07
8235 1098 6.45218e-07
407 706 2.6312e-07
496 6692 1.09871e-07
1043 6441 1.94574e-06
1497 388 1.58074e-07
69 388 1.81219e-07
435 1873 6.16155e-06
958 1873 2.754e-06
14543 1873 1.09952e-05
1160 372 6.32277e-05
1080 4793 2.40976e-07
7805 4793 5.78356e-05
778 2190 8.5488e-07
4308 1170 4.3317e-06
4480 5779 3.07212e-06
2121 385 2.18512e-06
2271 354 1.72732e-07
1802 4229 6.71072e-07
2048 823 1.14499e-07
6326 12 6.74469e-05
2090 12 3.40539e-07
1493 44 4.53046e-06
6503 2915 5.35463e-05
797 895 2.06694e-07
382 455 3.9447e-07
699 499 3.10059e-07
501 2291 6.12089e-06
4205 320 1.34741e-05
761 49 1.98831e-07
20973 812 2.7553e-05
1693 2054 1.91865e-06
1571 903 2.69404e-06
4233 186 5.10402e-07
12874 1977 2.11086e-05
894 98 2.77559e-07
1330 1412 2.72833e-07
1295 903 4.53431e-07
1930 14207 2.05751e-07
4196 604 1.01237e-06
1368 1412 1.91343e-07
49 9301 5.4322e-07
48 1745 2.24245e-07
1930 23 1.94229e-07
1497 3033 2.22234e-07
2580 3033 2.87719e-06
337 2028 2.57064e-07
1930 1656 3.95652e-06
1597 9936 4.97725e-07
1652 3055 2.60946e-07
821 1169 1.3067e-06
8365 2457 1.78455e-05
2522 1384 4.06243e-07
548 3 1.53074e-07
2751 749 1.01551e-06
542 1621 5.50482e-07
3884 5470 4.90629e-07
4036 914 2.50476e-06
2325 194 7.33397e-06
1048 914 1.9358e-07
1501 3338 2.23669e-07
1424 3302 2.23389e-06
21909 8360 0.000507411
195 1057 3.01359e-07
9561 578 2.08428e-05
101 650 2.08011e-07
1663 37 2.95056e-07
846 1115 1.39885e-07
40 3057 3.51008e-06
122 396 1.10982e-07
235 396 1.90425e-05
360 396 8.93438e-06
2797 1248 2.93066e-07
8681 18 3.70978e-06
308 163 1.42062e-06
47 28 6.61213e-07
309 28 2.57965e-07
1616 396 3.19551e-07
752 635 1.92806e-07
3780 886 1.58147e-05
4696 328 4.03238e-05
2077 998 6.13991e-05
20926 880 1.11762e-05
564 643 4.63648e-07
437 1098 0.00243763
348 1098 0.00952239
0 1098 2.11853e-06
1932 1205 1.11562e-07
21738 619 0.000194539
3324 1020 5.58158e-07
5075 1381 1.73763e-06
1288 2038 5.04251e-07
2967 2992 8.87018e-06
4934 2992 0.0464571
20012 625 2.09106e-05
6132 2274 0.000517122
21707 6164 0.00049247
21705 844 2.46303e-05
2271 404 1.45967e-05
1790 1154 3.401e-06
21686 1797 0.000672744
35 78 1.98201e-07
645 2231 6.71693e-07
148 5268 1.49408e-07
3840 78 6.53911e-07
51 909 1.1652e-07
1024 530 6.13987e-07
1770 350 2.19815e-05
3120 2816 1.92687e-05
666 9494 8.10335e-07
21581 616 0.00159507
103 576 0.000140914
3339 576 8.43106e-06
21544 11588 4.85376e-05
1156 1894 4.86111e-05
5780 1236 2.85827e-05
21502 4044 0.000106297
257 39 1.35016e-06
1890 1507 3.07788e-07
5395 13655 9.30611e-05
25 2291 1.88179e-06
13794 4337 2.7981e-05
453 123 1.28571e-06
2384 11359 0.000165016
6876 4337 5.775e-05
2110 2236 4.30722e-06
19363 197 0.000145003
9445 2452 1.1845e-05
11959 209 2.41185e-06
1770 3952 1.58705e-07
6444 1318 1.227e-05
92 2306 1.66109e-07
10179 2050 2.97951e-06
21216 13889 1.2547e-05
1191 694 1.19075e-07
1776 396 4.7924e-06
25 779 1.75652e-07
21211 311 0.000203213
602 6116 2.0554e-07
1849 32 1.29759e-07
6983 816 5.58758e-07
19445 607 1.83701e-05
2559 499 1.10699e-06
459 7151 1.18989e-07
1235 6836 2.54353e-07
413 6255 1.48226e-07
15225 328 6.36645e-05
151 2718 3.24803e-07
4083 1160 3.08236e-06
115 1118 2.35874e-06
1518 2328 3.91795e-07
3652 916 1.66898e-05
1292 11677 2.47086e-06
1137 864 1.82915e-07
1449 864 1.87221e-07
11636 298 8.94821e-06
77 430 1.45448e-07
4219 430 3.52663e-07
705 588 3.19291e-06
572 3338 2.62141e-07
5957 3190 1.44068e-05
5957 1174 1.23014e-05
1860 473 9.93439e-06
127 473 1.36475e-05
21 473 4.5921e-06
407 260 2.42253e-07
52 473 3.00464e-05
14108 1951 2.57283e-05
1175 6168 3.24619e-07
12711 270 4.71695e-05
678 638 1.26624e-06
2729 2459 1.76835e-07
2116 121 2.76839e-07
1804 210 4.43491e-07
4784 12432 3.6848e-06
1644 12432 1.00552e-05
1438 1236 5.46396e-07
658 1236 2.75509e-07
5201 1236 8.00576e-06
1054 7714 1.59059e-07
20774 761 9.71729e-05
5155 411 9.40126e-06
692 520 2.39977e-07
5319 520 4.95456e-07
521 2179 2.31206e-07
1272 209 1.3178e-07
1770 1025 1.07214e-06
11513 1025 4.0544e-05
976 372 4.06688e-05
692 372 5.72821e-06
1152 12 6.09822e-07
12349 117 1.60484e-05
849 13493 1.33442e-05
849 13491 3.042e-05
619 13491 1.30183e-07
5591 13491 2.30682e-05
20689 13491 0.00165402
7198 3950 9.5224e-06
1267 172 2.07979e-07
3510 452 2.21865e-06
596 342 1.28464e-06
1410 6965 1.46184e-07
1918 2762 4.46288e-07
2939 2199 1.03798e-06
331 4429 2.61933e-07
1777 1329 3.95723e-07
331 1329 1.69196e-07
697 996 2.84032e-06
20514 134 0.000157036
4277 3536 0.00112072
4235 2616 4.65319e-05
666 2616 5.04471e-07
1788 385 1.06913e-06
5947 178 1.3369e-05
5947 2236 5.98943e-05
886 2236 1.26407e-07
728 13373 4.96394e-07
1295 372 5.67392e-07
950 372 1.23374e-07
2456 4131 1.51766e-07
2703 4131 1.53388e-06
854 1075 7.33781e-06
11328 209 2.46251e-05
97 209 6.06726e-05
286 2110 1.23211e-07
1391 1272 4.09379e-07
4233 18 2.61029e-07
10542 116 2.99699e-05
53 306 1.2448e-07
8288 306 1.34225e-05
7028 1370 0.0299896
3042 1370 8.89737e-05
20415 1102 4.27822e-05
7281 6078 2.987e-06
1841 6078 0.0267858
3801 704 4.64925e-07
20413 6078 0.000277162
20413 704 0.000248513
9101 6078 0.00139416
6173 900 0.0208054
3109 5054 1.53308e-07
3323 1396 2.75411e-06
867 367 4.4428e-06
342 25 5.21082e-07
7312 102 1.5452e-06
647 1631 1.57131e-07
2009 41 3.30576e-07
20318 1565 0.000173953
3633 1025 5.40454e-07
5 388 1.72984e-07
20226 2404 8.2404e-06
1476 11852 1.48906e-06
8585 548 6.0277e-06
427 1916 0.00173892
7312 13210 2.23666e-06
1845 2401 0.00369292
3346 337 8.24961e-07
970 1114 2.50715e-06
1721 1776 1.91162e-05
2323 1776 1.61846e-05
1319 2851 1.31346e-07
20129 1445 0.000143734
3526 1028 1.84321e-06
1820 3511 3.90007e-06
2124 157 2.93167e-06
10628 225 2.94592e-05
1371 6270 5.17944e-06
20085 292 0.000109409
17131 2230 1.08021e-05
3318 410 1.63302e-07
2009 8185 1.35956e-07
955 1524 1.56072e-07
309 2651 1.75256e-07
1894 89 3.18144e-05
117 89 2.17625e-07
894 638 1.3216e-07
19981 10756 2.52953e-05
37 905 2.18973e-07
2896 6395 2.36694e-06
64 98 2.39161e-06
2934 98 0.000189036
1774 98 6.65502e-06
19989 98 0.0340586
26 98 9.21226e-07
313 689 2.61347e-06
19961 1524 0.00011558
1024 90 3.77267e-07
10988 2648 3.5544e-06
1547 13040 3.90061e-06
314 1895 1.94984e-07
64 261 2.00161e-07
3576 1727 2.4763e-06
11192 2679 4.32749e-05
318 320 1.49098e-07
1558 13011 7.70734e-07
628 13011 1.63184e-07
2429 214 2.78985e-06
7162 4658 1.99591e-05
6810 599 7.3219e-07
6485 599 1.42657e-05
7678 146 4.10151e-05
9 2226 6.31145e-07
19734 1675 3.61458e-05
12994 619 3.27158e-06
19728 1050 0.000304262
1288 516 3.40152e-07
6831 1301 8.65631e-07
4454 417 1.33994e-05
2647 10221 1.74783e-05
18796 977 5.32594e-05
8475 12857 5.78675e-06
8475 449 0.000163373
242 6597 1.09381e-07
3954 8042 6.47197e-07
46 7256 1.58158e-07
693 12857 2.06429e-06
693 114 2.03113e-06
1734 12857 0.000122967
1734 551 1.33453e-06
4503 12857 1.43783e-05
4503 114 1.41474e-05
19615 649 0.000176708
19675 12857 1.38394e-06
19675 551 2.54063e-05
767 631 3.30942e-07
1956 1175 7.01713e-07
84 4928 4.26684e-05
314 4928 1.81079e-06
11225 4928 0.163952
1134 4928 4.25113e-07
9973 3802 0.0194564
266 3802 0.000111952
920 3802 0.00832969
391 3802 3.3382e-06
19625 3802 0.00449617
3445 175 2.41918e-05
694 2649 5.01974e-07
411 78 5.78674e-07
2711 897 4.80512e-06
2499 897 2.0146e-07
294 276 1.20528e-07
2549 1099 4.61104e-07
1078 164 2.80029e-07
208 164 3.83848e-06
1595 39 0.00344917
4415 4044 6.77866e-05
154 19 1.32494e-07
19531 1675 2.98776e-05
3507 74 4.02624e-07
19526 1617 0.0023263
1204 1659 8.20192e-07
4540 1261 2.07513e-06
5230 954 6.33872e-06
826 7858 1.58728e-06
1382 7858 3.53744e-05
1757 7853 6.10923e-07
172 5460 1.4207e-07
994 1607 6.19559e-07
2454 1617 7.22716e-07
632 3981 1.22677e-07
6154 5616 1.24441e-07
19384 1568 2.0667e-05
1052 998 3.3339e-06
7576 155 2.63342e-05
10821 998 1.92134e-05
2119 32 4.34544e-07
447 40 6.63586e-07
3069 1308 3.37792e-07
526 58 2.13621e-06
1239 1028 7.91791e-06
3318 520 2.38399e-07
3318 105 1.29476e-07
6855 20 1.59758e-06
5366 225 2.45794e-06
3652 225 7.32245e-05
2952 4007 1.53395e-05
16786 3479 0.000289172
2017 3479 3.06666e-05
0 336 4.16401e-07
10867 313 0.000115371
13098 114 7.61191e-06
643 296 2.09039e-07
5436 884 6.19454e-06
995 141 2.83889e-06
11779 328 1.65893e-05
2934 30 1.99769e-06
4373 634 6.20779e-07
2805 1114 1.65985e-06
185 1114 0.0288761
3526 1114 6.5009e-06
22 1114 9.00309e-07
7889 2604 0.000160258
14256 2604 0.00106994
2710 7256 0.0634727
280 806 1.30684e-06
4314 806 2.09317e-06
2931 410 3.45149e-06
2280 410 2.96574e-07
3017 2938 4.6832e-06
1538 6824 4.20196e-06
7184 3764 7.30687e-06
323 2678 5.89356e-07
121 2678 0.0173468
2796 891 1.29126e-05
48 552 1.90705e-07
2522 590 7.50642e-07
2522 665 1.6246e-07
35 399 2.8665e-06
1458 3059 1.13773e-06
1200 106 8.53094e-07
995 659 5.5706e-05
333 317 1.24674e-05
1838 317 3.18626e-06
19072 317 4.24686e-05
17 659 4.32295e-05
203 9526 1.38628e-05
4849 4339 9.42595e-07
19042 5436 2.82927e-05
8225 5436 0.000132843
8225 1059 6.84215e-05
6729 7473 2.30402e-06
106 9731 1.28955e-07
2093 358 4.5613e-07
1051 358 2.93582e-07
3109 358 1.54787e-07
88 12508 1.70026e-07
3634 6490 1.59669e-05
8861 11938 9.12766e-07
9777 12028 0.000140113
1909 6647 4.02694e-07
162 145 5.95723e-06
9107 136 0.000307793
290 396 9.9975e-06
14803 90 1.10957e-05
3321 1172 1.47554e-06
3963 328 1.41484e-06
3963 385 3.12799e-06
1569 328 1.10375e-06
1569 385 2.44022e-06
572 2560 4.54043e-07
1347 2560 2.82713e-07
1605 62 1.73013e-07
3249 1708 2.29223e-05
4182 6525 3.45723e-07
2552 4515 4.49096e-06
1417 4515 3.75497e-07
2351 4515 2.26591e-07
301 2468 4.13886e-07
444 1701 4.33114e-07
1438 1701 4.33911e-07
1062 3272 2.46795e-06
1368 471 0.000224879
339 214 2.54794e-07
778 6916 2.44062e-06
8380 2762 1.41324e-06
6589 1174 4.75517e-06
46 1916 7.18266e-07
25 1916 4.58379e-07
121 396 1.40883e-06
586 1599 1.58124e-07
3767 9018 0.000173167
2561 9018 1.69794e-06
69 172 1.77924e-06
8442 162 0.000820674
9859 162 1.00143e-06
18680 1618 6.31484e-05
4007 126 1.01222e-06
1024 1595 3.55305e-07
89 8083 1.71848e-07
2403 2622 1.31372e-06
1930 322 1.55438e-07
3644 237 3.87161e-06
521 62 1.29289e-07
255 90 1.97102e-07
980 40 5.94167e-06
1817 1997 4.28033e-06
1157 975 2.85156e-07
673 356 3.97952e-07
18529 3865 8.82704e-06
8419 452 2.37872e-06
9309 312 0.000377183
295 454 2.03504e-07
92 454 1.93636e-07
512 12236 2.97378e-05
50 12236 0.000292805
12412 12236 0.0675857
2022 12236 0.000250319
628 404 1.97034e-07
1350 26 1.65698e-07
10512 3037 8.07551e-05
60 11877 1.40646e-07
2401 313 6.57669e-07
5032 1097 3.00908e-06
723 1288 1.75238e-05
16480 1288 0.119747
780 223 6.09505e-07
14344 7485 6.97174e-05
7349 1178 5.46118e-06
2726 1178 1.88969e-07
18402 490 2.99197e-05
1559 105 3.73884e-07
18383 225 4.61342e-05
1817 3151 1.85876e-06
750 1091 1.34685e-07
1378 396 2.72495e-06
6600 489 4.72204e-07
18321 678 6.00976e-06
338 81 2.82901e-07
18312 81 0.000136086
7229 6003 3.31332e-06
4008 12138 4.94319e-07
4008 2912 3.09956e-06
18258 88 8.97223e-05
2303 761 1.64569e-07
3630 4262 1.12444e-06
18249 433 0.000274139
18237 543 8.67888e-05
2203 1164 1.59754e-06
6298 134 1.14915e-05
334 3338 7.92499e-07
619 3338 5.8697e-07
546 2413 3.99091e-07
376 4548 1.51788e-07
9834 320 8.50988e-06
1231 25 1.55933e-07
3749 1651 4.34346e-07
1698 7045 3.46644e-07
233 7045 3.33621e-07
85 2449 2.41639e-07
1694 61 1.25777e-05
63 3739 1.61814e-07
63 1829 1.48404e-07
33 345 1.4333e-06
2993 403 8.1626e-06
548 81 3.58455e-07
1969 178 2.91582e-07
925 3439 2.48843e-07
22 499 4.88141e-07
7026 3500 1.32879e-05
1121 100 9.4701e-07
698 26 3.95725e-07
69 706 4.10327e-07
8424 1742 2.20052e-05
183 1990 2.02297e-07
9585 1263 0.000293756
1973 1263 9.78745e-07
2088 9089 1.53106e-06
191 3448 1.28118e-07
101 3448 2.84572e-07
18017 1296 0.000119283
2269 4614 3.13042e-06
1740 4126 5.6562e-06
619 26 1.11417e-07
76 32 1.06385e-07
1197 440 2.97615e-07
1603 126 5.51605e-07
1916 62 4.20143e-07
1038 7564 3.14207e-07
1232 2892 2.33402e-07
3214 1492 2.12457e-06
4585 518 7.56736e-07
18008 2245 0.000143803
626 3236 1.39244e-06
1878 313 2.40473e-07
898 237 4.43536e-07
644 11887 2.74312e-07
1645 2200 5.13841e-07
1012 90 2.53139e-07
2411 2851 1.0803e-07
444 166 3.25163e-07
710 1178 3.7023e-07
3490 37 3.73114e-06
647 37 7.50025e-07
3521 1715 3.04694e-06
1368 2357 1.29594e-06
1749 2867 4.09236e-07
17872 125 9.22216e-06
3480 125 1.61268e-06
17871 17 0.000139825
2959 26 6.39288e-07
47 11850 4.03158e-07
2186 3499 4.79465e-07
2682 265 8.46047e-07
270 12 1.14126e-07
1239 313 1.55086e-07
17767 955 1.0016e-06
4837 2205 0.00166126
917 22 1.66605e-06
2843 179 1.49402e-05
2843 1052 4.50054e-06
2451 3261 1.89578e-06
220 155 2.09223e-07
3595 3716 7.79352e-06
17795 1236 9.31586e-06
1086 1540 5.32575e-07
6588 1540 4.40558e-07
864 1540 3.78428e-07
494 1540 4.21534e-06
1987 2058 2.40335e-07
2646 886 2.02474e-05
1497 3666 1.35766e-07
253 11779 1.14619e-07
16811 1308 1.01062e-05
344 106 1.02481e-07
2514 126 1.66226e-06
2094 222 0.000264447
1633 222 3.56418e-06
1725 222 1.63424e-06
368 222 3.13563e-07
454 222 0.000106394
13175 222 0.00201183
496 2999 0.00078809
1570 2999 0.00061256
7129 55 2.63991e-07
7129 6616 2.92792e-07
1495 410 3.85957e-07
1938 178 2.60498e-07
1938 940 1.15907e-07
1497 209 8.00029e-07
3041 7049 3.30582e-05
7129 5289 2.36066e-06
253 36 3.40489e-07
1931 12 6.45123e-07
2200 2058 0.00189639
4181 2058 6.37424e-06
451 2656 6.39085e-05
3642 543 1.34834e-06
1080 311 3.43668e-07
452 32 2.88684e-07
4667 7809 1.67613e-06
4784 134 2.02627e-06
1805 1300 2.48424e-07
2763 998 9.8962e-05
5679 998 0.00472536
8996 62 2.44028e-06
870 11667 1.4871e-07
17546 998 1.32022e-05
1352 274 2.42664e-07
62 5768 1.07039e-06
1421 5768 2.45029e-06
2175 1992 5.24969e-07
8996 592 7.60281e-06
11704 1687 4.25872e-05
1789 18 1.09336e-06
5512 270 8.0071e-07
4278 225 1.12247e-06
2620 12 5.89426e-06
558 5415 4.07245e-07
544 337 8.12589e-07
2115 12 2.21636e-07
17464 2711 0.000216256
188 1909 5.74202e-07
3795 529 1.734e-06
1657 396 3.22008e-07
1476 396 1.01023e-06
228 166 7.54858e-07
12148 123 1.29662e-05
563 2350 2.1078e-07
72 1882 1.07416e-07
391 11577 1.85452e-07
2009 23 2.14857e-07
7497 5669 0.000133901
135 5669 1.51774e-06
76 62 1.4616e-07
2017 1719 1.89173e-07
3433 71 2.31482e-07
1905 39 2.65876e-06
764 692 1.10068e-07
764 863 1.21888e-07
9896 692 8.93196e-06
9896 863 9.89116e-06
496 313 1.23754e-07
8425 5559 9.24293e-05
11556 5881 4.59957e-05
1056 2025 1.27194e-07
10781 22 3.89108e-05
1133 1603 2.34544e-06
269 329 4.04937e-07
2366 41 3.8388e-07
1831 772 2.2746e-06
6863 772 0.00017916
2911 772 0.0818128
1298 1695 1.70718e-06
1355 796 1.1109e-06
2961 7033 1.53687e-05
1794 126 1.56449e-06
1650 1811 1.69016e-06
2451 1286 1.09036e-06
266 1286 4.11242e-07
525 454 3.16529e-06
2310 625 6.14797e-06
1306 1758 1.82879e-06
894 145 8.63282e-06
233 145 2.0361e-05
1793 1409 1.45161e-05
17103 5029 0.000448479
17103 7412 0.00102111
1053 7412 3.55275e-07
3931 5029 6.80025e-06
3931 7412 1.54829e-05
5758 5029 5.51315e-05
5758 7412 0.496801
2153 7412 2.7971e-06
15323 7412 1.57743e-05
17146 5029 2.07113e-06
17146 7412 0.000448134
812 100 7.73475e-07
1846 1617 1.61842e-07
174 3918 1.43225e-07
983 156 1.57869e-06
1567 156 8.01334e-07
12933 156 2.38316e-05
25 156 2.55685e-07
18 156 9.19457e-05
8513 156 0.000251561
1843 433 9.63619e-07
503 2300 8.22112e-06
22 518 3.52813e-07
870 1030 2.9084e-07
1973 3370 6.60861e-06
1088 3370 3.68089e-06
2056 3370 1.04383e-05
10563 3370 1.38382e-05
6170 3370 8.34319e-05
5357 11373 1.86197e-05
1356 11373 0.00165322
734 2058 5.40117e-07
162 1500 1.34907e-06
9953 11323 3.3277e-06
16920 543 8.23256e-05
23 468 5.27164e-07
23 1044 2.33404e-07
736 449 6.15194e-07
235 468 2.13361e-07
2468 251 3.49928e-07
2190 354 7.87216e-07
983 100 1.60657e-06
3069 345 1.62751e-06
7531 11317 9.15955e-06
1080 863 2.68982e-07
7189 30 1.7882e-06
2933 2058 1.69726e-06
704 1407 3.27038e-07
2181 11301 5.27488e-05
395 1255 2.95345e-06
1955 155 4.16894e-07
1698 2574 1.46579e-07
989 8506 6.03942e-06
1231 311 1.27161e-07
147 17 2.042e-07
11022 17 2.56152e-05
886 780 1.02225e-06
453 106 1.00576e-05
1197 886 3.51324e-07
3330 126 3.25051e-07
5768 5756 1.06588e-06
7786 5760 7.99922e-06
16723 253 0.000169794
73 5309 1.89214e-07
77 5309 2.57408e-07
575 225 2.24877e-07
4574 697 0.000104333
7282 6526 2.63247e-05
1715 426 2.33533e-06
1048 426 2.42614e-06
2153 251 1.46772e-06
16674 116 0.00619235
7184 483 1.14015e-05
4358 483 2.35968e-05
6976 1710 1.10832e-05
575 2132 2.4357e-07
6909 181 1.5247e-07
7712 181 1.34839e-06
16638 112 0.000235331
101 322 1.33434e-07
1626 322 2.10663e-06
168 4648 1.76806e-07
16509 5755 0.0114477
16604 1034 0.000103101
385 3461 2.61361e-07
1012 643 9.51334e-06
456 643 3.54158e-06
1408 625 5.25364e-05
25 625 1.79566e-06
16552 1114 2.4117e-05
1024 454 7.56573e-07
16496 454 1.22542e-06
1171 320 1.13679e-07
10923 11050 3.21629e-06
16534 21 0.000308881
821 688 3.32948e-07
3321 302 0.0113138
605 302 1.28682e-05
16517 302 8.77132e-06
128 311 1.1468e-05
2259 8070 1.97681e-06
16470 2892 1.0798e-05
2068 5682 1.5081e-05
402 10076 1.65308e-07
405 134 2.36718e-07
1873 91 3.0135e-07
7575 58 3.16873e-05
609 461 5.43811e-07
16420 1619 7.54472e-05
7435 379 0.000130489
2062 12 2.76935e-06
2286 454 2.37092e-07
2286 1246 2.14576e-07
2287 454 1.67524e-07
2287 1246 1.51615e-07
3002 1742 9.55195e-06
12747 596 1.25929e-06
122 276 1.50001e-07
16348 3730 0.000211893
6343 3730 9.33203e-05
9515 2262 1.40672e-05
2572 614 2.43142e-06
2330 614 5.66614e-05
2330 725 7.46435e-06
2417 385 4.22958e-07
5902 145 1.64335e-05
8813 7685 4.31602e-07
1883 237 2.03676e-07
710 4012 1.08336e-07
1467 665 1.17654e-07
35 738 1.98373e-07
868 26 6.09652e-07
1204 499 3.47185e-06
4614 26 2.05924e-06
2712 3162 1.64366e-07
6430 776 2.33539e-05
7593 966 2.63786e-05
16165 844 5.97582e-05
352 18 1.78989e-07
207 38 2.38304e-07
11494 9524 0.00167458
2763 411 2.01632e-07
1268 41 1.4738e-07
3059 265 1.44821e-06
974 41 1.80877e-06
1620 204 1.36996e-07
15051 311 5.99789e-05
706 1115 1.49852e-06
1766 40 4.59906e-06
4675 2537 1.25572e-06
4597 32 1.20221e-06
141 276 4.47432e-07
1708 300 2.72581e-07
3165 164 3.84976e-07
92 164 1.22217e-06
5947 10746 3.11203e-06
1204 704 7.3962e-07
1057 44 1.2165e-06
698 44 2.09624e-07
1709 2164 3.76749e-07
101 10718 1.16474e-06
15895 499 8.35544e-05
1142 262 1.71339e-07
657 62 1.49683e-07
142 42 1.0422e-06
725 3 2.42774e-07
12529 3505 8.04829e-05
2453 1034 3.26235e-07
3688 1025 2.76132e-07
313 4672 2.11032e-07
2012 100 3.24605e-06
394 452 1.37407e-07
10957 920 1.83858e-06
650 920 9.92726e-07
1458 920 1.88763e-06
2590 337 8.51985e-07
7644 6302 6.186e-06
15799 364 4.78665e-05
376 768 1.54432e-07
3993 2192 3.51129e-05
1605 2192 7.88001e-07
4354 106 1.10328e-06
109 317 2.01196e-07
539 223 4.94747e-07
4582 1126 1.23626e-05
4582 929 3.54227e-05
1425 2054 1.0758e-07
60 396 1.22058e-07
376 843 0.000123949
105 843 2.0008e-07
9428 843 0.00408178
447 559 1.1141e-07
1417 1407 3.93785e-07
2515 3922 8.08415e-07
619 966 9.6398e-07
163 3194 3.37485e-06
4141 126 2.37085e-06
871 163 2.19661e-07
1657 900 3.52672e-07
15582 699 0.000167757
73 82 5.1849e-07
870 1105 2.29911e-07
1267 63 9.69553e-07
1672 381 1.8568e-07
7293 26 4.72616e-06
1175 10422 1.87855e-07
8048 396 6.35209e-07
4228 6322 1.25717e-06
1058 510 1.58815e-07
4631 3594 3.2299e-06
1571 171 1.09677e-05
3260 5574 3.15671e-05
14690 10000 4.51498e-05
2008 18 7.3588e-07
1198 10364 1.51888e-07
15361 454 0.00053347
408 191 1.27835e-07
14472 191 7.78015e-06
2138 2688 1.81606e-06
7529 2688 0.000102286
14650 2893 2.91362e-06
62 5816 7.54316e-07
5687 5816 0.000175045
7752 1173 1.62891e-05
15343 1173 8.63993e-05
4182 1173 2.93286e-07
9829 1266 3.59805e-06
490 2328 5.40433e-06
165 25 5.43552e-07
737 19 1.015e-07
232 556 2.05383e-07
8675 8377 5.05777e-05
234 920 4.75904e-07
25 474 2.42408e-07
145 359 4.17598e-07
232 112 3.73363e-07
15128 1514 0.00168647
4587 1514 0.00035879
15127 1514 0.00121999
302 630 1.447e-07
1298 640 5.62061e-07
5032 2676 7.2283e-06
5966 640 0.000397892
5543 2472 3.95285e-05
1764 266 3.09692e-07
1788 145 1.70828e-07
333 102 2.17899e-06
394 4202 1.26393e-06
1884 5001 1.5238e-07
8090 5001 0.0254864
272 549 1.59853e-07
3028 214 4.46963e-07
2689 10175 4.31021e-07
3116 7256 9.25629e-07
904 63 1.34336e-07
1380 838 2.44006e-07
117 495 1.4813e-07
408 1691 1.3012e-07
114 90 4.69566e-07
486 90 3.4136e-07
9813 6236 4.04395e-06
14949 1916 0.000189099
14946 225 9.77766e-06
325 2198 0.000603669
25 2198 1.24772e-06
14925 2147 6.04627e-06
900 1770 6.74647e-07
1937 106 1.47027e-06
14454 26 0.000258667
5934 951 1.23899e-05
1749 26 3.21631e-07
1497 963 2.68834e-07
1932 1040 1.9123e-06
767 2077 6.30636e-07
1739 12 1.4895e-06
3276 4115 5.56182e-05
7253 3 1.70773e-06
1126 184 2.32149e-07
2293 22 2.78073e-06
1603 3945 3.10602e-07
2433 1529 3.78253e-06
3467 62 5.27391e-06
3467 2828 7.29955e-06
3289 656 4.86923e-05
9 953 1.88502e-07
208 1095 2.32401e-07
213 1095 3.65244e-07
2659 7193 1.24108e-06
1790 7193 4.48096e-07
1698 860 1.15086e-07
2819 1618 3.95602e-06
191 328 1.13182e-07
1069 2083 0.00282936
14707 2083 0.395238
14706 2083 0.00254178
9 1146 5.256e-07
2505 1593 4.2177e-06
2287 7848 2.49632e-07
2801 1058 3.59973e-06
2576 36 5.6618e-06
1101 2648 1.44407e-06
14571 1457 9.16807e-05
414 1457 2.60742e-07
4324 1457 0.000110476
780 5437 1.18607e-06
1078 5437 7.12062e-07
5512 829 3.06957e-05
7266 829 0.0756147
709 125 1.43956e-07
1104 105 8.73985e-07
11474 385 0.000136436
665 74 3.72161e-06
331 74 2.81478e-07
10080 114 0.00035444
501 114 1.21776e-07
14209 417 0.00207223
840 1115 1.54382e-06
602 266 1.2727e-07
14037 3840 2.083e-05
2479 3840 7.06009e-06
311 2445 1.4758e-07
1025 3829 1.17408e-06
9566 359 0.000147541
0 625 2.2502e-07
391 956 1.10076e-06
9979 500 2.59331e-05
2454 3694 2.10216e-07
1276 1527 3.50003e-07
1157 333 2.88235e-06
1129 114 1.20596e-06
33 114 2.65844e-07
360 114 2.39275e-07
4102 9562 1.30368e-05
2058 9562 2.26275e-06
4786 9562 5.03709e-07
1065 1204 2.67777e-07
5989 178 4.01083e-07
724 178 1.36897e-07
1282 18 1.35337e-07
1715 1308 1.58523e-07
829 998 3.40491e-07
459 998 2.81667e-07
286 998 3.35243e-07
413 998 3.1081e-07
14004 998 0.000522722
1185 381 1.3082e-07
13956 21 0.000232724
932 298 4.47993e-07
302 1017 1.861e-07
2810 649 8.75447e-06
522 58 1.57489e-07
2587 2432 1.40575e-07
13883 1598 3.12797e-06
6268 25 8.32438e-07
13869 112 1.89959e-05
4028 225 3.9788e-06
1106 225 1.01189e-06
1239 266 1.0678e-07
173 362 1.83673e-07
13794 178 4.90657e-05
3626 2340 3.46307e-07
127 1668 3.63458e-07
5094 312 6.81991e-06
2850 3368 1.39444e-05
1548 61 3.35282e-06
13557 2173 2.51428e-06
2174 2173 0.0138415
2676 2173 0.000344489
643 2173 1.75625e-05
558 2173 4.47083e-07
817 924 1.77344e-07
427 20 1.03721e-06
6269 388 0.000237324
2561 550 1.22932e-06
4128 102 5.50648e-06
1966 2952 0.000241959
13622 2952 0.000260131
4855 518 3.74333e-05
330 3268 1.52658e-07
13613 909 0.000266722
227 914 4.68079e-06
198 940 1.98075e-06
1881 26 1.46351e-07
13573 3771 0.00064539
1881 3771 0.000647637
25 3771 2.10385e-06
114 3771 7.9671e-07
2442 3771 5.80662e-05
0 3771 3.67306e-07
13555 197 9.74875e-06
1642 197 1.05138e-05
360 178 2.33477e-07
2522 449 1.92199e-07
3749 9286 4.4951e-06
2332 9286 1.47136e-06
1088 392 2.13497e-07
13476 337 6.24198e-05
301 230 5.00897e-07
413 313 1.30585e-07
771 18 2.33503e-06
1569 155 1.51302e-05
913 1854 1.13123e-06
6154 4790 1.44547e-07
3 9 2.02361e-07
521 9 2.82436e-07
13395 1997 0.000309864
13394 1997 0.000571884
13394 2265 7.26017e-05
42 1524 1.47537e-07
12799 1115 5.20702e-05
2819 273 2.63041e-06
13227 328 0.000120746
1324 8629 1.46879e-07
74 66 1.45871e-07
74 299 1.18102e-07
1449 62 2.40755e-07
103 1807 3.54539e-07
4616 2403 7.28731e-06
628 897 1.0569e-07
2559 9042 1.72546e-06
2088 1733 1.15347e-07
628 114 1.23814e-07
1873 2952 3.16533e-07
1983 1040 5.89114e-06
253 1469 1.61725e-06
563 4769 2.41941e-07
9299 1308 0.0791109
779 1308 9.79193e-07
2633 1308 2.01895e-05
3494 809 3.52189e-06
3040 709 1.22178e-05
13008 839 2.24679e-05
290 2248 0.000959175
46 298 2.08554e-07
4484 8930 3.26434e-06
3062 62 2.80029e-06
3062 266 4.25656e-07
1804 90 1.68132e-07
1030 2892 8.6178e-06
4523 89 1.43387e-05
611 6762 2.95426e-06
1603 2686 3.48518e-07
5218 32 5.61661e-06
1126 3093 3.16214e-07
6528 4925 6.47504e-07
7317 32 8.10329e-07
445 41 1.7495e-07
2229 8071 2.41261e-07
12795 1412 6.88595e-06
3116 1213 1.361e-07
5375 304 1.19705e-05
8490 304 4.39594e-06
1341 6540 7.68874e-07
1178 317 3.13378e-07
4889 844 6.43093e-06
12737 251 1.45536e-05
624 760 1.57073e-07
1565 760 3.59272e-07
2398 1397 6.33746e-07
12692 1414 5.93702e-05
6368 454 2.07947e-05
4338 793 4.11312e-05
1703 793 6.10137e-06
1251 793 7.4844e-06
226 793 1.16898e-07
5364 112 3.3662e-06
399 7249 2.42197e-07
250 481 3.87999e-07
301 828 1.88326e-07
12597 2946 7.75532e-05
5051 1056 1.74934e-05
5051 102 2.14309e-05
1828 102 3.1239e-05
1715 368 2.9675e-07
134 1341 1.35658e-07
5394 6447 3.23955e-07
436 237 1.22671e-07
7073 8718 6.92804e-07
790 4749 9.51187e-07
242 4749 1.45396e-07
48 4749 3.17635e-07
20 4749 1.57163e-07
4243 25 4.18535e-06
2572 1634 2.79605e-06
4 1179 4.75387e-07
311 5601 1.74589e-07
1890 86 1.77135e-07
692 2214 1.26529e-07
9096 388 6.48789e-06
12386 796 0.000209278
7316 26 3.47216e-05
3318 1304 7.11408e-06
1433 2694 0.000198788
1715 1304 1.57564e-07
348 480 1.5622e-06
414 3663 3.08551e-07
903 106 7.49734e-07
871 354 4.26628e-06
130 3324 4.07577e-07
130 828 2.85763e-07
629 2130 2.17221e-07
733 966 7.03572e-07
486 1078 1.7256e-07
1672 273 2.0481e-07
352 313 1.55788e-07
2667 358 6.17233e-07
191 754 3.93258e-07
2905 754 4.99093e-05
62 2024 1.14616e-06
3081 2024 0.00134571
3788 2024 4.79402e-05
3788 251 1.954e-05
3640 251 9.02861e-05
3640 694 9.33517e-06
172 1057 1.02844e-07
4309 71 6.16438e-07
1126 449 1.12698e-07
1841 225 1.34012e-06
12093 225 0.000248481
971 709 8.55558e-07
11532 3372 6.91996e-07
12031 19 6.75681e-05
376 372 1.7144e-07
4796 8389 3.60431e-05
1169 225 5.0838e-07
177 2022 8.49881e-06
17 2022 0.000107353
629 1941 1.11975e-06
628 1941 4.07112e-07
2933 8331 3.6106e-06
1609 3616 2.57691e-07
11835 1457 0.307448
130 966 1.84345e-07
422 328 5.36777e-07
11 557 5.71362e-06
7198 1452 4.24871e-06
11770 6669 2.45858e-05
11762 25 1.96872e-05
4457 8223 1.20804e-05
338 8211 2.33689e-07
2726 953 3.34123e-05
151 3302 3.00535e-07
42 1039 1.61572e-07
3240 616 1.67941e-05
11498 516 8.77455e-05
2209 106 1.26617e-05
6673 106 1.25191e-05
368 8036 3.37708e-07
11463 225 1.92728e-05
925 3721 4.23363e-07
11380 731 3.19797e-05
309 349 1.79761e-07
807 349 1.46273e-07
299 44 5.36507e-07
269 1621 1.78909e-07
4471 8001 4.25692e-07
1434 862 3.87449e-07
656 22 1.40371e-06
4703 22 2.45346e-06
1113 7799 0.00459288
21 7957 4.49784e-07
207 105 1.64112e-07
1956 40 5.10972e-07
2102 40 1.5362e-07
11238 839 0.00690843
3954 1410 9.80235e-07
2657 134 8.74424e-07
4940 1750 3.0163e-07
109 453 2.64661e-07
4351 7858 3.41388e-07
2813 349 1.19714e-06
1331 89 1.21612e-06
3794 311 2.74734e-06
2044 251 2.95944e-07
1004 340 2.33911e-06
11085 19 0.000305276
11048 2892 4.29529e-05
11025 5486 3.76643e-05
1746 2117 2.56883e-06
3122 2117 2.03535e-06
152 141 4.52335e-06
607 145 1.99691e-07
1024 145 9.52706e-07
124 40 5.10468e-07
1246 40 2.25375e-06
4018 40 9.70197e-07
865 7716 1.79193e-06
2712 1991 2.55944e-07
413 529 6.40007e-07
3324 334 2.73569e-05
976 334 1.02461e-06
571 334 1.45867e-07
5012 909 1.13312e-05
6503 1878 9.06299e-05
228 2498 1.71734e-06
38 1651 2.09498e-07
5594 7647 1.33132e-06
563 7644 3.60936e-07
2094 963 4.50644e-07
3116 150 3.98602e-06
5680 4399 8.95933e-07
3535 2327 7.75018e-07
2572 404 6.94961e-07
43 614 0.00105856
18 1115 1.75043e-07
92 1483 6.37116e-07
6571 329 2.39622e-07
3711 12 7.28384e-06
3711 7527 6.08667e-06
88 1011 1.43364e-07
10601 368 8.84359e-05
1556 40 3.81362e-06
1556 2071 8.41364e-06
7642 9 6.75733e-05
9896 3033 4.53876e-06
10565 2479 2.12165e-06
148 1096 2.5626e-07
703 683 2.15908e-05
208 683 1.03755e-07
44 3511 3.55333e-07
4148 126 1.9445e-06
1153 7400 4.01521e-07
698 2563 2.10014e-07
10254 117 7.7612e-05
77 2022 2.14932e-07
8533 385 4.15551e-05
5467 1963 1.66935e-06
3200 709 1.86742e-07
1713 7315 1.78145e-06
5 780 9.11474e-05
7723 218 1.83788e-06
1413 963 2.37462e-06
2116 7265 2.92115e-07
2303 7265 3.64261e-07
2303 2456 2.41833e-07
10259 302 3.31247e-05
4688 7258 0.0471582
2184 1288 8.67946e-07
7688 1288 9.56932e-06
68 358 2.11509e-07
7766 358 3.16503e-05
3032 1607 2.99157e-06
10162 68 7.35445e-05
10142 2383 4.12679e-05
8283 1474 6.74626e-06
2474 4671 2.27977e-06
318 135 6.26991e-07
1217 1305 6.54886e-06
239 6939 3.9061e-07
890 37 3.38341e-06
3730 2103 5.19729e-06
971 2103 0.00015653
101 2103 2.77001e-07
391 2103 5.15302e-07
7736 230 2.80147e-05
7129 230 2.86074e-07
4026 78 1.2549e-06
84 3292 2.52801e-07
320 58 5.89809e-07
307 2574 1.78998e-07
9911 689 7.96784e-05
5965 17 1.07529e-05
5965 1520 2.49028e-05
0 172 3.32715e-07
1036 3643 6.50324e-07
9881 3643 1.50132e-05
323 1114 5.53017e-07
382 4671 1.1129e-06
5389 2070 1.53815e-06
5768 1057 1.84446e-06
0 1288 6.22033e-07
1320 6521 1.57222e-07
9656 3602 0.00113772
9655 3488 0.000123048
396 2148 1.98851e-06
9580 146 1.14734e-05
9552 998 0.000285602
57 454 1.13012e-06
8512 219 6.91205e-07
1146 209 2.82452e-07
148 6770 1.18079e-07
5094 334 1.47659e-06
887 916 1.35884e-07
3732 237 4.09094e-06
767 39 4.12301e-07
5480 1114 7.69606e-05
2368 941 4.07651e-07
5403 3846 7.29357e-06
4166 6654 5.89568e-06
698 6591 2.03289e-07
2798 6591 1.77972e-06
1994 26 5.20804e-07
0 1116 9.63553e-06
63 6542 3.19668e-06
4196 809 1.77525e-06
4512 680 0.00180915
8958 225 8.07604e-05
1380 3396 2.37688e-07
693 1908 4.26184e-07
3337 251 3.56131e-07
40 90 1.49299e-07
694 1506 4.89935e-07
784 39 1.11019e-06
1175 996 2.64957e-07
6292 358 1.0873e-06
755 345 4.11047e-07
2763 3292 3.79127e-07
51 665 1.08043e-07
2560 665 2.01974e-06
887 2243 4.47982e-07
8841 311 4.87841e-06
1439 1423 2.34105e-07
5947 2477 6.70122e-06
2496 1241 3.77781e-06
234 1039 3.49162e-07
1016 365 2.60598e-07
2457 1993 2.32229e-07
4109 951 2.93624e-06
271 798 1.47782e-07
8675 3 1.26588e-06
1518 71 3.72712e-07
2008 145 9.99708e-07
5768 40 7.15179e-07
658 99 6.26534e-07
8596 99 2.32139e-05
2368 12 1.65298e-07
2035 1353 2.3506e-05
2323 996 4.81489e-07
8527 360 4.06515e-05
98 1536 1.32869e-07
49 237 2.12287e-07
651 6203 1.07495e-07
2931 116 1.20794e-06
8192 134 8.21989e-07
1938 721 8.69745e-06
1043 721 2.29503e-06
0 721 1.69712e-07
1255 237 1.23993e-07
161 6119 1.66193e-07
2638 2892 1.41369e-06
2183 100 1.08641e-06
8259 743 0.000113581
5165 6017 0.00158432
4243 809 1.27292e-06
8139 5978 1.02605e-05
2531 452 1.40131e-06
677 1653 7.2781e-07
221 78 1.58259e-07
855 2412 4.6603e-07
8028 5911 2.37831e-05
69 164 2.91728e-07
1116 5039 5.29027e-06
7974 5039 0.000523757
349 225 2.75096e-05
449 1288 3.59137e-07
1370 337 1.06147e-07
306 844 1.63869e-06
491 953 2.51289e-07
790 4853 2.3168e-07
3111 986 3.42653e-06
33 691 1.82096e-07
1620 2214 2.47951e-07
7685 2214 0.124576
7673 779 2.17343e-05
1349 4845 4.24968e-07
7618 230 0.000104948
9 298 1.85426e-06
153 253 8.2559e-07
600 253 2.57457e-07
7562 253 0.141566
1576 328 2.62339e-07
208 396 8.40787e-07
7374 3 7.62061e-05
952 2292 3.22931e-07
7492 2292 1.60967e-05
925 3591 1.82647e-07
2115 963 2.45447e-07
624 634 2.84844e-07
0 329 1.73003e-07
677 1318 2.30522e-06
7318 4877 0.0140703
1502 1448 7.48667e-06
7304 1026 1.10439e-05
1235 121 3.08879e-07
141 1203 1.75397e-07
275 396 1.15408e-07
632 5424 4.66627e-06
7275 5424 0.000339373
7198 5369 5.7881e-06
715 1873 1.43106e-07
781 1032 1.83189e-07
587 2762 3.4775e-07
7123 1792 0.00026313
3618 4909 6.80643e-06
1276 674 4.27124e-07
1020 4885 1.35101e-06
1020 4607 3.23805e-06
6175 3860 5.95975e-06
48 3860 1.06142e-07
389 3860 7.30737e-05
46 3860 2.0488e-07
42 174 1.03172e-06
4819 229 3.1958e-05
5372 523 1.22512e-05
575 694 3.12464e-07
52 1277 3.83125e-07
32 1277 6.14784e-07
1225 322 1.53359e-06
1185 619 2.04653e-07
692 619 3.82586e-07
6843 260 0.117709
1054 3217 1.16949e-07
331 90 1.57506e-07
6807 986 2.8077e-06
2843 4880 2.16176e-06
4062 2356 0.000641095
1849 41 1.32474e-07
3786 32 9.71484e-07
1715 457 1.12079e-06
6708 886 3.09034e-05
6706 1567 0.000526363
6627 709 2.22612e-05
600 879 1.56376e-07
6437 2147 8.30064e-07
301 453 1.257e-06
780 4916 5.987e-07
6460 4899 0.000251421
3056 830 1.66418e-06
1672 2101 1.28379e-07
451 1445 2.25052e-07
6003 106 0.000199743
1282 956 2.62802e-07
1878 50 2.0148e-06
6309 2511 8.7662e-05
200 2511 0.00126104
929 2511 0.000767248
1022 4739 4.41774e-06
1902 685 2.71752e-07
6189 685 5.12356e-06
6157 396 1.42216e-05
5703 616 5.13818e-06
2433 90 3.89958e-06
2411 1435 1.02011e-07
1341 3001 3.34884e-07
2332 223 2.62638e-07
151 920 1.61631e-07
886 228 8.41532e-07
575 2328 2.11283e-07
9 2328 1.719e-07
2807 2034 2.41089e-06
5977 188 4.57376e-06
2644 162 6.42314e-06
307 162 3.33221e-07
1831 1125 1.06223e-07
5217 127 2.55901e-06
5925 2086 4.6038e-05
3600 4490 1.77235e-06
3165 4457 3.06252e-07
151 4089 3.32709e-07
2152 2721 3.2147e-07
455 3968 1.11075e-06
4834 1849 3.50236e-06
281 260 6.1351e-07
210 980 1.91445e-07
4181 4337 2.3081e-07
644 761 1.20996e-07
4233 2964 2.48108e-07
286 298 1.28418e-07
1366 457 9.46504e-07
0 780 2.84185e-07
4351 32 3.88822e-07
3552 844 2.45013e-06
3594 3211 1.47834e-07
5467 4248 1.2344e-06
4061 556 1.64264e-05
43 1114 1.45611e-07
5463 4081 5.13747e-05
344 392 1.36204e-06
3762 392 1.25338e-06
3533 839 4.19738e-07
897 392 5.13889e-06
11 331 4.53897e-06
5459 203 7.06497e-05
5452 220 5.38954e-05
360 37 3.09421e-07
880 266 3.14496e-07
187 2019 1.4107e-07
1725 2859 2.30933e-07
3036 4082 1.47713e-06
2445 3737 2.18104e-06
5290 1215 1.88799e-06
5202 365 2.34361e-05
328 559 0.00554996
947 313 4.65107e-07
5088 1114 2.64568e-06
174 3823 3.80805e-07
5062 4 0.00019883
657 1763 5.41468e-07
5023 396 1.81252e-06
4782 26 3.07983e-06
4996 3861 1.42827e-05
4987 1112 6.73861e-06
4982 2028 4.21152e-05
4982 225 3.28295e-05
0 3251 2.4725e-07
1484 102 1.66528e-07
455 3831 1.80384e-06
4938 1822 1.18738e-06
4864 40 2.00808e-05
4864 39 5.23374e-06
229 2101 0.00305642
4857 559 1.93766e-05
975 32 1.27703e-05
0 2022 1.76763e-07
338 3721 1.51636e-07
292 305 2.56687e-07
4062 1951 1.26883e-06
998 91 1.5015e-06
4709 3651 1.00478e-05
4708 276 1.18429e-05
2789 74 1.05876e-06
1806 74 3.17876e-06
1861 903 7.34435e-06
459 903 1.85749e-07
4651 3614 6.97234e-06
4604 3576 1.51982e-05
60 779 1.38468e-07
4450 32 1.447e-06
2712 817 1.34957e-07
667 125 1.5202e-07
4354 25 5.08015e-07
48 164 2.6174e-07
4123 392 6.65505e-05
4123 3315 0.000399531
4161 3305 0.000443333
242 1495 1.89553e-07
1051 1495 1.38791e-06
1348 2226 3.28931e-06
3981 758 3.2721e-06
780 169 1.1012e-06
2287 1040 1.09161e-05
270 134 1.58849e-07
2353 903 3.45536e-06
193 903 3.80202e-06
3673 71 4.62845e-06
811 679 1.15118e-06
1389 1517 0.00590412
607 126 1.90579e-07
342 178 1.14038e-07
872 181 6.08071e-06
1299 1105 1.96056e-07
3235 2038 1.18197e-05
3188 411 0.000126309
2322 89 0.00255659
1134 89 9.46319e-07
1884 1595 1.64541e-07
3068 2532 4.42875e-05
3053 678 0.00035547
3047 982 2.81383e-06
37 1244 1.47151e-07
2068 345 2.79334e-05
2340 440 7.61569e-06
2955 320 6.85473e-05
1118 2435 1.1018e-06
89 1050 2.56309e-07
2688 998 0.000201729
2659 90 1.80936e-06
2659 252 1.04713e-06
2589 1656 1.01294e-05
141 1656 2.02836e-06
2588 2147 4.06997e-07
1276 223 7.92381e-07
1211 223 3.96409e-06
1602 338 2.15862e-06
459 631 0.0031042
887 2015 0.000115767
2415 2015 1.17679e-05
284 2015 1.31763e-07
1511 809 1.2962e-07
1921 917 8.02482e-07
2010 1691 7.00361e-07
746 40 2.50356e-07
301 40 1.57924e-07
208 640 6.97356e-07
1878 1591 7.60005e-07
1753 1542 4.99525e-05
846 1267 2.08014e-07
1020 349 6.59466e-07
1636 1428 1.65487e-07
766 312 6.20267e-07
1085 89 7.18367e-06
728 1227 1.31667e-07
522 1227 1.28075e-07
1329 396 4.27738e-07
1073 932 1.35998e-06
927 802 0.000130461
187 237 1.13039e-07
888 116 3.29939e-07
869 558 4.01578e-05
867 558 2.69758e-06
43 558 1.42571e-07
0 222 3.84278e-07
0 714 2.02229e-07
677 261 1.42595e-06
620 571 1.21839e-06
168 134 1.68299e-07
271 134 2.17042e-07
385 537 2.8281e-07
494 397 3.0623e-07
343 334 1.7386e-06
180 126 2.72547e-07
175 174 0.000104585
116 114 0.000392593
115 114 7.99783e-07
17 735 6.26961e-07
22 601 3.10864e-07
155 601 6.63349e-07
294 37 1.06424e-06
404 2708 3.538e-07
2536 4047 2.1894e-06
4306 2470 1.51602e-05
15708 996 0.00384636
5913 7682 0.13171
36 4425 0.00045963
1843 461 1.78993e-07
1687 2641 0.000188173
91 25 6.12979e-05
20087 15000 0.00573916
2411 15000 0.00515493
23597 26 0.332264
1697 296 7.96683e-05
1276 213 4.39069e-07
53 1524 2.1641e-07
225 1524 2.96949e-07
9250 145 0.00171688
1240 1077 3.33761e-05
1805 1077 3.51322e-07
1088 192 2.58583e-06
10942 1188 0.00119508
5754 15094 0.000722028
74 15094 0.0012369
325 15094 4.79343e-07
1347 978 5.94716e-07
9427 296 0.000283442
1291 7487 0.000202553
1087 534 2.69366e-07
4739 6452 0.00045403
12403 11823 0.00214557
8521 1356 0.0004637
141 2230 7.43768e-07
1260 2732 0.000835859
4950 2732 3.79335e-05
5113 41 1.42246e-05
7578 15000 2.64418e-05
8222 15000 0.145222
7639 591 0.00180578
870 640 2.39905e-07
2393 1382 2.77669e-05
1611 345 0.000926998
5847 1034 0.000212123
1620 2011 0.00018506
822 336 0.000157137
3595 201 1.90836e-05
3463 927 6.42172e-06
23306 2274 0.00196683
7089 320 0.000102744
2993 1174 3.36765e-06
5737 1174 5.39123e-05
1711 1173 2.37324e-07
23296 114 0.205514
1202 7279 9.74192e-07
4434 827 0.000160606
6786 39 3.5185e-05
8333 827 1.34005e-05
1324 160 6.41491e-07
24 6089 3.29236e-06
4549 222 7.89143e-06
1270 1593 0.000214991
1084 4448 6.4749e-05
599 14920 2.72086e-06
328 449 1.30394e-06
1413 2071 5.23997e-05
4585 4187 3.49649e-06
1998 62 3.14916e-07
4811 1052 2.91343e-06
1054 37 3.63305e-07
7263 311 0.00064515
920 998 2.85473e-07
1895 5840 2.02491e-07
640 3853 1.4104e-06
49 5588 1.13313e-06
541 1093 5.38538e-05
1200 74 3.99113e-05
2797 2262 3.12283e-06
5569 2262 0.00565713
1497 4067 2.25715e-07
683 100 2.87255e-05
4428 100 1.29631e-05
1314 100 3.24397e-06
468 1171 4.6631e-05
38 4066 4.36828e-06
2124 2203 2.23255e-05
11218 900 0.135841
5549 900 0.00386414
12 2421 5.04676e-05
1560 2421 0.000183457
697 2421 0.000795773
3136 14846 1.16853e-06
368 3525 4.92509e-07
2959 7671 1.63982e-06
3247 1685 0.00935723
525 1685 3.15942e-07
1693 178 1.14086e-06
751 8543 8.29686e-07
751 3421 2.1684e-06
2540 2241 0.000477067
7143 437 3.12931e-05
4008 5694 4.31404e-07
1990 1317 5.04672e-07
7862 1831 0.000205006
9129 1317 0.00597577
3097 634 8.73701e-05
3047 74 4.2329e-05
2789 225 0.000262687
459 278 3.31756e-06
1620 884 3.06253e-07
1200 13596 3.59247e-06
22987 270 0.00297167
863 266 6.80177e-07
2038 5016 2.46575e-06
3494 273 5.19297e-06
1390 5016 1.0375e-06
3629 1602 8.68733e-05
2926 1602 6.91634e-06
15393 384 0.000588696
1739 535 5.30275e-07
932 6 7.30841e-06
629 8182 2.30716e-07
2216 313 5.99289e-06
47 2150 2.94811e-06
174 18 1.8146e-07
266 4153 2.9734e-07
1239 141 1.86877e-06
2140 6395 3.57079e-06
22919 197 0.238801
2395 14743 6.0295e-05
2450 286 0.000641817
2064 1699 1.33966e-05
3494 2013 2.40236e-05
1183 7070 5.48025e-07
27 1126 2.05615e-06
34 1126 5.20112e-05
466 2865 6.15995e-06
2020 2164 9.55954e-07
14000 1155 0.000331039
122 328 1.03631e-07
22890 81 0.00145811
7248 81 0.000705176
3346 510 9.93005e-07
234 5948 1.68873e-05
1918 1304 3.53272e-06
16188 1304 0.000161945
1749 7414 6.85096e-06
331 810 0.000531282
2505 308 8.81588e-05
22826 2173 8.95596e-06
57 635 6.53231e-05
3720 4998 2.08824e-06
7146 1744 0.245994
2015 8379 0.01888
2017 226 2.77883e-06
6844 1088 0.00643616
263 900 0.000544394
487 1178 0.0107218
546 8458 1.2653e-06
1355 2325 4.91455e-07
11340 433 8.38618e-05
4050 2734 0.00338918
44 529 4.26912e-06
5511 164 0.0490103
629 655 5.09733e-05
6938 655 9.80805e-05
3335 655 0.032178
62 417 1.98484e-05
21594 417 0.0115602
1127 178 2.26875e-06
4481 14656 2.19713e-05
14744 14656 0.000490153
1024 637 1.95908e-06
2090 637 1.20525e-06
559 1213 0.0400002
3801 90 4.27733e-06
10018 223 0.000181727
149 223 1.84348e-07
13002 7665 0.000168967
672 483 3.98508e-07
9498 449 0.0571095
2456 454 1.38457e-06
700 166 2.72707e-07
2138 1167 1.01374e-05
22677 5791 0.0337154
656 1023 2.47407e-05
320 320 3.23153e-07
1448 643 2.81603e-06
1468 2044 1.01654e-05
3762 41 6.4562e-06
899 877 6.53699e-07
1985 877 1.01094e-05
174 473 4.17718e-07
14919 372 0.000320848
22625 41 5.34654e-06
710 816 1.66944e-05
22620 208 0.00929313
5025 14573 5.27881e-07
1022 1651 7.11754e-05
5025 214 3.5224e-05
5678 1538 0.000690985
5565 39 9.85947e-07
1579 112 2.50232e-06
5708 924 0.000272658
2095 328 7.5609e-05
121 779 1.3952e-06
22539 816 1.5679e-05
3701 3042 0.000637963
1341 3042 9.88781e-06
1341 3485 2.98496e-06
163 3042 4.86309e-07
255 155 2.18178e-07
1367 52 0.000452446
22529 26 0.00658707
20926 6675 0.00351864
1126 214 1.26368e-07
5831 5559 0.00150697
1341 278 1.08226e-06
7302 4962 1.16357e-05
5272 430 0.0215439
22518 141 0.109627
17178 145 4.35566e-05
2926 145 7.25477e-07
1504 998 3.17016e-07
22497 411 0.00979919
183 516 1.30349e-06
134 516 3.74394e-05
1911 4131 1.36633e-05
166 1609 1.66331e-06
166 1304 4.02888e-06
487 1304 4.56817e-07
8656 82 1.31895e-05
1514 680 1.63616e-07
2121 749 6.90743e-06
2398 1308 3.87844e-07
10046 886 4.80523e-05
5041 624 3.85806e-06
1715 112 1.23601e-06
7238 1524 0.0014422
8333 659 0.00373014
1860 2496 0.000147934
1761 9731 1.2409e-05
2138 6252 3.40735e-06
563 143 1.70658e-07
325 2914 5.32229e-07
1174 178 5.71076e-07
737 178 3.16133e-07
640 178 3.48786e-06
1697 6719 5.64194e-06
1187 203 6.09061e-06
19538 2136 0.00262667
22005 2530 0.00134299
1080 3520 1.77989e-07
1052 2470 2.24691e-05
12630 5223 0.0179863
213 41 9.52072e-07
9978 6426 1.45084e-05
610 4793 3.28179e-05
2840 1851 6.30112e-05
2840 2024 8.80592e-05
2022 559 1.84163e-06
84 3506 3.1868e-07
1052 3922 2.02199e-06
34 3922 3.17317e-07
16896 2102 0.0308371
22343 311 0.012727
1449 41 6.7882e-07
12567 41 0.00389787
2448 99 8.1141e-05
1831 90 1.14944e-07
3648 6137 0.000725586
275 25 2.05072e-07
2152 455 4.75282e-06
4444 3477 1.66992e-06
2818 3477 5.43964e-07
728 385 9.34121e-06
11949 385 0.000305257
3 6992 2.46493e-07
878 6992 0.000339461
2890 2223 0.000315847
725 2223 5.05906e-07
1127 2223 5.90056e-07
337 2223 1.66622e-06
1994 966 0.000106549
9648 155 0.00875487
824 14367 2.14341e-07
884 171 0.0665013
2152 2678 2.31823e-07
9841 446 0.0866024
22242 3659 0.000449184
22236 354 0.0615502
4429 433 3.49456e-07
22231 14376 0.00455108
22230 1938 0.0371718
5315 5230 6.00956e-06
1038 1224 8.92382e-05
1171 8051 1.51444e-07
1940 549 3.30959e-05
2020 186 4.9177e-07
2582 88 1.94507e-06
7020 4255 1.24579e-06
22173 4154 0.000257552
22172 844 0.0946679
5011 10501 0.00111919
904 1207 0.00206329
1415 1737 9.37938e-06
1422 4699 0.000358827
1185 452 5.04125e-07
3330 591 2.56024e-07
3767 909 7.32358e-06
1802 843 2.6921e-06
394 1742 2.59247e-07
1639 1178 0.00773259
210 191 9.09532e-07
5001 191 6.03745e-07
15536 191 0.00340833
22071 916 0.000692571
10974 637 0.000113725
210 1412 3.35118e-06
1930 433 1.6783e-07
4332 2112 1.12188e-05
6418 318 0.000121423
13422 1115 1.04092e-05
14590 318 2.46078e-07
18360 358 0.0102961
5542 1412 0.0022173
7171 1318 5.36937e-06
1930 2569 1.2662e-06
515 2185 1.23607e-05
4054 8920 0.288675
4054 513 0.0133835
22084 273 0.000745843
7466 9331 0.00016236
422 9331 2.81932e-07
596 1512 1.97559e-06
3884 1169 3.02472e-06
8613 1169 0.192096
7857 1169 0.00010429
563 22 5.55121e-07
6418 357 0.000111302
569 3870 1.13076e-05
4555 3870 0.155922
1397 3870 1.41677e-05
1174 330 5.04645e-07
8122 330 0.000103266
6945 8802 2.27203e-05
21993 313 0.000202931
6991 10252 0.0018273
13884 10252 0.000777444
870 10252 1.52537e-06
1100 490 1.06097e-05
817 490 5.7488e-07
2053 112 2.28454e-07
187 1710 5.87716e-07
1104 1522 3.68111e-06
1038 4756 5.65872e-05
950 116 3.03924e-07
44 714 1.23195e-07
1298 1524 5.66166e-06
3321 3482 2.93462e-07
1007 78 1.26085e-07
361 32 1.61279e-07
4933 260 2.42425e-05
82 10828 0.00242087
2499 914 1.28539e-07
11824 1470 0.00419811
10046 3302 0.00462723
4158 4171 0.000838978
2116 1109 9.51655e-07
293 210 5.06402e-07
7481 7738 1.30695e-05
3642 7738 1.75857e-06
1390 164 0.000217694
1698 164 9.60957e-07
299 164 1.82549e-06
21867 328 0.0498042
302 166 1.00089e-06
1178 1812 1.16762e-06
114 6102 6.32687e-06
1142 326 7.75065e-07
360 1558 4.18617e-07
1086 1692 1.64196e-07
8403 913 4.28782e-06
1711 7271 1.65387e-06
297 234 2.51861e-07
1011 2442 1.06223e-06
15532 2442 0.00199161
21826 2442 0.00744663
314 2442 3.16947e-06
32 1308 2.44983e-07
1214 4190 1.10381e-05
1214 608 2.0204e-07
387 1057 1.14307e-06
7857 2968 1.98922e-06
2020 385 4.30531e-07
667 385 4.11514e-07
3162 123 5.75768e-06
1698 116 1.13363e-06
829 1504 2.97528e-07
16033 1684 0.00871192
3027 3345 4.19811e-06
354 2822 2.88962e-06
797 1381 3.41354e-07
1459 9510 7.56663e-06
51 257 6.44414e-07
39 966 2.19016e-06
7047 1029 1.02441e-05
1932 1029 0.000459508
21749 14125 0.00711221
21743 747 0.000201077
2641 9646 9.97971e-06
654 619 1.23399e-06
1359 1020 3.41539e-05
2745 2629 3.46077e-06
6834 2629 0.0601202
1321 1919 3.1201e-06
797 9005 4.12159e-07
21724 861 0.13936
21723 861 0.000886785
35 896 2.02998e-07
10014 52 0.00105082
1174 625 2.75858e-07
8880 625 0.00632949
2366 127 1.35828e-06
6132 6164 0.087589
2332 844 1.20311e-07
771 2103 2.65529e-06
2928 985 0.000214034
2059 1797 2.19926e-05
275 1797 6.11277e-05
219 637 1.755e-05
32 637 2.72368e-07
2364 3579 5.0579e-06
1593 322 3.01541e-05
12485 312 3.31043e-05
1049 3604 1.83406e-05
572 50 1.65791e-06
2442 2366 0.0233191
12933 2366 0.000341329
754 2226 0.000183367
1971 1536 2.04183e-07
1349 1097 6.13765e-06
1035 155 6.26801e-07
1200 21 5.86645e-06
208 975 1.4995e-06
21598 134 6.36498e-06
3347 14045 5.93994e-05
191 1088 5.9531e-07
7574 1026 3.61256e-07
2368 1026 3.4944e-07
8447 39 1.55597e-05
6527 14016 0.000779147
21546 11588 0.00353334
8191 621 4.78629e-06
3321 313 4.61495e-07
266 6171 5.10152e-06
21478 6171 0.00257302
1584 498 2.73591e-06
2562 13973 1.19887e-05
1111 13973 2.52035e-07
7443 3125 0.00118339
21463 3125 0.493589
4252 1308 1.57951e-06
6409 13951 0.000562373
484 13964 1.66362e-06
62 312 2.27691e-07
2428 11359 1.5552e-05
779 166 2.44818e-06
14758 3344 0.0112088
2587 9335 5.25944e-07
6427 1235 2.88661e-05
177 349 9.79731e-07
746 6035 4.60536e-06
1827 12 2.11067e-06
1827 2869 1.37768e-06
73 953 6.96315e-06
477 953 2.53825e-05
1708 241 4.51037e-07
2397 1011 2.97869e-06
4237 145 4.03336e-06
9078 643 4.06519e-07
3416 1510 4.64054e-06
3416 13901 1.29906e-05
3253 7046 3.76244e-05
2843 7046 2.5549e-07
1366 6651 2.59298e-07
21285 543 0.000262316
1024 1631 8.21577e-07
1200 13889 6.33094e-06
1025 40 9.32205e-06
2725 677 0.248681
8987 3311 0.167559
6380 271 0.107471
414 271 4.53903e-06
923 251 2.22416e-07
829 779 3.0506e-07
1126 616 8.14324e-06
4811 40 1.19247e-06
10825 7032 0.000739156
21193 9739 0.0464052
1597 6759 1.60912e-05
1322 607 2.75588e-07
21149 953 0.00982949
325 1205 2.914e-06
413 1205 0.000928239
2648 217 3.6959e-06
5584 13246 1.753e-06
4061 8342 5.81082e-07
1570 3043 5.27539e-06
162 807 1.57708e-05
162 7151 0.000801227
3074 2829 0.000219939
3074 6836 3.76783e-05
9388 312 1.11089e-05
9388 710 3.06677e-05
1862 12196 3.31288e-07
4187 225 2.24033e-05
5426 7782 0.00199088
2908 634 8.38417e-06
21066 433 0.00132605
563 588 7.0159e-07
20836 5881 0.00365005
1249 546 6.94062e-06
6484 339 3.03503e-05
723 2683 2.49612e-07
1197 980 6.93529e-07
1793 1697 6.03761e-06
13561 3779 1.17439e-05
255 5134 5.71179e-07
1175 1203 1.43099e-07
600 430 0.00136915
20968 1151 0.00820058
96 2416 6.07847e-07
6043 1661 0.00170759
51 3302 3.38092e-05
2353 5187 3.03687e-06
3866 5187 0.0263437
1341 5187 1.62738e-07
653 3297 2.11587e-06
3747 230 2.36205e-06
20925 4737 0.00595095
627 780 8.52844e-05
151 780 1.49768e-05
459 780 0.00297252
2412 780 9.17819e-06
9688 616 1.60356e-05
7981 345 1.23359e-05
474 1363 0.000583739
9437 346 0.000827007
134 454 7.8674e-07
3780 3338 1.42219e-06
190 977 8.77886e-07
190 2150 4.06083e-07
1652 52 4.15324e-06
4738 1822 0.000827956
72 7723 7.54481e-06
1844 13600 2.23601e-06
1202 328 1.24467e-06
1270 614 0.00011034
20815 11002 0.184914
2730 13567 5.16705e-05
661 13567 7.13212e-07
20764 39 0.000423331
20764 90 2.77866e-05
20764 32 7.23688e-05
2397 3501 3.31548e-06
102 1286 2.74321e-07
870 6952 1.09984e-06
13912 37 0.000325493
5503 755 1.41208e-05
944 755 0.000202603
2922 105 2.28767e-05
3535 7821 0.000177556
271 44 3.32048e-05
1231 163 2.60318e-07
1434 274 6.92946e-07
2416 457 1.54807e-05
1403 40 1.2119e-06
20701 91 4.99406e-05
187 62 2.86637e-07
68 1341 5.98803e-07
5275 172 7.9559e-06
3393 13462 1.8039e-05
754 6059 0.0430391
191 6059 1.38571e-06
525 13324 5.6999e-07
2943 2038 7.62972e-07
5357 21 6.28471e-07
5467 1727 7.68219e-06
2454 1286 1.82619e-05
96 2199 5.96796e-06
237 603 1.77607e-05
3619 6793 0.00201209
746 886 0.000315846
903 886 0.0190505
1741 886 0.000266727
233 886 1.08182e-05
6836 4117 0.00144758
404 1205 1.54396e-06
323 1205 4.15963e-07
1235 13418 1.79761e-06
20576 4117 0.00577193
391 13418 1.28181e-06
20573 326 0.230165
20546 552 5.56308e-05
1649 121 6.58266e-05
505 18 2.70297e-06
1226 210 9.55431e-05
18 210 1.27385e-06
8885 1527 2.4428e-05
365 4100 6.21829e-07
331 212 3.81975e-07
24 1026 2.52356e-07
49 58 9.90436e-07
335 13330 4.99837e-06
7678 13330 1.3857e-05
5032 1456 0.000193118
1565 372 6.05683e-07
1461 372 2.29904e-06
10315 13352 0.00175235
2429 302 4.05702e-05
2020 5536 2.32326e-07
8411 5019 0.000478441
20118 1601 0.027034
1484 155 9.17599e-07
12423 543 0.00599458
8896 557 1.00147e-06
728 231 2.71199e-07
5083 231 0.00012358
5467 2470 8.1467e-05
5410 306 1.5882e-05
44 306 2.16205e-06
3330 50 1.65755e-06
5669 4098 0.0355108
599 704 4.48925e-06
1841 704 5.39371e-05
724 3999 4.72062e-07
172 1088 2.01088e-06
9760 1470 0.118211
311 230 2.82886e-07
1479 4119 0.0103333
1180 1251 0.000465201
3323 836 9.55831e-06
9734 2307 0.000351107
20369 789 0.000101164
3926 1685 0.0141511
1185 1423 1.11896e-06
1756 916 2.9797e-06
692 1423 3.15622e-06
20350 7862 3.03971e-05
1319 7987 0.00424461
1364 126 4.94055e-06
6162 1565 8.23801e-05
284 388 4.13992e-07
1938 3021 1.14068e-06
250 732 2.90763e-06
4854 1224 2.88874e-06
1696 4293 3.96112e-05
4745 296 3.78353e-07
68 336 5.54402e-07
1174 336 5.27415e-06
20228 1318 0.0142271
2137 897 1.78792e-05
955 1848 2.51334e-07
1972 13210 3.37583e-05
786 2891 0.000207465
1988 2401 1.45787e-07
20169 3522 0.00208001
47 126 1.47321e-07
11575 2767 0.000237963
1987 2520 8.30053e-07
3696 669 1.07808e-06
3081 2125 4.70186e-06
1058 2125 0.00303074
970 2125 2.42796e-07
9180 32 1.89187e-05
2169 1699 4.7104e-05
5 397 4.79972e-07
1350 743 3.0283e-07
2943 780 5.17786e-06
6940 780 1.03834e-05
1012 9932 2.28105e-07
5259 433 0.01279
2177 433 0.00194977
5319 3011 2.38247e-06
3191 1028 1.78131e-06
13507 2291 7.71306e-06
14585 1195 0.000326789
2270 194 7.59881e-05
2271 643 1.8666e-06
18291 2853 0.00503719
1130 4098 3.60419e-05
205 26 2.04313e-07
20049 677 0.00828604
2226 105 7.66459e-06
295 134 5.09433e-07
295 105 2.96107e-06
667 89 0.00119408
501 89 4.07065e-05
413 89 2.70629e-05
1198 114 3.88148e-07
9755 368 3.07282e-06
2396 40 6.86904e-06
423 1239 2.15631e-06
19993 270 3.69559e-05
781 197 1.70003e-06
567 2479 7.09663e-07
19984 136 0.0165342
6189 5391 8.96953e-06
1244 13054 9.68896e-07
19945 3277 0.00515197
70 847 5.29848e-06
2172 6211 3.49446e-05
1495 6211 1.4748e-06
5749 6211 0.000105117
295 223 1.14297e-07
19917 115 0.168809
1010 115 5.63759e-06
19916 115 0.0251749
883 452 0.000290205
501 354 1.4032e-07
19882 6565 0.247448
637 237 8.7477e-07
342 2327 2.06254e-07
672 4184 7.81492e-07
239 879 1.78424e-07
13506 270 0.000113831
72 169 7.80515e-07
19495 3154 0.0615759
1742 237 2.53264e-06
1742 175 4.94944e-06
2522 102 6.09397e-07
84 1824 5.98582e-07
1239 1824 5.51165e-07
19046 11418 0.0211487
17011 3419 0.00223518
11903 12983 0.00108615
15702 1026 6.36097e-07
19800 1026 1.45106e-05
2152 1026 7.12096e-07
18010 145 0.000331858
1389 920 1.40002e-07
19811 139 0.00586886
3062 345 6.39534e-05
17975 232 0.0286922
8924 232 5.90825e-05
6154 884 4.60042e-07
1754 296 0.000428908
12406 613 0.00111865
4048 312 5.07634e-05
19740 998 6.22299e-05
3237 2589 0.000255348
2590 1294 1.01101e-05
1697 1050 5.54248e-07
1379 1050 0.00412147
19725 635 0.0144946
1275 768 1.56836e-07
2463 2981 8.58561e-07
1447 7723 6.39998e-06
1314 7723 1.87638e-06
3626 670 1.07292e-06
3626 163 1.85649e-07
3626 12906 5.65392e-07
5095 670 0.000136306
5095 163 2.35852e-05
5095 12906 7.18285e-05
5501 6161 1.37214e-06
1558 6161 3.04572e-06
15971 28 0.166133
2081 18 4.99045e-07
19681 29 0.00452365
1427 12 3.04433e-06
1895 8042 2.55552e-07
1711 555 6.96195e-07
1101 1025 0.000125746
575 1025 7.52591e-06
2172 1025 1.82143e-05
1620 1025 4.07392e-06
1946 2859 3.24465e-06
10957 2166 3.22043e-06
1208 12857 7.77716e-05
5088 1530 2.78296e-05
19624 12863 1.02948e-05
61 707 5.65608e-06
443 112 0.00221072
698 900 5.03121e-07
698 590 1.73327e-06
1438 1913 1.19803e-06
7466 234 1.00275e-05
9694 4068 0.000509776
6162 58 6.6207e-07
14718 345 5.69464e-05
2616 1024 1.42114e-06
19558 6 4.8736e-05
19558 964 0.0156165
5366 964 1.09445e-05
870 964 1.55562e-06
805 446 0.000132375
266 4044 2.96953e-07
2745 1891 3.56293e-07
6514 616 0.0198372
2164 1675 4.12439e-07
1988 1659 1.73197e-06
447 222 2.24815e-07
19520 25 0.00570876
72 8515 3.04886e-07
2797 126 1.94725e-07
619 768 1.4474e-06
609 313 1.56946e-07
976 1517 2.11376e-06
19481 4100 0.000799926
4785 543 0.119034
6154 2243 1.41205e-06
2566 7622 0.139572
2993 18 4.34701e-07
632 379 4.01195e-07
6305 4335 8.89513e-07
19408 2452 1.49931e-05
1520 125 1.25043e-06
697 178 7.21979e-07
15215 20 9.42832e-07
27 260 1.94267e-07
5426 5191 2.47614e-06
563 12766 3.01188e-06
2028 331 0.000333849
19402 331 0.00906274
1616 714 4.23013e-07
1051 44 2.23814e-07
1051 5616 1.00149e-06
19395 7629 0.000897708
751 117 2.27423e-05
220 25 1.47695e-05
447 392 1.37849e-06
1151 980 1.39246e-06
5701 1164 6.51353e-07
73 1308 3.7249e-07
9561 362 1.5179e-06
5497 362 7.93326e-07
1353 58 9.98519e-07
526 862 0.0415236
27 4950 1.58599e-06
11838 50 0.0100937
2412 963 6.50766e-05
7362 4495 0.00412308
19333 98 2.55804e-05
915 12721 5.9104e-06
19320 836 1.4556e-06
3758 1532 2.57405e-07
5217 62 5.89164e-07
5 20 1.531e-06
19310 1811 0.00057715
272 7745 0.000100285
27 74 5.4823e-07
9046 7325 3.63847e-05
19292 385 9.10658e-06
72 8629 5.9089e-07
11591 12704 1.79385e-06
3532 2127 7.05057e-07
75 518 7.6356e-07
352 264 9.25572e-07
18 264 2.67448e-06
3323 264 7.42484e-06
657 32 1.83772e-07
14469 1435 0.00137136
19236 619 0.0326051
4006 619 1.73529e-06
272 625 2.87087e-07
134 625 2.85241e-07
697 4680 0.0137618
1773 9793 1.71179e-07
7864 148 3.14467e-05
301 38 1.48886e-05
1379 437 1.4738e-07
19200 4976 0.312101
155 2226 2.73466e-07
858 305 1.33849e-06
148 410 3.43961e-05
19161 100 0.0711066
2116 1059 1.46111e-05
3069 6824 0.00150571
481 6824 0.000264804
154 6824 4.23425e-06
61 3764 1.72e-05
233 3764 2.16291e-06
9813 552 2.48874e-05
5640 5854 4.11546e-05
19121 2678 0.231878
299 2678 2.44045e-05
310 897 2.00616e-07
3564 12598 0.0452134
19094 433 0.000903777
11928 71 0.00203214
2325 4000 0.00118121
6978 1261 0.0288641
9813 602 2.38617e-05
6486 4339 0.00211545
2925 71 0.000819995
484 7910 2.02522e-07
2426 320 3.40041e-07
314 1155 1.41315e-07
5467 2228 8.48545e-06
6044 230 0.00230673
18981 230 0.0754288
12337 12518 0.00669006
7290 12508 4.99667e-06
18959 197 0.328983
16818 966 0.336257
797 569 9.23847e-07
3085 569 4.00328e-06
1916 1296 2.75456e-07
1739 2721 0.0223689
366 12466 1.8014e-07
6292 260 3.35733e-06
402 260 1.25681e-06
961 116 1.17569e-06
405 5189 1.16474e-06
331 18 1.29624e-07
2020 1316 1.82712e-06
706 920 4.21316e-07
387 920 2.18739e-07
546 12422 4.60883e-06
4546 2179 1.04818e-06
2475 1182 1.76006e-06
1788 237 6.01946e-07
1788 1153 4.72697e-06
1788 2682 2.34347e-07
4007 2851 1.05486e-06
208 2181 6.71885e-07
870 12411 2.98432e-07
1933 1373 0.00259273
688 3333 1.27439e-06
0 3333 1.3878e-07
2137 1174 0.000222158
395 1423 8.17839e-06
405 11131 3.06193e-06
25 4279 3.34966e-07
515 2149 4.5031e-06
9224 816 3.41942e-05
904 262 1.06611e-06
1137 920 6.3647e-07
710 1599 1.0615e-06
12827 100 7.54108e-05
13521 1860 0.000802179
621 2033 1.25818e-06
2371 6870 1.6871e-06
1845 2053 0.00403181
3393 133 0.000261183
388 1057 0.000222899
12138 11064 0.000411036
18675 11050 0.0917553
3420 2380 1.10675e-06
996 6287 3.5253e-06
2088 1773 0.000182195
582 1300 0.048508
1560 1300 9.37575e-06
1672 1300 1.93611e-05
2371 1811 3.42419e-05
11784 12298 7.6363e-06
637 105 1.55395e-05
1990 637 1.48539e-06
148 1089 1.65287e-06
18603 334 0.000372671
1960 7473 1.89179e-06
9078 12284 1.07581e-06
1616 37 2.23212e-07
3533 396 9.38414e-07
3099 3170 2.45385e-06
4235 225 0.00308411
2819 312 2.02898e-05
18123 4335 0.000384722
18495 616 0.0051102
1843 32 1.0751e-07
13263 102 6.33375e-06
106 799 5.3766e-07
1087 11877 0.00029226
2127 385 0.000108439
5237 117 0.000240449
13067 493 3.08077e-05
18426 7485 0.00757813
2718 4399 1.98385e-05
15252 2442 0.00253178
1847 160 1.60533e-07
16206 85 0.0303517
18393 473 0.0172848
13968 166 3.8865e-05
3494 385 9.33895e-05
680 1491 9.85399e-06
1547 1110 4.95542e-07
1439 571 1.74254e-06
17940 3981 0.000766093
3595 2006 6.3844e-07
28 678 1.69667e-06
1618 678 5.10605e-07
18322 678 0.249188
10247 1111 4.19699e-06
5850 1308 0.00224909
10285 86 1.54927e-05
2197 2216 9.85918e-06
12844 12130 0.0025826
2572 178 4.07126e-07
1504 12111 1.25439e-06
7028 225 1.95835e-06
640 37 4.65288e-07
2939 134 0.0231597
18202 321 0.00213309
5920 3248 0.000239812
4219 237 2.11922e-06
5943 229 0.0396162
18196 71 0.000141617
962 12064 2.28712e-05
836 114 2.41492e-06
47 32 6.25808e-07
1930 1234 5.31123e-07
1949 1234 1.15617e-05
5397 225 9.29833e-05
1956 1527 2.735e-06
122 4548 1.73687e-06
1251 273 1.7185e-07
698 320 2.36918e-07
124 25 5.23256e-07
1191 1651 3.07786e-07
2441 39 0.0167656
3515 3467 4.26689e-06
3653 345 6.53771e-07
2914 1072 6.49022e-06
2091 498 0.0168816
12 498 2.18028e-06
2267 10302 0.143621
790 10302 4.82875e-07
15393 136 0.000174377
18083 311 0.234664
1493 553 1.21572e-05
37 7201 1.26301e-06
1250 1107 0.000380743
186 1107 5.11837e-05
1892 706 3.18881e-06
12933 8057 2.01571e-05
2554 897 1.68391e-07
2453 18 3.44031e-07
4082 1527 2.89323e-07
1547 2264 7.87689e-07
14015 320 0.000820282
7070 1338 4.8329e-05
408 4126 7.63428e-06
63 2059 0.00496143
1495 385 9.36733e-06
1916 39 1.14262e-06
46 1659 3.30643e-06
2554 1659 1.14636e-06
723 396 1.39584e-06
