1 1 100 1 1
1 2 100 1 1
1 3 100 1 1
1 4 100 1 1
1 14 100 1 1
1 15 100 1 1
1 0 100 2 0.997838
2 0 100 2 0.00216177
1 1 100 2 0.612043
2 1 100 2 0.387958
1 2 100 2 0.401029
2 2 100 2 0.598971
1 3 100 2 0.254259
2 3 100 2 0.745741
1 4 100 2 0.630692
2 4 100 2 0.369308
1 5 100 2 0.911802
2 5 100 2 0.0881981
1 7 100 2 0.0010872
2 7 100 2 0.998913
1 0 100 3 0.343892
2 0 100 3 0.655071
3 0 100 3 0.00103768
1 1 100 3 0.90393
2 1 100 3 0.022758
3 1 100 3 0.0733124
1 2 100 3 0.0659532
2 2 100 3 0.934047
3 2 100 3 2.50871e-07
1 3 100 3 0.136168
2 3 100 3 0.125809
3 3 100 3 0.738024
1 4 100 3 0.153164
2 4 100 3 0.00433588
3 4 100 3 0.8425
1 5 100 3 0.000412678
2 5 100 3 0.781877
3 5 100 3 0.21771
1 6 100 3 0.000236357
2 6 100 3 0.31883
3 6 100 3 0.680934
1 7 100 3 0.325565
2 7 100 3 0.000301474
3 7 100 3 0.674134
1 8 100 3 1
1 9 100 3 0.499458
2 9 100 3 0.500542
3 10 100 3 1
1 0 100 4 0.109231
2 0 100 4 0.430917
3 0 100 4 0.458283
4 0 100 4 0.00156927
1 1 100 4 0.844123
2 1 100 4 0.103981
3 1 100 4 0.0320171
4 1 100 4 0.0198783
1 2 100 4 0.267213
2 2 100 4 0.565666
3 2 100 4 0.136273
4 2 100 4 0.0308487
1 3 100 4 0.121289
2 3 100 4 0.257984
3 3 100 4 0.43902
4 3 100 4 0.181707
1 4 100 4 0.0586903
2 4 100 4 0.145153
3 4 100 4 0.366172
4 4 100 4 0.429984
1 5 100 4 4.21917e-05
2 5 100 4 0.0728188
3 5 100 4 0.265883
4 5 100 4 0.661256
1 6 100 4 0.000225282
2 6 100 4 0.123581
3 6 100 4 0.079836
4 6 100 4 0.796358
1 7 100 4 0.0595656
2 7 100 4 0.0595769
3 7 100 4 0.290979
4 7 100 4 0.589878
1 8 100 4 0.124791
2 8 100 4 0.000148759
3 8 100 4 0.654948
4 8 100 4 0.220112
2 9 100 4 8.09721e-05
4 9 100 4 0.999919
1 10 100 4 0.00163562
2 10 100 4 0.998364
1 11 100 4 0.167327
2 11 100 4 0.832673
3 12 100 4 1
2 13 100 4 6.78822e-06
4 13 100 4 0.999993
4 14 100 4 1
1 0 100 5 0.495563
2 0 100 5 0.213833
3 0 100 5 0.227203
4 0 100 5 0.06138
5 0 100 5 0.00202094
1 1 100 5 0.72294
2 1 100 5 0.192789
3 1 100 5 0.0664228
4 1 100 5 0.0178485
1 2 100 5 0.128936
2 2 100 5 0.632632
3 2 100 5 0.176385
4 2 100 5 0.0557443
5 2 100 5 0.0063037
1 3 100 5 0.0724353
2 3 100 5 0.118212
3 3 100 5 0.609817
4 3 100 5 0.171258
5 3 100 5 0.0282782
1 4 100 5 0.0149669
2 4 100 5 0.0573061
3 4 100 5 0.153783
4 4 100 5 0.634338
5 4 100 5 0.139607
1 5 100 5 3.13692e-06
2 5 100 5 0.0290846
3 5 100 5 0.0533349
4 5 100 5 0.222642
5 5 100 5 0.694935
1 6 100 5 0.0747128
2 6 100 5 0.0494398
3 6 100 5 0.0978026
4 6 100 5 0.211239
5 6 100 5 0.566806
1 7 100 5 0.000111044
2 7 100 5 0.0547482
3 7 100 5 0.0507391
4 7 100 5 0.201736
5 7 100 5 0.692666
1 8 100 5 0.0965366
2 8 100 5 0.109236
3 8 100 5 0.0742346
4 8 100 5 0.0908586
5 8 100 5 0.629134
2 9 100 5 0.00404472
3 9 100 5 1.72993e-06
4 9 100 5 0.013253
5 9 100 5 0.982701
5 10 100 5 1
1 0 100 6 0.215535
2 0 100 6 0.188129
3 0 100 6 0.241728
4 0 100 6 0.270834
5 0 100 6 0.0799269
6 0 100 6 0.00384686
1 1 100 6 0.668763
2 1 100 6 0.209629
3 1 100 6 0.0703275
4 1 100 6 0.0276809
5 1 100 6 0.0188016
6 1 100 6 0.0047985
1 2 100 6 0.213034
2 2 100 6 0.382111
3 2 100 6 0.260833
4 2 100 6 0.0864526
5 2 100 6 0.0522334
6 2 100 6 0.0053363
1 3 100 6 0.120221
2 3 100 6 0.29857
3 3 100 6 0.271644
4 3 100 6 0.141091
5 3 100 6 0.153574
6 3 100 6 0.0149002
1 4 100 6 0.0250358
2 4 100 6 0.127753
3 4 100 6 0.293212
4 4 100 6 0.272114
5 4 100 6 0.206187
6 4 100 6 0.0756975
1 5 100 6 0.0303277
2 5 100 6 0.0317928
3 5 100 6 0.087098
4 5 100 6 0.317686
5 5 100 6 0.297123
6 5 100 6 0.235972
1 6 100 6 0.0204166
2 6 100 6 0.0704276
3 6 100 6 0.0479863
4 6 100 6 0.110879
5 6 100 6 0.371391
6 6 100 6 0.378899
1 7 100 6 0.0084293
2 7 100 6 0.0279131
3 7 100 6 0.0600266
4 7 100 6 0.141188
5 7 100 6 0.138748
6 7 100 6 0.623695
1 8 100 6 0.000922801
2 8 100 6 0.0568487
3 8 100 6 0.10226
4 8 100 6 0.0618001
5 8 100 6 0.264158
6 8 100 6 0.51401
1 9 100 6 0.0373361
2 9 100 6 0.0266907
3 9 100 6 0.000250129
4 9 100 6 0.101433
5 9 100 6 0.16346
6 9 100 6 0.670829
1 10 100 6 9.84742e-05
2 10 100 6 0.00669462
3 10 100 6 1.36527e-05
4 10 100 6 0.215897
5 10 100 6 0.136814
6 10 100 6 0.640482
2 11 100 6 0.000332909
3 11 100 6 0.000193845
4 11 100 6 0.00144956
5 11 100 6 0.166418
6 11 100 6 0.831605
2 12 100 6 0.00145079
3 12 100 6 0.242074
5 12 100 6 0.00279818
6 12 100 6 0.753677
1 13 100 6 0.293264
2 13 100 6 4.83649e-05
4 13 100 6 0.335819
5 13 100 6 0.0350486
6 13 100 6 0.33582
2 14 100 6 0.000856974
3 14 100 6 9.84213e-07
5 14 100 6 3.52562e-05
6 14 100 6 0.999107
1 0 100 7 0.173415
2 0 100 7 0.140487
3 0 100 7 0.165656
4 0 100 7 0.262931
5 0 100 7 0.205557
6 0 100 7 0.0490667
7 0 100 7 0.00288725
1 1 100 7 0.592413
2 1 100 7 0.272739
3 1 100 7 0.0676255
4 1 100 7 0.0438409
5 1 100 7 0.0168559
6 1 100 7 0.00652559
7 1 100 7 5.14587e-07
1 2 100 7 0.32214
2 2 100 7 0.353538
3 2 100 7 0.158361
4 2 100 7 0.121684
5 2 100 7 0.00629923
6 2 100 7 0.0379708
7 2 100 7 6.01554e-06
1 3 100 7 0.0861911
2 3 100 7 0.249043
3 3 100 7 0.379164
4 3 100 7 0.115347
5 3 100 7 0.112869
6 3 100 7 0.0496804
7 3 100 7 0.00770581
1 4 100 7 0.0292055
2 4 100 7 0.0856687
3 4 100 7 0.244066
4 4 100 7 0.304253
5 4 100 7 0.141479
6 4 100 7 0.162682
7 4 100 7 0.0326459
1 5 100 7 0.0220571
2 5 100 7 0.0616634
3 5 100 7 0.103449
4 5 100 7 0.16828
5 5 100 7 0.289229
6 5 100 7 0.256486
7 5 100 7 0.0988359
1 6 100 7 0.0194196
2 6 100 7 0.0472898
3 6 100 7 0.046272
4 6 100 7 0.0836739
5 6 100 7 0.198598
6 6 100 7 0.33775
7 6 100 7 0.266997
1 7 100 7 0.00982142
2 7 100 7 0.0287981
3 7 100 7 0.0545489
4 7 100 7 0.10203
5 7 100 7 0.183596
6 7 100 7 0.228718
7 7 100 7 0.392488
1 8 100 7 0.0363595
2 8 100 7 8.69847e-05
3 8 100 7 0.0289379
4 8 100 7 0.0849806
5 8 100 7 0.149005
6 8 100 7 0.238668
7 8 100 7 0.461962
1 9 100 7 5.41913e-05
2 9 100 7 0.0365674
3 9 100 7 0.0307632
4 9 100 7 0.065335
5 9 100 7 0.17439
6 9 100 7 0.163669
7 9 100 7 0.529221
1 10 100 7 1.01018e-06
2 10 100 7 0.0178326
3 10 100 7 0.0715041
4 10 100 7 0.0160432
5 10 100 7 0.158519
6 10 100 7 0.17267
7 10 100 7 0.56343
1 11 100 7 8.2053e-07
2 11 100 7 4.61754e-05
3 11 100 7 0.0452194
4 11 100 7 4.72392e-05
5 11 100 7 0.146257
6 11 100 7 0.0993685
7 11 100 7 0.70906
2 12 100 7 7.66462e-06
3 12 100 7 0.0971367
4 12 100 7 0.149197
5 12 100 7 0.000477469
6 12 100 7 0.291034
7 12 100 7 0.462147
2 13 100 7 4.24953e-05
3 13 100 7 2.36265e-07
4 13 100 7 0.00011902
5 13 100 7 0.000159934
6 13 100 7 0.190451
7 13 100 7 0.809228
1 14 100 7 0.999907
5 14 100 7 9.26489e-05
3 15 100 7 6.01764e-06
5 15 100 7 3.73393e-06
7 15 100 7 0.99999
1 0 100 8 0.165004
2 0 100 8 0.130377
3 0 100 8 0.163057
4 0 100 8 0.132439
5 0 100 8 0.20038
6 0 100 8 0.152181
7 0 100 8 0.0517038
8 0 100 8 0.00485783
1 1 100 8 0.63589
2 1 100 8 0.23372
3 1 100 8 0.0781186
4 1 100 8 0.0129752
5 1 100 8 0.0220119
6 1 100 8 0.0100486
7 1 100 8 0.00377895
8 1 100 8 0.00345662
1 2 100 8 0.199922
2 2 100 8 0.410804
3 2 100 8 0.230673
4 2 100 8 0.0885473
5 2 100 8 0.0153645
6 2 100 8 0.0328955
7 2 100 8 0.0217947
1 3 100 8 0.0738756
2 3 100 8 0.156507
3 3 100 8 0.336978
4 3 100 8 0.235117
5 3 100 8 0.111771
6 3 100 8 0.0289321
7 3 100 8 0.0568166
8 3 100 8 3.09995e-06
1 4 100 8 0.0459047
2 4 100 8 0.100438
3 4 100 8 0.14762
4 4 100 8 0.276574
5 4 100 8 0.237796
6 4 100 8 0.0902219
7 4 100 8 0.0930602
8 4 100 8 0.00838537
1 5 100 8 0.0247323
2 5 100 8 0.0636511
3 5 100 8 0.0816664
4 5 100 8 0.230326
5 5 100 8 0.239386
6 5 100 8 0.207724
7 5 100 8 0.108296
8 5 100 8 0.0442181
1 6 100 8 0.00812486
2 6 100 8 0.0264913
3 6 100 8 0.0660725
4 6 100 8 0.12585
5 6 100 8 0.187116
6 6 100 8 0.212794
7 6 100 8 0.274658
8 6 100 8 0.0988931
1 7 100 8 0.00862546
2 7 100 8 0.0134547
3 7 100 8 0.0293039
4 7 100 8 0.0760572
5 7 100 8 0.0754777
6 7 100 8 0.218497
7 7 100 8 0.253861
8 7 100 8 0.324723
1 8 100 8 0.00809437
2 8 100 8 6.55835e-05
3 8 100 8 0.0289511
4 8 100 8 0.0222626
5 8 100 8 0.0787221
6 8 100 8 0.19915
7 8 100 8 0.257216
8 8 100 8 0.405539
1 9 100 8 0.00107046
2 9 100 8 0.0228965
3 9 100 8 0.00892607
4 9 100 8 0.0187552
5 9 100 8 0.0895123
6 9 100 8 0.139363
7 9 100 8 0.278306
8 9 100 8 0.441171
1 10 100 8 1.45332e-05
2 10 100 8 0.0364185
3 10 100 8 0.0236365
4 10 100 8 0.00942719
5 10 100 8 0.0809052
6 10 100 8 0.111193
7 10 100 8 0.184016
8 10 100 8 0.55439
1 11 100 8 2.48584e-05
2 11 100 8 0.00144797
3 11 100 8 0.00296697
4 11 100 8 0.0052379
5 11 100 8 0.0771708
6 11 100 8 0.184923
7 11 100 8 0.227522
8 11 100 8 0.500707
1 12 100 8 0.000868203
2 12 100 8 0.000621743
3 12 100 8 0.038552
4 12 100 8 0.11075
5 12 100 8 0.00895151
6 12 100 8 0.177325
7 12 100 8 0.0756045
8 12 100 8 0.587327
1 13 100 8 0.00188491
2 13 100 8 1.97453e-06
3 13 100 8 0.122563
4 13 100 8 0.118531
5 13 100 8 0.0228914
6 13 100 8 0.123075
7 13 100 8 0.24288
8 13 100 8 0.368174
1 14 100 8 1.16373e-05
3 14 100 8 0.000282843
4 14 100 8 0.391527
5 14 100 8 9.18326e-05
6 14 100 8 0.230291
7 14 100 8 2.27755e-05
8 14 100 8 0.377773
2 15 100 8 0.166432
3 15 100 8 6.2613e-06
4 15 100 8 1.37807e-06
5 15 100 8 0.333113
6 15 100 8 0.00105149
7 15 100 8 0.166536
8 15 100 8 0.332859
1 16 100 8 2.31554e-07
2 16 100 8 0.000131029
3 16 100 8 1.33034e-05
4 16 100 8 5.18779e-06
6 16 100 8 1.32337e-06
7 16 100 8 0.600512
8 16 100 8 0.399337
1 17 100 8 0.249525
2 17 100 8 4.28926e-07
3 17 100 8 5.35902e-07
5 17 100 8 9.80631e-07
6 17 100 8 0.250222
8 17 100 8 0.500251
3 18 100 8 1.66614e-06
8 18 100 8 0.999998
1 0 100 9 0.140038
2 0 100 9 0.102522
3 0 100 9 0.133697
4 0 100 9 0.136035
5 0 100 9 0.153911
6 0 100 9 0.176567
7 0 100 9 0.130487
8 0 100 9 0.0246646
9 0 100 9 0.00207765
1 1 100 9 0.640891
2 1 100 9 0.205318
3 1 100 9 0.0666543
4 1 100 9 0.0300802
5 1 100 9 0.0190933
6 1 100 9 0.0228763
7 1 100 9 0.0119656
8 1 100 9 0.00312163
1 2 100 9 0.197302
2 2 100 9 0.419313
3 2 100 9 0.190237
4 2 100 9 0.0765969
5 2 100 9 0.0346164
6 2 100 9 0.0364219
7 2 100 9 0.0210108
8 2 100 9 0.0245023
1 3 100 9 0.0623451
2 3 100 9 0.179328
3 3 100 9 0.313199
4 3 100 9 0.239169
5 3 100 9 0.109801
6 3 100 9 0.0238741
7 3 100 9 0.0353135
8 3 100 9 0.0369707
1 4 100 9 0.0549298
2 4 100 9 0.118718
3 4 100 9 0.160501
4 4 100 9 0.220061
5 4 100 9 0.260105
6 4 100 9 0.0977895
7 4 100 9 0.0313169
8 4 100 9 0.0504618
9 4 100 9 0.00611599
1 5 100 9 0.0214648
2 5 100 9 0.049522
3 5 100 9 0.100781
4 5 100 9 0.188449
5 5 100 9 0.196543
6 5 100 9 0.240406
7 5 100 9 0.106196
8 5 100 9 0.0824689
9 5 100 9 0.0141698
1 6 100 9 0.0219449
2 6 100 9 0.0236997
3 6 100 9 0.0579014
4 6 100 9 0.0922642
5 6 100 9 0.182599
6 6 100 9 0.215277
7 6 100 9 0.224705
8 6 100 9 0.106286
9 6 100 9 0.0753215
1 7 100 9 0.0181521
2 7 100 9 0.0587815
3 7 100 9 0.0199187
4 7 100 9 0.0916416
5 7 100 9 0.0645191
6 7 100 9 0.182367
7 7 100 9 0.226206
8 7 100 9 0.245891
9 7 100 9 0.0925225
1 8 100 9 0.00338837
2 8 100 9 0.00657495
3 8 100 9 0.0383996
4 8 100 9 0.0173657
5 8 100 9 0.0784904
6 8 100 9 0.0855103
7 8 100 9 0.221384
8 8 100 9 0.316372
9 8 100 9 0.232515
1 9 100 9 0.00148102
2 9 100 9 0.01106
3 9 100 9 0.0200855
4 9 100 9 0.0282345
5 9 100 9 0.0300834
6 9 100 9 0.0841607
7 9 100 9 0.142856
8 9 100 9 0.275557
9 9 100 9 0.406482
1 10 100 9 0.0187467
2 10 100 9 1.67779e-05
3 10 100 9 0.0515601
4 10 100 9 0.0431915
5 10 100 9 0.0437301
6 10 100 9 0.0517767
7 10 100 9 0.099669
8 10 100 9 0.181886
9 10 100 9 0.509423
1 11 100 9 0.000431018
2 11 100 9 0.0135906
3 11 100 9 0.00235739
4 11 100 9 0.0224582
5 11 100 9 0.0473824
6 11 100 9 0.0465342
7 11 100 9 0.11844
8 11 100 9 0.294458
9 11 100 9 0.454348
1 12 100 9 0.0087318
2 12 100 9 6.32979e-06
3 12 100 9 0.0303806
4 12 100 9 0.0322204
5 12 100 9 0.0366486
6 12 100 9 0.0190874
7 12 100 9 0.220534
8 12 100 9 0.106609
9 12 100 9 0.545781
1 13 100 9 0.0329031
2 13 100 9 0.0361053
3 13 100 9 0.00264348
4 13 100 9 0.0984847
5 13 100 9 0.0329502
6 13 100 9 0.135981
7 13 100 9 0.0701784
8 13 100 9 0.172147
9 13 100 9 0.418607
1 14 100 9 0.0464055
2 14 100 9 0.0494173
3 14 100 9 0.035877
4 14 100 9 0.0349444
5 14 100 9 0.0722068
6 14 100 9 0.104921
7 14 100 9 0.0732932
8 14 100 9 0.228809
9 14 100 9 0.354125
1 15 100 9 2.57695e-05
2 15 100 9 2.64524e-06
3 15 100 9 7.11066e-05
4 15 100 9 0.000274491
5 15 100 9 0.117819
6 15 100 9 0.175413
7 15 100 9 0.000107929
8 15 100 9 8.74934e-06
9 15 100 9 0.706277
1 16 100 9 0.000646988
2 16 100 9 1.45205e-05
3 16 100 9 1.53276e-06
4 16 100 9 2.22505e-06
5 16 100 9 0.0102473
6 16 100 9 0.000103308
7 16 100 9 0.347081
8 16 100 9 0.0200216
9 16 100 9 0.621882
1 17 100 9 4.08766e-05
2 17 100 9 0.198573
3 17 100 9 4.03729e-07
4 17 100 9 4.72247e-06
5 17 100 9 0.205851
6 17 100 9 0.000109075
7 17 100 9 0.000263581
8 17 100 9 3.3234e-05
9 17 100 9 0.595124
1 18 100 9 0.00175848
3 18 100 9 0.333878
5 18 100 9 1.13255e-06
7 18 100 9 6.79089e-07
8 18 100 9 0.331014
9 18 100 9 0.333348
1 19 100 9 7.54279e-07
4 19 100 9 2.78537e-06
5 19 100 9 6.05295e-07
7 19 100 9 3.69062e-06
9 19 100 9 0.999992
1 0 100 10 0.11186
2 0 100 10 0.111733
3 0 100 10 0.113091
4 0 100 10 0.134879
5 0 100 10 0.132579
6 0 100 10 0.128796
7 0 100 10 0.122799
8 0 100 10 0.11393
9 0 100 10 0.0276114
10 0 100 10 0.00272199
1 1 100 10 0.642353
2 1 100 10 0.179295
3 1 100 10 0.0846985
4 1 100 10 0.0329723
5 1 100 10 0.0112931
6 1 100 10 0.0153595
7 1 100 10 0.00698843
8 1 100 10 0.020646
9 1 100 10 0.00639378
10 1 100 10 7.36808e-07
1 2 100 10 0.198444
2 2 100 10 0.395049
3 2 100 10 0.195359
4 2 100 10 0.0768929
5 2 100 10 0.044992
6 2 100 10 0.0269358
7 2 100 10 0.022297
8 2 100 10 0.0149269
9 2 100 10 0.0251032
10 2 100 10 3.60753e-07
1 3 100 10 0.0487699
2 3 100 10 0.150656
3 3 100 10 0.360914
4 3 100 10 0.177705
5 3 100 10 0.101343
6 3 100 10 0.042607
7 3 100 10 0.0479511
8 3 100 10 0.0329429
9 3 100 10 0.0319878
10 3 100 10 0.00512302
1 4 100 10 0.0436966
2 4 100 10 0.0941177
3 4 100 10 0.112677
4 4 100 10 0.338228
5 4 100 10 0.169401
6 4 100 10 0.108154
7 4 100 10 0.0591349
8 4 100 10 0.0314549
9 4 100 10 0.0389244
10 4 100 10 0.00421129
1 5 100 10 0.0262216
2 5 100 10 0.0459833
3 5 100 10 0.100164
4 5 100 10 0.130514
5 5 100 10 0.208269
6 5 100 10 0.204435
7 5 100 10 0.114171
8 5 100 10 0.0786548
9 5 100 10 0.0776731
10 5 100 10 0.0139137
1 6 100 10 0.0169529
2 6 100 10 0.035836
3 6 100 10 0.0704233
4 6 100 10 0.0872556
5 6 100 10 0.247374
6 6 100 10 0.168838
7 6 100 10 0.150147
8 6 100 10 0.102502
9 6 100 10 0.096121
10 6 100 10 0.02455
1 7 100 10 0.00595577
2 7 100 10 0.0266698
3 7 100 10 0.0420061
4 7 100 10 0.0502899
5 7 100 10 0.0848883
6 7 100 10 0.277574
7 7 100 10 0.170995
8 7 100 10 0.131425
9 7 100 10 0.12124
10 7 100 10 0.0889559
1 8 100 10 0.0035227
2 8 100 10 0.0116728
3 8 100 10 0.00598945
4 8 100 10 0.0351511
5 8 100 10 0.0669176
6 8 100 10 0.0960416
7 8 100 10 0.289691
8 8 100 10 0.15978
9 8 100 10 0.190901
10 8 100 10 0.140334
1 9 100 10 0.00652061
2 9 100 10 0.0212964
3 9 100 10 0.022748
4 9 100 10 0.0316131
5 9 100 10 0.0478265
6 9 100 10 0.0575484
7 9 100 10 0.118126
8 9 100 10 0.297413
9 9 100 10 0.205162
10 9 100 10 0.191746
1 10 100 10 0.00271955
2 10 100 10 0.0123469
3 10 100 10 0.0121699
4 10 100 10 0.0166231
5 10 100 10 0.0309885
6 10 100 10 0.0531252
7 10 100 10 0.081277
8 10 100 10 0.144563
9 10 100 10 0.319024
10 10 100 10 0.327163
1 11 100 10 0.00653078
2 11 100 10 0.0170398
4 11 100 10 0.0216802
5 11 100 10 0.0300735
6 11 100 10 0.0223446
7 11 100 10 0.0563768
8 11 100 10 0.168385
9 11 100 10 0.211996
10 11 100 10 0.465573
1 12 100 10 0.0095131
2 12 100 10 0.000106963
3 12 100 10 0.0215084
4 12 100 10 0.0178409
5 12 100 10 0.0440936
6 12 100 10 0.0391992
7 12 100 10 0.0563772
8 12 100 10 0.088009
9 12 100 10 0.196872
10 12 100 10 0.526479
1 13 100 10 0.0302642
2 13 100 10 0.0301601
3 13 100 10 2.41356e-06
4 13 100 10 0.0153287
5 13 100 10 0.030376
6 13 100 10 0.0463868
7 13 100 10 0.0224768
8 13 100 10 0.0648037
9 13 100 10 0.218911
10 13 100 10 0.54129
1 14 100 10 2.70212e-05
2 14 100 10 0.0675182
3 14 100 10 0.00212833
4 14 100 10 0.00343235
5 14 100 10 0.0189262
6 14 100 10 8.57988e-05
7 14 100 10 0.0331882
8 14 100 10 0.181494
9 14 100 10 0.17073
10 14 100 10 0.52247
1 15 100 10 0.0673547
2 15 100 10 4.39606e-07
3 15 100 10 0.00588801
4 15 100 10 5.03771e-05
5 15 100 10 0.0664547
6 15 100 10 8.42868e-06
7 15 100 10 1.99296e-05
8 15 100 10 8.19972e-05
9 15 100 10 0.20061
10 15 100 10 0.659532
1 16 100 10 8.62938e-06
3 16 100 10 1.03539e-05
4 16 100 10 2.7353e-06
5 16 100 10 3.45153e-06
6 16 100 10 0.00683664
7 16 100 10 3.27464e-06
8 16 100 10 1.78036e-05
9 16 100 10 0.292506
10 16 100 10 0.700611
1 17 100 10 0.000120688
3 17 100 10 3.23524e-05
4 17 100 10 6.60502e-06
5 17 100 10 2.86905e-06
6 17 100 10 8.6435e-05
7 17 100 10 0.000158915
10 17 100 10 0.999592
1 18 100 10 0.223829
2 18 100 10 8.33194e-07
3 18 100 10 5.24227e-05
6 18 100 10 8.82287e-05
7 18 100 10 2.13571e-06
8 18 100 10 0.371008
9 18 100 10 0.034242
10 18 100 10 0.370778
1 19 100 10 1.49529e-05
2 19 100 10 0.335223
6 19 100 10 3.65042e-07
7 19 100 10 1.83033e-06
8 19 100 10 0.329952
9 19 100 10 3.00526e-06
10 19 100 10 0.334805
3 20 100 10 0.0003907
6 20 100 10 0.216475
10 20 100 10 0.783135
1 21 100 10 0.979671
6 21 100 10 0.020329
7 22 100 10 0.984174
8 22 100 10 0.0155006
9 22 100 10 0.000325246
6 23 100 10 4.34191e-05
10 23 100 10 0.999957
1 0 100 11 0.100028
2 0 100 11 0.0822838
3 0 100 11 0.092558
4 0 100 11 0.117774
5 0 100 11 0.112515
6 0 100 11 0.120068
7 0 100 11 0.112867
8 0 100 11 0.130159
9 0 100 11 0.110534
10 0 100 11 0.0179613
11 0 100 11 0.00325114
1 1 100 11 0.63878
2 1 100 11 0.199963
3 1 100 11 0.0782828
4 1 100 11 0.0288624
5 1 100 11 0.00982761
6 1 100 11 0.012357
7 1 100 11 0.0129028
8 1 100 11 0.00336011
9 1 100 11 0.0118157
10 1 100 11 0.00384763
1 2 100 11 0.179698
2 2 100 11 0.39326
3 2 100 11 0.215369
4 2 100 11 0.0886218
5 2 100 11 0.0331667
6 2 100 11 0.0212412
7 2 100 11 0.0142424
8 2 100 11 0.0190912
9 2 100 11 0.0113372
10 2 100 11 0.0239726
1 3 100 11 0.0554158
2 3 100 11 0.190553
3 3 100 11 0.334277
4 3 100 11 0.152212
5 3 100 11 0.123924
6 3 100 11 0.0411544
7 3 100 11 0.0241181
8 3 100 11 0.0307262
9 3 100 11 0.0148811
10 3 100 11 0.0306679
11 3 100 11 0.00206957
1 4 100 11 0.0552491
2 4 100 11 0.0884455
3 4 100 11 0.14049
4 4 100 11 0.289321
5 4 100 11 0.185604
6 4 100 11 0.0885148
7 4 100 11 0.061184
8 4 100 11 0.0403587
9 4 100 11 0.0233189
10 4 100 11 0.0275058
11 4 100 11 7.82566e-06
1 5 100 11 0.0376244
2 5 100 11 0.0564535
3 5 100 11 0.0948607
4 5 100 11 0.175814
5 5 100 11 0.215346
6 5 100 11 0.197042
7 5 100 11 0.111167
8 5 100 11 0.0613922
9 5 100 11 0.0274047
10 5 100 11 0.0194924
11 5 100 11 0.00340272
1 6 100 11 0.0211536
2 6 100 11 0.0316199
3 6 100 11 0.0625472
4 6 100 11 0.0870696
5 6 100 11 0.156721
6 6 100 11 0.22198
7 6 100 11 0.194624
8 6 100 11 0.0902594
9 6 100 11 0.0497288
10 6 100 11 0.0680126
11 6 100 11 0.0162844
1 7 100 11 0.00567619
2 7 100 11 0.0193618
3 7 100 11 0.0413525
4 7 100 11 0.0494536
5 7 100 11 0.115569
6 7 100 11 0.148455
7 7 100 11 0.193865
8 7 100 11 0.197911
9 7 100 11 0.0866285
10 7 100 11 0.0922132
11 7 100 11 0.0495136
1 8 100 11 0.0113183
2 8 100 11 0.00493874
3 8 100 11 0.0277747
4 8 100 11 0.0550557
5 8 100 11 0.0741929
6 8 100 11 0.105286
7 8 100 11 0.147803
8 8 100 11 0.177807
9 8 100 11 0.194217
10 8 100 11 0.140827
11 8 100 11 0.0607795
1 9 100 11 0.00538155
2 9 100 11 0.0197395
3 9 100 11 0.0258103
4 9 100 11 0.0405621
5 9 100 11 0.0521643
6 9 100 11 0.0875865
7 9 100 11 0.121098
8 9 100 11 0.132447
9 9 100 11 0.180417
10 9 100 11 0.222892
11 9 100 11 0.111901
1 10 100 11 0.00966573
2 10 100 11 0.0178715
3 10 100 11 0.0178941
4 10 100 11 0.0337471
5 10 100 11 0.0484263
6 10 100 11 0.0568944
7 10 100 11 0.0705832
8 10 100 11 0.121287
9 10 100 11 0.19165
10 10 100 11 0.206955
11 10 100 11 0.225026
1 11 100 11 0.00447553
2 11 100 11 0.0093996
3 11 100 11 0.011184
4 11 100 11 0.00875579
5 11 100 11 0.025243
6 11 100 11 0.0427813
7 11 100 11 0.0783375
8 11 100 11 0.0857293
9 11 100 11 0.153051
10 11 100 11 0.253338
11 11 100 11 0.327705
1 12 100 11 0.0273575
2 12 100 11 0.0109179
3 12 100 11 0.0211406
4 12 100 11 0.0273331
5 12 100 11 0.0167517
6 12 100 11 0.025562
7 12 100 11 0.069168
8 12 100 11 0.0827549
9 12 100 11 0.152717
10 12 100 11 0.206026
11 12 100 11 0.360271
1 13 100 11 0.00814599
2 13 100 11 0.0413043
3 13 100 11 0.00049826
4 13 100 11 0.00148754
5 13 100 11 0.013752
6 13 100 11 0.0159687
7 13 100 11 0.0251523
8 13 100 11 0.0763913
9 13 100 11 0.102433
10 13 100 11 0.221992
11 13 100 11 0.492875
1 14 100 11 1.93458e-05
2 14 100 11 0.0242456
3 14 100 11 0.0125422
4 14 100 11 0.0122212
5 14 100 11 0.00570977
6 14 100 11 0.036613
7 14 100 11 0.0254004
8 14 100 11 0.0708082
9 14 100 11 0.106034
10 14 100 11 0.162776
11 14 100 11 0.543631
1 15 100 11 0.0144273
2 15 100 11 0.0227882
3 15 100 11 0.00227509
4 15 100 11 0.0255344
5 15 100 11 0.0548275
6 15 100 11 0.0351663
7 15 100 11 0.0238669
8 15 100 11 0.0449798
9 15 100 11 0.21649
10 15 100 11 0.190618
11 15 100 11 0.369026
1 16 100 11 4.60788e-06
2 16 100 11 0.000461641
3 16 100 11 2.54996e-05
4 16 100 11 1.97275e-06
5 16 100 11 0.0374929
6 16 100 11 0.0257525
7 16 100 11 0.0793566
8 16 100 11 0.0364011
9 16 100 11 0.188926
10 16 100 11 0.157316
11 16 100 11 0.474262
1 17 100 11 1.07962e-06
2 17 100 11 2.34901e-07
3 17 100 11 1.19485e-06
4 17 100 11 0.000617829
5 17 100 11 1.53772e-05
6 17 100 11 0.0667387
7 17 100 11 0.0234739
8 17 100 11 0.00912492
9 17 100 11 0.0384122
10 17 100 11 0.0789396
11 17 100 11 0.782675
1 18 100 11 5.57587e-05
2 18 100 11 9.64958e-05
3 18 100 11 9.41677e-07
4 18 100 11 6.72783e-06
5 18 100 11 2.76566e-05
6 18 100 11 0.000203272
7 18 100 11 0.000302073
8 18 100 11 0.136849
9 18 100 11 0.0604431
10 18 100 11 0.472966
11 18 100 11 0.32905
3 19 100 11 1.53346e-05
4 19 100 11 0.000129579
5 19 100 11 7.51993e-07
6 19 100 11 0.110389
7 19 100 11 3.29465e-07
8 19 100 11 0.198108
9 19 100 11 0.263786
10 19 100 11 0.126549
11 19 100 11 0.301022
4 20 100 11 0.000105881
5 20 100 11 1.97979e-07
6 20 100 11 3.36779e-06
7 20 100 11 9.45572e-05
8 20 100 11 3.41962e-06
9 20 100 11 2.96313e-06
10 20 100 11 0.166849
11 20 100 11 0.83294
4 21 100 11 1.29467e-06
5 21 100 11 1.63148e-06
8 21 100 11 1.6381e-06
9 21 100 11 3.10285e-06
11 21 100 11 0.999992
6 22 100 11 6.89472e-06
11 22 100 11 0.999993
6 24 100 11 1
10 25 100 11 1
9 27 100 11 0.0139002
10 27 100 11 0.9861
6 28 100 11 1
6 29 100 11 7.29583e-06
9 29 100 11 0.998817
10 29 100 11 0.0011755
10 30 100 11 1
10 31 100 11 2.91889e-06
11 31 100 11 0.999997
1 0 100 12 0.0924467
2 0 100 12 0.0881425
3 0 100 12 0.0985286
4 0 100 12 0.09571
5 0 100 12 0.111773
6 0 100 12 0.100451
7 0 100 12 0.0948232
8 0 100 12 0.082909
9 0 100 12 0.129792
10 0 100 12 0.0831925
11 0 100 12 0.0187421
12 0 100 12 0.00348934
1 1 100 12 0.625854
2 1 100 12 0.177188
3 1 100 12 0.0822782
4 1 100 12 0.0273202
5 1 100 12 0.0116091
6 1 100 12 0.00804863
7 1 100 12 0.012961
8 1 100 12 0.0158518
9 1 100 12 0.0268659
10 1 100 12 0.00680247
11 1 100 12 0.00522085
1 2 100 12 0.197936
2 2 100 12 0.398718
3 2 100 12 0.151818
4 2 100 12 0.106694
5 2 100 12 0.0494398
6 2 100 12 0.0286044
7 2 100 12 0.0179793
8 2 100 12 0.00781486
9 2 100 12 0.0144065
10 2 100 12 0.0149538
11 2 100 12 0.0116363
1 3 100 12 0.0735845
2 3 100 12 0.162175
3 3 100 12 0.324189
4 3 100 12 0.155142
5 3 100 12 0.100479
6 3 100 12 0.0686666
7 3 100 12 0.0380198
8 3 100 12 0.0140394
9 3 100 12 0.00905832
10 3 100 12 0.0174006
11 3 100 12 0.0372375
12 3 100 12 8.96382e-06
1 4 100 12 0.0452748
2 4 100 12 0.111311
3 4 100 12 0.161069
4 4 100 12 0.240088
5 4 100 12 0.149078
6 4 100 12 0.0790982
7 4 100 12 0.0785067
8 4 100 12 0.0461714
9 4 100 12 0.027693
10 4 100 12 0.0293791
11 4 100 12 0.0297557
12 4 100 12 0.0025752
1 5 100 12 0.0307969
2 5 100 12 0.07345
3 5 100 12 0.0898408
4 5 100 12 0.149317
5 5 100 12 0.211099
6 5 100 12 0.152538
7 5 100 12 0.113456
8 5 100 12 0.0825708
9 5 100 12 0.0308853
10 5 100 12 0.0307751
11 5 100 12 0.0352697
12 5 100 12 1.65597e-06
1 6 100 12 0.0240944
2 6 100 12 0.034023
3 6 100 12 0.0643847
4 6 100 12 0.114661
5 6 100 12 0.156134
6 6 100 12 0.171051
7 6 100 12 0.138513
8 6 100 12 0.109381
9 6 100 12 0.0636512
10 6 100 12 0.0524125
11 6 100 12 0.0637783
12 6 100 12 0.00791548
1 7 100 12 0.013175
2 7 100 12 0.035406
3 7 100 12 0.0433776
4 7 100 12 0.0431381
5 7 100 12 0.106053
6 7 100 12 0.199248
7 7 100 12 0.163089
8 7 100 12 0.137735
9 7 100 12 0.10934
10 7 100 12 0.0606055
11 7 100 12 0.0665928
12 7 100 12 0.0222402
1 8 100 12 0.00716763
2 8 100 12 0.00533836
3 8 100 12 0.0411888
4 8 100 12 0.0685299
5 8 100 12 0.0558494
6 8 100 12 0.113255
7 8 100 12 0.179742
8 8 100 12 0.154359
9 8 100 12 0.121948
10 8 100 12 0.137966
11 8 100 12 0.0851567
12 8 100 12 0.0294993
1 9 100 12 0.00560172
2 9 100 12 0.00874225
3 9 100 12 0.014336
4 9 100 12 0.0424784
5 9 100 12 0.0638998
6 9 100 12 0.0588038
7 9 100 12 0.0976545
8 9 100 12 0.205848
9 9 100 12 0.167632
10 9 100 12 0.101254
11 9 100 12 0.156641
12 9 100 12 0.077108
1 10 100 12 0.0134542
2 10 100 12 0.0111949
3 10 100 12 0.038719
4 10 100 12 0.0447603
5 10 100 12 0.0443306
6 10 100 12 0.0457223
7 10 100 12 0.0860217
8 10 100 12 0.125397
9 10 100 12 0.165714
10 10 100 12 0.165572
11 10 100 12 0.149231
12 10 100 12 0.109883
1 11 100 12 0.00317475
2 11 100 12 0.00898622
3 11 100 12 0.0128241
4 11 100 12 0.0338382
5 11 100 12 0.0361812
6 11 100 12 0.0480817
7 11 100 12 0.0531986
8 11 100 12 0.110376
9 11 100 12 0.112662
10 11 100 12 0.179693
11 11 100 12 0.197525
12 11 100 12 0.203459
1 12 100 12 2.25231e-05
2 12 100 12 0.0113731
3 12 100 12 0.0155408
4 12 100 12 0.0170758
5 12 100 12 0.0332825
6 12 100 12 0.0477468
7 12 100 12 0.0639087
8 12 100 12 0.0454277
9 12 100 12 0.0906429
10 12 100 12 0.172062
11 12 100 12 0.210064
12 12 100 12 0.292853
1 13 100 12 0.00169998
2 13 100 12 0.0103939
3 13 100 12 0.00981818
4 13 100 12 0.022957
5 13 100 12 0.0202397
6 13 100 12 0.0348171
7 13 100 12 0.0451199
8 13 100 12 0.0614695
9 13 100 12 0.0544818
10 13 100 12 0.154878
11 13 100 12 0.175256
12 13 100 12 0.408869
1 14 100 12 0.00935466
2 14 100 12 3.25615e-05
3 14 100 12 0.0287192
4 14 100 12 0.0220676
5 14 100 12 0.017357
6 14 100 12 0.0475784
7 14 100 12 0.0542665
8 14 100 12 0.0524645
9 14 100 12 0.0758224
10 14 100 12 0.11592
11 14 100 12 0.189732
12 14 100 12 0.386685
1 15 100 12 0.00728349
2 15 100 12 0.00034406
3 15 100 12 0.0128666
4 15 100 12 0.0113376
5 15 100 12 0.00182707
6 15 100 12 1.83435e-05
7 15 100 12 0.0634027
8 15 100 12 0.037049
9 15 100 12 0.0479106
10 15 100 12 0.141151
11 15 100 12 0.205629
12 15 100 12 0.47118
1 16 100 12 1.1502e-05
2 16 100 12 1.18111e-05
3 16 100 12 0.00158155
4 16 100 12 0.0162224
5 16 100 12 0.00962703
6 16 100 12 0.0325415
7 16 100 12 0.00550669
8 16 100 12 0.0882314
9 16 100 12 0.0448194
10 16 100 12 0.187178
11 16 100 12 0.177655
12 16 100 12 0.436614
1 17 100 12 1.58974e-07
2 17 100 12 1.41342e-05
3 17 100 12 3.81608e-07
4 17 100 12 5.2623e-06
5 17 100 12 5.35582e-05
6 17 100 12 1.22181e-07
7 17 100 12 0.0256252
8 17 100 12 0.0359691
9 17 100 12 0.155506
10 17 100 12 0.050275
11 17 100 12 0.284664
12 17 100 12 0.447887
1 18 100 12 3.40166e-06
2 18 100 12 5.45936e-06
3 18 100 12 8.76163e-06
4 18 100 12 1.57081e-06
5 18 100 12 6.35768e-05
6 18 100 12 3.39634e-06
7 18 100 12 7.15942e-07
8 18 100 12 0.000161802
9 18 100 12 0.0475522
10 18 100 12 0.287063
11 18 100 12 0.142583
12 18 100 12 0.522553
1 19 100 12 1.28931e-07
2 19 100 12 3.3483e-06
4 19 100 12 1.2428e-05
5 19 100 12 9.97746e-07
7 19 100 12 0.00754966
8 19 100 12 0.000139529
9 19 100 12 0.0857822
10 19 100 12 0.247011
11 19 100 12 0.343148
12 19 100 12 0.316352
1 20 100 12 7.21954e-05
2 20 100 12 6.24634e-07
3 20 100 12 1.89473e-05
4 20 100 12 9.10877e-06
5 20 100 12 0.0774809
6 20 100 12 0.0764003
7 20 100 12 6.19029e-05
8 20 100 12 0.0105426
9 20 100 12 0.0764129
10 20 100 12 0.148048
11 20 100 12 0.076413
12 20 100 12 0.534539
1 21 100 12 2.23922e-05
2 21 100 12 1.29092e-06
4 21 100 12 4.89537e-06
6 21 100 12 0.00701857
8 21 100 12 0.193068
9 21 100 12 0.204962
10 21 100 12 1.20882e-06
11 21 100 12 0.397454
12 21 100 12 0.197468
1 22 100 12 2.47554e-06
2 22 100 12 0.00133226
4 22 100 12 1.17267e-06
6 22 100 12 1.77758e-06
8 22 100 12 0.00708833
9 22 100 12 0.242066
10 22 100 12 4.48924e-05
11 22 100 12 4.50401e-06
12 22 100 12 0.749458
1 23 100 12 2.05671e-06
2 23 100 12 0.000120583
4 23 100 12 0.000105385
6 23 100 12 1.5392e-05
7 23 100 12 0.000142195
10 23 100 12 8.61877e-05
12 23 100 12 0.999528
2 24 100 12 0.00604579
4 24 100 12 0.0172164
7 24 100 12 0.00606339
10 24 100 12 0.970674
1 25 100 12 0.000160944
2 25 100 12 0.000208099
4 25 100 12 0.00608639
6 25 100 12 9.91606e-05
7 25 100 12 0.00167183
10 25 100 12 0.991774
1 26 100 12 0.00119571
2 26 100 12 0.00216198
3 26 100 12 0.152432
5 26 100 12 0.152839
6 26 100 12 0.232853
8 26 100 12 0.152839
9 26 100 12 0.152839
11 26 100 12 0.152839
4 27 100 12 0.00549396
7 27 100 12 0.00199394
10 27 100 12 0.992512
2 28 100 12 0.140928
4 28 100 12 0.745704
10 28 100 12 0.113368
6 29 100 12 0.291876
10 29 100 12 0.708124
1 30 100 12 0.00202723
2 30 100 12 0.0293152
4 30 100 12 0.234971
7 30 100 12 0.408918
10 30 100 12 0.324768
4 31 100 12 0.255662
6 31 100 12 0.410089
10 31 100 12 0.33425
2 32 100 12 1.20699e-05
4 32 100 12 1.50621e-05
6 32 100 12 0.000197048
7 32 100 12 1.38481e-06
10 32 100 12 0.000579608
12 32 100 12 0.999195
4 33 100 12 1
3 34 100 12 0.82338
4 34 100 12 0.0104025
6 34 100 12 0.126627
10 34 100 12 0.0395908
1 35 100 12 0.112535
2 35 100 12 0.112561
3 35 100 12 0.110154
4 35 100 12 0.101948
5 35 100 12 0.112561
6 35 100 12 2.58594e-07
7 35 100 12 0.112561
8 35 100 12 0.112561
9 35 100 12 0.112561
10 35 100 12 1.78858e-05
11 35 100 12 0.11254
3 36 100 12 0.000232061
4 36 100 12 0.00114318
6 36 100 12 0.0907192
10 36 100 12 0.907906
3 37 100 12 0.00150902
4 37 100 12 0.00137693
6 37 100 12 0.479003
10 37 100 12 0.518111
11 39 100 12 1
6 40 100 12 3.51184e-06
10 40 100 12 4.11485e-06
12 40 100 12 0.999992
1 0 100 13 0.0890575
2 0 100 13 0.0576925
3 0 100 13 0.065445
4 0 100 13 0.0945504
5 0 100 13 0.0959611
6 0 100 13 0.0872295
7 0 100 13 0.112157
8 0 100 13 0.0896486
9 0 100 13 0.0837082
10 0 100 13 0.122434
11 0 100 13 0.0830227
12 0 100 13 0.0169147
13 0 100 13 0.00217905
1 1 100 13 0.625277
2 1 100 13 0.199135
3 1 100 13 0.0666463
4 1 100 13 0.0380033
5 1 100 13 0.0215406
6 1 100 13 0.0173407
7 1 100 13 0.00534265
8 1 100 13 0.00204811
9 1 100 13 0.00685161
10 1 100 13 0.00719684
11 1 100 13 0.0028113
12 1 100 13 0.00779496
13 1 100 13 1.19446e-05
1 2 100 13 0.195447
2 2 100 13 0.377435
3 2 100 13 0.208958
4 2 100 13 0.0875631
5 2 100 13 0.0386644
6 2 100 13 0.0164163
7 2 100 13 0.0231994
8 2 100 13 0.0156217
9 2 100 13 0.00931899
10 2 100 13 0.0150437
11 2 100 13 0.00482588
12 2 100 13 0.00750696
13 2 100 13 2.92905e-07
1 3 100 13 0.0542725
2 3 100 13 0.209157
3 3 100 13 0.329543
4 3 100 13 0.14686
5 3 100 13 0.110152
6 3 100 13 0.0375584
7 3 100 13 0.0268471
8 3 100 13 0.023266
9 3 100 13 0.02076
10 3 100 13 0.0107563
11 3 100 13 0.0145897
12 3 100 13 0.016216
13 3 100 13 2.27864e-05
1 4 100 13 0.0378907
2 4 100 13 0.102502
3 4 100 13 0.192009
4 4 100 13 0.276861
5 4 100 13 0.147531
6 4 100 13 0.101954
7 4 100 13 0.0479812
8 4 100 13 0.0286302
9 4 100 13 0.0195499
10 4 100 13 0.025908
11 4 100 13 0.0132131
12 4 100 13 0.00597014
1 5 100 13 0.0404072
2 5 100 13 0.0786439
3 5 100 13 0.102484
4 5 100 13 0.140418
5 5 100 13 0.209608
6 5 100 13 0.137224
7 5 100 13 0.0786268
8 5 100 13 0.0819473
9 5 100 13 0.0512078
10 5 100 13 0.0330777
11 5 100 13 0.023397
12 5 100 13 0.0229533
13 5 100 13 3.93224e-06
1 6 100 13 0.011329
2 6 100 13 0.033673
3 6 100 13 0.057356
4 6 100 13 0.11172
5 6 100 13 0.145537
6 6 100 13 0.223994
7 6 100 13 0.151723
8 6 100 13 0.0659968
9 6 100 13 0.0737115
10 6 100 13 0.0495272
11 6 100 13 0.0334531
12 6 100 13 0.0370038
13 6 100 13 0.00497641
1 7 100 13 0.0100255
2 7 100 13 0.017544
3 7 100 13 0.0429714
4 7 100 13 0.0729901
5 7 100 13 0.107981
6 7 100 13 0.145676
7 7 100 13 0.206421
8 7 100 13 0.115916
9 7 100 13 0.0924829
10 7 100 13 0.0668412
11 7 100 13 0.0574498
12 7 100 13 0.0509681
13 7 100 13 0.0127334
1 8 100 13 0.00533985
2 8 100 13 0.0128209
3 8 100 13 0.0197801
4 8 100 13 0.0419441
5 8 100 13 0.0818317
6 8 100 13 0.106662
7 8 100 13 0.110962
8 8 100 13 0.209906
9 8 100 13 0.154813
10 8 100 13 0.0832827
11 8 100 13 0.0608566
12 8 100 13 0.0829293
13 8 100 13 0.0288723
1 9 100 13 0.00928572
2 9 100 13 0.00312672
3 9 100 13 0.0090175
4 9 100 13 0.0245006
5 9 100 13 0.0315993
6 9 100 13 0.0949718
7 9 100 13 0.106239
8 9 100 13 0.14019
9 9 100 13 0.197723
10 9 100 13 0.133702
11 9 100 13 0.0940541
12 9 100 13 0.105911
13 9 100 13 0.0496799
1 10 100 13 0.00807168
2 10 100 13 0.00532397
3 10 100 13 0.0127785
4 10 100 13 0.0328391
5 10 100 13 0.041424
6 10 100 13 0.0467848
7 10 100 13 0.079669
8 10 100 13 0.133164
9 10 100 13 0.13868
10 10 100 13 0.156484
11 10 100 13 0.158667
12 10 100 13 0.118817
13 10 100 13 0.0672976
1 11 100 13 0.00576975
2 11 100 13 0.0114971
3 11 100 13 0.011647
4 11 100 13 0.020117
5 11 100 13 0.0307804
6 11 100 13 0.0449153
7 11 100 13 0.0540994
8 11 100 13 0.0679073
9 11 100 13 0.108784
10 11 100 13 0.13884
11 11 100 13 0.161755
12 11 100 13 0.214585
13 11 100 13 0.129303
1 12 100 13 0.00400366
2 12 100 13 0.00986265
3 12 100 13 0.00780579
4 12 100 13 0.00362138
5 12 100 13 0.0184011
6 12 100 13 0.0249863
7 12 100 13 0.0303366
8 12 100 13 0.0731058
9 12 100 13 0.10792
10 12 100 13 0.122155
11 12 100 13 0.162793
12 12 100 13 0.204984
13 12 100 13 0.230025
1 13 100 13 1.39529e-05
2 13 100 13 0.00547863
3 13 100 13 0.0187607
4 13 100 13 0.00824316
5 13 100 13 0.000112487
6 13 100 13 0.0253194
7 13 100 13 0.0445322
8 13 100 13 0.0520027
9 13 100 13 0.0579067
10 13 100 13 0.108493
11 13 100 13 0.187041
12 13 100 13 0.184013
13 13 100 13 0.308083
1 14 100 13 1.19445e-05
2 14 100 13 0.00633347
3 14 100 13 0.00566527
4 14 100 13 5.89798e-05
5 14 100 13 0.022395
6 14 100 13 0.00573444
7 14 100 13 0.0411482
8 14 100 13 0.0773433
9 14 100 13 0.0776086
10 14 100 13 0.0779799
11 14 100 13 0.134953
12 14 100 13 0.213962
13 14 100 13 0.336806
1 15 100 13 0.000341907
2 15 100 13 1.00159e-05
3 15 100 13 0.000827257
4 15 100 13 0.0162426
5 15 100 13 0.00847659
6 15 100 13 0.0123746
7 15 100 13 0.010439
8 15 100 13 0.0466514
9 15 100 13 0.0791075
10 15 100 13 0.0697906
11 15 100 13 0.150508
12 15 100 13 0.208869
13 15 100 13 0.396361
1 16 100 13 4.57893e-05
2 16 100 13 2.91018e-05
3 16 100 13 5.23585e-05
4 16 100 13 0.00717588
5 16 100 13 0.0118025
6 16 100 13 0.0358455
7 16 100 13 0.0291678
8 16 100 13 0.0198745
9 16 100 13 0.0292395
10 16 100 13 0.0465584
11 16 100 13 0.125501
12 16 100 13 0.127277
13 16 100 13 0.56743
1 17 100 13 0.000113902
2 17 100 13 1.40229e-06
3 17 100 13 0.0164364
4 17 100 13 0.0334643
5 17 100 13 0.0188515
6 17 100 13 0.0318586
7 17 100 13 0.0178189
8 17 100 13 0.0823373
9 17 100 13 0.0344546
10 17 100 13 0.0840487
11 17 100 13 0.124326
12 17 100 13 0.238449
13 17 100 13 0.317839
1 18 100 13 9.8155e-06
2 18 100 13 0.0303628
3 18 100 13 0.000465105
4 18 100 13 0.027129
5 18 100 13 0.000244771
6 18 100 13 7.32962e-06
7 18 100 13 0.0313174
8 18 100 13 0.0269692
9 18 100 13 0.00613625
10 18 100 13 0.0393929
11 18 100 13 0.184906
12 18 100 13 0.275252
13 18 100 13 0.377808
1 19 100 13 9.70671e-06
2 19 100 13 1.02051e-05
3 19 100 13 0.0328379
4 19 100 13 0.00842798
5 19 100 13 0.0022531
6 19 100 13 0.0466683
7 19 100 13 0.0455678
8 19 100 13 0.027177
9 19 100 13 0.0828857
10 19 100 13 0.0531748
11 19 100 13 0.0960817
12 19 100 13 0.153606
13 19 100 13 0.451299
1 20 100 13 9.77725e-05
2 20 100 13 3.28334e-07
3 20 100 13 3.33991e-07
4 20 100 13 0.0234017
5 20 100 13 8.94478e-06
6 20 100 13 6.11482e-07
7 20 100 13 0.0500877
8 20 100 13 2.65541e-05
9 20 100 13 0.0204619
10 20 100 13 0.0504716
11 20 100 13 0.248824
12 20 100 13 0.104782
13 20 100 13 0.501836
1 21 100 13 3.2114e-05
2 21 100 13 2.67842e-07
3 21 100 13 1.22985e-07
4 21 100 13 7.08933e-07
5 21 100 13 4.17022e-05
6 21 100 13 0.108976
7 21 100 13 1.75762e-06
8 21 100 13 1.60396e-06
9 21 100 13 0.00206614
10 21 100 13 0.167626
11 21 100 13 0.208162
12 21 100 13 0.228965
13 21 100 13 0.284126
1 22 100 13 0.000112255
4 22 100 13 3.02243e-05
6 22 100 13 0.000396508
7 22 100 13 0.00161157
8 22 100 13 7.69146e-07
9 22 100 13 0.000124713
10 22 100 13 3.93918e-05
11 22 100 13 1.06677e-05
12 22 100 13 0.498772
13 22 100 13 0.498902
4 23 100 13 3.88238e-07
5 23 100 13 0.110104
6 23 100 13 3.8726e-07
7 23 100 13 0.111598
8 23 100 13 0.111194
10 23 100 13 0.111196
11 23 100 13 0.222245
12 23 100 13 0.111366
13 23 100 13 0.222297
5 24 100 13 0.00327192
6 24 100 13 4.01622e-06
7 24 100 13 1.19009e-06
9 24 100 13 0.000202582
10 24 100 13 2.06312e-06
11 24 100 13 3.99631e-07
13 24 100 13 0.996518
4 25 100 13 5.05666e-06
7 25 100 13 1.40033e-05
13 25 100 13 0.999981
1 0 100 14 0.0868471
2 0 100 14 0.0743057
3 0 100 14 0.0746261
4 0 100 14 0.0845472
5 0 100 14 0.0737646
6 0 100 14 0.084205
7 0 100 14 0.0900969
8 0 100 14 0.0798568
9 0 100 14 0.0827629
10 0 100 14 0.0806779
11 0 100 14 0.0929955
12 0 100 14 0.0761859
13 0 100 14 0.0171575
14 0 100 14 0.00197086
1 1 100 14 0.607193
2 1 100 14 0.182765
3 1 100 14 0.109136
4 1 100 14 0.0194509
5 1 100 14 0.0223535
6 1 100 14 0.0194092
7 1 100 14 0.0101702
8 1 100 14 0.0173996
9 1 100 14 0.00251806
10 1 100 14 0.00315433
11 1 100 14 0.00252104
12 1 100 14 0.00386619
13 1 100 14 6.17421e-05
14 1 100 14 1.66428e-06
1 2 100 14 0.171752
2 2 100 14 0.393654
3 2 100 14 0.196743
4 2 100 14 0.0704032
5 2 100 14 0.0640949
6 2 100 14 0.038066
7 2 100 14 0.011956
8 2 100 14 0.0170786
9 2 100 14 0.00856577
10 2 100 14 0.00884785
11 2 100 14 0.0100385
12 2 100 14 0.00252942
13 2 100 14 0.00627172
1 3 100 14 0.0742149
2 3 100 14 0.167147
3 3 100 14 0.329875
4 3 100 14 0.171392
5 3 100 14 0.0894875
6 3 100 14 0.0440503
7 3 100 14 0.0306181
8 3 100 14 0.0122878
9 3 100 14 0.0240565
10 3 100 14 0.0151584
11 3 100 14 0.00539484
12 3 100 14 0.0138964
13 3 100 14 0.0224213
1 4 100 14 0.0505319
2 4 100 14 0.0857982
3 4 100 14 0.170142
4 4 100 14 0.285128
5 4 100 14 0.168583
6 4 100 14 0.0652883
7 4 100 14 0.0447194
8 4 100 14 0.0357812
9 4 100 14 0.0271398
10 4 100 14 0.0231248
11 4 100 14 0.0219947
12 4 100 14 0.0141944
13 4 100 14 0.00757177
14 4 100 14 2.93287e-06
1 5 100 14 0.0293342
2 5 100 14 0.0681592
3 5 100 14 0.0715537
4 5 100 14 0.186777
5 5 100 14 0.231015
6 5 100 14 0.142494
7 5 100 14 0.0803155
8 5 100 14 0.0570216
9 5 100 14 0.0366519
10 5 100 14 0.0149361
11 5 100 14 0.0292378
12 5 100 14 0.0346151
13 5 100 14 0.0178888
14 5 100 14 1.68473e-07
1 6 100 14 0.0111527
2 6 100 14 0.0328902
3 6 100 14 0.0559796
4 6 100 14 0.0985379
5 6 100 14 0.155151
6 6 100 14 0.221624
7 6 100 14 0.155534
8 6 100 14 0.0757392
9 6 100 14 0.0574869
10 6 100 14 0.0392378
11 6 100 14 0.0280997
12 6 100 14 0.0364361
13 6 100 14 0.0321136
14 6 100 14 1.72901e-05
1 7 100 14 0.0180994
2 7 100 14 0.0220141
3 7 100 14 0.0183857
4 7 100 14 0.0547308
5 7 100 14 0.102201
6 7 100 14 0.15771
7 7 100 14 0.202501
8 7 100 14 0.148481
9 7 100 14 0.11292
10 7 100 14 0.0580217
11 7 100 14 0.0523371
12 7 100 14 0.0204824
13 7 100 14 0.0298134
14 7 100 14 0.00230249
1 8 100 14 0.0128362
2 8 100 14 0.0114724
3 8 100 14 0.0202756
4 8 100 14 0.0418328
5 8 100 14 0.0721805
6 8 100 14 0.1163
7 8 100 14 0.133195
8 8 100 14 0.201056
9 8 100 14 0.137431
10 8 100 14 0.10421
11 8 100 14 0.0530744
12 8 100 14 0.0353652
13 8 100 14 0.0516527
14 8 100 14 0.00911847
1 9 100 14 0.00930674
2 9 100 14 0.00794166
3 9 100 14 0.0212259
4 9 100 14 0.0294486
5 9 100 14 0.0372217
6 9 100 14 0.0734409
7 9 100 14 0.118437
8 9 100 14 0.141934
9 9 100 14 0.154173
10 9 100 14 0.142461
11 9 100 14 0.110222
12 9 100 14 0.0621155
13 9 100 14 0.0684446
14 9 100 14 0.0236282
1 10 100 14 0.00486865
2 10 100 14 0.00511216
3 10 100 14 0.0132414
4 10 100 14 0.0233094
5 10 100 14 0.0225437
6 10 100 14 0.0392171
7 10 100 14 0.0880952
8 10 100 14 0.108434
9 10 100 14 0.144832
10 10 100 14 0.160086
11 10 100 14 0.14425
12 10 100 14 0.103733
13 10 100 14 0.0945267
14 10 100 14 0.047751
1 11 100 14 0.0117605
2 11 100 14 0.00595963
3 11 100 14 0.00501824
4 11 100 14 0.014752
5 11 100 14 0.0337402
6 11 100 14 0.0298547
7 11 100 14 0.0501207
8 11 100 14 0.0811036
9 11 100 14 0.108387
10 11 100 14 0.13869
11 11 100 14 0.149026
12 11 100 14 0.140013
13 11 100 14 0.140631
14 11 100 14 0.0909436
1 12 100 14 6.8211e-05
2 12 100 14 0.0157947
3 12 100 14 0.0186899
4 12 100 14 0.00816217
5 12 100 14 0.0230768
6 12 100 14 0.024085
7 12 100 14 0.0424908
8 12 100 14 0.0628455
9 12 100 14 0.0944067
10 12 100 14 0.131867
11 12 100 14 0.11849
12 12 100 14 0.145954
13 12 100 14 0.184569
14 12 100 14 0.1295
1 13 100 14 0.00545254
2 13 100 14 0.0109337
3 13 100 14 0.0137153
4 13 100 14 0.00565349
5 13 100 14 0.0111998
6 13 100 14 0.0359876
7 13 100 14 0.0128761
8 13 100 14 0.0502092
9 13 100 14 0.0808677
10 13 100 14 0.115558
11 13 100 14 0.127996
12 13 100 14 0.144176
13 13 100 14 0.167541
14 13 100 14 0.217833
1 14 100 14 0.000116328
2 14 100 14 0.00397853
3 14 100 14 0.00351079
4 14 100 14 0.00758667
5 14 100 14 0.00431259
6 14 100 14 0.0219779
7 14 100 14 0.0259055
8 14 100 14 0.0309105
9 14 100 14 0.0645426
10 14 100 14 0.0806457
11 14 100 14 0.108023
12 14 100 14 0.179324
13 14 100 14 0.187856
14 14 100 14 0.281309
1 15 100 14 0.000158172
2 15 100 14 0.00738297
3 15 100 14 0.00409559
4 15 100 14 0.0163715
5 15 100 14 0.00885168
6 15 100 14 0.00438039
7 15 100 14 0.0283854
8 15 100 14 0.0178424
9 15 100 14 0.0398689
10 15 100 14 0.0807446
11 15 100 14 0.0940161
12 15 100 14 0.149996
13 15 100 14 0.218245
14 15 100 14 0.329661
1 16 100 14 3.95483e-06
2 16 100 14 0.0118173
3 16 100 14 0.0104517
4 16 100 14 0.0111831
5 16 100 14 0.0171446
6 16 100 14 0.00271106
7 16 100 14 0.0111788
8 16 100 14 0.0272644
9 16 100 14 0.0242995
10 16 100 14 0.06733
11 16 100 14 0.102257
12 16 100 14 0.168508
13 16 100 14 0.172268
14 16 100 14 0.373583
1 17 100 14 1.72361e-06
2 17 100 14 0.024364
3 17 100 14 0.0265301
4 17 100 14 0.015183
5 17 100 14 0.00243181
6 17 100 14 0.00783433
7 17 100 14 0.0120394
8 17 100 14 0.0358283
9 17 100 14 0.0330251
10 17 100 14 0.0479279
11 17 100 14 0.0826142
12 17 100 14 0.0892679
13 17 100 14 0.28849
14 17 100 14 0.334462
1 18 100 14 3.9346e-06
2 18 100 14 1.92305e-05
3 18 100 14 1.49197e-05
4 18 100 14 0.00166401
5 18 100 14 0.0213181
6 18 100 14 0.00230126
7 18 100 14 0.0156141
8 18 100 14 0.0283672
9 18 100 14 0.0581957
10 18 100 14 0.0311066
11 18 100 14 0.0752949
12 18 100 14 0.150349
13 18 100 14 0.133869
14 18 100 14 0.481882
1 19 100 14 7.978e-06
2 19 100 14 3.0217e-06
3 19 100 14 0.00342177
4 19 100 14 0.000757961
5 19 100 14 0.000787619
6 19 100 14 0.0195409
7 19 100 14 0.0129383
8 19 100 14 0.0259209
9 19 100 14 0.000859981
10 19 100 14 0.000558163
11 19 100 14 0.0513764
12 19 100 14 0.143282
13 19 100 14 0.346532
14 19 100 14 0.394013
2 20 100 14 6.55519e-06
3 20 100 14 0.000119102
4 20 100 14 3.26445e-05
5 20 100 14 0.0310648
6 20 100 14 0.000307314
7 20 100 14 0.0264934
8 20 100 14 0.0281092
9 20 100 14 3.75179e-05
10 20 100 14 0.0323599
11 20 100 14 0.00389296
12 20 100 14 0.129936
13 20 100 14 0.110775
14 20 100 14 0.636865
2 21 100 14 1.08863e-05
3 21 100 14 6.5876e-06
4 21 100 14 3.06279e-05
5 21 100 14 1.95925e-05
6 21 100 14 0.0530811
7 21 100 14 2.74866e-05
8 21 100 14 0.000286252
9 21 100 14 2.0772e-05
10 21 100 14 0.0530832
11 21 100 14 0.0736255
12 21 100 14 0.262852
13 21 100 14 0.189236
14 21 100 14 0.36772
2 22 100 14 1.55833e-07
3 22 100 14 0.0640447
4 22 100 14 8.92462e-07
5 22 100 14 0.000188386
6 22 100 14 0.0658025
7 22 100 14 0.0662085
8 22 100 14 6.49844e-07
9 22 100 14 0.00872555
10 22 100 14 8.59399e-07
11 22 100 14 0.0010962
12 22 100 14 0.0669927
13 22 100 14 0.136818
14 22 100 14 0.59012
3 23 100 14 8.00692e-07
4 23 100 14 7.36608e-05
5 23 100 14 0.000134158
6 23 100 14 3.91794e-07
8 23 100 14 0.000196763
10 23 100 14 8.04863e-07
11 23 100 14 3.80899e-05
12 23 100 14 0.250292
14 23 100 14 0.749263
2 24 100 14 9.98708e-06
3 24 100 14 2.23833e-06
6 24 100 14 0.0169718
10 24 100 14 9.78842e-06
11 24 100 14 2.62251e-06
12 24 100 14 8.03383e-06
14 24 100 14 0.982995
3 25 100 14 6.36606e-06
4 25 100 14 1.16501e-06
12 25 100 14 0.342296
13 25 100 14 0.657696
2 26 100 14 2.70446e-05
5 26 100 14 0.795242
13 26 100 14 0.20473
2 27 100 14 6.38566e-07
14 27 100 14 0.999999
1 0 100 15 0.0774358
2 0 100 15 0.0517546
3 0 100 15 0.0801609
4 0 100 15 0.0795054
5 0 100 15 0.0893075
6 0 100 15 0.0729158
7 0 100 15 0.0709461
8 0 100 15 0.0816615
9 0 100 15 0.0796586
10 0 100 15 0.0680152
11 0 100 15 0.0796015
12 0 100 15 0.0860334
13 0 100 15 0.0687089
14 0 100 15 0.0117105
15 0 100 15 0.0025843
1 1 100 15 0.63821
2 1 100 15 0.190053
3 1 100 15 0.0782282
4 1 100 15 0.0184407
5 1 100 15 0.0180368
6 1 100 15 0.0123561
7 1 100 15 0.0134123
8 1 100 15 0.00614799
9 1 100 15 0.00984387
10 1 100 15 0.0102209
11 1 100 15 0.00244103
12 1 100 15 1.06476e-05
13 1 100 15 0.00250879
14 1 100 15 8.78919e-05
15 1 100 15 1.5224e-06
1 2 100 15 0.193383
2 2 100 15 0.38201
3 2 100 15 0.206016
4 2 100 15 0.0775977
5 2 100 15 0.0424169
6 2 100 15 0.026381
7 2 100 15 0.0188015
8 2 100 15 0.0161967
9 2 100 15 0.00405319
10 2 100 15 0.0158766
11 2 100 15 0.00449849
12 2 100 15 0.00831063
13 2 100 15 0.000303114
14 2 100 15 0.00415535
15 2 100 15 2.39371e-07
1 3 100 15 0.051257
2 3 100 15 0.171832
3 3 100 15 0.286651
4 3 100 15 0.172402
5 3 100 15 0.0813403
6 3 100 15 0.0575685
7 3 100 15 0.0462341
8 3 100 15 0.0232258
9 3 100 15 0.0276882
10 3 100 15 0.0186603
11 3 100 15 0.0139215
12 3 100 15 0.0236852
13 3 100 15 0.0116479
14 3 100 15 0.0138775
15 3 100 15 8.83495e-06
1 4 100 15 0.0341111
2 4 100 15 0.112519
3 4 100 15 0.134145
4 4 100 15 0.292605
5 4 100 15 0.16176
6 4 100 15 0.0935862
7 4 100 15 0.0551583
8 4 100 15 0.024655
9 4 100 15 0.0317221
10 4 100 15 0.0144031
11 4 100 15 0.0160089
12 4 100 15 0.00709549
13 4 100 15 0.0140966
14 4 100 15 0.00709206
15 4 100 15 0.00104133
1 5 100 15 0.0352755
2 5 100 15 0.0615381
3 5 100 15 0.0965689
4 5 100 15 0.139545
5 5 100 15 0.204793
6 5 100 15 0.156694
7 5 100 15 0.0892271
8 5 100 15 0.0768746
9 5 100 15 0.0198547
10 5 100 15 0.0330215
11 5 100 15 0.0251828
12 5 100 15 0.0226284
13 5 100 15 0.0202463
14 5 100 15 0.0185347
15 5 100 15 1.55041e-05
1 6 100 15 0.0137232
2 6 100 15 0.0262535
3 6 100 15 0.0491844
4 6 100 15 0.0997227
5 6 100 15 0.166093
6 6 100 15 0.177375
7 6 100 15 0.148539
8 6 100 15 0.0902705
9 6 100 15 0.072199
10 6 100 15 0.0593832
11 6 100 15 0.02667
12 6 100 15 0.027086
13 6 100 15 0.0194495
14 6 100 15 0.024051
1 7 100 15 0.0196212
2 7 100 15 0.0255704
3 7 100 15 0.0293741
4 7 100 15 0.0449977
5 7 100 15 0.0990125
6 7 100 15 0.164048
7 7 100 15 0.170555
8 7 100 15 0.144046
9 7 100 15 0.102205
10 7 100 15 0.0574829
11 7 100 15 0.0608578
12 7 100 15 0.0189173
13 7 100 15 0.026519
14 7 100 15 0.0343084
15 7 100 15 0.00248462
1 8 100 15 0.00891029
2 8 100 15 0.0187041
3 8 100 15 0.025755
4 8 100 15 0.0476592
5 8 100 15 0.0668142
6 8 100 15 0.122215
7 8 100 15 0.170374
8 8 100 15 0.158711
9 8 100 15 0.112607
10 8 100 15 0.074261
11 8 100 15 0.0722346
12 8 100 15 0.0560214
13 8 100 15 0.0328158
14 8 100 15 0.0281098
15 8 100 15 0.00480774
1 9 100 15 0.00280707
2 9 100 15 0.0166577
3 9 100 15 0.0178244
4 9 100 15 0.0250019
5 9 100 15 0.0427042
6 9 100 15 0.0624588
7 9 100 15 0.122574
8 9 100 15 0.135314
9 9 100 15 0.134554
10 9 100 15 0.148711
11 9 100 15 0.0687877
12 9 100 15 0.0947915
13 9 100 15 0.0462277
14 9 100 15 0.0671517
15 9 100 15 0.0144349
1 10 100 15 0.00195515
2 10 100 15 0.00878155
3 10 100 15 0.0180942
4 10 100 15 0.0271776
5 10 100 15 0.0252283
6 10 100 15 0.0570168
7 10 100 15 0.0779599
8 10 100 15 0.108279
9 10 100 15 0.150368
10 10 100 15 0.115067
11 10 100 15 0.142959
12 10 100 15 0.0683276
13 10 100 15 0.0918554
14 10 100 15 0.0751298
15 10 100 15 0.0318005
1 11 100 15 0.00270698
2 11 100 15 0.0101512
3 11 100 15 0.0194195
4 11 100 15 0.0175803
5 11 100 15 0.0180085
6 11 100 15 0.0329429
7 11 100 15 0.0502201
8 11 100 15 0.0885525
9 11 100 15 0.122978
10 11 100 15 0.154185
11 11 100 15 0.11753
12 11 100 15 0.123117
13 11 100 15 0.0795157
14 11 100 15 0.0946335
15 11 100 15 0.0684586
1 12 100 15 0.0151904
2 12 100 15 0.000103602
3 12 100 15 0.00531531
4 12 100 15 0.0176225
5 12 100 15 0.0230866
6 12 100 15 0.0209583
7 12 100 15 0.0256694
8 12 100 15 0.0676191
9 12 100 15 0.0837991
10 12 100 15 0.136574
11 12 100 15 0.159542
12 12 100 15 0.132704
13 12 100 15 0.112436
14 12 100 15 0.111331
15 12 100 15 0.0880484
1 13 100 15 0.00445156
2 13 100 15 0.0167763
3 13 100 15 0.00526705
4 13 100 15 0.0125143
5 13 100 15 0.0117938
6 13 100 15 0.0290052
7 13 100 15 0.0191236
8 13 100 15 0.0203165
9 13 100 15 0.0799792
10 13 100 15 0.0792823
11 13 100 15 0.116715
12 13 100 15 0.153717
13 13 100 15 0.141194
14 13 100 15 0.197647
15 13 100 15 0.112217
1 14 100 15 1.10759e-05
2 14 100 15 0.00992067
3 14 100 15 0.00379434
4 14 100 15 0.00560885
5 14 100 15 0.016453
6 14 100 15 0.0095089
7 14 100 15 0.0252137
8 14 100 15 0.0264444
9 14 100 15 0.0461585
10 14 100 15 0.0880471
11 14 100 15 0.0968516
12 14 100 15 0.132939
13 14 100 15 0.145877
14 14 100 15 0.179375
15 14 100 15 0.213798
1 15 100 15 0.00104143
2 15 100 15 0.00754543
3 15 100 15 0.0111582
4 15 100 15 0.0113528
5 15 100 15 0.0114617
6 15 100 15 0.00761899
7 15 100 15 0.0106733
8 15 100 15 0.0305119
9 15 100 15 0.0299625
10 15 100 15 0.0396045
11 15 100 15 0.0906184
12 15 100 15 0.10036
13 15 100 15 0.166325
14 15 100 15 0.241879
15 15 100 15 0.239888
1 16 100 15 0.0126713
2 16 100 15 0.00446525
3 16 100 15 0.00883304
4 16 100 15 0.00879967
5 16 100 15 0.00011469
6 16 100 15 0.017477
7 16 100 15 0.0186518
8 16 100 15 0.0179747
9 16 100 15 0.0266339
10 16 100 15 0.0447237
11 16 100 15 0.0438884
12 16 100 15 0.0703923
13 16 100 15 0.185439
14 16 100 15 0.171667
15 16 100 15 0.368268
1 17 100 15 0.0102321
2 17 100 15 0.0123339
3 17 100 15 0.0103042
4 17 100 15 6.28611e-05
5 17 100 15 0.0102257
6 17 100 15 0.00779225
7 17 100 15 0.0119333
8 17 100 15 0.00744468
9 17 100 15 0.0175146
10 17 100 15 0.0666804
11 17 100 15 0.0832023
12 17 100 15 0.0828653
13 17 100 15 0.150325
14 17 100 15 0.17041
15 17 100 15 0.358674
1 18 100 15 6.20658e-05
2 18 100 15 0.00163099
3 18 100 15 0.0168147
4 18 100 15 0.00631804
5 18 100 15 0.00940739
6 18 100 15 0.0176016
7 18 100 15 0.0161636
8 18 100 15 0.0575317
9 18 100 15 0.0357017
10 18 100 15 0.0602334
11 18 100 15 0.0450099
12 18 100 15 0.0857906
13 18 100 15 0.138206
14 18 100 15 0.165992
15 18 100 15 0.343536
1 19 100 15 0.00415722
2 19 100 15 1.14756e-05
3 19 100 15 0.0123322
4 19 100 15 0.0203868
5 19 100 15 0.0358115
6 19 100 15 0.0323922
7 19 100 15 0.0329559
8 19 100 15 0.0342572
9 19 100 15 0.0326895
10 19 100 15 0.0113797
11 19 100 15 0.0671126
12 19 100 15 0.0875523
13 19 100 15 0.103487
14 19 100 15 0.237526
15 19 100 15 0.287949
1 20 100 15 0.0294509
2 20 100 15 0.0145617
3 20 100 15 1.14631e-06
4 20 100 15 0.0147781
5 20 100 15 0.0246518
6 20 100 15 0.0288573
7 20 100 15 0.0148968
8 20 100 15 0.00685181
9 20 100 15 0.0140385
10 20 100 15 0.0240976
11 20 100 15 0.029738
12 20 100 15 0.069265
13 20 100 15 0.187668
14 20 100 15 0.105119
15 20 100 15 0.436024
1 21 100 15 3.89575e-05
2 21 100 15 2.23745e-05
3 21 100 15 0.000280282
4 21 100 15 4.54863e-06
5 21 100 15 5.30158e-05
6 21 100 15 0.000444928
7 21 100 15 0.000453996
8 21 100 15 0.0259117
9 21 100 15 0.0071477
10 21 100 15 0.0524703
11 21 100 15 0.0941076
12 21 100 15 0.0614967
13 21 100 15 0.145918
14 21 100 15 0.15783
15 21 100 15 0.453821
1 22 100 15 1.81314e-06
2 22 100 15 4.10967e-07
3 22 100 15 7.0815e-06
4 22 100 15 9.90686e-05
5 22 100 15 1.09678e-05
6 22 100 15 4.47659e-05
7 22 100 15 0.0223017
8 22 100 15 4.71481e-05
9 22 100 15 0.0130304
10 22 100 15 0.0547926
11 22 100 15 0.0187262
12 22 100 15 0.00543946
13 22 100 15 0.0626076
14 22 100 15 0.330438
15 22 100 15 0.492453
2 23 100 15 2.91052e-06
3 23 100 15 8.69134e-05
5 23 100 15 9.63337e-06
6 23 100 15 3.43928e-06
7 23 100 15 4.68935e-06
8 23 100 15 7.00667e-05
9 23 100 15 1.04198e-05
10 23 100 15 0.0112266
11 23 100 15 2.44821e-05
12 23 100 15 0.007783
13 23 100 15 0.268236
14 23 100 15 0.213985
15 23 100 15 0.498557
2 24 100 15 2.44497e-06
3 24 100 15 4.74685e-06
4 24 100 15 1.03035e-06
5 24 100 15 9.47149e-07
6 24 100 15 0.000178442
7 24 100 15 9.80562e-06
8 24 100 15 0.00358585
9 24 100 15 3.22392e-05
10 24 100 15 0.000132691
11 24 100 15 0.214941
12 24 100 15 0.252208
13 24 100 15 0.0480335
14 24 100 15 0.0534302
15 24 100 15 0.427439
2 25 100 15 0.0866704
3 25 100 15 2.22446e-05
4 25 100 15 3.90851e-05
5 25 100 15 1.64254e-06
6 25 100 15 9.31092e-06
7 25 100 15 1.94456e-05
8 25 100 15 0.000885217
9 25 100 15 0.000116526
10 25 100 15 6.09255e-06
11 25 100 15 3.86264e-05
12 25 100 15 0.0497885
13 25 100 15 0.143789
14 25 100 15 0.14381
15 25 100 15 0.574804
2 26 100 15 5.04662e-07
5 26 100 15 2.77089e-06
6 26 100 15 1.73374e-06
8 26 100 15 0.000300713
9 26 100 15 2.7364e-06
10 26 100 15 8.80894e-07
11 26 100 15 2.27218e-05
12 26 100 15 0.000709893
13 26 100 15 0.332203
14 26 100 15 0.000678877
15 26 100 15 0.666076
1 27 100 15 9.68427e-07
2 27 100 15 2.34824e-07
3 27 100 15 4.64069e-07
4 27 100 15 2.97974e-06
5 27 100 15 5.5439e-06
7 27 100 15 0.00605499
8 27 100 15 1.90025e-05
9 27 100 15 0.0642282
10 27 100 15 0.000165597
12 27 100 15 0.182043
13 27 100 15 0.000488418
14 27 100 15 0.560723
15 27 100 15 0.186268
2 28 100 15 1.42756e-06
5 28 100 15 1.03451e-06
7 28 100 15 9.06774e-07
8 28 100 15 0.000720269
9 28 100 15 0.0172889
11 28 100 15 4.05671e-06
12 28 100 15 3.15901e-05
13 28 100 15 0.328253
15 28 100 15 0.653699
2 29 100 15 2.61577e-05
3 29 100 15 1.53692e-06
4 29 100 15 1.17763e-05
5 29 100 15 0.000285052
6 29 100 15 0.00116908
8 29 100 15 0.00215631
9 29 100 15 0.273348
11 29 100 15 0.284909
13 29 100 15 0.00672591
14 29 100 15 0.431367
1 30 100 15 0.000215635
4 30 100 15 7.06725e-05
6 30 100 15 6.35629e-05
7 30 100 15 0.164061
8 30 100 15 0.000366659
9 30 100 15 6.59184e-06
10 30 100 15 0.334044
11 30 100 15 1.71741e-07
12 30 100 15 0.167099
13 30 100 15 5.37897e-06
15 30 100 15 0.334067
2 31 100 15 6.72014e-05
5 31 100 15 6.5855e-05
6 31 100 15 0.000153485
8 31 100 15 0.000205971
9 31 100 15 0.000213564
11 31 100 15 0.499825
15 31 100 15 0.499469
2 32 100 15 3.46745e-06
9 32 100 15 1.2324e-06
11 32 100 15 3.64847e-05
12 32 100 15 0.999959
8 33 100 15 0.998441
9 33 100 15 0.00155917
13 34 100 15 1
8 35 100 15 4.68074e-06
9 35 100 15 0.000318669
14 35 100 15 0.999677
8 36 100 15 2.28632e-05
9 36 100 15 1.11892e-06
15 36 100 15 0.999976
1 0 100 16 0.0760298
2 0 100 16 0.0691185
3 0 100 16 0.0697179
4 0 100 16 0.0719705
5 0 100 16 0.0706463
6 0 100 16 0.0697289
7 0 100 16 0.0677895
8 0 100 16 0.0597067
9 0 100 16 0.0661645
10 0 100 16 0.0691985
11 0 100 16 0.0718878
12 0 100 16 0.065513
13 0 100 16 0.0927925
14 0 100 16 0.0690825
15 0 100 16 0.00901049
16 0 100 16 0.00164268
1 1 100 16 0.636213
2 1 100 16 0.205358
3 1 100 16 0.066959
4 1 100 16 0.0222428
5 1 100 16 0.0137106
6 1 100 16 0.00257548
7 1 100 16 0.0112559
8 1 100 16 0.00857056
9 1 100 16 0.00715311
10 1 100 16 6.86226e-05
11 1 100 16 0.000781629
12 1 100 16 0.0115883
13 1 100 16 0.0088804
14 1 100 16 0.00464072
15 1 100 16 1.85672e-06
1 2 100 16 0.167497
2 2 100 16 0.369435
3 2 100 16 0.213821
4 2 100 16 0.0821714
5 2 100 16 0.043436
6 2 100 16 0.0281221
7 2 100 16 0.00800023
8 2 100 16 0.014226
9 2 100 16 0.0141114
10 2 100 16 0.018768
11 2 100 16 0.0106123
12 2 100 16 0.0064504
13 2 100 16 0.00611632
14 2 100 16 0.00895166
15 2 100 16 0.00828134
1 3 100 16 0.0519037
2 3 100 16 0.150672
3 3 100 16 0.328975
4 3 100 16 0.215828
5 3 100 16 0.0740007
6 3 100 16 0.0547677
7 3 100 16 0.0226989
8 3 100 16 0.0145844
9 3 100 16 0.0169898
10 3 100 16 0.0123314
11 3 100 16 0.0157155
12 3 100 16 0.0091805
13 3 100 16 0.00905352
14 3 100 16 0.013698
15 3 100 16 0.00960047
1 4 100 16 0.0511796
2 4 100 16 0.084583
3 4 100 16 0.107321
4 4 100 16 0.273333
5 4 100 16 0.213066
6 4 100 16 0.103268
7 4 100 16 0.0524198
8 4 100 16 0.0399369
9 4 100 16 0.00956496
10 4 100 16 0.0118031
11 4 100 16 0.00888229
12 4 100 16 0.00478003
13 4 100 16 0.00699352
14 4 100 16 0.00725517
15 4 100 16 0.025614
1 5 100 16 0.0296827
2 5 100 16 0.0467488
3 5 100 16 0.10227
4 5 100 16 0.139792
5 5 100 16 0.214037
6 5 100 16 0.189973
7 5 100 16 0.0984968
8 5 100 16 0.0682635
9 5 100 16 0.0388188
10 5 100 16 0.0186087
11 5 100 16 0.0191061
12 5 100 16 0.0143882
13 5 100 16 0.00477871
14 5 100 16 0.0099467
15 5 100 16 0.00508919
1 6 100 16 0.00272967
2 6 100 16 0.0368672
3 6 100 16 0.0493449
4 6 100 16 0.082818
5 6 100 16 0.143032
6 6 100 16 0.205172
7 6 100 16 0.180586
8 6 100 16 0.0926188
9 6 100 16 0.097852
10 6 100 16 0.0432367
11 6 100 16 0.0103472
12 6 100 16 0.0167332
13 6 100 16 0.0242209
14 6 100 16 0.00469295
15 6 100 16 0.0073297
16 6 100 16 0.00241797
1 7 100 16 0.0120376
2 7 100 16 0.0189877
3 7 100 16 0.0335956
4 7 100 16 0.0442666
5 7 100 16 0.11736
6 7 100 16 0.136781
7 7 100 16 0.181047
8 7 100 16 0.147651
9 7 100 16 0.107335
10 7 100 16 0.0907858
11 7 100 16 0.0405491
12 7 100 16 0.0228817
13 7 100 16 0.0207782
14 7 100 16 0.0121152
15 7 100 16 0.0138275
16 7 100 16 2.08275e-07
1 8 100 16 0.00672134
2 8 100 16 0.0195071
3 8 100 16 0.0277771
4 8 100 16 0.0359667
5 8 100 16 0.0502852
6 8 100 16 0.111194
7 8 100 16 0.157713
8 8 100 16 0.172009
9 8 100 16 0.119081
10 8 100 16 0.0963391
11 8 100 16 0.068572
12 8 100 16 0.041045
13 8 100 16 0.0204211
14 8 100 16 0.0274185
15 8 100 16 0.0459493
16 8 100 16 1.20439e-06
1 9 100 16 0.00561656
2 9 100 16 0.00442672
3 9 100 16 0.0194195
4 9 100 16 0.0215818
5 9 100 16 0.0443285
6 9 100 16 0.0549759
7 9 100 16 0.102034
8 9 100 16 0.160672
9 9 100 16 0.145997
10 9 100 16 0.125053
11 9 100 16 0.108823
12 9 100 16 0.0841038
13 9 100 16 0.0421795
14 9 100 16 0.0341555
15 9 100 16 0.0398571
16 9 100 16 0.0067769
1 10 100 16 0.00260054
2 10 100 16 0.00771559
3 10 100 16 0.0171832
4 10 100 16 0.0230638
5 10 100 16 0.0272524
6 10 100 16 0.0369003
7 10 100 16 0.0722272
8 10 100 16 0.110046
9 10 100 16 0.148089
10 10 100 16 0.152183
11 10 100 16 0.128145
12 10 100 16 0.0920648
13 10 100 16 0.0686645
14 10 100 16 0.0463003
15 10 100 16 0.0513037
16 10 100 16 0.0162602
1 11 100 16 3.37245e-05
2 11 100 16 0.000499325
3 11 100 16 0.00741793
4 11 100 16 0.0145088
5 11 100 16 0.0195913
6 11 100 16 0.0221186
7 11 100 16 0.0476487
8 11 100 16 0.0723166
9 11 100 16 0.113087
10 11 100 16 0.137782
11 11 100 16 0.143781
12 11 100 16 0.147038
13 11 100 16 0.0983175
14 11 100 16 0.0853765
15 11 100 16 0.0683977
16 11 100 16 0.022086
1 12 100 16 5.23441e-05
2 12 100 16 0.00531337
3 12 100 16 0.0026983
4 12 100 16 0.00791847
5 12 100 16 0.0143181
6 12 100 16 0.0223585
7 12 100 16 0.0279899
8 12 100 16 0.054077
9 12 100 16 0.0590277
10 12 100 16 0.121945
11 12 100 16 0.125439
12 12 100 16 0.134882
13 12 100 16 0.128414
14 12 100 16 0.102613
15 12 100 16 0.121158
16 12 100 16 0.0717961
1 13 100 16 0.00965524
2 13 100 16 0.0156182
3 13 100 16 0.00259461
4 13 100 16 0.00968309
5 13 100 16 0.00761002
6 13 100 16 0.0181363
7 13 100 16 0.0334722
8 13 100 16 0.0290397
9 13 100 16 0.0558166
10 13 100 16 0.0787451
11 13 100 16 0.114968
12 13 100 16 0.149774
13 13 100 16 0.126654
14 13 100 16 0.114156
15 13 100 16 0.138489
16 13 100 16 0.0955885
1 14 100 16 0.000746686
2 14 100 16 0.00328881
3 14 100 16 0.00930911
4 14 100 16 0.00502917
5 14 100 16 0.00826524
6 14 100 16 0.0173727
7 14 100 16 0.0197655
8 14 100 16 0.0214575
9 14 100 16 0.0517272
10 14 100 16 0.0670292
11 14 100 16 0.0916189
12 14 100 16 0.1139
13 14 100 16 0.126303
14 14 100 16 0.161677
15 14 100 16 0.167442
16 14 100 16 0.135068
1 15 100 16 0.00427878
2 15 100 16 3.19277e-06
3 15 100 16 0.0061738
4 15 100 16 0.015426
5 15 100 16 0.014948
6 15 100 16 0.00622855
7 15 100 16 0.00995122
8 15 100 16 0.0401932
9 15 100 16 0.0371137
10 15 100 16 0.0427307
11 15 100 16 0.0926606
12 15 100 16 0.10741
13 15 100 16 0.114877
14 15 100 16 0.124815
15 15 100 16 0.168892
16 15 100 16 0.214298
1 16 100 16 0.00269491
2 16 100 16 0.0071044
3 16 100 16 0.00709339
4 16 100 16 0.00709983
5 16 100 16 0.0141386
6 16 100 16 0.0209296
7 16 100 16 0.0134979
8 16 100 16 0.0209229
9 16 100 16 0.0351898
10 16 100 16 0.0430892
11 16 100 16 0.0461182
12 16 100 16 0.0941644
13 16 100 16 0.132523
14 16 100 16 0.1606
15 16 100 16 0.175614
16 16 100 16 0.21922
1 17 100 16 0.00537102
2 17 100 16 0.000562021
3 17 100 16 0.00592467
4 17 100 16 0.00558202
5 17 100 16 1.05512e-05
6 17 100 16 0.0111411
7 17 100 16 0.00598074
8 17 100 16 0.00602701
9 17 100 16 0.0112565
10 17 100 16 0.0289765
11 17 100 16 0.0405645
12 17 100 16 0.076876
13 17 100 16 0.102717
14 17 100 16 0.135259
15 17 100 16 0.241918
16 17 100 16 0.321834
1 18 100 16 7.64926e-05
2 18 100 16 0.0128985
3 18 100 16 0.00267713
4 18 100 16 0.00779008
5 18 100 16 0.00661559
6 18 100 16 0.00390954
7 18 100 16 0.00138332
8 18 100 16 0.00723777
9 18 100 16 0.0251395
10 18 100 16 0.0148652
11 18 100 16 0.0662393
12 18 100 16 0.0605919
13 18 100 16 0.0962801
14 18 100 16 0.134777
15 18 100 16 0.189071
16 18 100 16 0.370447
1 19 100 16 0.000878064
2 19 100 16 0.000825068
3 19 100 16 0.00561348
4 19 100 16 0.020281
5 19 100 16 0.00191004
6 19 100 16 0.0109213
7 19 100 16 0.0108165
8 19 100 16 0.0198784
9 19 100 16 0.0205908
10 19 100 16 0.0105803
11 19 100 16 0.0511729
12 19 100 16 0.0330155
13 19 100 16 0.0780377
14 19 100 16 0.213052
15 19 100 16 0.157634
16 19 100 16 0.364793
1 20 100 16 9.06554e-05
2 20 100 16 0.00268068
3 20 100 16 0.00378563
4 20 100 16 0.0253743
5 20 100 16 0.0202161
6 20 100 16 3.02314e-05
7 20 100 16 0.0261945
8 20 100 16 0.0133975
9 20 100 16 0.00142008
10 20 100 16 0.0200188
11 20 100 16 0.0247704
12 20 100 16 0.0729081
13 20 100 16 0.0208544
14 20 100 16 0.173979
15 20 100 16 0.208638
16 20 100 16 0.385641
1 21 100 16 5.71506e-06
2 21 100 16 0.0170828
3 21 100 16 0.00145348
4 21 100 16 0.0318365
5 21 100 16 0.0346557
6 21 100 16 0.0172832
7 21 100 16 0.000160759
8 21 100 16 0.0238085
9 21 100 16 4.58224e-06
10 21 100 16 0.0211755
11 21 100 16 0.0292156
12 21 100 16 0.0176016
13 21 100 16 0.0403644
14 21 100 16 0.0951193
15 21 100 16 0.141489
16 21 100 16 0.528743
1 22 100 16 1.50181e-05
2 22 100 16 1.96429e-05
3 22 100 16 0.000376253
4 22 100 16 0.000374799
5 22 100 16 7.79253e-05
6 22 100 16 0.0213488
7 22 100 16 6.43366e-05
8 22 100 16 6.54189e-05
9 22 100 16 0.0264531
10 22 100 16 0.00760533
11 22 100 16 0.0499653
12 22 100 16 0.0530701
13 22 100 16 0.0774628
14 22 100 16 0.161371
15 22 100 16 0.137352
16 22 100 16 0.464378
1 23 100 16 1.1116e-06
2 23 100 16 1.97623e-07
3 23 100 16 0.000243167
4 23 100 16 0.0047406
5 23 100 16 0.00744753
6 23 100 16 6.99362e-05
7 23 100 16 0.0112934
8 23 100 16 0.00600802
9 23 100 16 0.0401572
10 23 100 16 0.00332494
11 23 100 16 0.0845411
12 23 100 16 0.0803372
13 23 100 16 0.148457
14 23 100 16 0.0951794
15 23 100 16 0.197208
16 23 100 16 0.320992
2 24 100 16 1.40219e-06
3 24 100 16 0.00033911
4 24 100 16 0.000486212
5 24 100 16 3.0871e-07
6 24 100 16 0.0316884
7 24 100 16 1.94529e-06
8 24 100 16 0.0542182
9 24 100 16 0.0550466
10 24 100 16 3.45845e-05
12 24 100 16 3.35145e-05
13 24 100 16 0.0917134
14 24 100 16 0.162586
15 24 100 16 0.278859
16 24 100 16 0.324991
2 25 100 16 3.24302e-07
3 25 100 16 2.32647e-06
4 25 100 16 1.75421e-07
5 25 100 16 1.54581e-06
6 25 100 16 0.000194074
7 25 100 16 0.000311143
8 25 100 16 1.55436e-06
9 25 100 16 2.65182e-05
10 25 100 16 3.75682e-05
11 25 100 16 6.53492e-06
12 25 100 16 4.67709e-06
13 25 100 16 0.00019668
14 25 100 16 2.48743e-05
15 25 100 16 0.119973
16 25 100 16 0.879219
1 26 100 16 5.32779e-05
2 26 100 16 5.58645e-06
3 26 100 16 5.68255e-06
7 26 100 16 0.00620591
8 26 100 16 1.60414e-05
9 26 100 16 5.82062e-07
10 26 100 16 0.000226814
11 26 100 16 8.0837e-06
13 26 100 16 0.000123051
14 26 100 16 0.595644
15 26 100 16 0.198886
16 26 100 16 0.198825
2 27 100 16 4.62096e-06
3 27 100 16 1.57712e-06
4 27 100 16 1.00673e-06
5 27 100 16 2.07765e-06
7 27 100 16 3.41464e-06
8 27 100 16 0.000527507
9 27 100 16 2.49374e-06
10 27 100 16 5.53812e-05
11 27 100 16 0.326189
13 27 100 16 0.000366149
14 27 100 16 0.0245263
15 27 100 16 0.432416
16 27 100 16 0.215905
1 28 100 16 0.10223
3 28 100 16 7.14331e-07
4 28 100 16 2.68026e-05
6 28 100 16 6.29525e-06
7 28 100 16 2.25614e-07
8 28 100 16 3.14213e-07
9 28 100 16 7.4724e-07
10 28 100 16 0.000582497
11 28 100 16 1.76426e-07
12 28 100 16 0.254592
13 28 100 16 0.000531655
14 28 100 16 1.09781e-05
15 28 100 16 0.256693
16 28 100 16 0.385325
2 29 100 16 1.26159e-05
3 29 100 16 4.96672e-07
8 29 100 16 3.78878e-07
11 29 100 16 2.99328e-06
13 29 100 16 0.000241002
14 29 100 16 2.59488e-05
15 29 100 16 3.62292e-07
16 29 100 16 0.999716
12 30 100 16 1
1 32 100 16 0.000129753
2 32 100 16 0.000268538
3 32 100 16 0.911884
10 32 100 16 0.0634117
15 32 100 16 0.0243065
9 34 100 16 1.53871e-06
16 34 100 16 0.999998
1 0 100 17 0.0548979
2 0 100 17 0.0589842
3 0 100 17 0.0569256
4 0 100 17 0.0734651
5 0 100 17 0.0691263
6 0 100 17 0.0697798
7 0 100 17 0.0684286
8 0 100 17 0.059264
9 0 100 17 0.0665333
10 0 100 17 0.0566976
11 0 100 17 0.0670783
12 0 100 17 0.0720906
13 0 100 17 0.0719511
14 0 100 17 0.0785574
15 0 100 17 0.0615621
16 0 100 17 0.0123519
17 0 100 17 0.00230625
1 1 100 17 0.633915
2 1 100 17 0.178274
3 1 100 17 0.0832162
4 1 100 17 0.0315665
5 1 100 17 0.0167286
6 1 100 17 0.0149598
7 1 100 17 0.00967107
8 1 100 17 0.0138971
9 1 100 17 0.00519366
10 1 100 17 0.00209838
11 1 100 17 0.00229201
12 1 100 17 0.00304899
13 1 100 17 0.000595237
14 1 100 17 0.00445204
15 1 100 17 5.18406e-05
16 1 100 17 3.98416e-05
1 2 100 17 0.214133
2 2 100 17 0.386987
3 2 100 17 0.179122
4 2 100 17 0.0803284
5 2 100 17 0.0497227
6 2 100 17 0.0293858
7 2 100 17 0.0124687
8 2 100 17 0.00901755
9 2 100 17 0.013271
10 2 100 17 0.00428931
11 2 100 17 0.0035819
12 2 100 17 0.00305609
13 2 100 17 0.00220118
14 2 100 17 0.00425526
15 2 100 17 0.00605339
16 2 100 17 0.00212528
17 2 100 17 7.71336e-07
1 3 100 17 0.0672656
2 3 100 17 0.181645
3 3 100 17 0.329785
4 3 100 17 0.154125
5 3 100 17 0.0801516
6 3 100 17 0.0477424
7 3 100 17 0.0286086
8 3 100 17 0.0140722
9 3 100 17 0.0214817
10 3 100 17 0.0124781
11 3 100 17 0.007335
12 3 100 17 0.00993897
13 3 100 17 0.00813564
14 3 100 17 0.00737995
15 3 100 17 0.0101392
16 3 100 17 0.0197157
17 3 100 17 4.54827e-07
1 4 100 17 0.0668275
2 4 100 17 0.0920196
3 4 100 17 0.161618
4 4 100 17 0.269548
5 4 100 17 0.160888
6 4 100 17 0.0907161
7 4 100 17 0.0651931
8 4 100 17 0.0302449
9 4 100 17 0.0230346
10 4 100 17 0.0125158
11 4 100 17 0.00955869
12 4 100 17 0.00609545
13 4 100 17 0.00196438
14 4 100 17 0.000437793
15 4 100 17 0.00237587
16 4 100 17 0.0069511
17 4 100 17 1.06189e-05
1 5 100 17 0.0174253
2 5 100 17 0.0668338
3 5 100 17 0.10247
4 5 100 17 0.171337
5 5 100 17 0.221274
6 5 100 17 0.15555
7 5 100 17 0.079422
8 5 100 17 0.068139
9 5 100 17 0.0308604
10 5 100 17 0.0231984
11 5 100 17 0.0241022
12 5 100 17 0.0156557
13 5 100 17 0.00851792
14 5 100 17 0.00610865
15 5 100 17 0.00435163
16 5 100 17 0.00475475
1 6 100 17 0.0100412
2 6 100 17 0.0377845
3 6 100 17 0.0510599
4 6 100 17 0.0891003
5 6 100 17 0.157367
6 6 100 17 0.223279
7 6 100 17 0.14473
8 6 100 17 0.0947948
9 6 100 17 0.0579395
10 6 100 17 0.0425854
11 6 100 17 0.0236443
12 6 100 17 0.013772
13 6 100 17 0.0129889
14 6 100 17 0.0141118
15 6 100 17 0.0176095
16 6 100 17 0.00682685
17 6 100 17 0.00236453
1 7 100 17 0.0184166
2 7 100 17 0.0142838
3 7 100 17 0.0442035
4 7 100 17 0.0655059
5 7 100 17 0.0945882
6 7 100 17 0.143419
7 7 100 17 0.188582
8 7 100 17 0.149077
9 7 100 17 0.0851526
10 7 100 17 0.0452453
11 7 100 17 0.0369386
12 7 100 17 0.0331758
13 7 100 17 0.0258686
14 7 100 17 0.023274
15 7 100 17 0.0111982
16 7 100 17 0.0210635
17 7 100 17 6.90416e-06
1 8 100 17 0.00640563
2 8 100 17 0.0108744
3 8 100 17 0.0133176
4 8 100 17 0.0366302
5 8 100 17 0.0636302
6 8 100 17 0.112692
7 8 100 17 0.138504
8 8 100 17 0.182853
9 8 100 17 0.142498
10 8 100 17 0.099728
11 8 100 17 0.0682051
12 8 100 17 0.0325051
13 8 100 17 0.0320438
14 8 100 17 0.0241037
15 8 100 17 0.0154994
16 8 100 17 0.0205093
17 8 100 17 2.25981e-07
1 9 100 17 0.0024416
2 9 100 17 0.00712324
3 9 100 17 0.0172935
4 9 100 17 0.0195905
5 9 100 17 0.0332128
6 9 100 17 0.0510923
7 9 100 17 0.102066
8 9 100 17 0.15612
9 9 100 17 0.176477
10 9 100 17 0.12507
11 9 100 17 0.0870699
12 9 100 17 0.0633604
13 9 100 17 0.0427806
14 9 100 17 0.0410206
15 9 100 17 0.0291707
16 9 100 17 0.0388959
17 9 100 17 0.00721588
1 10 100 17 0.00147072
2 10 100 17 0.0101415
3 10 100 17 0.00587382
4 10 100 17 0.0201411
5 10 100 17 0.0252629
6 10 100 17 0.0529214
7 10 100 17 0.0820406
8 10 100 17 0.0738358
9 10 100 17 0.145699
10 10 100 17 0.178411
11 10 100 17 0.118516
12 10 100 17 0.0882806
13 10 100 17 0.0620502
14 10 100 17 0.0599243
15 10 100 17 0.0290079
16 10 100 17 0.0413655
17 10 100 17 0.00505754
1 11 100 17 0.0024915
2 11 100 17 0.0024915
3 11 100 17 0.0125437
4 11 100 17 0.00512678
5 11 100 17 0.0271395
6 11 100 17 0.0252171
7 11 100 17 0.0520236
8 11 100 17 0.0714153
9 11 100 17 0.11644
10 11 100 17 0.147407
11 11 100 17 0.134807
12 11 100 17 0.131869
13 11 100 17 0.0839291
14 11 100 17 0.0678273
15 11 100 17 0.0617346
16 11 100 17 0.0426469
17 11 100 17 0.0148895
1 12 100 17 0.00699753
2 12 100 17 0.00962417
3 12 100 17 0.0187609
4 12 100 17 0.0103663
5 12 100 17 0.0223981
6 12 100 17 0.0160458
7 12 100 17 0.0373938
8 12 100 17 0.0720846
9 12 100 17 0.0580396
10 12 100 17 0.111719
11 12 100 17 0.136932
12 12 100 17 0.135385
13 12 100 17 0.110058
14 12 100 17 0.0713261
15 12 100 17 0.0884658
16 12 100 17 0.0569276
17 12 100 17 0.0374764
1 13 100 17 0.00322039
2 13 100 17 0.0116564
3 13 100 17 0.00536671
4 13 100 17 0.010435
5 13 100 17 0.0154236
6 13 100 17 0.0200445
7 13 100 17 0.0159351
8 13 100 17 0.0418056
9 13 100 17 0.0499229
10 13 100 17 0.0840186
11 13 100 17 0.108101
12 13 100 17 0.128389
13 13 100 17 0.148946
14 13 100 17 0.11719
15 13 100 17 0.0732805
16 13 100 17 0.0958435
17 13 100 17 0.0704216
1 14 100 17 0.00301233
2 14 100 17 0.00753258
3 14 100 17 0.0127425
4 14 100 17 0.0179498
5 14 100 17 0.0153114
6 14 100 17 0.0124565
7 14 100 17 0.0254084
8 14 100 17 0.0235044
9 14 100 17 0.0416741
10 14 100 17 0.0786604
11 14 100 17 0.0890601
12 14 100 17 0.0986815
13 14 100 17 0.142046
14 14 100 17 0.119666
15 14 100 17 0.103485
16 14 100 17 0.147594
17 14 100 17 0.0612154
1 15 100 17 0.000269481
2 15 100 17 0.00754123
3 15 100 17 0.0126292
4 15 100 17 0.00541781
5 15 100 17 0.0107428
6 15 100 17 0.00524891
7 15 100 17 0.0186832
8 15 100 17 0.0239522
9 15 100 17 0.0484896
10 15 100 17 0.0475575
11 15 100 17 0.0811316
12 15 100 17 0.109128
13 15 100 17 0.119477
14 15 100 17 0.134317
15 15 100 17 0.113738
16 15 100 17 0.123357
17 15 100 17 0.13832
1 16 100 17 0.00270477
2 16 100 17 0.0029577
3 16 100 17 0.00589338
4 16 100 17 0.015544
5 16 100 17 0.00578225
6 16 100 17 0.0148189
7 16 100 17 0.0114272
8 16 100 17 0.0260451
9 16 100 17 0.023194
10 16 100 17 0.0384186
11 16 100 17 0.0590377
12 16 100 17 0.075716
13 16 100 17 0.100268
14 16 100 17 0.139845
15 16 100 17 0.167159
16 16 100 17 0.161533
17 16 100 17 0.149655
1 17 100 17 1.47564e-05
2 17 100 17 0.0034155
3 17 100 17 0.00349751
4 17 100 17 0.000357733
5 17 100 17 0.0137502
6 17 100 17 0.0146351
7 17 100 17 0.0159713
8 17 100 17 0.0127556
9 17 100 17 0.0234965
10 17 100 17 0.0257018
11 17 100 17 0.047953
12 17 100 17 0.0685811
13 17 100 17 0.102892
14 17 100 17 0.0925669
15 17 100 17 0.165719
16 17 100 17 0.223247
17 17 100 17 0.185444
1 18 100 17 0.000113112
2 18 100 17 0.00416942
3 18 100 17 7.30122e-07
4 18 100 17 1.81127e-05
5 18 100 17 3.26756e-06
6 18 100 17 1.18799e-05
7 18 100 17 0.0164924
8 18 100 17 0.0130461
9 18 100 17 0.00829667
10 18 100 17 0.0321915
11 18 100 17 0.0333856
12 18 100 17 0.0449281
13 18 100 17 0.0594416
14 18 100 17 0.113764
15 18 100 17 0.135839
16 18 100 17 0.205374
17 18 100 17 0.332925
1 19 100 17 7.10523e-06
2 19 100 17 1.04643e-05
3 19 100 17 0.0116467
4 19 100 17 0.00635732
5 19 100 17 0.0062795
6 19 100 17 3.1697e-05
7 19 100 17 7.60108e-05
8 19 100 17 0.00654821
9 19 100 17 0.00741978
10 19 100 17 0.0326225
11 19 100 17 0.0237975
12 19 100 17 0.0492485
13 19 100 17 0.0799485
14 19 100 17 0.0837816
15 19 100 17 0.147483
16 19 100 17 0.183363
17 19 100 17 0.361379
1 20 100 17 4.49067e-07
2 20 100 17 2.2627e-06
3 20 100 17 0.00756596
4 20 100 17 0.0121962
5 20 100 17 0.0225065
6 20 100 17 0.00868396
7 20 100 17 0.0161443
8 20 100 17 0.0103443
9 20 100 17 0.00724771
10 20 100 17 0.00950524
11 20 100 17 0.0623334
12 20 100 17 0.0615527
13 20 100 17 0.0424736
14 20 100 17 0.0987801
15 20 100 17 0.141362
16 20 100 17 0.213026
17 20 100 17 0.286275
1 21 100 17 2.65479e-07
2 21 100 17 0.00503614
3 21 100 17 0.00418476
4 21 100 17 1.10618e-05
5 21 100 17 0.0105856
6 21 100 17 0.00269174
7 21 100 17 0.0106297
8 21 100 17 0.0210324
9 21 100 17 0.00417363
10 21 100 17 0.0106055
11 21 100 17 0.042819
12 21 100 17 0.0395219
13 21 100 17 0.067711
14 21 100 17 0.0903433
15 21 100 17 0.152267
16 21 100 17 0.162746
17 21 100 17 0.375641
1 22 100 17 1.67174e-06
2 22 100 17 3.40995e-05
3 22 100 17 0.00167394
4 22 100 17 1.16896e-05
5 22 100 17 1.28877e-05
6 22 100 17 0.000210628
7 22 100 17 2.73769e-05
8 22 100 17 7.21517e-06
9 22 100 17 0.00767479
10 22 100 17 0.0638749
11 22 100 17 0.0338009
12 22 100 17 0.00407419
13 22 100 17 0.0402141
14 22 100 17 0.0312004
15 22 100 17 0.17317
16 22 100 17 0.142562
17 22 100 17 0.501449
1 23 100 17 0.0241695
2 23 100 17 6.39305e-05
3 23 100 17 4.11124e-05
4 23 100 17 0.000372473
5 23 100 17 7.56334e-07
6 23 100 17 4.63837e-05
7 23 100 17 0.0245214
8 23 100 17 2.02285e-05
9 23 100 17 0.0240436
10 23 100 17 0.0127894
11 23 100 17 0.0241634
12 23 100 17 0.0177279
13 23 100 17 0.0487366
14 23 100 17 0.0241858
15 23 100 17 0.102819
16 23 100 17 0.192324
17 23 100 17 0.503975
1 24 100 17 1.02595e-05
2 24 100 17 0.0001817
3 24 100 17 0.0298579
4 24 100 17 0.000721088
5 24 100 17 0.0313587
6 24 100 17 1.37134e-05
7 24 100 17 2.713e-05
8 24 100 17 0.0313758
9 24 100 17 6.01236e-06
10 24 100 17 0.0316441
11 24 100 17 0.0951926
12 24 100 17 0.0175771
13 24 100 17 0.000214608
14 24 100 17 0.0943251
15 24 100 17 0.156745
16 24 100 17 0.16644
17 24 100 17 0.344309
1 25 100 17 8.56009e-06
2 25 100 17 1.125e-05
3 25 100 17 7.11094e-07
4 25 100 17 3.25092e-06
5 25 100 17 0.000646731
6 25 100 17 0.00710007
9 25 100 17 0.00592189
10 25 100 17 2.02466e-06
11 25 100 17 0.00400336
12 25 100 17 0.123349
13 25 100 17 0.0614115
14 25 100 17 0.0614276
15 25 100 17 0.0624102
16 25 100 17 0.122244
17 25 100 17 0.55146
2 26 100 17 2.25663e-07
3 26 100 17 4.63131e-06
5 26 100 17 7.50379e-07
6 26 100 17 3.16418e-07
7 26 100 17 0.0718119
9 26 100 17 0.000164052
10 26 100 17 0.0718075
11 26 100 17 0.00131526
12 26 100 17 0.126442
13 26 100 17 0.215261
14 26 100 17 1.3694e-05
15 26 100 17 0.0717933
16 26 100 17 0.156515
17 26 100 17 0.28487
2 27 100 17 2.09576e-05
3 27 100 17 7.27612e-07
4 27 100 17 1.1415e-05
5 27 100 17 1.71943e-05
6 27 100 17 2.17156e-06
8 27 100 17 0.129912
9 27 100 17 8.68673e-05
10 27 100 17 2.18736e-05
11 27 100 17 8.38574e-05
12 27 100 17 0.000134684
13 27 100 17 4.84897e-07
14 27 100 17 0.150775
15 27 100 17 2.63053e-06
16 27 100 17 0.117486
17 27 100 17 0.601444
1 28 100 17 4.367e-06
3 28 100 17 4.87215e-06
6 28 100 17 0.000203128
7 28 100 17 0.0615882
8 28 100 17 0.146448
9 28 100 17 0.15361
10 28 100 17 0.00031542
11 28 100 17 0.000451096
12 28 100 17 0.00460508
14 28 100 17 0.379985
15 28 100 17 2.85521e-06
16 28 100 17 7.73954e-05
17 28 100 17 0.252705
2 29 100 17 2.81342e-07
3 29 100 17 2.87695e-07
4 29 100 17 8.97091e-07
5 29 100 17 2.34535e-07
6 29 100 17 0.000542339
8 29 100 17 0.0022308
9 29 100 17 6.72508e-05
10 29 100 17 0.00865108
11 29 100 17 0.00567481
12 29 100 17 3.33014e-05
13 29 100 17 0.189559
14 29 100 17 9.43755e-05
15 29 100 17 0.37912
16 29 100 17 0.224534
17 29 100 17 0.189491
2 30 100 17 4.52346e-06
8 30 100 17 3.20056e-07
11 30 100 17 1.32579e-06
12 30 100 17 0.198628
13 30 100 17 5.25041e-05
14 30 100 17 0.198669
15 30 100 17 0.00711364
16 30 100 17 1.23997e-06
17 30 100 17 0.595529
11 31 100 17 1.38617e-06
13 31 100 17 0.500479
16 31 100 17 1.38446e-06
17 31 100 17 0.499519
11 32 100 17 2.0197e-06
14 32 100 17 0.999995
15 32 100 17 2.66676e-06
12 33 100 17 1.67591e-05
15 33 100 17 0.486029
16 33 100 17 0.513955
9 34 100 17 1.08585e-06
11 34 100 17 2.83242e-06
17 34 100 17 0.999996
1 0 100 18 0.0538577
2 0 100 18 0.0497539
3 0 100 18 0.0608814
4 0 100 18 0.0695538
5 0 100 18 0.0598553
6 0 100 18 0.071119
7 0 100 18 0.0651031
8 0 100 18 0.0673912
9 0 100 18 0.0549258
10 0 100 18 0.0622696
11 0 100 18 0.0758426
12 0 100 18 0.0561965
13 0 100 18 0.0703086
14 0 100 18 0.0574406
15 0 100 18 0.0717855
16 0 100 18 0.0475725
17 0 100 18 0.00399503
18 0 100 18 0.00214786
1 1 100 18 0.616028
2 1 100 18 0.201743
3 1 100 18 0.0874621
4 1 100 18 0.0287401
5 1 100 18 0.0151421
6 1 100 18 0.0124159
7 1 100 18 0.00482222
8 1 100 18 0.00500599
9 1 100 18 0.00507803
10 1 100 18 0.00489966
11 1 100 18 5.37416e-05
12 1 100 18 1.26251e-05
13 1 100 18 0.0024419
14 1 100 18 0.00236864
15 1 100 18 0.00418479
16 1 100 18 0.00468975
17 1 100 18 0.00490446
18 1 100 18 7.14827e-06
1 2 100 18 0.206742
2 2 100 18 0.359752
3 2 100 18 0.169061
4 2 100 18 0.101363
5 2 100 18 0.0400251
6 2 100 18 0.0209359
7 2 100 18 0.015533
8 2 100 18 0.0164829
9 2 100 18 0.0148956
10 2 100 18 0.00819896
11 2 100 18 0.00654859
12 2 100 18 0.01225
13 2 100 18 0.00402194
14 2 100 18 0.00820941
15 2 100 18 0.00206028
16 2 100 18 0.00991688
17 2 100 18 0.00400288
1 3 100 18 0.0526664
2 3 100 18 0.171482
3 3 100 18 0.33103
4 3 100 18 0.1651
5 3 100 18 0.116613
6 3 100 18 0.0457006
7 3 100 18 0.0258707
8 3 100 18 0.00253763
9 3 100 18 0.0140082
10 3 100 18 0.0165593
11 3 100 18 0.0137979
12 3 100 18 0.00889945
13 3 100 18 0.00463003
14 3 100 18 0.00495625
15 3 100 18 0.00539577
16 3 100 18 0.00694328
17 3 100 18 0.0138098
1 4 100 18 0.0635787
2 4 100 18 0.0841995
3 4 100 18 0.145555
4 4 100 18 0.261025
5 4 100 18 0.16186
6 4 100 18 0.0826833
7 4 100 18 0.0574392
8 4 100 18 0.0322449
9 4 100 18 0.0158606
10 4 100 18 0.00946552
11 4 100 18 0.0113982
12 4 100 18 0.0115259
13 4 100 18 0.0178054
14 4 100 18 0.00870418
15 4 100 18 0.0181814
16 4 100 18 0.00684443
17 4 100 18 0.0116287
1 5 100 18 0.0441439
2 5 100 18 0.0693633
3 5 100 18 0.0948031
4 5 100 18 0.127333
5 5 100 18 0.213189
6 5 100 18 0.167975
7 5 100 18 0.0889866
8 5 100 18 0.0517656
9 5 100 18 0.0272898
10 5 100 18 0.0157204
11 5 100 18 0.0206703
12 5 100 18 0.0149469
13 5 100 18 0.0115054
14 5 100 18 0.0175998
15 5 100 18 0.0135065
16 5 100 18 0.0144001
17 5 100 18 0.00453234
18 5 100 18 0.00226947
1 6 100 18 0.0124025
2 6 100 18 0.0474563
3 6 100 18 0.0436864
4 6 100 18 0.10286
5 6 100 18 0.146812
6 6 100 18 0.190559
7 6 100 18 0.13854
8 6 100 18 0.0971453
9 6 100 18 0.0772383
10 6 100 18 0.0256179
11 6 100 18 0.0248584
12 6 100 18 0.0171927
13 6 100 18 0.0166109
14 6 100 18 0.0219809
15 6 100 18 0.0121721
16 6 100 18 0.0124136
17 6 100 18 0.0124535
18 6 100 18 1.04532e-06
1 7 100 18 0.0118453
2 7 100 18 0.0195799
3 7 100 18 0.043388
4 7 100 18 0.0355141
5 7 100 18 0.087429
6 7 100 18 0.143128
7 7 100 18 0.16012
8 7 100 18 0.156443
9 7 100 18 0.0928698
10 7 100 18 0.077499
11 7 100 18 0.0393845
12 7 100 18 0.0242109
13 7 100 18 0.0227749
14 7 100 18 0.0145806
15 7 100 18 0.030173
16 7 100 18 0.0180466
17 7 100 18 0.0209309
18 7 100 18 0.0020819
1 8 100 18 0.0107594
2 8 100 18 0.0225818
3 8 100 18 0.0136586
4 8 100 18 0.0509802
5 8 100 18 0.0661989
6 8 100 18 0.0867155
7 8 100 18 0.163931
8 8 100 18 0.149207
9 8 100 18 0.120084
10 8 100 18 0.0866012
11 8 100 18 0.0635786
12 8 100 18 0.0375431
13 8 100 18 0.0251184
14 8 100 18 0.0332831
15 8 100 18 0.0245411
16 8 100 18 0.0203338
17 8 100 18 0.0226147
18 8 100 18 0.00226962
1 9 100 18 0.0105963
2 9 100 18 0.00642254
3 9 100 18 0.0131659
4 9 100 18 0.0319321
5 9 100 18 0.0548445
6 9 100 18 0.0616296
7 9 100 18 0.094946
8 9 100 18 0.144572
9 9 100 18 0.149738
10 9 100 18 0.113461
11 9 100 18 0.0756388
12 9 100 18 0.0731775
13 9 100 18 0.0397628
14 9 100 18 0.0486368
15 9 100 18 0.0220532
16 9 100 18 0.0253678
17 9 100 18 0.0276829
18 9 100 18 0.00637274
1 10 100 18 5.53523e-05
2 10 100 18 0.00749375
3 10 100 18 0.0120572
4 10 100 18 0.0161508
5 10 100 18 0.0337942
6 10 100 18 0.0415888
7 10 100 18 0.0723979
8 10 100 18 0.108397
9 10 100 18 0.14597
10 10 100 18 0.136257
11 10 100 18 0.114419
12 10 100 18 0.0949744
13 10 100 18 0.0560706
14 10 100 18 0.0386449
15 10 100 18 0.0520153
16 10 100 18 0.0241457
17 10 100 18 0.0398264
18 10 100 18 0.00574165
1 11 100 18 0.00497179
2 11 100 18 0.00222386
3 11 100 18 0.0119059
4 11 100 18 0.0121626
5 11 100 18 0.0124884
6 11 100 18 0.0276674
7 11 100 18 0.0414926
8 11 100 18 0.0602884
9 11 100 18 0.112714
10 11 100 18 0.115604
11 11 100 18 0.129995
12 11 100 18 0.159555
13 11 100 18 0.11186
14 11 100 18 0.0627324
15 11 100 18 0.0351609
16 11 100 18 0.0421299
17 11 100 18 0.0372365
18 11 100 18 0.0198115
1 12 100 18 3.38725e-05
2 12 100 18 0.00286957
3 12 100 18 0.00529221
4 12 100 18 0.0133946
5 12 100 18 0.0159457
6 12 100 18 0.0234352
7 12 100 18 0.0433511
8 12 100 18 0.0504546
9 12 100 18 0.0756832
10 12 100 18 0.108883
11 12 100 18 0.126534
12 12 100 18 0.119153
13 12 100 18 0.128885
14 12 100 18 0.101062
15 12 100 18 0.0551084
16 12 100 18 0.0391138
17 12 100 18 0.0670085
18 12 100 18 0.0237927
1 13 100 18 0.00231931
2 13 100 18 0.00671118
3 13 100 18 0.00679051
4 13 100 18 0.00677663
5 13 100 18 0.0112923
6 13 100 18 0.0185511
7 13 100 18 0.0244076
8 13 100 18 0.0312793
9 13 100 18 0.0546651
10 13 100 18 0.107979
11 13 100 18 0.109455
12 13 100 18 0.112246
13 13 100 18 0.131368
14 13 100 18 0.121651
15 13 100 18 0.0784275
16 13 100 18 0.0820604
17 13 100 18 0.069224
18 13 100 18 0.0247955
1 14 100 18 1.39943e-05
2 14 100 18 2.1721e-06
3 14 100 18 0.00211761
4 14 100 18 0.00540349
5 14 100 18 0.00538605
6 14 100 18 0.0104966
7 14 100 18 0.0240971
8 14 100 18 0.0213518
9 14 100 18 0.0456581
10 14 100 18 0.0821288
11 14 100 18 0.089531
12 14 100 18 0.123858
13 14 100 18 0.106873
14 14 100 18 0.0975852
15 14 100 18 0.141128
16 14 100 18 0.102711
17 14 100 18 0.0888923
18 14 100 18 0.0527661
1 15 100 18 0.000797794
2 15 100 18 8.36959e-06
3 15 100 18 6.56435e-05
4 15 100 18 0.00287004
5 15 100 18 0.00313841
6 15 100 18 0.00522061
7 15 100 18 0.0125706
8 15 100 18 0.0173749
9 15 100 18 0.020905
10 15 100 18 0.0389669
11 15 100 18 0.0723179
12 15 100 18 0.0895122
13 15 100 18 0.129003
14 15 100 18 0.136704
15 15 100 18 0.0912892
16 15 100 18 0.130249
17 15 100 18 0.13953
18 15 100 18 0.109476
1 16 100 18 0.00233973
2 16 100 18 0.00818907
3 16 100 18 0.00544055
4 16 100 18 0.00070045
5 16 100 18 0.00905503
6 16 100 18 0.0162646
7 16 100 18 0.0137104
8 16 100 18 0.0190515
9 16 100 18 0.0359871
10 16 100 18 0.0274819
11 16 100 18 0.0464292
12 16 100 18 0.0834023
13 16 100 18 0.0748762
14 16 100 18 0.151331
15 16 100 18 0.141907
16 16 100 18 0.113564
17 16 100 18 0.138012
18 16 100 18 0.112258
1 17 100 18 0.00694263
2 17 100 18 0.00696358
3 17 100 18 0.00348544
4 17 100 18 9.15337e-07
5 17 100 18 0.00352469
6 17 100 18 0.0137934
7 17 100 18 7.7783e-05
8 17 100 18 0.00348846
9 17 100 18 0.0164932
10 17 100 18 0.018077
11 17 100 18 0.0276272
12 17 100 18 0.0491639
13 17 100 18 0.0766386
14 17 100 18 0.0993017
15 17 100 18 0.149187
16 17 100 18 0.144423
17 17 100 18 0.152172
18 17 100 18 0.228639
1 18 100 18 3.40174e-06
2 18 100 18 8.30294e-07
3 18 100 18 0.00824957
4 18 100 18 0.00407851
5 18 100 18 0.0122001
6 18 100 18 0.00407939
7 18 100 18 0.00774136
8 18 100 18 0.0157923
9 18 100 18 0.0121584
10 18 100 18 0.0164427
11 18 100 18 0.0162867
12 18 100 18 0.0366509
13 18 100 18 0.052457
14 18 100 18 0.0837746
15 18 100 18 0.109172
16 18 100 18 0.208667
17 18 100 18 0.206576
18 18 100 18 0.205669
1 19 100 18 8.90046e-07
2 19 100 18 1.37376e-05
3 19 100 18 3.30538e-06
4 19 100 18 0.00302848
5 19 100 18 3.55151e-07
6 19 100 18 6.89262e-05
7 19 100 18 0.00463336
8 19 100 18 0.0129501
9 19 100 18 0.00485637
10 19 100 18 0.00972668
11 19 100 18 0.0147385
12 19 100 18 0.0444212
13 19 100 18 0.0513036
14 19 100 18 0.0531355
15 19 100 18 0.102564
16 19 100 18 0.13343
17 19 100 18 0.207978
18 19 100 18 0.357147
1 20 100 18 1.93665e-05
2 20 100 18 0.00709368
3 20 100 18 1.57934e-05
4 20 100 18 0.00707383
5 20 100 18 0.00696931
6 20 100 18 0.0138173
7 20 100 18 1.26079e-05
8 20 100 18 7.39859e-05
9 20 100 18 0.0140142
10 20 100 18 0.00394802
11 20 100 18 0.00968872
12 20 100 18 0.0233987
13 20 100 18 0.0485959
14 20 100 18 0.102644
15 20 100 18 0.0754841
16 20 100 18 0.165239
17 20 100 18 0.220791
18 20 100 18 0.301121
1 21 100 18 1.61184e-05
2 21 100 18 4.94248e-06
3 21 100 18 2.93647e-06
4 21 100 18 0.00865393
5 21 100 18 0.00856784
6 21 100 18 5.07945e-05
7 21 100 18 0.0121185
8 21 100 18 2.24034e-05
9 21 100 18 0.00862552
10 21 100 18 0.043972
11 21 100 18 0.0267124
12 21 100 18 0.0172329
13 21 100 18 0.0313137
14 21 100 18 0.0388967
15 21 100 18 0.0644134
16 21 100 18 0.172304
17 21 100 18 0.235217
18 21 100 18 0.331875
1 22 100 18 2.62429e-06
2 22 100 18 4.98696e-05
3 22 100 18 1.36464e-05
4 22 100 18 7.90679e-06
5 22 100 18 3.71007e-06
6 22 100 18 0.000118552
7 22 100 18 6.20101e-05
8 22 100 18 0.00099054
9 22 100 18 0.0107625
10 22 100 18 0.0305739
11 22 100 18 0.0243716
12 22 100 18 0.0293012
13 22 100 18 0.0256533
14 22 100 18 0.0550964
15 22 100 18 0.0692032
16 22 100 18 0.111099
17 22 100 18 0.239124
18 22 100 18 0.403566
1 23 100 18 6.55057e-06
2 23 100 18 1.26275e-06
3 23 100 18 0.00232533
4 23 100 18 1.0764e-05
5 23 100 18 1.29288e-05
6 23 100 18 1.91912e-05
7 23 100 18 3.04595e-06
8 23 100 18 0.000192687
9 23 100 18 1.95614e-05
10 23 100 18 0.0212797
11 23 100 18 0.0532778
12 23 100 18 0.0240228
13 23 100 18 0.0772353
14 23 100 18 0.0296953
15 23 100 18 0.0438072
16 23 100 18 0.118866
17 23 100 18 0.218218
18 23 100 18 0.411007
2 24 100 18 4.74546e-06
3 24 100 18 6.2704e-06
4 24 100 18 1.18388e-05
5 24 100 18 0.000157429
6 24 100 18 9.89693e-07
7 24 100 18 9.05145e-07
8 24 100 18 7.97529e-07
9 24 100 18 0.0302522
10 24 100 18 0.0499819
11 24 100 18 7.29667e-06
12 24 100 18 0.0414765
13 24 100 18 0.0614891
14 24 100 18 0.0929921
15 24 100 18 0.0641017
16 24 100 18 0.0635916
17 24 100 18 0.0874158
18 24 100 18 0.508509
1 25 100 18 2.6929e-06
2 25 100 18 5.75874e-06
3 25 100 18 3.38086e-07
4 25 100 18 2.63116e-06
5 25 100 18 3.07695e-07
6 25 100 18 1.20344e-05
7 25 100 18 3.36363e-05
8 25 100 18 0.000625906
9 25 100 18 1.57778e-06
10 25 100 18 0.00307523
11 25 100 18 9.98138e-06
12 25 100 18 0.00040265
13 25 100 18 0.0685586
14 25 100 18 0.047134
15 25 100 18 0.043745
16 25 100 18 0.0907413
17 25 100 18 0.186876
18 25 100 18 0.558773
1 26 100 18 2.82163e-05
2 26 100 18 0.00191717
3 26 100 18 7.77708e-05
4 26 100 18 1.13078e-07
5 26 100 18 3.64518e-07
6 26 100 18 0.000114222
8 26 100 18 9.62315e-07
9 26 100 18 0.0365495
10 26 100 18 0.0618638
11 26 100 18 4.14843e-07
12 26 100 18 0.0628117
13 26 100 18 0.00423483
14 26 100 18 0.0632541
15 26 100 18 0.18878
16 26 100 18 0.203576
17 26 100 18 0.125776
18 26 100 18 0.251015
2 27 100 18 4.80339e-07
3 27 100 18 3.0817e-07
4 27 100 18 1.07542e-07
5 27 100 18 1.00517e-06
6 27 100 18 2.80416e-06
7 27 100 18 3.55501e-07
8 27 100 18 2.68547e-06
9 27 100 18 1.5882e-07
10 27 100 18 5.27687e-07
11 27 100 18 0.1383
12 27 100 18 0.00621704
13 27 100 18 0.028144
14 27 100 18 0.10666
15 27 100 18 0.106725
16 27 100 18 0.134913
17 27 100 18 0.106767
18 27 100 18 0.372266
2 28 100 18 1.18434e-07
3 28 100 18 3.92222e-07
4 28 100 18 0.00318976
5 28 100 18 8.26585e-07
6 28 100 18 9.9981e-07
7 28 100 18 4.53274e-05
8 28 100 18 1.58017e-05
10 28 100 18 3.34811e-07
12 28 100 18 0.11879
13 28 100 18 4.25965e-05
14 28 100 18 3.59302e-05
15 28 100 18 0.0541278
16 28 100 18 0.115757
17 28 100 18 0.236102
18 28 100 18 0.471891
1 29 100 18 1.26952e-06
2 29 100 18 1.04286e-06
3 29 100 18 1.92831e-06
4 29 100 18 2.71534e-06
5 29 100 18 1.45381e-06
6 29 100 18 2.23715e-06
7 29 100 18 5.12579e-06
8 29 100 18 1.65417e-06
10 29 100 18 1.03446e-06
12 29 100 18 1.11264e-05
13 29 100 18 0.214276
14 29 100 18 0.355553
15 29 100 18 4.2146e-05
16 29 100 18 0.00178134
17 29 100 18 0.214226
18 29 100 18 0.214092
6 30 100 18 4.21363e-07
9 30 100 18 2.35975e-07
12 30 100 18 7.54512e-07
13 30 100 18 7.36029e-07
14 30 100 18 3.94257e-06
15 30 100 18 0.341841
16 30 100 18 0.286954
17 30 100 18 0.185622
18 30 100 18 0.185577
2 31 100 18 6.93564e-07
3 31 100 18 0.000342095
8 31 100 18 5.44847e-07
12 31 100 18 1.17472e-06
13 31 100 18 0.00143503
14 31 100 18 4.34406e-07
15 31 100 18 2.55929e-07
16 31 100 18 0.203792
17 31 100 18 0.203703
18 31 100 18 0.590725
2 32 100 18 6.32564e-07
15 32 100 18 1.78937e-06
18 32 100 18 0.999998
1 0 100 19 0.0570881
2 0 100 19 0.0554194
3 0 100 19 0.0516496
4 0 100 19 0.0669753
5 0 100 19 0.0631398
6 0 100 19 0.0551529
7 0 100 19 0.0603613
8 0 100 19 0.0642687
9 0 100 19 0.0544307
10 0 100 19 0.0544688
11 0 100 19 0.0493071
12 0 100 19 0.0615069
13 0 100 19 0.0686177
14 0 100 19 0.0601159
15 0 100 19 0.0432
16 0 100 19 0.0648992
17 0 100 19 0.0590757
18 0 100 19 0.00712754
19 0 100 19 0.00319535
1 1 100 19 0.618251
2 1 100 19 0.15618
3 1 100 19 0.0988818
4 1 100 19 0.0421824
5 1 100 19 0.0264824
6 1 100 19 0.00722747
7 1 100 19 0.0097678
8 1 100 19 0.00283853
9 1 100 19 0.00245439
10 1 100 19 0.00964255
11 1 100 19 0.00483734
12 1 100 19 0.00716367
13 1 100 19 0.00232867
14 1 100 19 0.00242751
15 1 100 19 0.00241858
16 1 100 19 5.43869e-05
17 1 100 19 0.00242336
18 1 100 19 0.00443803
19 1 100 19 3.29629e-07
1 2 100 19 0.185161
2 2 100 19 0.386452
3 2 100 19 0.169291
4 2 100 19 0.0987504
5 2 100 19 0.0449547
6 2 100 19 0.0333708
7 2 100 19 0.0252524
8 2 100 19 0.0136859
9 2 100 19 0.0123305
10 2 100 19 0.00424603
11 2 100 19 0.00745001
12 2 100 19 0.0021393
13 2 100 19 0.00453187
14 2 100 19 0.000163723
15 2 100 19 0.00196363
16 2 100 19 0.00397128
17 2 100 19 0.00205225
18 2 100 19 0.00205662
19 2 100 19 0.00217796
1 3 100 19 0.0526114
2 3 100 19 0.168031
3 3 100 19 0.356193
4 3 100 19 0.175914
5 3 100 19 0.106487
6 3 100 19 0.0486935
7 3 100 19 0.0274278
8 3 100 19 0.0189335
9 3 100 19 0.0107641
10 3 100 19 4.67397e-05
11 3 100 19 0.00767802
12 3 100 19 0.00374275
13 3 100 19 0.00234493
14 3 100 19 0.0137966
15 3 100 19 0.000114509
16 3 100 19 0.00234617
17 3 100 19 0.00235084
18 3 100 19 0.00252429
1 4 100 19 0.0442204
2 4 100 19 0.0958312
3 4 100 19 0.125972
4 4 100 19 0.242102
5 4 100 19 0.194037
6 4 100 19 0.106215
7 4 100 19 0.0682399
8 4 100 19 0.0328699
9 4 100 19 0.0270679
10 4 100 19 0.0196558
11 4 100 19 0.0112315
12 4 100 19 0.00712554
13 4 100 19 0.00644296
14 4 100 19 0.00239532
15 4 100 19 0.00447807
16 4 100 19 0.0025689
17 4 100 19 0.00485145
18 4 100 19 0.00469503
19 4 100 19 2.15852e-07
1 5 100 19 0.0346833
2 5 100 19 0.0544572
3 5 100 19 0.0806896
4 5 100 19 0.146494
5 5 100 19 0.175991
6 5 100 19 0.178193
7 5 100 19 0.108386
8 5 100 19 0.0798604
9 5 100 19 0.0377751
10 5 100 19 0.0287545
11 5 100 19 0.0146746
12 5 100 19 0.0146783
13 5 100 19 0.0143502
14 5 100 19 0.0047778
15 5 100 19 0.00399204
16 5 100 19 0.00707161
17 5 100 19 0.00492032
18 5 100 19 0.0102501
1 6 100 19 0.0181056
2 6 100 19 0.0204497
3 6 100 19 0.0476842
4 6 100 19 0.0653661
5 6 100 19 0.166204
6 6 100 19 0.164351
7 6 100 19 0.14081
8 6 100 19 0.119583
9 6 100 19 0.086602
10 6 100 19 0.0513373
11 6 100 19 0.0349896
12 6 100 19 0.0193135
13 6 100 19 0.00759782
14 6 100 19 0.0225128
15 6 100 19 0.00991355
16 6 100 19 0.0138384
17 6 100 19 0.01133
18 6 100 19 9.89604e-06
19 6 100 19 8.70002e-07
1 7 100 19 0.00628548
2 7 100 19 0.0179739
3 7 100 19 0.0474477
4 7 100 19 0.0482489
5 7 100 19 0.0748701
6 7 100 19 0.157165
7 7 100 19 0.168605
8 7 100 19 0.130765
9 7 100 19 0.111367
10 7 100 19 0.0734549
11 7 100 19 0.0370063
12 7 100 19 0.0443156
13 7 100 19 0.0169109
14 7 100 19 0.015091
15 7 100 19 0.0148784
16 7 100 19 0.0111496
17 7 100 19 0.00935647
18 7 100 19 0.0151061
19 7 100 19 3.82338e-06
1 8 100 19 0.010629
2 8 100 19 0.0113072
3 8 100 19 0.00263335
4 8 100 19 0.0408606
5 8 100 19 0.0682125
6 8 100 19 0.100078
7 8 100 19 0.123723
8 8 100 19 0.141308
9 8 100 19 0.120709
10 8 100 19 0.10139
11 8 100 19 0.0764229
12 8 100 19 0.0395386
13 8 100 19 0.0295136
14 8 100 19 0.0350007
15 8 100 19 0.0419796
16 8 100 19 0.0151309
17 8 100 19 0.0187134
18 8 100 19 0.0228413
19 8 100 19 8.5726e-06
1 9 100 19 0.00419825
2 9 100 19 0.0205909
3 9 100 19 0.0305197
4 9 100 19 0.0239337
5 9 100 19 0.0308063
6 9 100 19 0.0762075
7 9 100 19 0.096083
8 9 100 19 0.122683
9 9 100 19 0.151052
10 9 100 19 0.120777
11 9 100 19 0.10381
12 9 100 19 0.0695409
13 9 100 19 0.0524685
14 9 100 19 0.0266406
15 9 100 19 0.0232536
16 9 100 19 0.0139378
17 9 100 19 0.0103858
18 9 100 19 0.0205228
19 9 100 19 0.0025887
1 10 100 19 0.00261859
2 10 100 19 0.007542
3 10 100 19 0.0155027
4 10 100 19 0.0150367
5 10 100 19 0.0286607
6 10 100 19 0.033472
7 10 100 19 0.0637159
8 10 100 19 0.123886
9 10 100 19 0.125447
10 10 100 19 0.135215
11 10 100 19 0.116533
12 10 100 19 0.0996929
13 10 100 19 0.0704133
14 10 100 19 0.0463894
15 10 100 19 0.0408332
16 10 100 19 0.0382484
17 10 100 19 0.0130525
18 10 100 19 0.0212694
19 10 100 19 0.00247089
1 11 100 19 1.11086e-05
2 11 100 19 0.00316327
3 11 100 19 0.00529516
4 11 100 19 0.00768644
5 11 100 19 0.0108781
6 11 100 19 0.0251927
7 11 100 19 0.0552635
8 11 100 19 0.0650831
9 11 100 19 0.109738
10 11 100 19 0.134946
11 11 100 19 0.13507
12 11 100 19 0.130067
13 11 100 19 0.0913061
14 11 100 19 0.0869171
15 11 100 19 0.0425384
16 11 100 19 0.036612
17 11 100 19 0.0323802
18 11 100 19 0.0216192
19 11 100 19 0.00623306
1 12 100 19 0.00463302
2 12 100 19 0.00448772
3 12 100 19 0.00230337
4 12 100 19 0.0119014
5 12 100 19 0.0235404
6 12 100 19 0.0258533
7 12 100 19 0.0355282
8 12 100 19 0.0453574
9 12 100 19 0.0707395
10 12 100 19 0.109472
11 12 100 19 0.131364
12 12 100 19 0.112181
13 12 100 19 0.117147
14 12 100 19 0.0830405
15 12 100 19 0.0900124
16 12 100 19 0.0329841
17 12 100 19 0.0358879
18 12 100 19 0.0564226
19 12 100 19 0.00714453
1 13 100 19 0.00461427
2 13 100 19 0.00705085
3 13 100 19 0.0138938
4 13 100 19 0.0164848
5 13 100 19 0.0115303
6 13 100 19 0.0215144
7 13 100 19 0.031312
8 13 100 19 0.0213277
9 13 100 19 0.0527657
10 13 100 19 0.0694902
11 13 100 19 0.106358
12 13 100 19 0.119198
13 13 100 19 0.129576
14 13 100 19 0.112008
15 13 100 19 0.0805595
16 13 100 19 0.0693154
17 13 100 19 0.0375821
18 13 100 19 0.0623978
19 13 100 19 0.0330215
1 14 100 19 4.55962e-06
2 14 100 19 0.00234309
3 14 100 19 0.00539199
4 14 100 19 0.00547406
5 14 100 19 0.00544832
6 14 100 19 0.010781
7 14 100 19 0.0187818
8 14 100 19 0.0213992
9 14 100 19 0.0323599
10 14 100 19 0.0585128
11 14 100 19 0.0925282
12 14 100 19 0.118375
13 14 100 19 0.103163
14 14 100 19 0.138951
15 14 100 19 0.141094
16 14 100 19 0.0790208
17 14 100 19 0.0649191
18 14 100 19 0.0664993
19 14 100 19 0.0349532
1 15 100 19 0.00264764
2 15 100 19 0.0077054
3 15 100 19 0.00257448
4 15 100 19 0.00762051
5 15 100 19 7.71016e-05
6 15 100 19 0.014394
7 15 100 19 0.0126431
8 15 100 19 0.0253922
9 15 100 19 0.0206856
10 15 100 19 0.0431818
11 15 100 19 0.0652737
12 15 100 19 0.0663984
13 15 100 19 0.108288
14 15 100 19 0.132307
15 15 100 19 0.124822
16 15 100 19 0.138654
17 15 100 19 0.0764032
18 15 100 19 0.0897489
19 15 100 19 0.0611834
1 16 100 19 0.00270301
2 16 100 19 4.1811e-05
3 16 100 19 0.00272443
4 16 100 19 0.00339196
5 16 100 19 0.0084749
6 16 100 19 0.00766065
7 16 100 19 0.00991314
8 16 100 19 0.0129287
9 16 100 19 0.0341044
10 16 100 19 0.0319677
11 16 100 19 0.0567863
12 16 100 19 0.0740653
13 16 100 19 0.0717702
14 16 100 19 0.113431
15 16 100 19 0.130836
16 16 100 19 0.0922028
17 16 100 19 0.145385
18 16 100 19 0.139484
19 16 100 19 0.0621289
1 17 100 19 0.00241247
2 17 100 19 9.15409e-05
3 17 100 19 0.00268506
4 17 100 19 0.0104924
5 17 100 19 1.00676e-05
6 17 100 19 0.00538248
7 17 100 19 0.0154956
8 17 100 19 0.0157672
9 17 100 19 0.0194087
10 17 100 19 0.0244155
11 17 100 19 0.0336073
12 17 100 19 0.0427977
13 17 100 19 0.0865852
14 17 100 19 0.0614639
15 17 100 19 0.0921465
16 17 100 19 0.13609
17 17 100 19 0.121777
18 17 100 19 0.186263
19 17 100 19 0.143109
1 18 100 19 0.00013292
2 18 100 19 0.00309724
3 18 100 19 6.53357e-07
4 18 100 19 1.14319e-06
5 18 100 19 0.00892486
6 18 100 19 0.0117973
7 18 100 19 0.00572118
8 18 100 19 0.0154767
9 18 100 19 0.0149137
10 18 100 19 0.0203261
11 18 100 19 0.0272337
12 18 100 19 0.0490071
13 18 100 19 0.0493237
14 18 100 19 0.0821992
15 18 100 19 0.10863
16 18 100 19 0.113557
17 18 100 19 0.132829
18 18 100 19 0.119445
19 18 100 19 0.237383
1 19 100 19 0.00500662
2 19 100 19 1.25607e-06
3 19 100 19 0.00450765
4 19 100 19 0.000265441
5 19 100 19 3.05058e-06
6 19 100 19 0.00408288
7 19 100 19 0.00395815
8 19 100 19 0.012158
9 19 100 19 0.0163549
10 19 100 19 0.0203197
11 19 100 19 0.0205761
12 19 100 19 0.0323675
13 19 100 19 0.0649986
14 19 100 19 0.0535623
15 19 100 19 0.128918
16 19 100 19 0.12299
17 19 100 19 0.124728
18 19 100 19 0.182784
19 19 100 19 0.202418
1 20 100 19 0.0052913
2 20 100 19 0.00550862
3 20 100 19 0.00435181
4 20 100 19 0.00564513
5 20 100 19 0.0052446
6 20 100 19 2.28046e-06
7 20 100 19 0.00523631
8 20 100 19 3.6099e-05
9 20 100 19 0.0310521
10 20 100 19 0.0314588
11 20 100 19 0.00539223
12 20 100 19 0.0116593
13 20 100 19 0.0281963
14 20 100 19 0.0380239
15 20 100 19 0.0911754
16 20 100 19 0.128597
17 20 100 19 0.175196
18 20 100 19 0.157518
19 20 100 19 0.270415
1 21 100 19 0.0109917
2 21 100 19 1.56628e-05
3 21 100 19 8.8312e-05
4 21 100 19 0.00538549
5 21 100 19 0.00613134
6 21 100 19 0.0123353
7 21 100 19 0.0121544
8 21 100 19 0.0171742
9 21 100 19 0.00679217
10 21 100 19 0.0366836
11 21 100 19 0.0242077
12 21 100 19 0.0217757
13 21 100 19 0.0184924
14 21 100 19 0.0331271
15 21 100 19 0.0817683
16 21 100 19 0.114658
17 21 100 19 0.194876
18 21 100 19 0.161443
19 21 100 19 0.2419
1 22 100 19 3.66438e-05
2 22 100 19 0.0102809
3 22 100 19 1.45308e-05
4 22 100 19 8.93723e-06
5 22 100 19 5.62525e-06
6 22 100 19 1.00535e-05
7 22 100 19 0.00907609
8 22 100 19 1.51441e-05
9 22 100 19 0.0179054
10 22 100 19 0.0090624
11 22 100 19 0.00185546
12 22 100 19 0.0370396
13 22 100 19 0.000148685
14 22 100 19 0.0436517
15 22 100 19 0.0501161
16 22 100 19 0.0625623
17 22 100 19 0.118337
18 22 100 19 0.240743
19 22 100 19 0.399131
1 23 100 19 2.77741e-06
2 23 100 19 4.91438e-05
3 23 100 19 0.0126395
4 23 100 19 2.37911e-06
5 23 100 19 0.0105277
6 23 100 19 3.29929e-06
7 23 100 19 3.70131e-05
8 23 100 19 0.0221191
9 23 100 19 0.0105326
10 23 100 19 0.00011545
11 23 100 19 0.0520696
12 23 100 19 0.0172259
13 23 100 19 0.0239902
14 23 100 19 0.0136502
15 23 100 19 0.0389098
16 23 100 19 0.0729789
17 23 100 19 0.118905
18 23 100 19 0.178218
19 23 100 19 0.428023
1 24 100 19 1.88182e-07
2 24 100 19 1.67754e-06
3 24 100 19 4.77509e-06
4 24 100 19 0.0454283
5 24 100 19 0.0102098
6 24 100 19 0.00017989
7 24 100 19 3.08357e-06
8 24 100 19 6.69999e-06
9 24 100 19 0.00599932
10 24 100 19 4.02231e-05
11 24 100 19 0.0179818
12 24 100 19 0.0167446
13 24 100 19 0.0494557
14 24 100 19 0.0324266
15 24 100 19 0.0318092
16 24 100 19 0.0850774
17 24 100 19 0.133784
18 24 100 19 0.211055
19 24 100 19 0.359791
1 25 100 19 8.54595e-07
2 25 100 19 6.62163e-05
3 25 100 19 3.19052e-05
4 25 100 19 0.0215749
5 25 100 19 0.0219236
6 25 100 19 0.0402056
7 25 100 19 0.00163549
8 25 100 19 0.0222152
9 25 100 19 0.00205765
10 25 100 19 0.0216738
11 25 100 19 0.0215718
12 25 100 19 0.00457213
13 25 100 19 0.0451771
14 25 100 19 0.105997
15 25 100 19 0.0414982
16 25 100 19 0.0370922
17 25 100 19 0.0945663
18 25 100 19 0.130598
19 25 100 19 0.387542
1 26 100 19 2.85743e-05
2 26 100 19 2.33341e-07
3 26 100 19 0.000284613
4 26 100 19 0.000451857
5 26 100 19 0.0382881
6 26 100 19 0.0836239
7 26 100 19 0.011545
8 26 100 19 3.67872e-05
9 26 100 19 7.26346e-06
10 26 100 19 3.14521e-05
11 26 100 19 7.74709e-06
12 26 100 19 0.036006
13 26 100 19 1.06136e-05
14 26 100 19 0.0981176
15 26 100 19 0.0676582
16 26 100 19 0.0250856
