and podía 8.22682e-10
that relatar 4.47116e-11
boost financieramente 8.64329e-07
creating elaboración 1.86718e-07
catch permitido 4.72614e-06
it significaría 2.34791e-09
directorate-general ésta 8.32484e-07
accounts el 4.83497e-05
august al 4.22574e-05
technical pesqueros 7.96866e-08
technical conservación 7.43271e-07
resources técnicas 9.68849e-08
careful requiere 1.33355e-06
saying dicho 2.14062e-06
temperature humana- 6.18653e-07
sold parea 1.12691e-07
seeks no 9.94255e-05
specifically cee 3.13356e-07
industry salmón 2.0241e-08
industries sean 9.11486e-07
expect especificidades 2.01903e-07
requirements mercado 4.46352e-07
our decisiones 1.48035e-08
proper económica 1.97295e-07
that detenidamente 7.37877e-10
grounds fundamento 2.71023e-07
data número 3.8531e-07
sufficient existan 1.69178e-07
be mundialismo 1.98211e-10
open libre 5.60843e-07
open mar 2.43155e-07
some habrá 1.21238e-08
whether puedan 5.26603e-08
into plazos 2.28067e-08
into para 1.15136e-06
kind datos 1.41695e-07
; por 1.48418e-06
action cosas 5.49447e-08
continuing costes 3.06449e-07
before rápido 4.26693e-08
conjuncture estos 0.0013998
conjuncture económica 1.27068e-05
very momento 3.20446e-08
importance hay 8.13283e-07
rejection precaria 1.72913e-06
their subir 7.2881e-09
led lugar 1.11618e-05
led dado 2.13924e-05
this economía 2.99413e-09
outlook economía 6.34558e-06
upon otra 5.11162e-07
insurance sus 6.06136e-06
emphatically ha 0.00023579
they tenido 1.37846e-08
there visto 1.01034e-08
thing había 1.85281e-06
thing tragedia 2.9381e-06
otherwise humanitaria 4.27091e-06
made supongan 9.17619e-09
beginning conocimiento 7.33515e-07
beginning hora 4.45716e-05
beginning primera 0.000105251
requirement necesidades 1.386e-06
by luego 3.68972e-09
wasted perderse 6.24932e-06
success representado 1.72099e-07
then intentaba 1.67221e-08
assistance urgencia 2.20902e-07
region visto 1.05101e-07
would responderé 1.79759e-09
politician político 7.43116e-06
itself víctima 9.13508e-08
promote por 7.08498e-06
and defensa 9.54361e-10
therefore satisface 7.39557e-09
, requiere 4.2776e-10
because llenas 1.35319e-09
because pragmáticas 3.07903e-09
must articulados 3.85517e-10
must intervención 8.21669e-08
than llamados 6.21381e-08
matter hoy 2.24772e-07
sash contingencia 8.42709e-06
local mandatos 3.19685e-07
local ofrecen 2.08875e-07
absolutely no 1.70349e-05
many quienes 2.18479e-08
of toman 3.2887e-10
agenda éste 1.35032e-06
measures mainstreaming 8.41633e-09
thing servicio 2.95802e-07
were misma 7.60694e-08
there expresan 2.50658e-09
house institucional 5.41024e-08
efforts tendrá 1.84696e-07
here supuesto 1.14525e-06
reshaping una 0.005726
reshaping para 0.00597311
still números 1.14909e-07
clearest modo 9.98477e-06
like eso 1.013e-07
piece papel 2.97828e-06
induce gobiernos 6.83024e-06
kosovo provincia 4.07573e-08
situations plazo 9.91105e-07
possible podremos 2.12332e-08
perhaps dirigirme 3.59235e-08
collaboration dado 9.41575e-07
administrative gestión 6.38179e-07
powers grandes 4.28595e-07
any disponemos 1.48862e-08
banishment lugares 4.35313e-05
within bajo 3.32273e-08
sharing haya 1.57424e-05
on escucharlo 1.27755e-10
you pregunto 4.98651e-09
have decisiones 7.57769e-09
equipment excelente 1.43331e-06
documents buena 4.15199e-07
will fomentar 6.85318e-09
will evitar 8.02795e-09
not ignorando 9.88915e-10
with pronto 3.90458e-09
equipment ! 7.04195e-07
affairs democráticamente 4.00824e-08
with mírennos 6.40045e-11
regard mírennos 1.03698e-09
development acuerdo 1.33925e-07
common cuestiones 5.6253e-08
respect ámbito 9.95795e-07
road marcha 3.81035e-06
road larga 3.13481e-07
therefore desean 1.72758e-08
now actual 3.18425e-07
s éstos 3.4887e-08
lesson es 0.000247998
lesson NULL 0.00038628
conflict una 1.39926e-05
times tiempo 6.15492e-06
ago meses 9.89433e-08
light mi 1.56549e-06
light tendré 7.43728e-07
taken desbloquear 7.8087e-09
certainly muy 7.21354e-07
recent largo 0.0131646
will transición- 3.57411e-10
most hacerlo 1.86625e-08
end ante 1.69287e-07
get implicar 3.40376e-07
keeping mantenimiento 1.62654e-06
when mantenimiento 5.24111e-08
engage participar 1.03656e-06
reform práctica 2.13172e-07
advantage NULL 7.06297e-05
too fin 8.38691e-08
out eficacia 2.90359e-08
exercise labor 5.25499e-07
our empleo 1.75086e-08
' fuerte 1.82599e-08
sincere respeto 1.37751e-05
sincere mi 0.00010148
sincere todo 3.91801e-05
you dührkop 1.11932e-09
keen toda 4.91153e-06
for cuatro 1.7126e-09
no persona- 2.53803e-09
road otro 3.9098e-07
y tomás 4.16272e-06
tomás francisco 4.91227e-05
latter comprensión 3.8326e-07
sincere familias 3.79478e-06
creation puestos 1.51014e-07
rise toma 4.11819e-07
may desaparezca 1.48467e-08
can formas 5.01601e-08
tendering apropiadas 5.55518e-05
tendering unas 0.0002909
these parecer 1.35637e-08
these deberían 1.61196e-08
these costes 1.13667e-08
these rentable 5.43907e-09
too establezcan 1.81781e-08
represent defender 5.92768e-07
postal abaratamiento 2.89345e-08
e-commerce servicio 3.00534e-06
recognisable tareas 1.88659e-05
service relativo 9.21596e-08
ensure liberalización 3.4658e-08
theme para 0.00018551
survive entidad 3.19083e-06
scarcely reconocen 4.17995e-06
year sugirió 1.08012e-08
today formule 1.71332e-08
show normal 2.53787e-07
possible entiende 2.50357e-08
hold pueda 1.53757e-06
we pueda 3.67963e-09
services costes 1.23448e-07
not insistiré 5.67707e-10
better tendrán 4.6266e-08
remaining otro 3.75834e-06
be críticas 5.03526e-09
market normas 1.02501e-07
be convencimiento 1.96248e-09
will convencimiento 1.3796e-08
europe-wide servicios 1.48681e-05
limitation efectos 0.00701285
limitation estos 0.00614342
limitation disminuir 0.000103514
because el 2.63804e-06
has razón 7.03375e-09
seems así 1.79223e-06
upgrade mejora 7.95772e-06
tourism potencial 3.17504e-07
relationship empresa 3.01565e-07
expected áreas 4.49605e-07
with pagar 2.88068e-09
before luego 3.74645e-08
and esenciales 6.21481e-10
and instrumentos 7.50339e-10
by felicito 1.90325e-09
makes efectivamente 2.39363e-07
brings he 3.09048e-06
question turismo 1.10555e-08
question expediente 2.74651e-08
might resolución 5.26982e-07
work hay 1.48969e-07
work irregular 1.43743e-08
assist positivas 7.46022e-07
their traslada 2.00243e-09
by ciudadano 4.03541e-09
swedish democristianos 1.08609e-07
danube cuenca 3.47113e-06
exceptions signifiquen 7.15569e-08
come flora 4.2626e-07
come tiempo 4.89281e-07
come vertido 6.41338e-08
come arroyos 2.62705e-09
type vuelva 6.69155e-07
polluted . 0.000391814
building institucional 5.09445e-07
aspects militares 9.12039e-07
no dispone 1.37881e-08
it compromisos 6.42364e-09
his esté 3.10104e-08
correspondent guerra 1.39513e-05
treated recibe 1.13333e-06
. encuentra 5.7771e-10
prompt NULL 0.00100825
unacceptable alcanzado 2.7774e-07
groups industriales 1.27341e-07
field presupuestario 1.2826e-07
eleven cien 9.29749e-07
eleven mil 2.04718e-05
1979 méxico 3.37295e-05
relocation cómo 8.44068e-06
being indios 3.66934e-09
possible medios 6.8802e-08
vis-à-vis falta 4.29816e-06
large-scale corrupción 7.5036e-07
was consiste 1.32902e-08
free fin 2.0515e-07
measures veremos 9.66786e-09
europe pesar 1.93089e-08
at virulento 4.27068e-10
many serbia 1.9649e-08
' fueron 1.07806e-08
place venido 9.38791e-08
fact venido 8.80539e-08
constantly arreglárselas 1.74896e-06
constantly svend 5.05898e-08
doubt asimismo 2.77167e-07
prisoners políticos 1.27881e-06
very sea 3.98434e-08
very confía 5.75575e-09
non-member miembros 0.000250823
non-member no 0.0144507
non-member estados 0.965667
non-member antidiscriminatoria 1.53831e-06
non-member NULL 0.00301976
acts xenófobos 2.17278e-07
do renovar 1.37795e-09
ejido gobiernos 3.49747e-06
are comunicación 7.09778e-09
recently días 1.70894e-07
me recordarles 2.22095e-08
allocated estructurales 4.13762e-07
who inmigrantes 3.74766e-08
from hortofrutícolas 1.99852e-10
sadness impropios 0.000212163
sadness rechazo 0.000890672
sadness pena 0.000422563
sadness siento 0.000536327
sadness tierra 0.0243799
love basta 5.44523e-06
but colectivo 4.50106e-09
integration requiere 2.14623e-07
have referencia 5.27764e-09
certainly tienen 1.90227e-07
certainly manifestaciones 4.70525e-08
mutual ámbito 1.2171e-06
who grupo 9.20485e-08
rule 37.2 6.37596e-09
defending están 1.27113e-05
defending goodyear 1.0108e-06
sudden nueva 8.68699e-06
directive útil 3.75106e-08
my pocos 1.02191e-08
their despiden 9.3503e-10
their solidaridad 1.5543e-08
also reorganizando 2.79935e-10
not hablar 3.06341e-09
on empresa 2.10432e-09
shown obreros 7.68828e-07
shown el 8.74617e-05
shown de 9.55518e-05
shown aviso 1.07136e-05
shown cierre 3.60715e-07
shown tanto 1.9334e-06
finances públicas 4.11072e-06
finances financiaciones 1.72168e-06
not comenzado 3.90761e-09
. parlamento 8.00712e-09
its transparente 5.60221e-09
them macedonia 1.30942e-08
plans gestión 3.51309e-07
merit interés 5.27983e-06
may equivalente 2.08761e-08
programme lucha 1.58895e-07
nature intergubernamental 8.45623e-08
no consumidores 3.23239e-08
like entrever 2.70047e-09
sanctions protegidas 8.16172e-07
bases jurídicos 1.27023e-06
when progresos 2.54407e-08
swiftly cuanto 2.0693e-06
by personas 9.69731e-09
thus mobiliarias 1.43874e-08
with aceptar 3.08068e-09
our solamente 7.93535e-09
did cuenta 6.77149e-07
our dado 5.46085e-08
did dado 2.02758e-06
our he 3.10953e-08
not querido 3.07782e-09
correcta parece 2.94309e-05
parece no 0.000934781
omitted olvidado 3.492e-06
moment anterior 8.76387e-06
moment situación 8.76413e-06
active interlocutor 1.61218e-07
am dentro 5.36999e-08
am entran 7.86544e-08
with reciban 2.30883e-09
on pueden 5.71334e-09
interests establecer 7.88605e-08
open-ended nunca 5.2034e-06
is nunca 1.33465e-09
longer hay 9.14344e-07
basic cautela 1.68338e-07
criminals se 0.00014384
activities posibilidad 2.53041e-07
activities considerar 2.40229e-07
by aplicarse 1.8719e-09
more atrevido 1.92599e-09
nevertheless cualquier 1.89095e-07
neither soy 1.8749e-07
fundamental derecho 2.51138e-07
looked examinar 1.55268e-06
defendant imputado- 2.07717e-07
purposes necesidades 8.63357e-07
common jurisdiccional 1.96981e-08
those enmiendas 4.4316e-08
is satisface 6.58064e-10
those de 1.75452e-05
those acerca 0.000537909
those particular 2.46725e-05
those en 2.50332e-05
those sostuvimos 2.86675e-06
those atentamente 8.19885e-08
those ponente 2.05694e-07
those señor 3.11749e-06
those del 1.25639e-06
those trabajo 1.66254e-07
those el 1.93882e-06
those elogiar 4.06144e-08
those agradecer 1.89621e-08
provides portugal 2.92116e-07
only contribuir 1.71856e-07
for corresponde 3.31293e-09
applies convenio 2.32149e-07
field aún 5.07532e-07
must " 8.27227e-08
has actuar 4.43839e-09
has tendremos 4.38698e-09
members individual 3.47466e-08
that prestarle 2.1384e-10
fundamental los 5.91401e-06
judicial jurídico 2.94073e-07
party popular 3.59635e-08
inordinate influencia 8.60215e-06
sets diferentes 9.57638e-07
wants huhne 8.3939e-08
hedging tipo 1.41829e-05
a persona 1.82047e-09
clearly mucho 2.54661e-07
assets instrumentos 1.1161e-06
will pueden 2.57942e-08
terms europea 2.72052e-06
which competente 3.73724e-09
role bolkestein 3.93101e-08
its bastante 1.47812e-08
its respecto 6.06602e-08
its propuestas 8.33389e-08
its económica 1.9433e-08
concerned limitar 9.55797e-08
index bursátil 8.33142e-07
update primera 6.19765e-06
minimum estrictamente 2.61248e-07
all favor 1.26064e-08
costs entraña 1.72481e-07
building crear 4.75427e-07
specifically concretos 1.44944e-07
both incorporan 1.30012e-08
both cuantitativos 2.19421e-08
both basándose 8.66102e-08
are da 7.23555e-09
right legal 7.85401e-08
right aplica 2.78792e-08
legal descansa 3.51033e-08
improve totalidad 3.30838e-07
changes enmiendas 1.1123e-06
thanking gracias 6.00612e-05
thanking dar 3.0493e-05
thanking felicitar 0.000187202
thanking quiero 4.68581e-05
thanking primer 0.000122171
definitions comunes 1.25469e-06
its abrir 1.17785e-08
seem ser 2.48844e-06
. fácil 2.6944e-09
unique fácil 2.34345e-06
in conveniente 2.45049e-09
by existentes 5.60976e-09
measure medición 7.21272e-08
spirit cumplir 1.0255e-06
summarise definitiva 8.7421e-06
deficits públicos 3.92572e-06
' referencia 1.06421e-08
council era 2.14166e-08
council refiero 6.53386e-09
get y 2.4818e-05
up phare 9.04808e-09
differentiate hacemos 4.64645e-06
established posible 8.7491e-07
established hecho 1.05191e-06
hand apoyar 1.532e-07
hand conciliadora 1.3334e-08
reinforce cabe 2.8154e-06
- anticipadas 1.10854e-09
instead qué 3.15197e-06
this expresamente 3.35587e-09
used multitud 9.28298e-08
internal derecho 2.927e-07
high precio 8.95145e-08
serves un 4.79251e-05
cara estabilidad 4.99707e-05
debate estabilidad 3.19421e-08
cara continuación 3.17644e-05
wants además 9.82895e-07
encouraged mercado 3.46835e-06
us sugerir 7.00672e-09
very compromiso 1.32501e-08
some aprovechada 1.5208e-08
seen entendido 5.15091e-07
important prosperidad 1.08842e-08
evaluation informe 3.00985e-06
exploitation valoración 2.96783e-07
arrangements libre 4.348e-07
landlocked mar 1.68063e-05
also nivel 1.36563e-08
aspect específico 1.68176e-07
members interlocutoras 6.57551e-09
issue paritarios 3.54038e-09
would oriental 5.64729e-08
together naciones 6.97709e-07
do reúnen 8.61134e-09
having han 6.61246e-07
that presentar 1.20055e-09
marked paso 2.44198e-06
were . 7.63983e-06
nos 11 2.99063e-07
think que 6.61646e-06
think ustedes 1.93624e-07
reasonable asamblea 5.1862e-07
reasonable transacción 8.14125e-07
require obtener 4.25362e-07
think respuesta 5.56404e-08
job positiva 2.40114e-07
back dichos 2.16817e-07
back mención 1.63036e-07
resources cuentas 1.87583e-07
unsustainability ambiental 0.00013106
i respecto 1.82353e-08
both sean 7.42028e-08
future problemática 4.79216e-08
its cual 3.39852e-08
is ésa 9.11296e-10
degree aquí 1.35572e-06
thing podría 2.2849e-07
no amigo 2.31237e-08
designation proclamar 1.71666e-05
thaci nombrar 0.00013252
bilateral idiosincrasias 4.11967e-08
model limpia 3.77473e-08
controlling articulación 7.93262e-07
make actitud 2.87419e-08
all figura 1.22524e-08
one desempeñaba 6.63567e-10
suspended ocurra 7.6851e-07
prosecutor general 1.10044e-06
reaching posibilidades 9.34798e-07
carried ligera 1.44901e-07
carried -conviene 7.38965e-08
were -conviene 1.13052e-08
considers considerar 7.45712e-06
considers sentido 7.19063e-06
was cargo 1.27841e-08
put tribunal 6.10831e-08
with pertinente 1.70995e-09
health infantil 7.02895e-08
at carácter 1.00263e-08
humanitarian medidas 1.52607e-06
mean personas 3.15104e-05
mean materia 1.96533e-06
it inspección 5.88746e-09
currently estado 9.86175e-07
involving ocurrido 2.44452e-07
as ningún 4.65373e-09
way crear 2.51819e-08
already apreciaban 1.2183e-09
decisions ellas 1.49971e-07
last ingresado 1.00821e-08
regards con 1.64757e-05
do favorecer 9.85576e-08
do marco 5.06665e-08
do ese 4.38175e-08
an aceptó 2.21473e-09
solve vistas 1.17182e-06
were comunidades- 5.48581e-09
were acercamiento 3.49298e-08
stressed usted 4.82112e-06
indirect reconocimiento 1.8964e-06
some promoviendo 1.61284e-08
island esa 3.54277e-06
myself ankara 8.51133e-08
definitive solución 1.29847e-06
conviction -nos 1.26331e-06
so da 1.58778e-08
settlement para 5.81651e-05
settlement global 1.89392e-06
direct conversaciones 4.38452e-07
right normal 9.28663e-08
issue pertinente 1.45862e-08
meet quince 1.66322e-07
organisation precisamente 2.1439e-07
organisation cuyo 2.46805e-07
control militares 6.69105e-08
own responsables 2.89124e-08
own puede 3.57276e-07
eyes y 0.000798265
eyes país 1.24604e-05
eyes ese 3.76704e-05
, plasmados 8.85997e-11
approach referencia 7.05284e-08
has sucede 9.38868e-09
rule gobierno 5.26889e-07
civil sistemáticamente 1.2824e-07
proved fue 1.20894e-06
ancient tradición 1.07723e-05
themselves orden 3.86083e-07
' propósito 2.3199e-08
at manera 1.47007e-08
not manera 8.37093e-09
, cláusulas 4.30925e-10
flies bandera 3.80835e-06
- respeto 1.6108e-08
therefore esfuerzo 1.27833e-08
therefore acción 2.9562e-08
than enunciación 2.46929e-09
make alcanzar 3.20908e-08
gives ponente 1.04999e-06
proposing andersson 1.04282e-07
soon tenga 2.20637e-07
joint mediante 1.31243e-07
competitive razones 5.47721e-07
other transnacionales 5.52594e-09
me especial 6.85622e-08
effects ecológicos 1.65421e-07
such hidrológicos 1.89411e-09
such especificidades 3.45011e-08
such las 1.36958e-06
aware diversidad 2.25971e-07
future decisiones 6.0077e-08
is clara 1.45369e-09
a beber 5.70209e-10
again cocoon 1.13944e-08
deliver resultados 1.0047e-06
fact fácil 2.02244e-08
genetically organismos 2.73475e-06
or tipo 1.95777e-08
forms facilidades 1.10735e-07
concessions concediendo 1.77106e-06
with prevé 4.47805e-09
accordance prevé 4.39662e-07
moment recibir 1.69134e-07
way interior 2.0318e-08
rest apoyar 5.42047e-07
rights tome 1.27613e-08
us permitido 2.11601e-08
actually estado 3.29279e-07
us silencio 1.38798e-08
felt sumamente 1.59964e-06
advance reunión 9.67141e-07
level mundo 7.14364e-08
s reorganización 3.27164e-09
eu establecimiento 3.42114e-08
soft período 0.000829305
it coherencia 2.38909e-09
agenda trabajo 3.23155e-07
own diversas 3.0421e-08
good intencionado 4.88443e-09
all así 5.00847e-08
seconds cuatro 5.47872e-06
led ahora 1.65069e-06
development realización 6.77197e-08
more graves 8.58916e-09
mark influir 1.79278e-06
figures útiles 7.19572e-07
both unas 1.76978e-07
area afirmación 2.37845e-08
on determinado 3.13695e-09
mentioned concluido 7.6932e-08
already concluido 1.46303e-08
mandatory licencias 5.02272e-06
mandatory sin 1.78407e-05
that obligatorio 9.67314e-10
or aquí 3.22752e-08
in favorecer 7.60932e-10
up cuáles 2.91368e-08
put diputados 1.12329e-07
mps diputados 2.19316e-05
effort destinado 2.9806e-07
by cual 6.36723e-09
know-how conocimientos 7.94821e-06
period dos 2.6436e-07
model política 1.61851e-06
model otro 4.6853e-07
secure pesc 3.51097e-07
know también 8.54129e-07
know y 1.36075e-05
know desarrollo 3.80113e-07
know afrontamos 1.00675e-07
know menospreciar 7.7352e-08
know podemos 6.12642e-07
achieving vistas 5.04998e-07
migration ellos 1.4862e-06
reform renovación 6.00525e-08
ensure es 3.60391e-06
s retrasó 1.85196e-09
transfer intercambio 3.94165e-07
urgent volver 2.62147e-07
role autores 2.69919e-07
powers temas 2.08136e-07
of discutido 2.18082e-10
significant paso 2.93298e-07
not todo 3.83149e-08
virtue con 4.32631e-05
policy renovación 2.60555e-08
workers laboral 1.58601e-07
workers movilidad 1.59256e-07
maintaining equilibrio 3.33969e-07
guided dirección 7.28603e-06
guided bajo 1.78935e-05
through la 1.3513e-05
through a 6.88903e-06
others igual 6.49317e-08
concerned pobres 5.81796e-08
policy social 4.9776e-08
steers camino 0.0002024
illustrate algunos 6.00401e-06
ways desarrollo 1.11949e-06
why iniciativas 2.84253e-08
- momento 8.14372e-08
involved cosas 2.93849e-07
issues trata 1.5552e-07
report fui 5.34692e-09
' aumento 1.66141e-08
great expectación 1.37496e-08
avoid requiere 3.57581e-07
nonetheless opina 1.98822e-07
again quiero 2.31933e-07
eur señora 3.93368e-07
too intervenido 5.83059e-08
approach multinacional 4.52754e-08
more transparente 4.941e-09
an consideramos 4.91748e-08
fact consideramos 2.40744e-08
i discrepamos 5.30199e-10
deal asunto 2.2835e-07
us escasos 7.45727e-09
ours son 5.74619e-05
that enmienda 1.8376e-09
roll-out años 9.69685e-05
roll-out 25 2.10944e-05
question complicación 2.53624e-09
question asumir 4.4732e-08
not alegro 8.91816e-10
kind forma 5.69315e-07
kind quisiera 4.96899e-07
hearing consulta 1.26431e-06
proportion número 0.000279626
inherent falta 3.92692e-05
due conciliar 7.86762e-08
regulated sequías 2.31537e-05
drought sufre 4.97782e-06
regulated con 0.000178388
regulated contar 0.000238228
regulated controladas 8.4037e-05
regulated siendo 3.6184e-05
regulated seguir 2.54325e-05
regulated NULL 0.000397981
clean espacios 1.50072e-06
clean ahora 1.28855e-05
clean partir 1.73488e-05
has duda 6.94776e-09
diversions dichos 0.000126852
timetable materiales 4.03584e-07
timetable no 2.94391e-05
timetable NULL 0.000111513
home próximo 3.87091e-07
legislation comunitaria 1.03528e-07
sees veremos 5.98813e-07
public motivos 6.88627e-08
alcohol monopolio 2.61737e-07
speculate pregunta 1.46125e-05
with detrás 3.41922e-09
need informática 2.28455e-08
please permítanme 3.15559e-07
issue con 7.25048e-07
hold período 5.73873e-07
about período 2.05843e-08
sector sectores 1.01802e-07
please dar 1.10461e-06
does sistemáticamente 6.28137e-08
does informe 1.3067e-05
does contribuyan 2.09014e-08
nuclear fusión 1.31879e-07
issue cooperación 6.64384e-08
are fotografía 8.0171e-10
what me 9.63557e-08
their retiraron 1.6472e-09
damage pérdida 2.22076e-07
spa zona 2.52637e-05
chance puedan 5.32802e-07
of asiente 2.26371e-11
introduce incluir 5.91848e-07
process ellos 6.33508e-08
needs tomen 6.01107e-08
promote igualdad 1.17146e-07
lead rebajar 6.01166e-08
but algunos 2.44006e-08
. completamente 4.99338e-10
discussions tratado 5.03839e-07
theory haberse 2.90335e-06
cooperation lucha 6.2365e-08
demonstration , 0.000446069
including particular 2.61612e-06
dealing durante 3.06359e-06
which elegir 2.40405e-09
therefore preparar 3.75776e-08
therefore consiste 4.55957e-08
that establecer 1.85082e-09
potential del 1.35932e-05
wars guerra 9.28808e-07
applicant turquía 6.01528e-07
harmful unas 2.97767e-06
border conflictos 6.04286e-07
through virtud 5.29552e-08
address encontrar 2.74764e-07
medical reconocimiento 9.85557e-07
regard consideren 2.22302e-08
care urgencia 4.28098e-07
emergency asistencia 6.97955e-07
almost el 4.53312e-05
however seguro 2.04325e-08
regions destinada 5.29891e-08
identity nacionales 1.63945e-06
majorities mayoría 0.000126355
me desea 4.54511e-08
question información 4.63468e-08
meet contacto 4.30244e-07
meet constituyen 3.58157e-07
meet mujeres 7.12202e-07
open va 5.35489e-07
conducted demás 4.46482e-06
would personal- 1.99819e-09
have formularle 1.73497e-09
suggestions NULL 0.000100554
informed tienen 2.20474e-05
informed señorías 6.444e-06
through durante 1.74716e-07
need demás 3.45518e-08
summary respecto 0.000119488
measured periódica 1.22986e-06
construction para 9.88076e-06
absolute absolutamente 8.86065e-07
were presencia 4.68316e-08
using mayor 9.93476e-07
concept con 1.07409e-05
environmental impacto 4.17162e-08
rich agua 6.03196e-07
principles demás 2.19979e-07
principles supeditarse 1.38797e-08
her relación 3.2899e-07
her respeto 2.64272e-07
say naturalmente 1.63554e-05
minor incrementos 1.6295e-06
minor ligeros 8.12468e-07
polluted contaminación 2.49096e-06
address decir 1.01539e-06
close-to-zero encomiable 9.66031e-07
water respecto 3.64608e-07
states unión 2.17178e-07
present posición 6.11341e-06
present más 1.98976e-06
present aún 3.33447e-06
present mejoran 1.71974e-08
present verdes 2.68771e-06
therefore votaremos 3.88392e-09
clear contaminación 3.31715e-08
humans seres 8.33431e-05
time-consuming tiempo 1.05587e-05
implementation supervisión 8.68597e-08
her muy 2.37451e-06
over sector 1.79151e-07
they adhesión 1.4465e-07
they momento 5.5055e-08
they muchísimo 1.2961e-08
not suficiente 1.67981e-08
very sencillamente 1.28174e-08
should además 2.48447e-08
these firma 1.13518e-08
lienemann 9085 1.51717e-07
both importancia 7.54813e-08
tremendous grandes 3.62466e-06
most les 1.1426e-07
even particularmente 2.66585e-08
likewise respecto 4.7061e-06
cannot cosméticos 2.00825e-08
must otro 2.48773e-08
suited lado 6.76928e-06
under determinadas 3.49524e-08
, relucir 9.39245e-11
model ejemplo 9.09384e-07
we después 8.94672e-09
region pasado 1.54784e-07
move diagnóstico 7.32909e-08
was sólida 8.95429e-09
indistinguishable enfermedad 2.58133e-05
regulation todo 6.09549e-07
regulation examinar 9.65919e-08
much propio 7.56857e-08
deal a 1.04976e-05
replacing el 0.000374373
replacing , 0.000691865
our su 1.27617e-07
places hecho 5.17411e-06
which demuestra 3.73863e-09
talk se 3.35713e-05
then objeto 7.30757e-08
not armonización 2.71743e-09
not obstáculo 2.41521e-09
attention deberá 6.77632e-08
regeneration socioeconómica 9.75556e-07
forces procedentes 1.816e-07
western periferia 1.09996e-07
therefore pudiera 1.35456e-08
. estructurantes 4.6598e-11
for estructurantes 1.25675e-10
has estructurantes 3.73342e-06
also estructurantes 5.23299e-10
problem regiones 7.48584e-08
obtain encontrar 6.83881e-07
eur 1999 1.75694e-07
approaches ámbito 6.43441e-06
urban prolongación 3.73725e-07
substandard unas 0.00052946
urban práctica 4.42389e-07
concentrated transfronterizas 1.27773e-06
these urban 1.87169e-09
proposed europea- 2.14645e-08
proposed alianza 6.12755e-08
applicant comisariado 2.65441e-08
briefly readmisión 1.36237e-06
hear considero 3.19352e-07
in concreto 9.9775e-10
any normas 3.77607e-08
any existen 2.01743e-08
today hemiciclo 2.6538e-08
too ámbito 9.93843e-08
here codecisión 2.71372e-08
powers materia 6.22225e-07
successful llevarse 2.34657e-07
together esfuerzos 9.65478e-08
future será 5.62717e-08
europe siglo 1.85712e-08
should voy 9.92081e-09
must sino 3.72342e-08
way hace 5.04545e-07
way negociación 2.85695e-08
rise uso 7.2315e-07
judicial reforzar 2.82583e-07
prove resultado 1.45311e-06
certainly resultado 9.09165e-08
certainly cualquier 1.30818e-07
aspect presidente 1.43725e-05
aspect señor 4.4224e-06
finished tareas 3.73897e-06
filled real 1.02644e-05
strengths fuerzas 4.53485e-05
strengths propias 5.62196e-05
however incluso 5.26273e-07
shown NULL 6.54216e-05
. importantes 1.03736e-09
adequate unos 1.01048e-06
other mis 1.65207e-08
will austria 6.2468e-09
itself sola 7.10555e-08
external opina 5.89708e-08
inter tranquilamente 1.82264e-06
him tranquilamente 2.55305e-07
leave control 1.43937e-06
leave el 5.37439e-05
leave deja 7.16279e-05
gradually dejan 6.75691e-06
union europa 5.77052e-08
different dirección 5.60709e-08
see encontramos 5.28306e-08
more arrebatado 5.55371e-10
or propuesta 1.58207e-07
nominee nombrar 1.90636e-05
need meditar 8.4165e-10
proposing para 2.06669e-05
on algo 5.17559e-09
fit lugar 2.69389e-05
which intento 2.24504e-09
way fundamental 2.29897e-08
forthright lucha 7.35418e-05
those cuestiones 5.34177e-08
those relación 4.19247e-08
epoch época 8.05207e-05
future . 0.00271725
future haciendo 6.3652e-08
future queremos 7.47673e-08
future nuestros 3.78386e-07
future a 6.38156e-06
future nuestras 7.33041e-08
future permite 5.53969e-07
us aceptación 5.09706e-05
and unidos 1.59835e-09
present contexto 7.66547e-08
with nosotros 7.9716e-09
an tener 2.13443e-08
an ciencia 1.65181e-08
know perfectamente 5.08069e-08
us acompañará 3.98532e-09
practical libro 1.46776e-07
growth etapa 9.40097e-08
step altura 1.523e-07
even muestran 2.15165e-07
europe muestran 1.40964e-05
europe se 4.30253e-06
europe unirse 7.3344e-08
europe y 8.34565e-06
even mayor 2.96107e-07
europe mayor 3.56569e-06
even vez 1.30208e-07
europe vez 1.56795e-06
even cada 3.05471e-07
europe cada 3.67846e-06
europe parece 3.00206e-06
europe que 2.47984e-06
even tecnológico 3.96315e-07
europe tecnológico 4.77239e-06
even retraso 5.40074e-07
europe retraso 6.50351e-06
europe el 1.75991e-06
proper necesario 3.10401e-07
party sigue 2.64283e-07
consider aceptar 1.33496e-07
point intervención 5.77594e-08
postponed sencilla 2.37476e-06
afternoons tarde 0.000121034
ahead avanzar 4.08405e-07
for planes 2.74326e-09
proposal enmienda 5.56009e-08
precisely objetivo 3.35386e-07
firstly dar 1.47352e-07
too todo 2.40692e-07
too decirlo 3.23954e-07
too porqué 1.68078e-08
which elegibles 7.4217e-10
past esta 2.66337e-06
given dotar 2.00157e-08
no comprensión 7.42059e-09
makes pone 1.61238e-07
urban ciudad 3.48835e-07
i atractivo 1.74846e-09
integrated planteamiento 5.36318e-07
whom ellas 5.66016e-07
them comunales 5.45056e-08
local asociaciones 1.71998e-07
them asociaciones 7.67063e-08
try ideas 4.2313e-07
them algo 1.2946e-07
try experimentar 4.42269e-07
undeniable embargo 3.72624e-05
narrow limitada 1.69191e-05
: puedes 1.82643e-09
well permitir 3.64117e-08
past fecha 9.37608e-08
past totalmente 1.72775e-07
all positiva 5.3089e-09
politics comenzado 1.44409e-07
politics ha 7.65329e-06
meaning vacío 4.48868e-07
really garantizar 2.39778e-07
three planteamientos 8.74578e-08
tackle responder 1.27786e-06
no tenido 1.64734e-08
planning en 8.46224e-05
developments políticos 3.38592e-07
developments cambios 1.82032e-07
have rigurosamente 3.69658e-09
addressed hay 3.32691e-06
areas poniendo 4.05938e-08
instrumental elementos 8.86669e-06
union trabaja 8.05057e-09
questions interesantes 5.20027e-08
a resultados 1.70104e-09
new edición 1.53973e-08
effective instrumento 7.15828e-08
effective positivamente 8.16561e-08
cannot nuestro 7.80914e-07
few muchas 1.01215e-07
benefit unos 7.83797e-07
fully forma 6.44486e-07
fully funcionando 1.93414e-06
fully está 8.38332e-05
fully no 1.1882e-05
wasted dinero 1.00428e-05
on objetivos 4.82423e-09
at existe 1.07566e-08
precise NULL 0.000116469
again relucir 1.22575e-08
mentioned colegas 1.92333e-07
objectives tareas 7.16002e-08
objectives planteamiento 9.10558e-08
needs tareas 5.85222e-08
criteria selección 9.65457e-08
lets permita 0.000207454
iii pero 2.02536e-05
iii administrativo 2.17224e-06
therefore minorías 1.04098e-08
underused habilidades 2.82767e-05
course totalmente 8.57757e-08
for enmarcados 1.36163e-10
poor falta 4.35764e-07
indicators locales 7.44967e-07
helping gente 1.33946e-05
helping está 3.51194e-05
2.10 10 0.000975626
2.10 : 0.00135187
2.10 14 0.000698664
secure sido 3.05367e-06
set miembro 2.24695e-07
indicative reparto 7.18774e-06
means crear 4.60417e-08
conformity conformidad 3.37723e-05
exchange común 8.10872e-07
exchange mediante 4.1585e-07
talk NULL 5.20253e-05
relating tema 4.10171e-07
already pronunciado 1.36841e-08
essentially ha 1.45396e-05
given disponemos 3.17844e-08
representative swoboda 1.02738e-07
representative dado 3.92359e-07
bureaucracy medieval 1.50843e-07
worth tendrá 7.84827e-07
therefore inaceptable 3.78746e-08
austrian elecciones 4.64969e-07
austrian socialistas 1.38929e-07
mammon prefirieron 5.68405e-06
choice porque 6.90241e-06
mammon rey 0.000434484
mammon dinero 0.00128592
latter últimos 0.000210991
latter estos 0.000280972
utilise utilizarán 1.32559e-06
them adelantado 1.97835e-08
them advirtiendo 1.012e-08
reawakened despertado 3.928e-05
influence hecho 3.20328e-06
generally generales 3.12527e-07
not debilitarán 2.1871e-10
part incluido 2.4159e-08
austrian entregado 2.83798e-07
austrian interna 1.7582e-07
sociale italiano 7.44848e-05
italiano movimiento 0.00018206
sociale movimiento 0.000247162
this esenciales 1.67156e-09
been hoy 2.76402e-08
possible cierre 1.11711e-07
possible fundamental 8.24163e-08
both tranquilizó 8.39623e-10
both ratificación 6.26535e-08
according los 1.25653e-05
according en 2.76785e-05
monstrosity burocrática 2.00809e-05
proposed medida 1.04913e-07
successfully vehículos 4.06177e-07
opinion tales 6.24619e-08
danger enmiendas 6.3626e-06
danger las 0.000341245
danger especialmente 8.25066e-06
included afecta 3.30563e-07
would capaces 1.26326e-08
aimed objetivo 1.92116e-06
; parte 1.98105e-07
what quisiera 2.12356e-08
therefore desaparecen 1.37361e-08
therefore no 8.37829e-07
is usuarios 2.18896e-09
laying que 0.000859061
bumpers reciclados 2.7368e-05
bumpers plástico 7.06316e-05
means forma 1.27948e-07
retroactively propietarios 8.63847e-06
nature directivas 4.15319e-07
use producción 1.38431e-07
how desguace 7.95443e-09
debate , 8.08762e-06
then ya 3.19112e-07
a asimismo 1.73973e-09
requires adecuado 3.21037e-07
start aquí 1.20249e-05
start propósito 5.43336e-07
shared común 2.3029e-06
finding establecer 1.39239e-06
an espantada 2.22986e-10
upon empresas 4.75736e-06
upon de 0.000169533
upon obligaciones 2.21111e-05
upon las 0.000102366
upon equilibrado 3.16157e-07
lobby sino 1.46791e-05
lot todo 1.54311e-06
very satisface 4.02097e-09
area posible 1.07726e-07
their entonces 1.81502e-08
2 dos 7.7541e-06
when colegas 3.54981e-08
when comprendo 4.24088e-09
only principio 4.67204e-08
make modo 9.3008e-08
who laborado 5.62836e-10
thus instrumento 1.92502e-07
let darnos 8.83466e-08
let considerar 3.00969e-07
and nuestro 7.99597e-09
and pesar 4.27027e-09
because queremos 2.43713e-08
because red 9.65713e-08
at motivo 5.01793e-09
get tendrá 2.14039e-07
get oficial 2.13573e-07
get inauguración 2.29693e-08
day antes 1.4886e-07
first-class labor 9.25777e-06
programmes importantes 6.19778e-07
fittingly importantes 2.81066e-05
fittingly manifiestamente 3.57891e-06
fittingly comisión 0.000305867
fittingly estén 1.05448e-05
fittingly cultura 3.85216e-05
one justo 8.32043e-09
was puede 8.37228e-08
lies importantísimo 4.10459e-07
action manera 7.87395e-08
action cumplamos 5.07559e-09
energy eficiencia 5.7511e-08
be desempeñar 2.75837e-09
initially partida 1.21422e-06
launched puedan 1.03639e-06
launched renovables 4.54033e-07
conciliation presentado 3.08183e-07
for nuevas 3.14119e-09
include figuran 3.67256e-07
for alcance 4.03606e-09
cannot pasar 3.90474e-08
cannot deberá 8.47204e-08
basic deberá 2.04731e-07
must grueso 7.41216e-09
might permita 1.70972e-07
that compartida 6.46022e-10
progress aunque 2.10797e-07
are albanés 4.88558e-10
life recibía 7.48675e-09
serbian parte 4.33118e-05
but continúan 2.10522e-08
single días 3.09138e-06
single los 1.86862e-05
provide tratarse 8.97242e-08
premise razón 2.79797e-05
provide ayudar 1.88037e-07
provide razón 6.02066e-06
provide con 3.13771e-06
still hoy 3.44732e-07
assistance realmente 1.8661e-07
we estos 1.10773e-08
pay pagamos 1.1465e-07
parties no 5.74404e-06
does y 3.68816e-06
for franceses 1.46739e-09
have considerar 4.9874e-09
they debido 7.24116e-08
its dicho 2.65263e-08
options opción 5.11442e-07
established desplazamiento 3.06912e-07
endless procedimientos 9.72217e-06
legislation directivas 5.33254e-08
reasons pública 3.23445e-07
reasons seguridad 8.70161e-07
reasons por 0.000128632
reasons plantea 4.19636e-07
generally vean 3.7482e-07
that esforzado 4.93336e-10
there preguntarnos 3.86245e-09
vote mañana 6.17602e-08
agreement lleguen 1.85371e-08
practical paso 2.25513e-07
together tanto 6.45453e-07
right estados 4.87385e-07
permit atenido 1.32125e-07
nationals estado 4.37091e-06
third-country transfronterizos 2.44331e-06
wavelength onda 1.63433e-05
said contó 2.58097e-08
experience haberlo 1.7875e-07
offers entraña 9.49155e-07
proves es 8.15888e-05
seguro señoría 0.000464478
returning después 1.93415e-05
make exponer 4.29497e-08
danger NULL 0.000133192
that mínimo 5.34222e-10
now ¿ 9.54347e-08
europe , 1.05264e-05
issue día 6.53073e-08
issue debe 1.50447e-07
agreed aquí 1.00607e-06
agreed general 8.82001e-07
is deberá 1.3214e-09
integration ampliemos 6.40107e-09
initiatives dictadas 3.46677e-08
could causa 6.37267e-08
could más 5.87951e-07
democracy estará 5.58072e-08
talks debatir 3.52469e-07
verdict al 0.000206154
us hablado 1.31374e-08
ready garantías 3.81843e-07
able trabajar 5.44961e-08
being sean 3.27791e-08
otherwise habría 3.00062e-07
fact prensa 3.36537e-08
otherwise NULL 7.47812e-05
that valoración 7.66599e-10
clear paso 4.14358e-08
agenda intergubernamental 3.84486e-08
clearly forman 6.86837e-08
processes decisorios 1.10633e-07
announcement solemnemente 2.41608e-06
after ¿ 6.82401e-07
therefore seguro 1.4433e-08
in político 1.27107e-09
see a 5.63857e-06
involving 13 4.12848e-07
involving a 4.44033e-05
21 NULL 0.000109186
peoples intensidad 2.23608e-07
very intensidad 7.4063e-09
not repetiré 1.87608e-10
work guiará 1.31695e-09
in importante 4.51416e-09
populations habitantes 5.80446e-07
lack habido 7.91147e-08
play tener 1.18086e-06
if usted 3.12713e-08
health fitosanitaria 9.98493e-09
house respecto 2.31083e-07
would puede 8.63952e-08
fact es 3.01039e-06
he asimismo 5.57338e-08
too sellando 8.83121e-10
concerned nosotros 2.04515e-07
or europa 1.09928e-07
eyes opinión 5.18356e-06
circumstances suerte 2.1964e-07
agree enero 5.63102e-08
aside consideraciones 1.53795e-06
aside allá 5.38849e-06
stressing comentario 1.4871e-06
a movilizado 4.51889e-10
little posible 3.26513e-07
little menos 3.91003e-06
this culpa 1.31952e-09
different otros 2.05734e-07
various socialdemócrata 1.99356e-08
changeover cambio 9.99244e-06
from basándose 2.88828e-09
at líneas 6.76248e-09
we ustedes 2.36419e-09
this recuerdo 4.78765e-09
today pide 5.1295e-08
today inicia 2.78975e-08
grounds efecto 1.38988e-06
your domino 2.42218e-08
best podemos 3.34044e-07
rate inestabilidad 1.9117e-07
low tipos 5.49366e-06
that tipos 1.19668e-09
completely otras 5.28005e-07
help projects 7.97512e-08
that claro 1.55616e-09
into millones 5.28898e-08
make política 2.2498e-07
overambitious expectativas 1.2861e-05
round celebrada 6.21244e-07
foreign transacciones 5.97405e-08
markets difícil 2.83838e-07
distributed mediante 1.40027e-06
group fronteras 1.84806e-08
support propuesto 1.15203e-07
as testigo 1.34101e-09
particularly aún 7.91793e-08
wishes querer 1.84636e-07
then llegar 6.55615e-08
do nuestro 8.09954e-08
sake mercados 1.34224e-06
really financieras 8.15571e-08
underlined el 0.000902201
three , 1.67927e-05
therefore noel 2.01712e-09
problem noel 1.88992e-09
merely decir 1.3425e-06
which pasado 5.52659e-09
very prestará 2.31771e-09
terms conferido 5.10619e-09
both tiene 1.9884e-07
for acciones 2.71575e-09
question planteado 2.4509e-08
my porque 1.3781e-07
that importancia 2.00279e-09
fact importancia 5.78866e-08
personally cuya 6.71637e-07
will estamos 2.11433e-08
series conjunto 7.22007e-07
open considerar 9.64247e-07
open disposición 0.000117421
open mejor 9.30526e-05
open existe 2.60552e-05
open parte 3.86328e-05
open beneplácito 8.97342e-07
open dignas 3.104e-07
' tiene 5.62244e-08
understand señoría 1.81248e-07
our dicho 2.13077e-08
s elemento 9.57274e-09
encouraging la 0.000195717
level comunitario 4.00663e-08
raises pregunta 2.80102e-06
will nos 4.98611e-08
whether explicarles 4.17375e-08
you congratula 1.4634e-09
have puedan 5.12327e-09
action prácticas 5.57564e-08
shall bien 6.02104e-07
biscay boquerón 7.44718e-07
sea marinos 1.38352e-07
plight miles 2.20939e-06
portugal caso 1.47635e-06
grant permitir 5.94064e-07
2 toneladas 1.05054e-07
mr cantábrico 3.65558e-10
give relacionada 1.91565e-08
heading especial 9.07517e-07
next nueva 1.17037e-07
release publicada 2.83226e-06
it sino 2.62601e-08
reply escrito 5.76099e-07
decision elaboración 7.02975e-07
becoming ya 1.6238e-05
engaged tomado 1.37549e-06
europa europa 0.000513459
europa fuerte 7.68593e-05
fort fuerte 9.33693e-05
corporate sus 2.47552e-05
intend llevar 4.63523e-07
rendering hace 6.48151e-05
no de 3.74112e-06
now soberanía 1.6364e-08
now amenaza 1.59821e-08
conclusions consecuencias 1.85141e-07
only combatir 1.73191e-08
suggested propuesta 3.45385e-06
aptly schulz 7.26205e-05
aptly ocasión 4.92815e-05
aptly una 0.000763731
aptly dijo 0.000180681
parties refuerce 2.06293e-07
although al 3.91787e-06
forget iniciativa 1.01303e-06
forget señalar 6.50781e-07
council informal 1.81479e-08
in dejado 1.09653e-09
continuing dejado 4.72532e-07
wrought realizadas 8.9874e-05
committee diputado 2.50836e-08
s sus 8.28847e-08
accordance consecuencia 2.95678e-07
partisan perjudicada 3.46597e-06
minor débil 1.9082e-06
minor constatar 2.92189e-06
process viajar 4.8515e-08
we dichos 3.43427e-09
delegations correspondientes 1.0665e-06
do ante 4.00904e-08
lamps fluorescentes 0.161346
secure futuro 1.1187e-06
put crear 6.73956e-08
progress se 7.14106e-06
agreements el-sheikh 9.51995e-09
when uso 2.65268e-08
which histórica 2.72311e-09
arab europeos 1.21203e-05
participation libia 2.33231e-07
impact positiva 1.65821e-07
prevent creación 2.26481e-07
asked NULL 3.47915e-05
these éste 1.07625e-08
them establecimiento 5.89106e-08
them otros 0.00323677
them entre 1.4253e-06
people-to-people nuevas 6.40159e-05
bolster reforzar 1.08849e-05
steps valientes 1.01679e-07
closer relaciones 1.24077e-06
group dirección 2.5027e-08
multilateral reunión 1.80747e-06
reassured confianza 1.34935e-05
very agradezco 4.52753e-09
process riguroso 1.86559e-08
requirements necesarios 2.67169e-07
very acertadamente 6.55574e-09
will desarrollo 2.95707e-08
how relucir 1.0282e-08
he kinnock 2.61145e-08
standing creación 2.90043e-06
probably hubiera 4.11409e-07
particular controlar 3.53324e-08
a controlar 1.41706e-09
forever siempre 3.41832e-05
read capítulo 2.49906e-07
intransigent algunos 0.000212541
at forma 1.27958e-08
make entonces 5.98112e-08
subscribes adoptado 2.6413e-05
surely así 2.33828e-06
everything controlar 1.00072e-07
on llamado 2.02793e-09
demands ventaja 2.82197e-06
demands evidente 6.3394e-07
start cuanto 5.5425e-07
start momento 3.65726e-07
no tenían 5.40126e-09
it presentado 5.69003e-09
this mi 1.20066e-08
necessarily según 1.00112e-06
run administración 8.22159e-07
assured seguridad 8.94943e-06
vigilant próximos 1.23877e-06
hard-working constate 8.63009e-07
hard-working exterior 1.45729e-05
europe NULL 5.44246e-06
advice cuestiones 1.21092e-06
equipped preparada 1.16819e-05
full tener 2.6835e-07
part repite 2.38821e-08
year hasta 1.16717e-07
year posponer 2.44375e-08
soon toque 3.87917e-08
this nuestros 5.40319e-09
decision todavía 6.3352e-08
illustration estas 1.52511e-05
year hablamos 1.24885e-08
down forma 7.8991e-07
steps expresa 1.80767e-07
for reformas 2.07743e-09
not creíbles 1.27155e-09
whilst y 0.000100436
organisations cuentan 2.62718e-07
present NULL 1.11827e-05
yet este 1.22302e-06
directive laboral 8.34733e-08
) virtud 1.43716e-08
area circulación 1.31417e-07
area libre 6.87823e-08
area beneficiarse 4.88742e-08
facilitate posibilidades 9.67054e-07
highly muy 7.04086e-06
initiatives materializarse 9.53844e-08
see alternativas 6.24887e-08
's relación 1.98015e-07
agreements NULL 2.37288e-05
give proponen 3.01288e-08
ensure suerte 4.6726e-08
on marco 6.63053e-09
create datos 1.10432e-07
great ayudará 1.7722e-08
an llega 6.329e-09
straight tomaron 6.02457e-07
allow ( 7.32189e-07
currently general 6.91119e-07
currently debatió 6.43083e-08
currently lugar 9.42699e-07
policy sistema 5.46687e-08
can responderle 3.04139e-09
% ejemplo 1.35213e-07
deem adecuado 0.000635282
deem considerar 0.0099962
deem puedan 0.000467483
deem cargo 0.000435843
deem un 0.00064221
deem tengan 0.000758219
deem funcionarios 4.89867e-05
need sino 8.58625e-08
measures ámbito 2.52685e-06
forms iniciativa 8.14542e-07
related disposiciones 3.82716e-07
european oficina 7.18729e-09
exclusively tratará 1.89504e-07
? su 5.19227e-07
has pero 5.97115e-08
him recomiendo 1.28613e-07
time meses 1.94644e-08
continuation desearía 3.70898e-07
environmental efectos 3.26299e-08
report realizado 9.90678e-09
process redacción 3.81114e-08
than probable 4.00988e-08
say adoptado 3.34872e-08
accepted dictámenes 1.00506e-06
accepted impugnen 8.17982e-09
scientists orientación 1.84223e-06
obligation impreciso 9.3193e-08
unclear queda 2.52025e-05
support acuerdo 2.13332e-07
rather bautizar 3.13289e-09
water profundidad 1.03618e-07
greater graves 7.41833e-08
point la 6.13604e-06
point tiempo 8.3154e-08
so temporal 3.54394e-08
point condolencia 7.74095e-09
needs deja 9.03163e-08
happens contemos 1.32559e-07
first reconoce 2.0481e-07
placed convenga 4.10582e-07
being de 8.0683e-06
not aclareo 8.10101e-11
is europa 1.29581e-08
under reparadora 4.17887e-08
is reparadora 9.94255e-11
once reparadora 6.24632e-09
solely reparadora 5.97003e-08
timber bosques 3.44108e-06
gathering bosques 1.12847e-05
timber movilización 1.00392e-06
gathering movilización 3.29225e-06
of públicas 3.64989e-10
of reforzar 3.21441e-10
gave mi 3.93995e-06
here empresas 6.2624e-08
by nombre 1.08744e-08
therefore revisar 1.19877e-08
idea permitir 1.00903e-07
for sobre 1.59553e-07
american puertos 7.37422e-07
furthermore parte 8.72632e-07
we toda 7.23123e-09
or simple 1.02902e-08
or casco 1.0395e-08
inspect controlar 4.314e-05
an asegurarnos 4.29809e-09
and controlar 7.02382e-10
remain medida 3.17861e-07
level -y 1.47707e-07
amongst diferentes 4.37135e-07
necessary personal 7.29484e-08
same secreto 5.56195e-08
possible NULL 1.03617e-05
doing otra 6.71896e-07
does mano 2.93003e-08
harbours puertos 0.000434733
harbours algunos 0.00012106
harbours hablando 0.000229842
harbours está 0.000268743
harbours petroleros 2.68444e-06
harbours barcos 1.58536e-05
harbours roth 2.67217e-06
have entonces 6.13912e-09
usd suma 1.60294e-06
already celebrados 2.4926e-08
looked marpol 4.17792e-07
concerned barcos 4.94885e-08
would dando 1.57988e-08
matter hecho 2.04417e-07
succeeded aprovechar 1.20393e-06
learning sabido 5.70183e-06
maximum quince 5.25529e-07
this costa 2.01218e-09
mandatory doble 1.79471e-06
at tenían 1.91466e-09
action negra 2.77834e-08
are difícil 5.29088e-09
course responsabilidad 8.90136e-08
again así 2.62215e-07
since pesar 4.78641e-08
never poner 3.38276e-07
last buques 4.13817e-08
told NULL 0.000104423
thanks través 2.08864e-06
hold implicar 5.51726e-07
concerned amplio 6.66649e-06
concerned más 2.28805e-06
concerned ámbito 3.32204e-06
concerned un 4.28627e-06
concerned vez 1.60527e-06
essential perturbación 1.38187e-08
may hacen 4.33165e-08
layoffs puestos 2.56165e-05
occasionally mucho 1.93284e-05
should reestructuración 4.29937e-09
lack rivalizan 4.5923e-09
like una 7.74493e-07
states progresión 4.40137e-09
regulatory normativas 3.02363e-06
though orientaciones 1.73616e-07
even NULL 8.74368e-06
very insatisfactorio 1.38793e-09
then incluidas 3.79885e-08
arrangements modalidades 5.84852e-07
high-level nivel 4.41707e-06
high-level consejeros 1.15551e-07
unloading realizan 4.11371e-06
) modificada 9.54448e-09
council NULL 2.02004e-06
rules artículo 1.05139e-07
though ruego 1.3403e-07
olaf misión 5.14688e-07
olaf momento 1.82348e-06
agrees totalmente 7.9263e-07
internal reformas 6.99838e-08
internal anteproyecto 6.7701e-08
no adopción 1.71722e-08
everyone considerada 2.41675e-07
what aun 6.08353e-09
these perplejidades 1.44943e-09
he consideraba 5.32111e-08
said limitaría 2.58323e-08
. positivo 5.14433e-10
a hay 1.00432e-08
that régimen 1.66148e-09
be fundamento 2.77041e-09
first haber 3.28665e-08
take ahora 1.18371e-07
place ponga 4.51828e-08
place apliquen 3.69535e-08
here cuestión 2.72977e-07
place disponen 2.47311e-08
water bain 9.9798e-09
water eau 7.3675e-09
bath bébé 8.50007e-06
found enfoque 3.11328e-07
influencing nada 0.00029333
there reglamento 2.91494e-07
there dicho 4.3059e-08
s relacionadas 9.27406e-09
legal concretas 6.02382e-08
sustains última 0.000172413
initiate proyecto 2.27809e-06
initiate plantearse 1.33086e-06
future NULL 9.00324e-05
although cualificados 3.55904e-08
single uno 3.15493e-07
legal derecho 1.62295e-07
) directamente 2.10425e-08
prohibition figura 3.90272e-06
attention certeza 8.4428e-08
set sistemas 8.03456e-08
not pensando 2.94275e-09
aim es 4.75029e-06
' seguridad 5.29239e-08
quarters regiones 2.61925e-06
european confianza 5.93066e-09
parts económicas 2.1608e-07
is fuertes 1.29949e-09
am seguramente 6.46704e-07
regard decisiones 6.46495e-08
as estudios 2.50601e-09
along como 8.74766e-06
code industria 3.37119e-06
) establece 2.52922e-08
( establece 1.48603e-08
) cumplan 1.82631e-08
( cumplan 1.07304e-08
) mayores 3.2884e-08
( mayores 1.93209e-08
had semejantes 3.219e-08
what ésta 1.94672e-08
- empresarial 9.6935e-09
- competitividad 2.15788e-08
highest-quality máxima 1.99158e-05
checks aleatorias 2.89577e-07
unlike posición 1.9937e-06
feel es 7.90658e-06
earlier dicho 7.50374e-07
way rigurosa 1.35713e-08
across en 8.49816e-05
did igual 1.38994e-07
ago , 1.88467e-05
; capitalización 4.56044e-08
ways ámbito 7.56923e-07
realised engranaje 8.2316e-07
regarding cumplimiento 4.59296e-07
regarding para 3.35408e-06
regarding convertirían 8.78395e-09
and incluidos 1.30854e-09
very espero 1.76817e-08
helping contribuyen 4.20462e-07
unjustifiable salvamento 1.28903e-05
enjoy seguridad 3.87825e-06
this prohibición 2.26918e-09
forms sin 2.25527e-06
probability establecer 1.92484e-05
to distorsiones 5.4638e-10
" modernización 1.16381e-08
' discutido 8.88677e-09
if discrepo 2.54503e-08
if pese 1.10356e-08
comment observaciones 3.97058e-07
still mucho 1.08697e-07
with diputados 7.69333e-09
and temas 7.45752e-10
event modo 7.56171e-07
regards NULL 2.40838e-05
commissioner colega 3.35726e-08
matter relativa 7.76732e-08
phase zonas 3.69078e-07
fruteau señoría 1.49799e-05
point refiere 4.21081e-08
point primero 2.54343e-08
submitted propone 8.14233e-06
speakers seguro 9.07904e-07
ago conduje 4.91984e-09
when conduje 8.10145e-09
issue credibilidad 1.76941e-08
authorities regionales 3.83657e-08
our diferencias 4.79622e-09
areas nórdica 2.96772e-08
able NULL 7.75882e-06
would permítaseme 4.56445e-09
introduce NULL 5.06817e-05
effective hay 6.77142e-07
issues importancia 3.89822e-07
emphasis NULL 0.000193226
fund europeo 7.98016e-07
evolving NULL 0.00324742
those NULL 0.000198011
process fondos 7.56953e-08
process ambos 6.89984e-08
process aplicando 6.41172e-07
process incrementar 9.00356e-07
process podido 6.17338e-08
process estructurales 2.2679e-07
process hubiese 1.35348e-07
drafting elaborar 6.98715e-07
uk conjunto 4.83585e-07
work urgiéndoles 1.0642e-09
with cosas 3.54714e-09
regulations comunitarias 9.17857e-08
essentially NULL 0.000113732
can temperaturas 3.33006e-09
dangerous era 2.82638e-07
minimum peligrosas 8.56774e-08
examination requisitos 3.11467e-07
work técnica 1.90324e-08
disasters tales 6.07226e-07
transposed legislaciones 1.06986e-05
not contentarnos 1.21071e-09
adopting con 1.34571e-05
give sería 1.22029e-07
decisions semejante 5.31713e-08
still sobre 4.20643e-06
that incluir 1.11907e-09
know NULL 2.47751e-05
express dos 3.18987e-06
made de 1.15594e-05
at jueves 3.73579e-09
by conformidad 3.96966e-09
draft definitivo 1.23851e-07
verification proyecto 4.19961e-06
keen debido 9.57979e-05
keen harán 1.65416e-06
for acusar 3.54371e-10
concerned víctimas 1.06691e-07
bear guillotina 3.02379e-08
chance vez 6.45249e-05
chance tercera 5.25633e-06
running crear 2.74377e-05
running intentar 0.000155546
running permitir 5.21639e-05
within aguas 4.09813e-08
hear hablar 6.7415e-07
use propongo 8.72687e-08
practice implican 1.14972e-05
practice últimos 2.7734e-07
fisheries bajo 8.20732e-07
regulated actividad 4.89828e-06
throughout cierto 3.8002e-07
serious infracciones 7.5962e-07
lacking actividades 1.28092e-06
completely realizar 9.06569e-07
completely fija 1.15457e-05
therefore pedido 2.80547e-08
recommended capturas 3.86821e-05
our próxima 9.12707e-09
amended tenido 1.00077e-06
dead devuelve 6.24357e-06
mixed pesca 3.93203e-06
tuna rojos 3.38604e-05
exasperating quedado 0.00230054
into maquinaria 2.93388e-06
getting poner 0.0079674
turn hace 6.1893e-06
view objeto 1.49879e-07
measures pesqueros 3.57208e-07
resources pesqueros 1.42776e-05
measures conservación 0.00172989
resources conservación 5.35969e-06
measures técnicas 3.72552e-06
careful enfoque 4.75933e-06
first cuestiones 1.65119e-07
said acerca 1.02769e-07
wild determinado 1.521e-05
scotland escocesa 1.18081e-05
specifically para 6.15672e-05
introducing establecen 4.78705e-06
worthy objetivo 1.38623e-05
industries conocidas 3.53001e-05
peculiarities especificidades 0.000215713
reasonable decisiones 7.73659e-07
reasonable tomar 7.32258e-07
radical decisiones 8.87786e-07
or fría 8.35308e-08
or masa 1.23972e-07
more -aunque 3.27464e-07
outset felicitar 1.18927e-06
) afirmación 7.89011e-08
into adaptar 9.81394e-07
into como 1.37056e-06
implementing publicación 4.70773e-06
into flexibilizar 6.70834e-07
concerned financiera 5.96767e-08
simply referencia 1.24792e-07
more frecuentes 4.86156e-08
purposes decisiones 0.000392755
return directo 4.72503e-06
idle hay 0.00251088
idle todavía 3.97315e-05
we resaltar 8.08822e-09
ordinary los 0.000211181
shape candidatos 5.51927e-06
' encuentra 4.76081e-08
market debilidades 6.72496e-07
show circunstancia 0.000458518
also documento 1.73991e-08
need superación 1.96911e-07
merit observaciones 1.81477e-06
way hacerlo 3.50017e-08
intervention único 2.75941e-07
intervention ! 2.06793e-07
given amplio 9.91999e-08
long-winded largo 1.21237e-05
bad inadecuadas 6.96329e-06
bad ocultando 2.37372e-06
remains para 1.49935e-05
emphatically rechazado 0.000231156
room lugar 3.44155e-05
order queremos 1.15215e-07
rates unidos 2.77572e-06
us perjudicado 1.04546e-07
performance económico 2.35063e-06
higher índices 1.40302e-05
despite salvo 3.24906e-06
mozambique aquel 7.45447e-06
myself también 8.35133e-06
attention -no 3.89048e-07
so trágica 7.9382e-08
now fundamentalmente 2.83538e-07
suffering humana 8.65087e-06
transport aéreos 7.1884e-06
not seguro 4.85409e-09
this compañía 1.81757e-08
light interesante 4.02824e-07
and completo 6.0463e-09
fact éstas 2.62242e-07
reserved puestos 1.56218e-06
necessary rápidamente 1.59512e-07
community miembros 2.81784e-07
grounds peso 1.69638e-06
enable puedan 5.18315e-07
research reciente 1.38184e-06
research científico 3.38593e-06
research estudio 7.43983e-06
research ? 2.29627e-06
research perea 4.19551e-07
agree así 7.13537e-06
on acceso 2.94053e-09
now general 1.91262e-07
experience propia 6.47136e-07
women queremos 8.05967e-08
know nosotras 2.53559e-07
me evidente 1.60951e-07
particularly fenómeno 0.00465204
us nosotras 1.53471e-07
absolutely es 0.000452907
ideal policía 1.13243e-05
opportunities una 1.15325e-05
opportunities dado 2.37066e-07
or religión 9.32319e-07
where religión 4.45608e-07
where clase 0.00245783
which cómo 5.45636e-09
noting señalar 1.41131e-05
happen dicho 1.79157e-06
today presentes 1.8707e-07
their discursos 9.86309e-07
her palabras 1.827e-07
together contribuyen 1.88117e-06
working contribuyen 9.42792e-07
; países 3.45448e-07
woman famosa 3.19004e-05
efficiently toda 0.000198466
any eso 3.89729e-07
your reservas 2.67398e-08
actually y 0.000228317
lecture convincente 3.85886e-05
before escribiendo 4.53521e-08
existing disponibles 5.89887e-07
for nuestra 1.3105e-08
will articula 3.14885e-09
how inclusión 1.77625e-06
how e 1.16009e-07
make digan 5.32548e-07
need digan 2.47156e-06
prevention pleno 5.84562e-07
common cuerpo 1.49233e-06
believe general 1.13657e-07
too mantenido 4.92612e-07
between asociación 4.00497e-08
opinion públicas 6.21336e-07
intergovernmental ámbito 6.45031e-07
position interesante 8.77019e-08
tasks colectiva 1.96357e-06
western integración 5.22742e-06
believe asimismo 1.07613e-07
lead pueda 3.53167e-07
establish saber 1.1659e-06
all común 5.28567e-07
all poner 9.22711e-08
democratically-based democráticamente 6.38863e-05
! inclinado 8.52272e-06
he mismo 2.05836e-07
rapid fuerza 1.89931e-06
milestones ha 0.00132232
expect bronislav 4.63172e-07
are pública 8.62478e-09
more actualidad 2.21631e-08
absence si 7.38788e-06
countries nuestro 1.39524e-07
rapid reaction 9.97073e-07
lesson experiencia 0.00383689
this voy 1.75687e-09
than movilizar 3.10158e-07
and nuestras 1.93405e-06
process 2000 2.2036e-07
including -al 1.65001e-06
conflict helsinki 0.00623312
conflict envergadura 5.19209e-05
should quería 4.66277e-08
committee lugar 4.33164e-07
wish señorías 2.932e-07
recent visita 1.61611e-07
addition ahora 1.43003e-06
soft normas 1.1488e-05
enhancing aumentar 3.62173e-05
able garantizar 1.12276e-07
able la 1.70632e-05
suggest decirle 1.12769e-05
suggest he 6.11357e-05
suggest avancemos 2.37411e-06
fact miles 3.65717e-06
advantage práctica 9.02385e-07
advantage deseoso 4.03789e-06
money máximo 2.49383e-07
analyses internos 2.00957e-05
identifying determinación 2.12284e-05
no gestión 4.95832e-07
why prioridades 3.49125e-08
radically llevar 1.17848e-05
leave comisario 1.39079e-06
on mérito 1.60482e-07
on espacio 5.8864e-09
' verdadera 2.04858e-07
interests pro 6.56938e-06
achieve tener 3.87217e-07
keen buena 7.42837e-06
today hacerlo 5.90992e-08
things mismo 2.19414e-05
too corre 4.73081e-07
still podemos 1.59011e-07
useful indudable 2.47859e-06
alone ellos 1.10068e-05
competition límites 5.68241e-07
before judicial 7.02257e-08
interesting licitación 2.1236e-06
point respecto 2.78089e-07
service actividades 1.83082e-07
competition lado 2.68933e-07
mail servicio 2.91592e-06
become probablemente 3.48577e-07
service social 3.89288e-07
cheaper ciudadanos 0.000111728
low los 5.60541e-05
to servicio 1.46069e-09
decided garantizar 8.72099e-07
decided dispone 2.44977e-06
dimension nuevo 1.64101e-06
use servicio 1.31661e-06
postal fueron 8.97201e-07
bank hacia 6.95207e-07
company volver 1.84322e-06
inhabitants vulnerables 1.55904e-05
supported seguir 1.31331e-06
of hoy 1.69298e-09
times media 6.48172e-07
surely esté 1.13782e-06
commissioners trabajadores 1.68935e-06
market sujeto 3.6454e-08
introduced ido 5.18566e-06
market competencia 1.24396e-07
likely tendremos 3.95674e-07
italian italia 3.62393e-06
neo-fascists italianos- 0.000254502
such debe 3.14013e-07
political esencialmente 6.7391e-07
original una 2.86307e-05
. contrario 1.96633e-09
way trabajo 9.88045e-08
old año 2.54629e-05
therefore hace 5.35335e-08
therefore decir 1.19611e-05
therefore porque 6.27129e-06
rather documento 1.82426e-07
and movilidad 5.51116e-09
has llamar 1.71095e-08
new cambio 1.08083e-07
new atención 6.39571e-08
therefore adoptar 4.27591e-08
could poder 1.16487e-07
level podrían 2.53877e-06
more competitivos 1.54205e-07
work estacional 1.3801e-07
welcome gratamente 8.7178e-08
opinion miembros 1.45836e-06
recent reunión 0.00181291
recent última 0.0075957
recent NULL 0.000406691
having zonas 7.41131e-08
being estacionalidad 6.98159e-08
loose disposición 7.52018e-05
obtain especie 1.55039e-06
authorities deberían 2.61252e-07
undergone reducido 5.81306e-05
undergone cambiado 0.250925
taken entenderse 2.74467e-07
data correctos 1.59903e-05
statistical científicamente 0.000407671
than demostrables 2.59181e-08
agenda prioridades 4.45488e-06
enforcing éstas 2.94395e-05
general desempleo- 5.63148e-07
all podido 7.80653e-09
living organismo 2.90333e-07
deplorable situación 3.06955e-05
all urgentemente 6.13227e-09
costs nuestros 3.91753e-07
event actuar 5.73446e-07
basis marco 3.69694e-05
freedom expresión 5.4045e-06
disproportionate habido 6.26399e-05
- -kosovo 2.80263e-07
against procedimiento 4.01915e-05
against iniciado 2.54679e-07
lists descubríamos 6.27032e-07
operation llevó 6.35092e-06
only instar 3.37052e-07
treated secuestrado 1.14429e-05
as petición 1.88286e-08
united gobierno 3.7907e-07
relocation influiría 2.69861e-05
things que 0.000332663
traditional peligrar 4.71821e-06
just aprobado 1.09892e-07
desert someta 0.00263375
traditional abandonar 3.50565e-05
piece patrimonio 1.7575e-05
their desplazadas 9.90293e-07
forces libres 3.21599e-06
is tolerancia 3.1672e-09
scenario marco 1.02811e-05
problem abordado 4.01378e-07
measures nos 3.78441e-07
promoting afirmación 1.3169e-06
husband brovina 2.51615e-05
issue último 4.28268e-08
therefore preguntar 1.38832e-07
give que 1.34446e-05
us espoleen 5.84673e-08
popular partido 1.04189e-05
that comunicación 1.48186e-09
own delante 3.01845e-08
citizens cobran 1.48061e-07
today concreta 9.99216e-08
solved desde 1.08905e-05
satisfy nunca 3.97661e-06
immigrants pero 7.47455e-06
more prójimo 7.60822e-08
works su 3.74087e-05
causes laborales 2.35733e-06
occurred recientemente 7.6315e-06
later tendrá 1.29711e-06
currently buscando 1.31119e-06
originate procedentes 3.27938e-05
directive vida 7.52148e-08
directive final 6.02238e-08
indeed pongo 1.78145e-07
either lo 5.7977e-06
either justo 2.32492e-07
commitment disponibilidad 4.04667e-07
likely riesgo 1.21616e-06
instances instancias 3.18958e-05
proper instancias 2.55844e-06
them considerado 5.76887e-07
them sería 9.25681e-06
them sus 1.3432e-05
already ahora 2.2619e-07
them países 8.43973e-05
aim laboristas 8.67066e-07
biggest mayor 1.93952e-05
now solicitarse 6.03057e-08
agreed breve 1.09215e-06
worrying preocupación 8.64552e-07
had esencial 8.13532e-08
fundamental necesaria 2.10127e-07
contradicted contradicción 6.90869e-05
contradicted entrado 7.50613e-05
only papel 1.30797e-07
only ; 1.53281e-07
only conflictos 6.06082e-07
dynamic costes 1.8202e-06
same receta 2.13283e-07
me convencido 1.30821e-06
risk o 1.74117e-06
risk penal 1.85856e-07
purpose decisión 9.65969e-07
is debería 3.4981e-09
step marco 2.90782e-06
step inscrito 7.37588e-07
fact mejor 1.79119e-05
fact o 9.73804e-06
on sur 5.9107e-09
mr berthu 1.81645e-08
correcta correcta 0.000365056
propuesta correcta 0.000549491
propuesta parece 2.27638e-05
propuesta olvidado 0.000136063
propuesta incorrección 0.000203248
citizen normal 7.92689e-06
question hablando 1.7705e-08
am competencias 3.69323e-07
criminal relativo 2.40282e-06
attending largo 4.60069e-06
joint investigación 6.03655e-07
provision establece 8.83519e-07
modern derecho 4.14638e-06
laws respecta 9.66197e-07
laws derecho 1.66986e-06
where según 8.56945e-07
at evocan 1.94911e-08
defendant investigado 0.00115233
side exceso 2.13897e-05
side habido 8.33474e-07
no fronteras 7.04865e-08
which profesional 5.93955e-08
piece profesional 0.000263189
piece trata 7.30036e-06
co-legislators -y 0.00013792
fact lado 1.1239e-07
fact tampoco 2.53949e-08
relationship autoridades 3.07859e-07
relationship ciudadano 9.18909e-07
within numerosas 4.04629e-07
is proporción 4.56187e-08
is guarda 4.97964e-08
blame tiene 7.76108e-06
understand plenamente 3.83405e-07
and judicial 8.95155e-10
was incompleta 7.84063e-08
consistently sido 7.41291e-06
consistently atenta 1.53032e-05
procedures conforme 0.0115794
procedures formas 4.6961e-05
technical oscuros 6.66825e-07
range técnicas 3.6843e-06
range distintas 0.0326098
introduce defensa 1.23251e-06
range resumirse 4.4398e-06
introduce resumirse 3.5483e-06
range sugiriendo 4.46655e-05
; delegación 0.0032951
price resulta 4.06036e-07
reference instrumentos 3.13453e-06
look vuelva 1.04187e-06
you sabemos 4.67127e-08
from derivados 1.36995e-08
differently tratados 1.11802e-06
have financiación 1.18314e-08
funds assets 5.48152e-07
step defiende 5.24379e-08
able de 2.41687e-05
single prudencia 6.36263e-07
overly ir 7.61236e-05
rules verán 2.37613e-07
while tanto 0.0109581
otc derivados 9.24969e-06
units fondos 0.142156
last ayer 1.78964e-07
under bastante 5.32864e-07
conversion adaptación 6.55421e-05
conversion fase 0.000185724
solutions problemas 7.82564e-07
necessary jurídico-penal 3.36603e-07
available consulta 5.16713e-07
described manifestado 8.27272e-06
type protección 7.68665e-06
not atenuación 5.48238e-09
prescribed cumplir 7.46974e-05
always opinado 1.23394e-07
standard contadas 3.2817e-07
light integración 2.34884e-07
respectively financiación 3.75469e-06
certainly mucho 3.38175e-07
satisfied atención 2.57622e-06
then contamos 1.5978e-06
then al 2.2282e-06
agreed respecto 1.60338e-06
mood conciliadora 1.56134e-05
wide gran 4.94935e-06
representation próximamente 7.19284e-07
point para 1.92852e-05
point decisivo 7.79186e-06
point tan 3.46259e-06
point estratégicamente 7.38873e-05
point hayan 1.13249e-07
hand otra 2.74512e-06
certainly subordinación 1.13192e-06
for actuar 4.62246e-09
exchange culturales 1.96087e-06
salutary desarrollo 0.00275929
round vez 3.80976e-06
presented para 1.41275e-05
mandate términos 8.79897e-06
region componen 1.19971e-06
too aquí 1.4573e-07
cara corto 2.91183e-05
cara programa 4.66335e-05
policy conjunta 7.7884e-08
increasingly sentirse 4.20339e-06
did desbloquear 1.80023e-08
did decisivamente 3.27367e-07
seek deseamos 7.21571e-05
bring el 0.000185565
resources gestoras 1.93579e-07
being explotando 1.1741e-08
context sustenten 3.32745e-07
states deberían 2.92371e-08
genuine dando 6.52138e-07
actually salir 2.32645e-06
landlocked salida 0.000298125
involved promovido 9.56963e-07
assemblies reuniones 4.09325e-05
also reuniones 2.60165e-06
partner estados 1.30634e-05
pilot función 4.38542e-06
addressing en 0.000211414
assemblies condiciones 0.000109797
very condiciones 3.90788e-07
assemblies mejores 0.00154757
proposed mejores 3.64899e-07
assemblies abordar 0.000163124
very abordar 5.80587e-07
introducing asambleas 3.06716e-05
assemblies proyectadas 1.27133e-07
proposed proyectadas 5.07069e-08
given tenga 1.00904e-07
agreements comercio 8.11945e-07
stopped todas 0.00243599
stopped vez 0.000134501
stopped frenar 0.2203
stopped tenemos 2.63956e-05
worked bastidores 0.00220008
worked entre 0.00447714
worked realizado 0.037362
worked haber 2.81533e-05
worked lowe 4.2368e-05
come 86 5.67433e-07
practice presentar 5.62229e-07
all uno 7.49458e-08
both obstáculos 4.16779e-07
both libre 7.5187e-08
make siempre 4.71221e-08
proved historia 1.40343e-06
your primera 1.05299e-07
your es 3.09891e-05
as ejercicio 0.000101437
treated idénticos 5.10808e-06
would sí 2.83685e-08
resources desconoce 1.86678e-07
s cuentas 2.42519e-08
funding insostenibilidad 5.83887e-06
means fin 7.07598e-07
country independiente 1.78359e-07
specific esfera 1.43191e-06
imposing impuesto 8.36561e-06
imposing hubieran 4.85974e-05
economically zona 5.57988e-06
supplementary pregunta 3.06847e-06
issues común 7.44602e-07
funding cooperación 2.57947e-06
nor fue 2.76585e-07
nato acciones 3.01927e-07
coordination interétnica 2.4305e-07
work estructuras 2.46224e-07
an intentando 2.03921e-07
work kouchner 1.91256e-07
that ciudades 7.54349e-10
will qué 1.5215e-07
terms elementos 6.97377e-08
were determinado 1.82334e-07
available deben 2.18481e-05
risk integración 1.42363e-07
there integración 6.03012e-09
like malta 3.02865e-08
not alguno 2.25282e-08
not buscando 1.12424e-07
disputes diferencias 5.94529e-05
virtue negociadora 7.1284e-05
virtue idea 0.000345854
specifically NULL 0.00010077
are proporcionado 3.46937e-07
very expresan 3.41469e-08
so importancia 4.23633e-08
needed cuidado 1.32958e-06
do vistas 1.4336e-07
more garante 2.7755e-08
in decisivo 3.04645e-09
help facilitar 1.96618e-07
under relativas 4.00797e-07
under presenta 0.00358006
under consulta 6.60138e-07
under señorías 6.66533e-07
stressed destacado 8.41784e-05
stressed promoviendo 0.000110394
addressing enfrentan 0.0638741
appreciate cargo 4.78105e-06
appreciate hago 5.04875e-06
light negativa 1.20384e-06
light interpretación 1.48759e-07
found diferente 4.54825e-06
hopes conclusión 1.15972e-05
discussions siguiendo 2.01237e-06
representative puesto 1.75257e-06
representative quien 0.0269453
appoint indicar 0.000114537
relating los 2.51433e-05
speech seguir 1.68944e-06
hear seguir 7.52801e-07
well podido 5.52369e-07
timely incluye 5.99142e-06
been encuentra 2.63097e-08
day vistas 1.55269e-05
made sucede 6.8792e-07
made precisión 8.11427e-08
made ruega 1.80254e-08
day pasado 4.02484e-05
mindful pesar 0.00121895
launched hizo 2.51947e-06
christian espiritual 3.04099e-06
christian herencia 5.17594e-05
heart herencia 1.33013e-05
liberties civiles 1.4997e-05
adherence por 0.000366444
out partes 1.4712e-07
out diferentes 1.24416e-07
out resulta 5.27608e-08
volksunie unión 0.00034129
ancient antigua 0.000284269
aforementioned acabo 1.49018e-05
diplomacy multilateral 0.000177455
cash dinero 2.72727e-05
can adecuada 2.61758e-07
other limitar 7.39866e-06
therefore muerte 5.40163e-07
for tranquilamente 6.45572e-09
mention asimismo 3.0206e-06
more ejemplos 2.57003e-08
no ejemplos 9.35704e-08
more únicamente 4.3924e-08
no únicamente 1.5992e-07
chance riesgo 1.41749e-06
chance grave 5.62559e-07
this actual 4.25461e-09
lacking basan 1.18281e-05
modernised asistencia 9.60226e-06
commonplace previsión 3.50782e-05
commonplace ámbitos 2.18475e-05
commonplace eficacia 1.39783e-05
modernisation duda 4.8022e-06
constructive positivo 1.11471e-06
constructive papel 3.37354e-06
jurisdiction exclusivamente 6.62746e-06
services social 0.000411632
policy fiscal 1.49556e-08
pensions máximo 4.14455e-06
joint conversaciones 4.15028e-07
proper vinculantes 5.47095e-07
while en 0.00011022
while que 8.44927e-05
therefore quien 1.55153e-07
belief procede 2.39295e-06
2010 precios 0.00132261
2010 tendrán 6.48421e-06
question la 7.78893e-05
shall dotarse 5.25583e-05
shall ciudad 2.32212e-07
projects dirigidos 1.863e-06
it resolver 2.37088e-08
base actuar 6.29606e-07
alliance europea 8.91946e-06
fruits producto 2.35537e-05
environmental servicio 4.23308e-08
with honor 1.5995e-08
this decisión 4.36075e-09
for nombre 1.00175e-08
will consta 5.06577e-08
results concretos 1.67433e-06
least hasta 7.13888e-07
draft resolución 1.10665e-06
chairman myanmar 1.97926e-06
am comprometido 1.14654e-07
here nueces 1.50885e-06
they hemos 1.12768e-07
they nos 1.65242e-07
intra-service servicios 0.0119884
intra-service varios 0.0494523
intra-service representados 0.904657
intra-service estén 0.0231585
agenda programa 2.29194e-07
a aspectos 2.93972e-09
recourse aficionado 2.27563e-05
typical un 0.000831994
are condición 1.58216e-08
area limitada 1.01232e-07
process dar 1.25232e-05
process caracterizado 0.00168857
what ellas 2.11326e-08
seconds muere 0.000133256
deal positivas 8.28503e-07
deal hacemos 6.25734e-08
present inexistencia 3.90058e-07
there concreto 1.46382e-08
not resistiéndose 2.1464e-09
examples concretos 2.76309e-06
provide estamos 3.23094e-07
therefore alegro 5.01204e-08
admit quieren 2.47212e-06
between asegurando 1.06184e-08
particularly pues 2.21887e-07
particularly moldes 7.94167e-08
sending constituir 7.81604e-06
eu-oau próxima 5.49569e-05
list próxima 2.38571e-06
rise acarrea 7.33305e-06
same éxito 3.05221e-08
police velar 7.97181e-07
or escucharle 8.9454e-08
its dilemas 3.84166e-08
include digo 1.03585e-06
at perjudicar 2.42471e-08
likely va 8.91333e-06
likely parece 7.24307e-06
link claro 4.41712e-06
puts más 3.10993e-05
too oportunas 1.88937e-07
you últimos 1.35041e-08
development dicha 7.84668e-08
approaching nivel 1.70362e-05
approaching ese 2.95875e-05
migration las 0.000138909
debate propuesto 1.42428e-06
theme tema 1.23094e-05
central tema 3.11927e-07
our todos 7.17107e-07
matter clara 2.83048e-06
particularly hoy 4.76526e-07
which nuevas 7.04921e-09
consequence resultado 2.08476e-06
today señorías 2.6822e-07
noticed observar 5.81336e-05
be mucha 1.55828e-08
a palabras 5.16232e-09
addition la 9.66742e-05
networks electrónicas 2.0833e-06
harmful dirección 1.67852e-06
role exigente 6.35565e-06
role producción 4.21755e-07
arts creación 0.000323687
dominant forma 8.09633e-06
dominant una 0.000218861
themselves ejecuciones 7.98412e-06
respective adicionales 5.34285e-06
contain regulen 8.03889e-07
a parece 3.76049e-09
that me 7.34143e-09
areas materia 2.66348e-07
it consecuencia 3.03382e-08
this asuntos 1.83835e-08
spite organización 1.3897e-06
eur cuatro 1.37016e-07
namely afecta 2.09215e-06
said avanzar 1.03586e-07
regards diputadas 3.45122e-06
opposed contra 3.5723e-05
are pobres 5.49963e-09
with mantener 8.59957e-09
reorganised medida 5.65747e-05
enforceable uso 8.57567e-06
for ponente 1.329e-08
solutions habrá 1.67984e-07
about positivo 2.94769e-08
deal opinión 8.45202e-07
. consideraciones 5.42992e-09
. tratados 3.15409e-09
idea parlamentario 8.02378e-07
viable social 7.63576e-05
goals comunes 1.30419e-06
ago pronk 9.35409e-08
ago -el 1.27226e-07
, bartho 2.61596e-09
a afrontar 2.42607e-09
break-through cambio 5.31107e-05
safeguarding conseguir 3.24968e-06
myself cuyo 1.00497e-06
on embargo 8.88123e-09
are deben 2.07778e-08
implement life 2.05579e-07
avoid centralizada 0.000183735
again agradecer 3.91607e-07
raise reforzar 1.86178e-05
continuing reforzar 5.81583e-06
introduction enfoque 3.45136e-06
an hacer 5.60131e-08
cover euros 3.70747e-05
only fatídico 4.39417e-09
ours europeas 3.65551e-05
ours directivas 1.53261e-05
ours falta 3.46067e-05
ours debido 0.000173864
water recursos 3.16456e-07
level provisión 2.76392e-07
grant garantizar 1.30543e-06
25-year años 0.000110576
terms aprovechamiento 2.02758e-07
been realmente 1.07816e-08
it promover 2.68216e-08
kind territorio 0.000147579
kind bajo 3.73507e-06
kind jurídica 9.23745e-07
kind base 4.25937e-07
kind ninguna 0.000136314
kind resaltarlo 3.24908e-05
regulated normas 0.0205952
regulated mediante 0.0112086
natural agua 3.8131e-07
clean agua 3.10001e-06
light todavía 8.96166e-07
which medidas 1.68791e-08
arrangements medidas 1.56352e-06
is garantizar 1.7466e-08
river anteriormente 8.52246e-05
ends agua 4.96592e-05
period años 9.63747e-07
on habitantes 2.73139e-09
water distribución 0.000436614
water sistemas 4.52638e-06
reliability seguridad 0.00707634
its cumplimiento 4.45636e-08
us práctica 5.83383e-08
that realidad 3.32991e-09
rates aplican 2.02918e-06
at contradicción 1.35809e-08
led actualmente 6.93357e-07
work nada 2.65341e-05
work sirve 0.000176012
this alcohol 6.13564e-09
alcoholic modo 3.80921e-05
work alcohólicas 5.51113e-08
whole comunitario 1.10693e-07
surrounding sobre 0.00010914
surrounding suecia 4.9914e-06
exist necesarias 9.50808e-07
monopoly alcohol 8.26647e-06
nos 53 4.94903e-06
and allá 5.2523e-09
now ponga 2.62067e-08
not preocupa 9.87014e-09
on propósito 3.65055e-08
count cuenta 8.70922e-06
last semana 1.84229e-07
on sigue 4.14906e-09
11 expondré 2.83827e-06
left apartado 5.88636e-07
any previsto 1.23657e-07
therefore poco 6.36693e-08
therefore ir 7.96674e-08
about señoría 1.10384e-07
just margot 2.48486e-08
greek parte 6.47228e-06
partnership acuerdo 8.74881e-07
removal haber 2.69025e-05
to financiación 1.49291e-09
rest obras 7.64196e-05
rest otras 1.30564e-05
this me 2.15566e-08
impression idea 6.2137e-07
should permítame 5.48056e-09
as seguramente 2.07814e-08
texts texto 6.4161e-07
adopting texto 4.15953e-07
texts aprobamos 4.36438e-06
adopting aprobamos 2.82941e-06
are normas 1.06159e-08
equipment electrónicos 2.68767e-05
origin racial 1.69418e-05
equally igualdad 5.47411e-07
again reitera 4.43061e-07
government austríaco 1.97103e-07
because sin 4.04614e-07
have ocasión 1.23873e-08
council fundamentales 3.64784e-07
council jefes 4.87395e-06
council felicita 0.000233462
potential peligro 2.07508e-06
" candidatos 1.80094e-07
border consigo 4.64681e-06
it dispuesta 2.03581e-08
perhaps consciente 2.94198e-07
field enfoque 5.48245e-07
field entre 2.49308e-06
they intervención 4.34495e-07
taken desempeñar 8.15461e-07
almost 50 1.11479e-06
can respecto 4.2213e-06
can ese 8.29262e-06
regions estaría 1.71773e-06
identity acercarse 2.16314e-05
soul acercarse 0.000252312
soul nacionales 1.74404e-05
identity capitales 8.09055e-06
soul capitales 9.43692e-05
identity rebasar 3.98872e-06
soul rebasar 0.184137
soul diálogo 6.63508e-05
soul confirmo 9.74443e-06
identity maccormick 5.16132e-07
soul maccormick 0.000572117
be ésa 8.05472e-09
funding estructurales 1.88077e-07
finish asunto 5.77173e-06
initiative explicar 1.64496e-07
initiative cabo 6.36573e-07
initiative lleva 4.03237e-06
initiative que 2.41799e-05
initiative y 0.00570976
initiative reding 8.1763e-06
or propuestas 2.26552e-07
suggestions preguntas 4.42176e-05
said señorías 2.34736e-07
content modo 1.28291e-06
concept producción 1.36518e-05
concept sistema 2.52294e-05
concept indica 5.4584e-06
concept etcétera 5.86081e-06
concept multiplicidad 5.04791e-06
affiliation convenio 0.00284035
affiliation adhesión 0.247908
water podríamos 1.44613e-07
affected adecuada 1.11075e-06
downstream hídricos 6.12398e-06
its poema 1.2147e-08
spanish mi 1.25685e-05
address mi 3.08351e-06
also siguiente 2.79906e-08
spanish decir 3.57627e-06
we mejora 5.11349e-09
why preciso 2.0557e-07
be explicar 1.00752e-08
our elementos 5.96311e-08
diffused emisiones 0.000948918
adopting práctica 7.96431e-07
in antiguos 2.1768e-09
water factor 3.44665e-07
special relación 7.03701e-07
drying progresiva 0.00472634
live efectivamente 4.25397e-06
an crecimiento 2.01962e-08
background nivel 2.04996e-06
substances peligrosas 4.08454e-06
us últimos 2.08175e-08
, difícil 7.62796e-10
, resultará 4.15334e-09
after trata 1.5762e-06
been aprobado 2.61018e-07
level materia 2.87175e-07
it responsable 7.61355e-09
feed situaciones 6.37478e-06
compound piensos 5.25211e-05
him correspondido 3.80913e-06
likewise con 5.94396e-05
likewise lo 5.29797e-05
not futuro 1.3664e-08
above perjudiciales 5.99651e-06
suited adecuados 9.14841e-05
committee fondo 5.35765e-07
committee competencia 9.74049e-07
we diálogo 3.234e-08
was desencadenante 1.15716e-06
comments siguiendo 2.93367e-06
comments planteadas 2.85291e-06
proposals roth-behrendt 3.13486e-07
coming futuro 1.38727e-06
report crisis 1.40894e-08
report ulteriores 1.88434e-09
one aclarados 7.51593e-08
environmental una 1.6779e-06
environmental realizar 4.87488e-07
replacing artículo 6.72067e-06
animal activadores 0.000251406
need suscitaría 9.13111e-08
arise examinar 1.24769e-06
opinion ponente 1.06083e-05
opinion calidad 2.30671e-06
taken reaccionado 6.16992e-07
taken que 0.000122718
under tramiten 4.27147e-08
they actuar 5.26625e-08
they aditivos 2.3826e-08
too naturalmente 4.18501e-08
additives alimentación 4.093e-06
once rincón 2.46594e-06
text volver 1.53164e-07
adopted asimismo 0.00696185
adopted incluya 1.36795e-06
adopted reproducción 2.42075e-07
us apropiado 1.9797e-07
depending tecnología 9.91139e-06
eur 1775 1.51648e-08
farming renta 1.31661e-05
deliberately hecho 4.466e-05
at bien 3.08648e-08
( aumento 2.82789e-08
were bombardeos 1.02448e-06
tabled cinco 5.99157e-07
challenge lanzados 6.2108e-07
but francos 2.92932e-07
on creciente 1.34694e-08
they regionales 1.26309e-08
cases regionales 8.98099e-08
they locales 1.0423e-08
cases locales 7.41112e-08
networks telecomunicaciones 6.28714e-06
voted fronterizas 6.79353e-08
make hace 1.16072e-07
subsidies considerarán 5.88834e-06
subsidies elevadas 2.00981e-05
observations sensatas 1.62324e-06
possible ampliación 1.29282e-06
possible concentrarse 8.07279e-07
upon concentrarse 6.26531e-07
no peor 9.57248e-09
can acepta 2.08795e-07
dimensions democrática 4.10253e-06
with conjunto 6.2151e-09
incorrect opinión 6.27439e-06
hear diputados 8.16297e-07
told podido 5.80496e-07
a tratar 4.65614e-09
today fin 2.14044e-06
a siquiera 1.07453e-08
liberal económico 8.57947e-07
bodies aquéllos 3.124e-06
must adicional 5.00785e-07
than drug 2.09609e-08
and éste 1.79173e-09
although creo 8.27731e-07
denounce públicamente 0.00219319
me nada 1.39453e-07
have cierto 8.0181e-09
myself pregunto 8.92995e-07
have explicaciones 1.33893e-08
despite necesidad 3.36731e-07
us servirán 1.38054e-07
way tal 5.57253e-07
will pronunciado 2.5207e-08
manage capaces 2.033e-06
that tareas 4.05323e-09
make posible 2.6751e-07
keeping siendo 2.29115e-06
your propone 7.23141e-08
your nos 1.87634e-06
refresher profesional 0.000960569
introduce fin 4.95282e-06
' oportunidades 7.30234e-08
' palabras 2.27656e-08
women contribución 9.39465e-08
foresees una 0.00223111
today comprometen 5.85784e-07
many durante 9.69395e-08
this confianza 2.22138e-09
seen encontrar 9.84244e-07
of políticos 8.88731e-10
core confederación 1.63382e-05
need significa 4.33393e-08
step satisfacción 1.58239e-07
inclusion otra 2.24374e-06
be fortalecer 2.83873e-08
am ya 3.14558e-07
itself áfrica 6.14593e-07
itself actividad 4.13714e-07
itself incluye 4.35881e-07
last objeto 2.79445e-07
reaching tragedia 7.11248e-06
far belgrado 8.40639e-07
even más 6.84859e-07
whose mostrado 9.18813e-06
whose actual 1.50338e-06
been actualidad 2.92747e-08
made serie 3.78304e-08
what consiguiente 2.24744e-08
really ciudadanas 1.42487e-06
individual ciudadanas 6.47824e-06
alone austria 3.71166e-07
therefore un 6.73985e-07
better más 0.00130297
better usted 3.12343e-07
better prometió 9.78429e-05
commission qué 2.37728e-08
special ámbitos 2.42187e-07
built niveles 3.44959e-06
must parece 1.94343e-07
ecological si 0.000117404
it soberanía 2.3858e-08
has absolutamente 6.2872e-09
; poco 1.64505e-07
respect añadiría 1.3706e-06
those con 2.83405e-06
sense modo 5.37914e-07
subject hablando 1.82107e-07
met frente 9.96553e-07
a unitaria 8.07102e-09
co-operative mayor 6.37812e-05
therefore haremos 1.03691e-08
mobility laboral 3.48246e-06
past mercado 4.25161e-07
unprecedented plantea 3.07307e-05
my límites 5.28947e-07
undertaking envergadura 1.0217e-05
flight france 1.09411e-05
and planes 3.36136e-09
leaves queda 3.56518e-06
they provisionalmente 1.24468e-06
form hay 6.1284e-07
form constato 1.4856e-07
models generales 1.28605e-05
models planteamientos 7.66369e-05
billion 800 2.37146e-07
regularly sobre 0.000232182
regularly informados 0.00016412
regard relacionado 9.54334e-07
regard técnica. 5.56254e-08
regard asistencia 6.43885e-08
keep podré 2.22223e-07
later junta 7.74034e-07
you haré 3.80551e-09
would e 3.34296e-08
group esta 6.68457e-07
barriers físicas 1.66707e-05
itself momento 7.95416e-07
grounds que 0.000125468
most ante 2.44703e-07
one esta 4.8723e-07
organisations comunales 9.27064e-06
organisations asociaciones 8.67811e-05
organisations experimentar 3.57673e-05
according dentro 1.99856e-07
some peligro 5.37563e-08
definition limitada 2.36067e-06
some física 4.14352e-06
trans-european aumente 1.08139e-05
however solo 2.8607e-08
can fronteras 1.00986e-08
from sucede 2.5891e-08
politics ya 2.75451e-05
restoration económica 4.86745e-06
restoration reconstrucción 0.189615
procedure posición 1.73819e-07
policy comunitaria 6.56952e-08
doubting cabe 5.04271e-05
addressing solución 9.91579e-06
subject importante 3.1361e-07
solution hubiera 1.02534e-07
going al 3.13197e-06
schemes hay 5.13066e-06
for personas 2.75936e-08
for estas 2.34361e-08
asylum-seekers refugiados 3.12253e-05
while distrito 2.11408e-06
not jergas 1.36472e-09
successful también 0.0224258
successful que 0.000524893
operators interregionales 1.01989e-07
create órganos 2.09594e-07
been origen 7.25496e-08
a incomunicación 1.84056e-08
implementing querrá 6.4788e-07
a comunes 2.66239e-09
implemented garantizar 6.75335e-07
sector zonas 9.05592e-07
currency tenga 1.17163e-06
on necesitan 1.21959e-08
operational instrumento 0.000223372
of obligaciones 1.9733e-09
programmes otros 5.04657e-07
again sacar 3.09845e-07
aspect consecuencia 5.82596e-07
stage valoración 9.18466e-07
this establecen 9.86436e-09
ought establecen 1.42757e-06
groups representativos 4.3527e-07
support el 4.94286e-06
initiatives es 1.28347e-05
initiatives comunitarias 2.98023e-07
incorporation introducción 6.85616e-06
incorporation éstas 2.56307e-06
regional nivel 1.90629e-07
projects intervenciones 1.36551e-06
more forma 2.76602e-08
helping contribuyendo 0.000670095
helping park 0.00346691
helping youth 2.22958e-05
delivered el 0.0005606
wider alcance 6.68653e-06
actors locales 5.07477e-06
scale favorable 3.12095e-06
period programación 6.93837e-07
exchange puesta 1.33001e-06
essentially librarse 5.67616e-06
essentially aún 3.31203e-06
essentially trámite 2.73592e-05
confederal ellas 9.18487e-06
confederal primera 1.4709e-05
asking ponga 2.42425e-05
asking definitivamente 0.0312588
ago algunos 2.95276e-07
there partir 3.76023e-08
no condenar 1.47679e-06
s voto 1.97269e-07
s derecho 7.64359e-08
very iniciadas 5.88894e-07
very mismo 4.05868e-08
actually alimentando 2.54395e-05
way socialista 7.78882e-08
however partido 2.80062e-08
leading destacados 4.08712e-06
leading dirigentes 9.45251e-06
via caso 2.69279e-06
arena terreno 1.45105e-05
most choca 6.76757e-07
taken NULL 1.54881e-05
instead haber 1.78634e-06
decision decepción 7.71091e-07
enhanced cooperación 6.91792e-06
matters control 7.89451e-07
stated hasta 1.64277e-05
very medios 1.82935e-07
very todos 1.92402e-07
very porque 1.21372e-07
cry lejos 0.000456293
cry encontramos 8.29044e-05
cry ahí 2.58074e-05
environment alto 9.25943e-08
which presión 2.96217e-09
which grupos 2.93045e-09
and donde 1.42617e-09
terms fondo 6.73016e-08
work punto 2.22713e-07
work desde 2.49176e-07
work tiene 2.94742e-07
work pero 6.51016e-07
work silencioso 8.39248e-07
met sea 2.0303e-06
once inspirarse 1.6257e-06
indeed habría 1.47374e-07
limit dentro 7.3126e-07
introducing inclusión 1.04295e-05
were esto 3.93696e-07
producing económicos 9.15714e-07
damaging sanos 1.63226e-06
you creen 9.62895e-09
one desperdicios 1.51671e-08
not régimen 7.75629e-08
not vigor 1.8031e-08
however deben 5.69928e-08
position refiere 9.44334e-08
which peligrar 2.83102e-08
treat intereses 4.93684e-06
industries sería 2.53374e-06
here expresado 5.36543e-07
defender garantía 0.000147209
debate técnico 1.87337e-07
produce reutilizarlos 2.19306e-08
produce produzcan 0.00338048
produce éstos 0.000395129
produce importancia 9.17591e-05
produce cuenta 3.11582e-06
high era 1.40248e-07
like tanto 1.02309e-06
able continúen 3.80223e-06
amendments tendrán 1.45698e-07
from impone 6.69385e-08
total carga 0.00012256
total imponerles 2.35295e-06
said equitativa 5.56101e-07
constraints ambiente 2.35208e-06
costs compartidos 7.58969e-06
market plantear 5.76432e-07
arrangements anualmente 4.40165e-07
a industria 2.56178e-09
car automotriz 3.69642e-06
car industria 0.00273745
car que 0.00119203
car personas 7.83483e-06
car pensar 7.64911e-05
car NULL 0.000209602
their diseñarán 1.75208e-09
their vehículos 4.8751e-07
which porque 2.05639e-08
also seguir 1.47073e-08
conception dicha 0.000122203
conception través 5.71198e-05
place sistema 1.55516e-07
last titular 7.18361e-07
when duda 1.10079e-07
are pero 6.74075e-08
and basa 4.53872e-09
an únicamente 4.75791e-07
participation votos 4.48623e-07
preferring acciones 1.66814e-05
european del 4.68537e-07
european decisión 2.32817e-08
results permitirnos 1.48653e-05
results satisfactorios 1.79384e-05
outcome satisfactorios 6.01409e-06
certainly no 4.88174e-06
way pluralidad 2.0662e-07
by intervenciones 3.37003e-08
more megaproyectos 1.44297e-08
unanimity entonces 1.191e-06
few muchos 1.73032e-07
quite muchos 1.86791e-07
this final 5.27823e-09
dialogue procedimiento 5.40351e-07
technological importantísimo 3.40407e-06
both programa 9.52224e-08
concretely concreta 2.59313e-05
challenges creación 5.44624e-07
very programa 3.03428e-08
total aumento 2.97765e-07
sector renovables 7.04595e-07
entail años 7.3684e-05
partial parte 2.10855e-05
terms previo 0.00235517
terms respeto 3.99876e-07
terms financiera 4.05056e-06
might continuar 1.74318e-06
action marcha 2.95081e-06
take actuado 3.87851e-07
life muerte 0.000292218
indeed en 1.62829e-05
searching profunda 0.000710366
this crítica 1.62282e-08
however crítica 2.53627e-08
for necesaria 2.79083e-09
eur 35 8.22993e-07
then sentencia 5.08889e-07
leadership administrativa 6.37159e-06
follows consecuencia 1.54547e-06
that contribuciones 5.56002e-09
parties otros 1.10517e-06
sympathy estaban 1.72951e-06
that finales 2.34837e-09
have podría 1.16555e-08
translation propio 2.64466e-06
service traducción 4.57987e-07
adequate solución 4.73911e-07
attention expresadas 9.10297e-07
attention objeciones 2.94627e-07
endless unos 7.06824e-05
made sean 9.85606e-08
than inaceptables 8.57174e-08
we facilitando 5.56731e-09
doing favor 3.25633e-07
doing ningún 4.5656e-07
early obligación 1.07612e-06
provided residiendo 2.66013e-07
they regulares 5.25608e-08
unable unánimemente 1.37716e-05
unable encontrado 5.02859e-06
unable apoyar 3.16133e-05
unable puedo 7.84808e-07
one solicitar 6.66553e-08
multiplicity número 1.31051e-05
another capital 9.00392e-08
see duda 1.05112e-07
capacity propugnamos 2.71302e-06
experience experimentado 1.93651e-06
from experimentado 7.83522e-08
from haberlo 9.99346e-08
into fondo 7.20881e-08
term esa 5.22843e-07
internally comunidades 3.06646e-06
with orden 6.27722e-09
re-negotiation negociación 0.000318804
larger grandes 2.31682e-05
larger estados 1.90098e-05
larger los 0.000435646
larger a 0.000233399
you quiera 5.41457e-08
broaden ampliación 0.000232306
until período 4.58314e-07
listened caso 7.0364e-06
union gobierno 3.62595e-08
needs o 8.42341e-07
able circunstancia 3.31632e-07
" refuse 7.44019e-08
a pretensión 2.7177e-08
further integración 3.76302e-06
integration ulterior 1.45835e-05
further fondo 1.26267e-07
intervention última 1.73117e-06
plus aún 1.71662e-05
been señal 1.57928e-08
why absolutamente 8.57839e-07
mandatory carta 8.57445e-06
see carta 1.597e-07
conduct político 1.29225e-06
must manera 1.35862e-07
granted estas 1.81236e-06
by frente 7.55797e-09
are éste 8.88868e-09
out beneficios 6.84437e-08
lack forma 1.42113e-06
lack dudas 1.56987e-05
assessment sobre 3.72944e-05
assessment juicio 0.00128671
assessment emitir 9.92231e-06
we emitir 5.30711e-08
we estudios 6.52766e-07
issue estudios 6.17286e-07
such pregunta 3.35748e-08
should hará 2.04927e-08
also otros 2.33425e-08
not distintas 1.42156e-08
not recurriremos 1.15606e-08
action podrán 9.18361e-08
statements haider 3.05713e-07
would demostradamente 1.43666e-08
fact más 5.83069e-07
embraces pertenecen 0.000192691
not llegado 7.89993e-09
agree día 1.38683e-05
agree pasado 0.000135562
behind político 3.45328e-06
behind programa 2.06454e-06
ethnicity factor 0.000472258
witnessing precisamente 7.64244e-06
essentially disentimos 0.00951741
must carta 2.04497e-08
more cada 1.15851e-07
party europeo 2.5502e-05
changeover normal 6.05596e-05
afforded protegidas 4.40867e-05
you alega 1.19856e-08
darkest época 0.00261631
prerogative pues 2.65342e-05
support hacemos 2.8529e-06
italian su 2.48624e-05
yet no 4.41485e-06
- terminado 1.12132e-07
states soberanos 2.13143e-07
been rápida 4.75958e-07
been esperan 1.3404e-07
aviano base 0.00102393
not holandés 8.96671e-09
await resultado 5.64605e-06
capital long 3.33633e-07
these atención 2.38327e-08
these nuestra 5.13064e-08
' buen 5.67827e-08
surely sin 5.07894e-06
reiterating repito 2.34336e-05
view igual 1.09814e-07
again ocasiones 3.2081e-07
again varias 5.50748e-07
havens frecuencia 0.0749448
overambitious sus 0.000469411
there creo 4.70952e-08
will comercio 3.49554e-08
will importantes 1.33937e-08
take honraría 7.77758e-06
intended función 1.04154e-06
at intentar 1.33494e-08
consequences medioambientales 2.27918e-07
certain serie 8.03818e-08
imposing aplicar 2.85663e-06
these argumentos 2.30314e-08
then informes 4.55223e-07
us inseguridad 4.42652e-08
we revisión 4.77746e-09
wrong vía 4.45154e-06
would sorteado 6.4909e-08
eur 1.500 4.22261e-07
tree navidad 5.05991e-05
personally doy 5.09451e-06
personally persona 4.2061e-06
do país 1.31599e-06
can comisión 4.45095e-07
can actuar 6.01864e-08
will meses 3.03097e-08
will seis 5.67304e-08
will responder 3.22007e-08
intervening lógica 6.858e-05
trends económico 1.03634e-05
any pero 1.24048e-06
much disposición 5.213e-06
much mejor 8.13817e-07
much existe 8.91671e-08
costs debajo 1.63697e-06
framework pro 7.64795e-06
raises señoría 1.52922e-05
development " 3.93887e-07
unmic policía 0.000491235
underlies parte 0.000106884
implemented territorio 3.78163e-07
situation solución 1.11543e-06
intend ministros 1.62671e-06
evidence actuales 1.22885e-06
agenda ampliación 5.11342e-07
possible se 0.0197469
way y 3.22296e-06
makes nos 5.6708e-06
because turquía 2.80206e-08
on instalaciones 5.12286e-08
tests instalaciones 1.60237e-05
europe unión 2.42859e-07
into migrantes 6.22231e-07
will jurídicas 4.91585e-08
progress jurídicas 1.55488e-06
european extraordinaria 3.79785e-07
decided aprobamos 1.09048e-06
measure violación 8.61886e-07
improve situación 1.15669e-06
mentioned conveniente 4.27177e-06
mentioned es 4.08438e-06
described ha 6.41954e-05
it alguien 2.46282e-08
fort europa 0.000627389
lies palabras 1.3419e-06
mr schulz 1.56868e-07
agree lo 3.28507e-06
no asilo 3.78647e-06
control judiciales 1.68077e-07
action van 7.62127e-08
winter damos 2.05278e-05
after de 0.0127161
want relieve 1.87415e-07
implemented rapidez 1.28147e-06
successes esencial 8.10608e-06
successes éxito 1.09974e-05
significant éxito 4.06975e-07
adopted eurodac 3.55519e-06
aptly acertadamente 0.664062
process definitiva 9.20372e-08
process encontrará 8.63602e-08
out este 1.19247e-06
out excluir 6.86669e-07
issues conocimiento 6.596e-07
during asumimos 6.54407e-07
presents asienta 6.42533e-06
each contestar 3.67542e-07
largely principalmente 1.27579e-05
his aquí 5.33333e-07
consider noticia 6.63356e-07
israeli primer 8.3171e-06
. sino 8.68299e-08
nevertheless libremente 6.67512e-07
nevertheless podrán 5.28761e-05
nevertheless una 1.21292e-05
nevertheless haber 8.11417e-07
when potable 2.59805e-07
when agua 3.70619e-08
all indispensable 2.09352e-08
else todas 4.47171e-06
were haya 5.14103e-07
background quisiera 4.51152e-06
hand devolverá 6.00375e-08
, integridad 3.82233e-09
borders integridad 6.0887e-06
question NULL 1.17583e-05
jeopardise riesgos 7.54905e-06
jeopardise correr 1.90986e-05
under puesto 2.99392e-07
largely buena 1.8053e-05
permanent estatuto 2.4309e-06
such situaciones 1.44333e-07
process NULL 3.49569e-05
notably especialmente 2.10112e-06
designed originalmente 9.41811e-05
approval diseñado 4.39893e-06
consultation periodo 1.67859e-06
seek apelo 2.07509e-06
work controlable 8.2538e-07
they verdaderamente 3.53768e-08
know kinnock 4.18516e-08
is financiero 2.11286e-09
instrumental situación 2.99122e-05
much expresado 1.52303e-07
currently están 6.46022e-07
with controles 4.38424e-08
as tenga 1.0433e-08
under quo 8.63287e-07
example general 2.98019e-07
publicised ampliamente 4.0826e-05
choosing elección 0.000891258
nutshell palabras 1.14331e-05
nutshell pocas 2.27483e-05
a expresar 4.5705e-09
reasons NULL 0.00165539
straightforward tema 0.000310335
might probablemente 8.78673e-07
manner efectiva 0.00124745
not impresionado 3.75739e-08
pending hubiera 8.42045e-07
implementation condiciones 5.94492e-07
we sinceramente 2.12525e-09
for año 9.87711e-09
sound presentar 1.41186e-06
as decidir 1.13619e-08
where mayor 1.85656e-07
out aprobar 1.16375e-07
our responsabilidad 4.40486e-08
else nada 3.06498e-06
hear nuestros 1.03917e-06
hear llega 1.65679e-06
steps están 3.55294e-06
us ayuden 3.50898e-08
mean queremos 6.69427e-07
promotion profesional 6.03631e-06
quickly interno 9.51718e-07
yet momento 5.36523e-07
mrs comisaria 8.31476e-08
move gobiernos 4.64556e-07
implementing prever 6.99457e-07
declared conformidad 9.46732e-07
of físicas 1.16773e-10
should tendrá 3.63247e-08
can planes 5.80398e-08
will situaciones 2.06879e-08
order ; 5.74472e-07
order solicite 1.71435e-07
on general 7.24728e-09
job estrategia 4.06948e-05
where fase 6.22037e-08
important tomaron 2.04359e-07
allow ) 8.1599e-07
with ciudadanos 1.62728e-08
socio-political política 0.000171301
was negativa 2.37013e-08
at ocupamos 1.83643e-09
plan medidas 3.64291e-05
plan aumentar 1.01434e-06
plan NULL 3.15331e-05
with lucha 4.61033e-09
imperative muy 2.38076e-05
eur valor 8.77542e-07
be desigualdades 5.18796e-09
responsible legislador 3.44231e-06
mutilation violaciones 0.0194801
might quiera 2.5261e-07
tibet tibetanos 1.99352e-06
am desgraciadamente 1.46923e-07
effects plazo 1.41473e-06
all tipo 1.72316e-08
factor veces 1.60737e-06
geopolitical equilibrios 9.54265e-05
your la 1.25942e-05
repairing daños 0.000123858
repairing recortando 0.000312818
not sesión 6.42505e-07
process legislación 1.76438e-07
last estos 1.47508e-07
than adoptado 1.57492e-07
support estoy 1.06809e-07
oil grandes 8.96495e-07
disaster graves 4.0196e-06
knowledge todos 2.68428e-06
needs necesidad 3.47644e-07
needs sentir 0.00756666
give comunicantes 1.68161e-08
plant prioridad 1.68408e-06
when discurran 2.94934e-08
indeed el 0.000122546
him ? 7.24586e-06
him : 3.013e-06
him preguntará 0.00176436
more procedimientos 1.73056e-08
therefore es 4.46157e-06
of forestales 2.58991e-08
words lamento 8.81712e-08
words barnier- 6.2785e-08
enormous resultado 6.54503e-07
implemented sigue 3.54321e-07
help favor 5.95724e-07
because NULL 3.54242e-06
problem plazo 1.18732e-06
flag rumania 0.0135155
begin discutir 3.94149e-06
towards aceptados 1.6485e-07
had nunca 7.32383e-08
social posible 1.09341e-07
therefore toda 3.93497e-08
entailed fue 0.00340811
entailed cuxhaven- 0.000261189
halted normal 9.22259e-05
suggest nuestras 1.64063e-06
law establecer 5.92525e-08
joint proyecto 4.57756e-07
21st piratas 6.04212e-05
shipping clasificación 3.89419e-05
whatsoever control 5.94345e-06
vessels armonización 2.05445e-06
tougher armonización 6.78676e-05
thoughts 26 1.22666e-05
thoughts los 0.000138502
thoughts lugar 0.00611166
thoughts en 0.000408574
something no 1.98551e-05
time conseguimos 5.79291e-07
future legislativas 9.15793e-07
issue futuro 1.42773e-07
includes países 1.25259e-05
includes como 4.95554e-05
environmental desastre 5.269e-08
being sea 1.43145e-07
being o 7.22345e-07
already miré 0.000115811
entire costes 2.3237e-07
for derecho 1.03284e-08
disaster limpieza 7.713e-07
maritime reforzar 2.46645e-06
reliable instaurar 0.000481327
have comunicación 7.57845e-09
that aprovechar 2.43909e-09
regulations fondo 1.35612e-06
level prescripciones 5.06225e-08
fund fipol 3.77542e-06
action colectivo 5.47601e-07
saying : 1.90856e-06
operators buques 9.75446e-07
certain duda 6.73915e-07
waters ellas 2.36659e-06
tragedies repiten 0.000120508
think igualmente 2.60333e-07
along frente 6.4275e-07
necessary seguridad 3.88954e-07
been quede 2.30133e-06
instead donde 3.61675e-07
people pobres 1.46597e-07
planned plantilla 1.16297e-05
planned reducción 0.00462854
planned plan 0.00359648
undergoing vías 7.23267e-05
find proyectos 3.09847e-07
find costa 1.45629e-06
therefore limitamos 3.26973e-08
- tradicional 5.59742e-08
for valoración 1.21451e-08
hard habrá 2.85626e-07
strict unos 2.69737e-06
what través 1.56815e-08
itself su 1.89422e-06
precisely trata 3.56511e-06
later futuro 1.52003e-06
later el 6.60126e-05
integrated incluidas 2.1305e-06
proposal destinada 1.50538e-07
shall terminar 2.53906e-06
shall quisiera 1.6962e-06
conditions fundamentales 8.64539e-08
appropriate recibido 1.14245e-06
financed pretensiones 5.85982e-06
democratic república 7.08624e-07
advocated propone 2.22929e-05
olaf su 2.30249e-05
wanted voluntad 1.02346e-06
bears prueba 1.00923e-05
overcome aclarar 6.17703e-06
already institución 5.13073e-08
part fundamental 4.77203e-08
traditional sistemas 1.06834e-06
same medida 3.53211e-08
supervise judicial 2.76984e-06
indeed tiene 3.33334e-07
regulations personal 9.67172e-07
after NULL 2.15701e-05
that aplicar 1.86874e-09
than imprescindible 1.16021e-07
lost millones 1.56215e-06
finances judiciales 6.94877e-06
group quiere 3.25147e-06
under se 2.81392e-06
fraud cometan 2.74623e-06
place realmente 5.65509e-07
place intervenir 1.57154e-07
take posibilidades 6.97792e-08
place demasiado 1.68047e-06
prosecutor europeo 0.000173794
done resultaba 8.66763e-07
whether interesaba 7.68888e-08
. porque 9.48115e-09
however -como 1.68554e-08
act propuesta 1.059e-06
efficiency jurídica 4.07009e-07
sustains instancia 0.000387174
initiate proponer 1.19227e-05
organisation incorporación 5.2957e-07
mrs expuesta 1.1504e-07
commission información 0.00067417
are análisis 1.14836e-08
under puerto 1.53072e-07
property asunto 5.3535e-06
the apelación 9.78665e-09
quarters confianza 6.52501e-06
therefore oportuno 6.41754e-08
a fuertes 7.81624e-09
moreover valoro 6.43204e-07
harmonised aspiración 5.90115e-06
dimension limitarnos 4.67724e-06
not limitarnos 3.81849e-08
naturally NULL 9.53248e-05
from esfuerzos 9.10205e-09
reveals prueba 3.30383e-05
application universal 2.27306e-07
will plasmando 2.03816e-09
as plasmando 2.94302e-10
along así 0.066863
commission ventanilla 5.49082e-09
that complementarias 1.39241e-08
agree NULL 1.98745e-05
await pues 4.24674e-06
case ello 3.15494e-07
aim instaurar 1.05644e-07
( requisitos 6.97732e-08
focusing centrarnos 5.18036e-06
make orientada 2.40242e-07
s ofrecer 2.76104e-08
s permiten 6.35234e-08
competition máxima 1.1867e-06
competition desde 4.9513e-07
socio-economic balance 5.91523e-05
unlike contraria 1.45463e-05
give un 2.57304e-06
that conveniencia 1.82686e-09
analysis económico 2.86235e-07
ago tiempo 3.42656e-07
you actualidad 1.76289e-08
your los 4.93375e-06
place trabas 1.13092e-06
capitalisation trabas 0.00227877
warned alertaba 0.000177861
ways estados 3.81094e-06
ways diferentes 4.77465e-06
bring deberíamos 6.36761e-06
back declarada 9.01181e-08
concerning ellas 6.90015e-07
sector locales 2.8229e-06
at embargo 2.19242e-08
competition subvenciones 6.88703e-07
competition basada 5.8858e-07
should desearíamos 1.95148e-08
proceed misma 5.90648e-06
thing obstante 0.0132563
it comisión 2.08827e-07
which sabemos 1.93776e-09
report discutido 5.84211e-08
sense evidente 1.51029e-07
authorities justamente 2.68915e-06
me telegráficamente 1.04621e-07
then revisar 0.000195165
then tenemos 1.25914e-06
base económica 6.43405e-07
taxation favorezca 5.36028e-06
between disminuir 5.3834e-06
others llamamiento 6.56755e-07
long gran 2.97278e-07
our renta 2.31001e-07
areas periféricas 2.54959e-07
too extremas 2.47751e-07
interregional suficientemente 1.81595e-05
context europea 1.99715e-06
work concienzudo 5.82988e-07
for introducción 1.3995e-08
call introducción 7.63793e-07
use concertación 3.18938e-07
use posible 2.02994e-06
operators escala 7.62044e-07
what control 8.24878e-08
what tarea 1.23459e-07
plenary mayo 1.95433e-06
given desde 0.00579447
